tree
version=v4
num_class=1
num_tree_per_iteration=1
label_index=0
max_feature_idx=191
objective=binary sigmoid:1
feature_names=log_market_cap avg_daily_turnover_log days_in_current_stage pmi_50w_trend brent_30d_trend is_ramadan_period is_earnings_window n_signals_fired_in_last_30d n_signals_fired_in_last_7d earliest_signal_lead_days signal_acceleration t0_ema_8 t0_ema_21 t0_ema_50 t0_ema_100 t0_ema_200 t0_ema_ribbon_aligned t0_macd_line t0_macd_signal t0_macd_histogram t0_adx t0_plus_di t0_minus_di t0_supertrend t0_psar t0_hull_ma t0_linreg_slope t0_ichimoku_cloud_pos t0_ichimoku_tk_cross t0_rsi t0_rsi_divergence t0_stoch_k t0_stoch_d t0_stoch_rsi t0_williams_r t0_cci t0_roc t0_tsi t0_ao t0_connors_rsi t0_atr t0_atr_percentile_252 t0_bb_upper t0_bb_middle t0_bb_lower t0_bb_pct_b t0_bb_bandwidth t0_bb_squeeze t0_kc_upper t0_kc_lower t0_dc_upper t0_dc_lower t0_hist_vol_30d t0_obv t0_obv_slope_20 t0_obv_slope_60 t0_ad_line t0_cmf t0_mfi t0_vwap t0_vwap_distance_sigma t0_rel_volume t0_force_index t0_eom t0_klinger t0_swing_high t0_swing_low t0_zscore_20 t0_zscore_50 t0_zscore_200 t0_accumulation_score t0_wyckoff_phase_code t0_close t0_volume t0_high t0_low rsi_velocity macd_histogram_velocity obv_velocity accumulation_score_velocity cmf_velocity adx_velocity rel_volume_velocity obv_trajectory_slope accumulation_trajectory_slope bb_bandwidth_trajectory days_since_last_swing_high days_since_last_swing_low t1_rsi t1_macd_histogram t1_obv t1_accumulation_score t1_cmf t1_adx t1_rel_volume t1_bb_bandwidth t3_rsi t3_macd_histogram t3_obv t3_accumulation_score t3_cmf t3_adx t3_rel_volume t3_bb_bandwidth t7_rsi t7_macd_histogram t7_obv t7_accumulation_score t7_cmf t7_adx t7_rel_volume t7_bb_bandwidth t14_rsi t14_macd_histogram t14_obv t14_accumulation_score t14_cmf t14_adx t14_rel_volume t14_bb_bandwidth t30_rsi t30_macd_histogram t30_obv t30_accumulation_score t30_cmf t30_adx t30_rel_volume t30_bb_bandwidth t60_rsi t60_macd_histogram t60_obv t60_accumulation_score t60_cmf t60_adx t60_rel_volume t60_bb_bandwidth t90_rsi t90_macd_histogram t90_obv t90_accumulation_score t90_cmf t90_adx t90_rel_volume t90_bb_bandwidth current_stage_dormant stage_before_dormant current_stage_stealth_accumulation stage_before_stealth_accumulation current_stage_early_breakout stage_before_early_breakout current_stage_markup_trending stage_before_markup_trending current_stage_acceleration_climax stage_before_acceleration_climax current_stage_distribution_topping stage_before_distribution_topping current_stage_markdown_decline stage_before_markdown_decline current_stage_capitulation_exhaustion stage_before_capitulation_exhaustion regime_risk_on regime_neutral regime_risk_off sector_banking sector_consumer sector_energy sector_holding_misc sector_industrial sector_insurance sector_investment sector_real_estate sector_technology sector_telecom sector_transport tier_premier dow_0.0 dow_1.0 dow_2.0 dow_3.0 dow_6.0 month_1.0 month_2.0 month_3.0 month_4.0 month_5.0 month_6.0 month_7.0 month_8.0 month_9.0 month_10.0 month_11.0 month_12.0
feature_infos=none [15.263217998613559:17.681218929617611] [1:58] none none none none [9:16] [4:12] [40:90] [-1:0.97222222222222221] [242.78833913635228:315.77607179876321] [241.51506344397205:314.49605204397528] [245.03680769448715:314.11947777215215] [252.29730256032138:310.30504475828371] [256.44761981725628:301.40982029017454] [0:1] [-1.5208374260416235:8.4705048661259639] [-3.2961706562996569:5.9242602449374342] [-0.76074799960642059:3.3017724198152183] [8.506471252883097:46.84962125975229] [19.275897712993899:55.587659650532991] [9.0162731902386:34.469203253827324] [-1:1] [238:303.32758255616] [241.43137254901958:316.64828431372553] [-0.34436090225564792:2.1203007518796935] [0:1] [-1:1] [56.818489605255657:72.53174982516903] none [53.571428571428569:100] [30.281385281385287:100] none [-46.428571428571431:0] [63.260340632603189:347.38186462324649] [1.2578616352201255:14.396887159533067] [-8.1983558823131304:35.139808730744939] [-4.3970588235293917:18.232352941176487] [74.416743976877072:93.355156433146917] [3.1041510655110152:13.012380020936737] [2.7777777777777777:98.80952380952381] [247.38561160529514:325.51349370507057] [240.90000000000001:314.80000000000001] [234.41438839470487:305.73828008372084] [0.83602483924512505:1.4328341516874856] [0.02807235769570984:0.19996460316228648] [0:1] [251.42657846172224:334.13034785823447] [231.56468211072152:303.08424133158491] [253:327] [238:306] [13.384441808722483:41.302695345186805] [-2989666:-860153] [-32436.424812030084:90074.877443609046] [-38705.968074465134:32000.918644067817] [-1609177.7445416611:9182844.4266053643] [-0.28545259214546953:0.8248386761267803] [19.727295276327482:99.143944209503474] [241.96930483435352:314.09220495221786] [1.4659017642497814:3.5361158314615064] [1.6617388549290555:15.184884852416477] [-24463.305645616321:2109630.6563960291] none [-945128.93051144434:801025.46704911813] [0:1] [0:1] [1.3440993569804973:3.7313366067499429] [0.79794419475481415:3.3339729990572415] [1.0192245919006782:4.2527160521841809] [15.866701214781246:83.714944957585828] [0:5] [253:327] [37275:637771] [253:327] [245:317] [0.37170593396731749:7.0351331386258735] [0.020132741416654332:0.6031382001015082] [-1798.6666666666667:238516] [-0.23940846689725248:6.4001134346888504] [-0.046927854936843372:0.21781777828827012] [-0.61266130959146936:1.5625928720441031] [-0.53053912952210369:4.3752770644927086] [-18449.088604353361:50792.406658130625] [-1.3606390102028387:1.3476264505448503] [-0.0051250215354765975:0.0060105922724916867] [0:16] [0:14] [46.284577179009119:67.855214483266479] [-1.6301250886989367:2.1532081860566259] [-3375183:-1304518] [4.530805727633588:81.396155109963757] [-0.43872926392100925:0.7895568932545205] [8.8211610165334413:45.15422874335902] [0.0047059635538809295:2.6558461169145944] [0.02421072232377636:0.18427221618704862] [44.74589827308435:67.070813567369498] [-0.97118905113121023:2.2206272690817439] [-3355103:-1339977] [15.066654636458196:81.095031667051188] [-0.57447266638425232:0.83284271972060786] [8.7460728527893554:43.537365480595128] [0.015391518327554022:6.0827234171340407] [0.024660022291944968:0.18299886987711442] [36.960877042324086:78.497065221514106] [-1.9664027008807654:3.3098706820485377] [-3391356:-1349385] [6.0994580352424563:79.19962032450691] [-0.59504820552345616:0.86887182974410437] [9.0461530686480902:41.702308559967051] [8.3226456691864859e-05:5.0130500606262656] [0.024660022291944968:0.18013275397847414] [40.695914412954814:67.135333430652622] [-0.83975991864027355:1.507209898208532] [-3565417:-1102813] [14.442846325108594:87.245713039136007] [-0.12234465871200874:0.87387590619648714] [8.8290607525377993:39.653173122010692] [5.2434507988659467e-06:1.2638819590233126] [0.02421072232377636:0.14202047563805154] [36.343875895434863:67.135333430652622] [-1.5810272414613316:0.56385868560790708] [-3820931:-1069503] [23.869897361308819:87.245713039136007] [-0.50790134307229629:0.51013096850399164] [9.0012906470016674:54.75411546084699] [5.2434507988659467e-06:2.4127877752086055] [0.030348895284485047:0.18980740371912921] [43.394675646636784:58.588464655750442] [-2.3618820017847373:1.104330651554104] [-3565417:-134301] [8.2067851373182545:74.508077544426499] [-0.41410611695246519:0.85658686256895245] [9.5698197883658995:39.100838968734152] [0.0022343572647892107:1.3579444600715829] [0.045105242273288174:0.13858820775009034] [39.383137579220509:76.717648712259873] [-2.2849069533239539:3.3892425565084032] [-3686851:-83755] [18.502465511172208:82.730607834770183] [-0.4530810041791396:0.46149081967950006] [12.362663900030133:55.796145448280427] [0.0040215595809132759:9.2463283203952926] [0.050613073495002672:0.2143493055577122] [0:1] [0:1] none none [0:1] none none [0:1] none none [0:1] [0:1] none none none none none none none none none none none none none none none none none none none [0:1] [0:1] none [0:1] [0:1] [0:1] none none none [0:1] none [0:1] [0:1] none [0:1] none none
tree_sizes=566 887 783 881 873 880 882 888 887 873 884 883 887 884 885 877 876 877 882 880 882 883 883 882 877 991 883 885 887 985 881 982 991 995 991 988 990 986 995 1090 1090 1097 1087 983 988 995 993 994 1002 995

Tree=0
num_leaves=4
num_cat=0
split_feature=124 20 26
split_gain=147.786 3.13711 1.42109e-14
threshold=0.1560985685799853 16.58587683922708 -1.0000000180025095e-35
decision_type=2 2 2
left_child=-1 -2 -3
right_child=1 2 -4
leaf_value=0.17325733256855519 0.033049928231576133 -0.027038959341414925 -0.027038959341414995
leaf_weight=20.71930518746376 2.4963018298149136 8.7370564043521917 7.9881658554077122
leaf_count=83 10 35 32
internal_value=0.0806203 -0.0192352 -0.027039
internal_weight=39.9408 19.2215 16.7252
internal_count=160 77 67
is_linear=0
shrinkage=1


Tree=1
num_leaves=7
num_cat=0
split_feature=35 19 21 56 60 1
split_gain=134.283 1.13134 0.180988 0.000809614 3.94452e-05 7.10543e-15
threshold=228.41953105310276 0.58552551319556267 30.703740844714403 -1.0000000180025095e-35 1.8370554656701332 17.224306532605304
decision_type=2 2 2 2 2 2
left_child=1 -1 -2 -4 -3 -6
right_child=2 4 3 -5 5 -7
leaf_value=-0.062555245007244784 0.080750237253800233 -0.098843443624362037 0.092753749014780396 0.092046060944978303 -0.098666167883320499 -0.098666167883320458
leaf_weight=2.4957654774189022 4.2200857102870968 4.2492007464170483 6.7049923092126873 10.173461705446242 4.4991776347160322 7.4986293911933899
leaf_count=10 17 17 27 41 18 30
internal_value=0.00349403 -0.0938979 0.0900116 0.0923272 -0.0987125 -0.0986662
internal_weight=39.8413 18.7428 21.0985 16.8785 16.247 11.9978
internal_count=160 75 85 68 65 48
is_linear=0
shrinkage=0.05


Tree=2
num_leaves=6
num_cat=0
split_feature=124 128 18 60 54
split_gain=122.336 2.52009 0.0017333 0.000738892 1.09498e-06
threshold=0.1560985685799853 47.156204313215824 1.4020228360233971 2.4764250198684232 -1.0000000180025095e-35
decision_type=2 2 2 2 2
left_child=2 -2 4 -3 -1
right_child=1 3 -4 -5 -6
leaf_value=0.088321527358386692 -0.040440864951139306 -0.094820758952762152 0.089456018782354457 -0.094093738699510932 0.088348659497707802
leaf_weight=5.8950966596603385 2.4957288801670101 4.9827428609132793 4.4346389770507804 11.703704461455343 10.071730986237528
leaf_count=24 10 20 18 47 41
internal_value=0.00334863 -0.087302 0.0885815 -0.0943108 0.0883386
internal_weight=39.5836 19.1822 20.4015 16.6864 15.9668
internal_count=160 77 83 67 65
is_linear=0
shrinkage=0.05


Tree=3
num_leaves=7
num_cat=0
split_feature=35 142 21 2 34 7
split_gain=111.931 0.8806 0.166205 0.00231839 0.00010794 1.34082e-06
threshold=228.41953105310276 0.47430603661172971 30.703740844714403 32.500000000000007 -1.0000000180025095e-35 12.000000000000002
decision_type=2 2 2 2 2 2
left_child=1 4 -2 -4 5 -1
right_child=2 -3 3 -5 -6 -7
leaf_value=-0.09013401319952459 0.07437662996660406 -0.058242374320885276 0.086316868133063274 0.08510596198330235 -0.090401949643741042 -0.090097733520391077
leaf_weight=7.1631355136632955 4.1342084705829647 2.4884794354438773 6.5641798675060281 9.9360731244087219 4.9432469010353097 3.9516828060150146
leaf_count=29 17 10 27 41 20 16
internal_value=0.00322128 -0.0859186 0.0833415 0.0855877 -0.0902076 -0.0901211
internal_weight=39.181 18.5465 20.6345 16.5003 16.0581 11.1148
internal_count=160 75 85 68 65 45
is_linear=0
shrinkage=0.05


Tree=4
num_leaves=7
num_cat=0
split_feature=124 20 17 59 2 8
split_gain=102.85 2.09585 0.00491848 0.00155225 5.35615e-06 1.0085e-07
threshold=0.1560985685799853 16.58587683922708 1.4359577091476583 260.71230341065353 32.500000000000007 8.5000000000000018
decision_type=2 2 2 2 2 2
left_child=2 -2 4 5 -1 -3
right_child=1 3 -4 -5 -6 -7
leaf_value=0.082180910731241008 -0.03771441786015451 -0.086674803894001451 0.084125912553054349 -0.087720438228160738 0.082241837664959405 -0.086664986569601976
leaf_weight=5.7179149389266977 2.4844582825899151 7.0786443054676074 4.3278580009937277 5.1376541405916205 9.77210333943367 4.1493788659572601
leaf_count=24 10 29 18 21 41 17
internal_value=0.00310699 -0.0805046 0.0826357 -0.0870006 0.0822193 -0.0866712
internal_weight=38.668 18.8501 19.8179 16.3657 15.49 11.228
internal_count=160 77 83 67 65 46
is_linear=0
shrinkage=0.05


Tree=5
num_leaves=7
num_cat=0
split_feature=35 130 21 2 21 1
split_gain=97.3783 0.737721 0.138824 0.00409876 0.000154889 4.19487e-06
threshold=228.41953105310276 -2251337.4999999995 30.703740844714403 32.500000000000007 34.741013362706191 17.224306532605304
decision_type=2 2 2 2 2 2
left_child=1 -1 -2 -4 -3 -6
right_child=2 4 3 -5 5 -7
leaf_value=-0.054410271264130054 0.070357869335908207 -0.083935690608556615 0.081360617227924439 0.079696320265084095 -0.083565595532431036 -0.083629894672122507
leaf_weight=2.4673169851303127 4.4778411835432079 5.297047525644305 6.1209346652030918 9.3509578704833984 3.8452920913696271 7.4530509114265442
leaf_count=10 19 22 26 40 16 31
internal_value=0.000892039 -0.07992 0.0781109 0.0803547 -0.0837126 -0.083608
internal_weight=39.0124 19.0627 19.9497 15.4719 16.5954 11.2983
internal_count=164 79 85 66 69 47
is_linear=0
shrinkage=0.05


Tree=6
num_leaves=7
num_cat=0
split_feature=124 94 17 7 1 1
split_gain=90.0919 1.82861 0.00749349 0.00263288 1.22206e-05 3.49308e-07
threshold=0.1560985685799853 1.0175019778213319 1.4359577091476583 12.000000000000002 16.570552084014707 17.224306532605304
decision_type=2 2 2 2 2 2
left_child=2 3 4 5 -1 -2
right_child=1 -3 -4 -5 -6 -7
leaf_value=0.077421489498437635 -0.080914381081089851 -0.035189976364470535 0.079695655252228867 -0.082315419386454231 0.077325821806881218 -0.080931823726701685
leaf_weight=9.1495126485824603 4.7218167781829887 2.4637652784585944 4.6470588445663443 4.7466918826103202 5.2555958181619635 7.3197888433933258
leaf_count=40 20 10 20 20 23 31
internal_value=0.000867268 -0.0754149 0.0779498 -0.0813181 0.0773866 -0.080925
internal_weight=38.3042 19.2521 19.0522 16.7883 14.4051 12.0416
internal_count=164 81 83 71 63 51
is_linear=0
shrinkage=0.05


Tree=7
num_leaves=7
num_cat=0
split_feature=35 19 132 21 10 1
split_gain=83.1226 0.633014 0.137451 0.00566464 0.000171292 8.27354e-06
threshold=228.41953105310276 0.58552551319556267 1.0000000180025095e-35 41.950353005265619 0.91709401709401728 17.224306532605304
decision_type=2 2 2 2 2 2
left_child=1 -1 -2 -4 5 -3
right_child=2 4 3 -5 -6 -7
leaf_value=-0.05125485664317711 0.066019983177307645 -0.078434994738210778 0.075378574035076681 0.077377544669780529 -0.078846946023129721 -0.078527072899579498
leaf_weight=2.4380621612072018 4.303407922387124 3.6976296901702863 8.9330834150314313 5.8747582882642755 5.1016682982444754 7.1705109924077988
leaf_count=10 19 16 40 26 22 31
internal_value=0.000845758 -0.0749851 0.0738857 0.0761716 -0.0786079 -0.0784957
internal_weight=37.5191 18.4079 19.1112 14.8078 15.9698 10.8681
internal_count=164 79 85 66 69 47
is_linear=0
shrinkage=0.05


Tree=8
num_leaves=7
num_cat=0
split_feature=124 176 20 60 18 1
split_gain=77.3725 1.85137 0.0100464 0.0040872 2.03824e-05 5.73366e-07
threshold=0.1560985685799853 1.0000000180025095e-35 18.177287614255359 2.4764250198684232 -0.22182439722282085 17.224306532605304
decision_type=2 2 2 2 2 2
left_child=2 3 -1 -2 -4 -5
right_child=1 -3 4 5 -6 -7
leaf_value=0.076221516640128564 -0.078100707381044465 -0.028042088580623955 0.073409190965278898 -0.07634978740927835 0.073535895535689177 -0.076372626919927022
leaf_weight=4.4614322781562832 4.7950120866298738 2.2029608488082877 4.9955505579710016 4.5202395319938642 8.7048631906509364 7.008250430226326
leaf_count=20 21 9 23 20 40 31
internal_value=0.000825034 -0.0710674 0.0741608 -0.0768739 0.0734897 -0.0763637
internal_weight=36.6883 18.5265 18.1618 16.3235 13.7004 11.5285
internal_count=164 81 83 72 63 51
is_linear=0
shrinkage=0.05


Tree=9
num_leaves=7
num_cat=0
split_feature=35 2 21 2 19 1
split_gain=71.5366 0.632543 0.138359 0.00691082 0.000188702 1.30943e-05
threshold=228.41953105310276 5.5000000000000009 30.703740844714403 32.500000000000007 1.4825912959294385 17.224306532605304
decision_type=2 2 2 2 2 2
left_child=1 4 -2 -4 -1 -6
right_child=2 -3 3 -5 5 -7
leaf_value=-0.074764853917490867 0.062338540704748757 -0.04572941104352278 0.074131353392053123 0.071867267975744331 -0.074314795828780575 -0.074433468222334515
leaf_weight=5.0920742750167873 4.108367562294009 2.1772997230291358 5.599039047956464 8.467637300491333 3.5221676826477033 6.8356577455997467
leaf_count=23 19 9 26 40 16 31
internal_value=0.000807051 -0.07096 0.0704108 0.0727685 -0.0745156 -0.0743931
internal_weight=35.8022 17.6272 18.175 14.0667 15.4499 10.3578
internal_count=164 79 85 66 70 47
is_linear=0
shrinkage=0.05


Tree=10
num_leaves=7
num_cat=0
split_feature=124 116 20 59 1 1
split_gain=65.8626 0.678692 0.0134205 0.00465683 2.77143e-05 7.0857e-07
threshold=0.1560985685799853 0.41782200813368459 18.177287614255359 260.71230341065353 16.570552084014707 17.224306532605304
decision_type=2 2 2 2 2 2
left_child=2 3 -1 5 -4 -2
right_child=1 -3 4 -5 -6 -7
leaf_value=0.073740145699488169 -0.072654204496403127 -0.043107828614478344 0.070350867351235677 -0.07461511266550433 0.070198093051274293 -0.072680841541174879
leaf_weight=3.6316578984260586 4.0770958662033099 2.1373923718929282 8.0182323753833753 4.3529441207647315 4.7136523574590674 6.4403651654720306
leaf_count=17 19 9 39 20 23 30
internal_value=-0.000553322 -0.069453 0.0710591 -0.0732397 0.0702943 -0.0726705
internal_weight=33.3713 17.0078 16.3635 14.8704 12.7319 10.5175
internal_count=157 78 79 69 62 49
is_linear=0
shrinkage=0.05


Tree=11
num_leaves=7
num_cat=0
split_feature=124 19 17 59 1 1
split_gain=61.2013 0.683646 0.011098 0.00388584 2.24149e-05 5.68718e-07
threshold=0.1560985685799853 0.58552551319556267 1.4359577091476583 260.71230341065353 16.570552084014707 17.224306532605304
decision_type=2 2 2 2 2 2
left_child=2 -2 4 5 -1 -3
right_child=1 3 -4 -5 -6 -7
leaf_value=0.06896836384548384 -0.041227229803340704 -0.071066648614295999 0.072095387547171305 -0.072882404325941563 0.068828841704423493 -0.071090854608516996
leaf_weight=7.7761510759592039 2.1235018372535732 3.9626655727624875 3.5313270241022101 4.2365586310625067 4.5706773996353149 6.2597644329071045
leaf_count=39 9 19 17 20 23 30
internal_value=-0.000537476 -0.0677185 0.0696237 -0.0716092 0.0689167 -0.0710815
internal_weight=32.4606 16.5825 15.8782 14.459 12.3468 10.2224
internal_count=157 78 79 69 62 49
is_linear=0
shrinkage=0.05


Tree=12
num_leaves=7
num_cat=0
split_feature=124 80 20 118 2 8
split_gain=56.9514 0.695844 0.00921428 0.00343388 1.82067e-05 4.58811e-07
threshold=0.1560985685799853 1.0000000180025095e-35 18.177287614255359 0.72987180131569496 32.500000000000007 8.5000000000000018
decision_type=2 2 2 2 2 2
left_child=2 -2 -1 -3 -4 -5
right_child=1 3 4 5 -6 -7
leaf_value=0.070597219682720383 -0.039315816351483249 -0.071352302252280952 0.067576469509680548 -0.0696435417504008 0.067704245988106523 -0.069621471927151179
leaf_weight=3.4285588562488583 2.1056558340787914 4.1196577697992316 4.426276355981825 6.0750433802604658 7.5314778685569763 3.8456418812274933
leaf_count=17 9 20 23 30 39 19
internal_value=-0.000522878 -0.0661191 0.0683121 -0.0701389 0.0676569 -0.069635
internal_weight=31.5323 16.146 15.3863 14.0403 11.9578 9.92069
internal_count=157 78 79 69 62 49
is_linear=0
shrinkage=0.05


Tree=13
num_leaves=7
num_cat=0
split_feature=124 19 18 53 10 2
split_gain=53.0653 0.707162 0.00767765 0.00305638 2.8149e-05 1.48452e-05
threshold=0.1560985685799853 0.58552551319556267 1.4020228360233971 -2342452.9999999995 0.8521303258145364 32.500000000000007
decision_type=2 2 2 2 2 2
left_child=2 -2 5 4 -3 -1
right_child=1 3 -4 -5 -6 -7
leaf_value=0.066427956405991903 -0.037541785955784959 -0.06832204585749499 0.069228286014315979 -0.069841451543645988 -0.068136384730057536 0.066545270129496376
leaf_weight=4.2813392877578753 2.0877998173236838 5.8876709640026075 3.3241847157478324 4.6013344675302497 3.1252343654632568 7.2857463955879211
leaf_count=23 9 30 17 23 16 39
internal_value=-0.00050937 -0.0646377 0.0671105 -0.068793 -0.0682577 0.0665018
internal_weight=30.5933 15.702 14.8913 13.6142 9.01291 11.5671
internal_count=157 78 79 69 46 62
is_linear=0
shrinkage=0.05


Tree=14
num_leaves=7
num_cat=0
split_feature=124 95 21 59 1 1
split_gain=49.5025 0.957687 0.00641768 0.0034799 1.21462e-05 1.77213e-06
threshold=0.1560985685799853 0.046594974723707709 30.703740844714403 260.71230341065353 16.570552084014707 17.224306532605304
decision_type=2 2 2 2 2 2
left_child=2 -2 -1 5 -4 -3
right_child=1 3 4 -5 -6 -7
leaf_value=0.067973872164892632 -0.02740905244805791 -0.067067256922564239 0.065480091061252896 -0.068816017946607244 0.065372138562764054 -0.06711205025437976
leaf_weight=3.2189232110977199 1.6600721329450596 3.6046758443117124 7.0402746945619565 4.2901138663291922 4.1366308182477951 5.6989172101020813
leaf_count=17 7 19 39 22 23 30
internal_value=-0.000496816 -0.0632598 0.0660067 -0.0676379 0.0654401 -0.0670947
internal_weight=29.6496 15.2538 14.3958 13.5937 11.1769 9.30359
internal_count=157 78 79 71 62 49
is_linear=0
shrinkage=0.05


Tree=15
num_leaves=7
num_cat=0
split_feature=124 1 17 44 1 1
split_gain=46.9046 1.73488 0.00504219 0.00278596 2.6834e-05 1.08687e-05
threshold=0.1560985685799853 16.248620118240346 1.4359577091476583 247.76599086074333 17.224306532605304 16.570552084014707
decision_type=2 2 2 2 2 2
left_child=2 -2 5 4 -3 -1
right_child=1 3 -4 -5 -6 -7
leaf_value=0.06449892970844269 -0.017698487793412949 -0.065815143994426603 0.066625976510457305 -0.067496785522475858 -0.066001320202382349 0.064399374117712502
leaf_weight=8.0160191953182238 2.1323279589414588 3.1034188717603666 3.4672257900238028 4.336108297109603 5.142550528049469 4.1664054393768302
leaf_count=46 9 17 19 23 28 24
internal_value=0.00468536 -0.059403 0.0649437 -0.0664708 -0.0659313 0.0644649
internal_weight=30.3641 14.7144 15.6497 12.5821 8.24597 12.1824
internal_count=166 77 89 68 45 70
is_linear=0
shrinkage=0.05


Tree=16
num_leaves=7
num_cat=0
split_feature=35 83 21 19 2 11
split_gain=45.4736 0.403531 0.159632 0.0653385 0.0284341 8.49825e-05
threshold=228.41953105310276 -9209.7896286811392 30.703740844714403 0.77328218401793203 32.500000000000007 274.03794357772836
decision_type=2 2 2 2 2 2
left_child=1 -1 -2 -3 -4 -5
right_child=2 3 4 5 -6 -7
leaf_value=-0.047447818325893669 0.05285059079363829 -0.075609388069466543 0.068503458879545454 -0.064807777634920932 0.06359328372335675 -0.06514037575162851
leaf_weight=3.6364606022834769 3.1371279805898658 1.765131384134295 4.7660561800003034 2.9967783540487272 7.7308938801288605 5.3479553908109665
leaf_count=20 18 8 27 17 46 30
internal_value=0.00460642 -0.0617318 0.0629345 -0.0668696 0.0654659 -0.0650209
internal_weight=29.3804 13.7463 15.6341 10.1099 12.497 8.34473
internal_count=166 75 91 55 73 47
is_linear=0
shrinkage=0.05


Tree=17
num_leaves=7
num_cat=0
split_feature=35 46 21 2 51 1
split_gain=42.4703 0.462253 0.162528 0.024768 0.000441974 1.75736e-05
threshold=228.41953105310276 0.048030167368377917 30.703740844714403 32.500000000000007 246.00000000000003 17.224306532605304
decision_type=2 2 2 2 2 2
left_child=1 -1 -2 -4 5 -3
right_child=2 4 3 -5 -6 -7
leaf_value=-0.036975977011501779 0.051623118503639626 -0.063878555997611428 0.067420451277006063 0.062755752378339191 -0.06463249413484011 -0.064034649609608293
leaf_weight=1.8038855791091943 3.0532797724008551 2.8910330682992917 4.604580491781233 7.4494960606098175 3.8461732268333435 4.7918098568916321
leaf_count=8 18 17 27 46 22 28
internal_value=0.00452726 -0.0605123 0.0619275 0.0645376 -0.064195 -0.0639759
internal_weight=28.4403 13.3329 15.1074 12.0541 11.529 7.68284
internal_count=166 75 91 73 67 45
is_linear=0
shrinkage=0.05


Tree=18
num_leaves=7
num_cat=0
split_feature=35 46 21 2 44 1
split_gain=39.7173 0.482556 0.165991 0.0215963 0.000365304 1.44916e-05
threshold=228.41953105310276 0.048030167368377917 30.703740844714403 32.500000000000007 247.76599086074333 17.224306532605304
decision_type=2 2 2 2 2 2
left_child=1 -1 -2 -4 5 -3
right_child=2 4 3 -5 -6 -7
leaf_value=-0.035356333884115965 0.050433385251341105 -0.063019740261912635 0.066415483520925717 0.061979856776501287 -0.063717650970259249 -0.063164115864769929
leaf_weight=1.7924881577491785 2.9711430370807639 2.7865571677684766 4.4445991963148099 7.1726290881633759 3.7097824066877365 4.6193292737007141
leaf_count=8 18 17 27 46 22 28
internal_value=0.00445348 -0.0594305 0.0609796 0.0636769 -0.0633127 -0.0631098
internal_weight=27.4965 12.9082 14.5884 11.6172 11.1157 7.40589
internal_count=166 75 91 73 67 45
is_linear=0
shrinkage=0.05


Tree=19
num_leaves=7
num_cat=0
split_feature=35 46 21 11 45 1
split_gain=37.1675 0.50242 0.169964 0.0188451 0.000302736 1.19823e-05
threshold=228.41953105310276 0.048030167368377917 30.703740844714403 267.53623007811512 1.0612806615538439 17.224306532605304
decision_type=2 2 2 2 2 2
left_child=1 -1 -2 -4 -3 -6
right_child=2 4 3 -5 5 -7
leaf_value=-0.033814724322998091 0.049277115585528136 -0.062871738887684284 0.065480978955446731 0.061259889516328006 -0.062224559502396859 -0.062358330824116272
leaf_weight=1.7807994782924677 2.8908711075782767 3.5751234143972379 4.2866335809230787 6.9009612798690796 2.6836655288934708 4.4493746161460876
leaf_count=8 18 22 27 46 17 28
internal_value=0.00438364 -0.0584065 0.0600846 0.0628772 -0.0624962 -0.062308
internal_weight=26.5674 12.489 14.0785 11.1876 10.7082 7.13304
internal_count=166 75 91 73 67 45
is_linear=0
shrinkage=0.05


Tree=20
num_leaves=7
num_cat=0
split_feature=35 84 2 1 10 1
split_gain=37.4327 0.538516 0.0732563 0.0376405 0.000200618 6.33336e-05
threshold=228.41953105310276 -0.31014291990735998 21.500000000000004 15.509176692385012 0.66206896551724148 16.570552084014707
decision_type=2 2 2 2 2 2
left_child=1 -1 4 -2 -3 -5
right_child=3 2 -4 5 -6 -7
leaf_value=-0.039803709444718199 0.066760920892262668 -0.061611223599208134 -0.073183403462998134 0.060590814836364131 -0.062122795260502808 0.060329096880107208
leaf_weight=3.0655706524848929 3.1406656056642523 4.5882770419120806 1.7314581871032713 6.6350409984588605 3.2910788059234619 3.547469899058342
leaf_count=19 19 30 8 46 21 25
internal_value=0.00345531 -0.0580509 -0.0638712 0.0619756 -0.0618249 0.0604996
internal_weight=25.9996 12.6764 9.61081 13.3232 7.87936 10.1825
internal_count=168 78 59 90 51 71
is_linear=0
shrinkage=0.05


Tree=21
num_leaves=7
num_cat=0
split_feature=35 83 130 14 59 2
split_gain=35.0918 0.548697 0.0596175 0.0323328 0.000223464 5.27919e-05
threshold=228.41953105310276 -9209.7896286811392 -2736416.4999999995 268.54595552911252 260.71230341065353 32.500000000000007
decision_type=2 2 2 2 2 2
left_child=1 -1 -3 -2 -4 -5
right_child=3 2 4 5 -6 -7
leaf_value=-0.03841661596050211 0.065794013720089736 -0.071547360377242394 -0.060917436434277938 0.059724375482775517 -0.061467293237645285 0.059968159964407623
leaf_weight=2.9937798976898184 3.030279025435445 1.6837083101272572 4.4129464030265835 3.4077562391757965 3.1787699013948441 6.3753124177455902
leaf_count=19 19 8 30 25 21 46
internal_value=0.00340972 -0.0570283 -0.0630355 0.0612811 -0.0611477 0.0598832
internal_weight=25.0826 12.2692 9.27542 12.8133 7.59172 9.78307
internal_count=168 78 59 90 51 71
is_linear=0
shrinkage=0.05


Tree=22
num_leaves=7
num_cat=0
split_feature=35 84 1 1 10 1
split_gain=32.9174 0.565815 0.0484626 0.0278013 0.000285016 4.40898e-05
threshold=228.41953105310276 -0.31014291990735998 16.248620118240346 15.509176692385012 0.66206896551724148 16.570552084014707
decision_type=2 2 2 2 2 2
left_child=1 -1 -3 -2 -4 -5
right_child=3 2 4 5 -6 -7
leaf_value=-0.036902838104101963 0.064893520034520646 -0.070059558986104303 -0.060272223695410125 0.059387966050039986 -0.060904052966211153 0.059160600871798356
leaf_weight=2.9113370031118384 2.9214709997177115 1.6347322463989273 4.2415183782577515 6.1221258044242841 3.0816939175128937 3.2716639339923859
leaf_count=19 19 8 30 46 21 25
internal_value=0.00336662 -0.0560521 -0.0622757 0.0606336 -0.0605381 0.0593088
internal_weight=24.1845 11.8693 8.95794 12.3153 7.32321 9.39379
internal_count=168 78 59 90 51 71
is_linear=0
shrinkage=0.05


Tree=23
num_leaves=7
num_cat=0
split_feature=35 83 57 14 35 53
split_gain=30.895 0.578392 0.0396356 0.023925 0.000303106 3.68859e-05
threshold=228.41953105310276 -9209.7896286811392 0.80468568345980396 268.54595552911252 205.32628615932893 -2342452.9999999995
decision_type=2 2 2 2 2 2
left_child=1 -1 4 -2 -3 -5
right_child=3 2 -4 5 -6 -7
leaf_value=-0.035556821304023663 0.064053472201088743 -0.060335224458189708 -0.06870229610492444 0.058846663372245769 -0.059671384822134604 0.058634370543744832
leaf_weight=2.8431372791528693 2.8145075440406773 2.9751869440078753 1.5849386453628538 5.8757532835006705 4.0742500126361847 3.1393241137266168
leaf_count=19 19 21 8 46 30 25
internal_value=0.00332573 -0.055117 -0.0615579 0.0600291 -0.0599516 0.0587727
internal_weight=23.3071 11.4775 8.63438 11.8296 7.04944 9.01508
internal_count=168 78 59 90 51 71
is_linear=0
shrinkage=0.05


Tree=24
num_leaves=7
num_cat=0
split_feature=124 15 1 18 10 1
split_gain=28.0906 1.00096 0.0322545 0.02458 0.000412783 3.09097e-05
threshold=0.1560985685799853 261.49341290949059 16.248620118240346 1.4020228360233971 0.66206896551724148 16.570552084014707
decision_type=2 2 2 2 2 2
left_child=3 -2 -3 5 -4 -1
right_child=1 2 4 -5 -6 -7
leaf_value=0.058341089140277136 -0.02648926232036386 -0.067460553141918317 -0.059111154338839761 0.063888927548607574 -0.059888667265239739 0.058142657186913721
leaf_weight=5.6363950073719042 2.8151607662439337 1.5346812009811381 3.9113438129425049 2.5139521956443778 3.0290266275405884 3.0108308419585228
leaf_count=46 19 8 30 18 22 25
internal_value=0.00328685 -0.0523206 -0.060901 0.0595372 -0.0594505 0.058272
internal_weight=22.4514 11.2902 8.47505 11.1612 6.94037 8.64723
internal_count=168 79 60 89 52 71
is_linear=0
shrinkage=0.05


Tree=25
num_leaves=8
num_cat=0
split_feature=124 119 57 20 1 1 54
split_gain=28.2212 1.88039 0.0185111 0.00689407 0.000265253 2.537e-05 3.59225e-06
threshold=0.1560985685799853 0.068779611332507165 0.30820887848248318 18.177287614255359 17.224306532605304 16.570552084014707 -2345.160902255574
decision_type=2 2 2 2 2 2 2
left_child=3 2 4 -1 6 -5 -2
right_child=1 -3 -4 5 -6 -7 -8
leaf_value=0.060958565242206643 -0.05908876142448477 0.0028585844247222981 -0.065067668294105138 0.057868384366578401 -0.058588192888994334 0.057682719750037151 -0.059172624488567763
leaf_weight=2.1784618049860027 2.9935940653085686 1.3529953807592381 1.3921552151441581 5.9916013330221158 4.1282474398612976 2.6553478240966797 2.2267476469278322
leaf_count=17 23 7 8 51 33 23 17
internal_value=-0.000198331 -0.0526912 -0.0596887 0.0584447 -0.0588877 0.0578114 -0.0591245
internal_weight=22.9192 12.0937 10.7407 10.8254 9.34859 8.64695 5.22034
internal_count=179 88 81 91 73 74 40
is_linear=0
shrinkage=0.05


Tree=26
num_leaves=7
num_cat=0
split_feature=35 132 46 2 10 9
split_gain=27.313 0.261168 0.177418 0.0138643 0.00038917 7.31889e-05
threshold=228.41953105310276 -1.0000000180025095e-35 0.048030167368377917 32.500000000000007 0.66206896551724148 87.500000000000014
decision_type=2 2 2 2 2 2
left_child=2 -2 -1 -3 -4 -6
right_child=1 3 4 -5 5 -7
leaf_value=-0.038889026359016587 0.039329877838205594 0.061520695184442066 -0.05809948789879027 0.057425978112223976 -0.058567281737100421 -0.058925826644664683
leaf_weight=1.3127915263175989 2.1046739369630822 3.2301141768693888 3.9591034725308401 5.742181196808815 2.8723059967160216 2.8213709741830835
leaf_count=7 17 26 33 51 23 22
internal_value=-0.00019526 0.0551817 -0.0561348 0.0589001 -0.0584802 -0.058745
internal_weight=22.0425 11.077 10.9656 8.9723 9.65278 5.69368
internal_count=179 94 85 77 78 45
is_linear=0
shrinkage=0.05


Tree=27
num_leaves=7
num_cat=0
split_feature=35 132 46 2 35 9
split_gain=25.678 0.26696 0.189912 0.0121255 0.000326648 6.14829e-05
threshold=228.41953105310276 -1.0000000180025095e-35 0.048030167368377917 32.500000000000007 205.32628615932893 87.500000000000014
decision_type=2 2 2 2 2 2
left_child=2 -2 -1 -3 5 -4
right_child=1 3 4 -5 -6 -7
leaf_value=-0.037538527872023657 0.038350241508687925 0.060920872732582981 -0.058079931727543735 0.057011544663038649 -0.057642320945676506 -0.058415476423287677
leaf_weight=1.2925431132316614 2.0518716126680383 3.102064505219456 2.754566177725791 5.5008303076028824 3.7951264455914497 2.7066227272152892
leaf_count=7 17 26 23 51 33 22
internal_value=-0.000193017 0.054556 -0.0554917 0.0584212 -0.0579986 -0.0582462
internal_weight=21.2036 10.6548 10.5489 8.60289 9.25632 5.46119
internal_count=179 94 85 77 78 45
is_linear=0
shrinkage=0.05


Tree=28
num_leaves=7
num_cat=0
split_feature=35 132 109 8 10 9
split_gain=24.1478 0.273039 0.202336 0.0106015 0.000274561 5.17232e-05
threshold=228.41953105310276 -1.0000000180025095e-35 15.455949851678222 8.5000000000000018 0.66206896551724148 87.500000000000014
decision_type=2 2 2 2 2 2
left_child=2 -2 -1 -3 -4 -6
right_child=1 3 4 -5 5 -7
leaf_value=-0.036230230763978424 0.037382083504018754 0.060355581519407911 -0.057214256645061058 0.05662298570272644 -0.057624014123236693 -0.057938333405936217
leaf_weight=1.2727681398391748 2.0010682493448266 2.9777111932635272 3.6363603696227056 5.2675482854247093 2.6404292732477179 2.5952838510274896
leaf_count=7 17 26 33 51 23 22
internal_value=-0.000190916 0.0539501 -0.0548735 0.057971 -0.057548 -0.0577798
internal_weight=20.3912 10.2463 10.1448 8.24526 8.87207 5.23571
internal_count=179 94 85 77 78 45
is_linear=0
shrinkage=0.05


Tree=29
num_leaves=8
num_cat=0
split_feature=124 125 93 17 19 1 9
split_gain=22.7327 2.30651 0.0903838 0.0107488 0.000152226 2.91866e-05 7.06072e-06
threshold=0.1560985685799853 16.558968381614374 19.338104761006758 1.4359577091476583 2.1607889257232817 16.570552084014707 87.500000000000014
decision_type=2 2 2 2 2 2 2
left_child=3 -2 -3 5 6 -1 -4
right_child=1 2 4 -5 -6 -7 -8
leaf_value=0.056258394459707428 0.016681756242888018 -0.07146150784663502 -0.057197104781226554 0.060378064150095501 -0.056813083263691479 0.056040544264465822 -0.057322746073347308
leaf_weight=5.0422963723540324 1.1286292523145665 1.2611522674560536 2.5299251005053502 1.944564029574394 3.4828187674283981 2.2119185850024223 2.0039437338709831
leaf_count=51 7 7 23 17 33 23 18
internal_value=-0.000188945 -0.050809 -0.0590191 0.0570769 -0.0570617 0.056192 -0.0572526
internal_weight=19.6052 10.4065 9.27784 9.19878 8.01669 7.25421 4.53387
internal_count=179 88 81 91 74 74 41
is_linear=0
shrinkage=0.05


Tree=30
num_leaves=7
num_cat=0
split_feature=124 76 17 1 35 1
split_gain=21.6111 0.505736 0.0298266 0.0134839 0.000317152 2.58691e-05
threshold=0.1560985685799853 6.4926702228527713 1.4359577091476583 16.248620118240346 205.32628615932893 16.570552084014707
decision_type=2 2 2 2 2 2
left_child=2 3 5 -2 -5 -1
right_child=1 -3 -4 4 -6 -7
leaf_value=0.055916025289215389 -0.062721544127269727 -0.029463401043161194 0.062792438076423415 -0.057147018250064734 -0.056436798907303347 0.055711340990925132
leaf_weight=4.3519646376371401 1.1318120360374431 2.0172697231173515 2.0027347281575203 3.1552435532212257 3.1323981583118439 2.392180934548378
leaf_count=46 7 17 17 29 31 26
internal_value=0.000816827 -0.051662 0.0574345 -0.0576975 -0.0567932 0.0558434
internal_weight=18.1836 9.43672 8.74688 7.41945 6.28764 6.74415
internal_count=173 84 89 67 60 72
is_linear=0
shrinkage=0.05


Tree=31
num_leaves=8
num_cat=0
split_feature=123 123 45 2 7 1 1
split_gain=16.7758 4.57905 0.0300102 0.0115964 0.000275366 5.9007e-05 2.18747e-05
threshold=38.094947470901047 52.455152196075076 1.1767720722008124 21.500000000000004 12.000000000000002 17.224306532605304 16.570552084014707
decision_type=2 2 2 2 2 2 2
left_child=2 3 -1 4 5 -2 -4
right_child=1 -3 6 -5 -6 -7 -8
leaf_value=0.047809047545849422 -0.056419466944843594 0.050040277463813926 0.055594304817575636 -0.061948138258412902 -0.056929316906874632 -0.056083589551891522 0.055401850210365082
leaf_weight=1.5655733644962326 2.3192031830549222 1.132086008787154 4.1630663573741913 1.0897118151187895 1.9152147397398946 2.9979193508625031 2.2879025489091873
leaf_count=16 23 6 46 7 18 31 26
internal_value=0.000811389 -0.0443055 0.054019 -0.0571397 -0.0564153 -0.0562301 0.055526
internal_weight=17.4707 9.45414 8.01654 8.32205 7.23234 5.31712 6.45097
internal_count=173 85 88 79 72 54 72
is_linear=0
shrinkage=0.05


Tree=32
num_leaves=8
num_cat=0
split_feature=124 127 18 1 53 9 1
split_gain=19.2796 1.02184 0.0239802 0.00987647 0.000135105 4.05449e-05 1.85126e-05
threshold=0.1560985685799853 0.072741141123488604 1.4020228360233971 16.248620118240346 -2535109.4999999995 87.500000000000014 16.570552084014707
decision_type=2 2 2 2 2 2 2
left_child=2 -2 6 -3 -5 -6 -1
right_child=1 3 -4 4 5 -7 -8
leaf_value=0.055291777640458832 -0.0031863433565917118 -0.061230428049592757 0.061698956907202653 -0.055751788275291717 -0.056067310697349208 -0.056397198000040533 0.055110719149565827
leaf_weight=3.981149762868883 1.0074779167771319 1.048406735062599 1.8641179949045179 2.8682506829500194 2.2195996046066284 1.6048816740512855 2.1875259727239609
leaf_count=46 7 7 17 31 23 16 26
internal_value=0.000799851 -0.0505534 0.0567293 -0.0567181 -0.0560112 -0.0562057 0.0552276
internal_weight=16.7814 8.74862 8.03279 7.74114 6.69273 3.82448 6.16868
internal_count=173 84 89 77 70 39 72
is_linear=0
shrinkage=0.05


Tree=33
num_leaves=8
num_cat=0
split_feature=124 143 38 1 59 28 1
split_gain=18.179 1.17085 0.021022 0.00817105 0.000188978 4.21202e-05 1.56831e-05
threshold=0.1560985685799853 0.063353384044292541 2.1882352941176753 16.248620118240346 260.71230341065353 -1.0000000180025095e-35 16.570552084014707
decision_type=2 2 2 2 2 2 2
left_child=2 -2 6 -3 5 -5 -1
right_child=1 3 -4 4 -6 -7 -8
leaf_value=0.055007130370841366 0.0043418184499286932 -0.060563416136155471 0.061134263810267653 -0.055736492491262418 -0.056187815690497356 -0.055439893472639702 0.054836683027191482
leaf_weight=3.8060873597860363 0.88763806223869135 1.0079794079065321 1.7891680300235746 2.1235626116394992 1.6549262478947637 2.7433251738548283 2.0909744948148727
leaf_count=46 6 7 17 23 17 31 26
internal_value=0.000793269 -0.0499712 0.056387 -0.0563738 -0.0557263 -0.0555693 0.0549467
internal_weight=16.1037 8.41743 7.68623 7.52979 6.52181 4.86689 5.89706
internal_count=173 84 89 78 71 54 72
is_linear=0
shrinkage=0.05


Tree=34
num_leaves=8
num_cat=0
split_feature=124 32 18 2 18 27 1
split_gain=17.1488 1.16572 0.0184185 0.00697271 7.4618e-05 1.32967e-05 1.17282e-05
threshold=0.1560985685799853 69.19000933706819 1.4020228360233971 5.5000000000000009 -1.0000000180025095e-35 1.0000000180025095e-35 16.498732617346729
decision_type=2 2 2 2 2 2 2
left_child=2 -2 5 4 6 -1 -3
right_child=1 3 -4 -5 -6 -7 -8
leaf_value=0.054578596605590994 0.0049797591332485808 -0.055615166613874702 0.060597818737885167 -0.059519653191333267 -0.055146514126353796 0.054739140138847224 -0.05542550763546681
leaf_weight=1.9981638491153706 0.87787749618291666 1.3615618273615835 1.7165939882397649 1.2009382694959638 2.6230626776814465 3.6377386301755923 2.0310421660542488
leaf_count=26 6 15 17 9 31 46 23
internal_value=0.000786556 -0.0494232 0.0560633 -0.0560412 -0.0553468 0.0546822 -0.0555016
internal_weight=15.447 8.09448 7.3525 7.2166 6.01567 5.6359 3.3926
internal_count=173 84 89 78 69 72 38
is_linear=0
shrinkage=0.05


Tree=35
num_leaves=8
num_cat=0
split_feature=35 11 50 7 121 8 2
split_gain=13.8943 1.25476 0.357312 0.00132072 5.82199e-05 2.94994e-05 9.11484e-06
threshold=228.41953105310276 279.54249100233943 279.00000000000006 12.000000000000002 -0.60428632713919661 8.5000000000000018 32.500000000000007
decision_type=2 2 2 2 2 2 2
left_child=1 3 4 5 -2 -1 -6
right_child=2 -3 -4 -5 6 -7 -8
leaf_value=-0.054870382858847766 0.054831494294930394 0.0075999086717848446 0.01939565972249916 -0.056476429336942857 0.054335403411570053 -0.055132980584457862 0.054486697803707664
leaf_weight=2.2647241055965424 1.2052652612328518 0.89411977678537358 0.82198750972747792 2.3138010650873184 1.3950414955616004 2.026412308216095 3.4759503751993179
leaf_count=28 15 6 5 24 19 24 46
internal_value=-0.000878341 -0.0479885 0.0503349 -0.0555136 0.0545204 -0.0549944 0.0544434
internal_weight=14.3973 7.49906 6.89824 6.60494 6.07626 4.29114 4.87099
internal_count=167 82 85 76 80 52 65
is_linear=0
shrinkage=0.05


Tree=36
num_leaves=8
num_cat=0
split_feature=124 18 12 18 1 1 18
split_gain=15.1957 1.14614 0.0551379 0.0161005 5.48516e-05 9.13189e-06 8.56781e-06
threshold=0.1560985685799853 1.4893455875291204 271.59211347771105 1.4020228360233971 17.224306532605304 16.498732617346729 -0.22182439722282085
decision_type=2 2 2 2 2 2 2
left_child=3 2 4 6 5 -2 -1
right_child=1 -3 -4 -5 -6 -7 -8
leaf_value=0.054106116139724617 -0.05501974714666083 0.0042893037693152664 -0.068211277525996414 0.06001651850957325 -0.054610343661919684 -0.054857641697101882 0.054255277019386795
leaf_weight=1.3324856758117669 1.5753180533647537 0.87533935904502858 0.88728398084640492 1.5917220190167425 2.1642707884311676 1.9370128512382507 3.4692561477422719
leaf_count=19 19 6 6 17 28 24 48
internal_value=-0.000870591 -0.0494532 -0.0566201 0.0556585 -0.0548083 -0.0549303 0.0542139
internal_weight=13.8327 7.43923 6.56389 6.39346 5.6766 3.51233 4.80174
internal_count=167 83 77 84 71 43 67
is_linear=0
shrinkage=0.05


Tree=37
num_leaves=8
num_cat=0
split_feature=124 32 20 17 1 1 18
split_gain=14.3365 1.3197 0.0475039 0.0140989 0.000103048 2.12131e-05 7.27954e-06
threshold=0.1560985685799853 69.19000933706819 19.130707076552081 1.4359577091476583 16.498732617346729 17.224306532605304 -0.22182439722282085
decision_type=2 2 2 2 2 2 2
left_child=3 -2 -3 6 -4 -6 -1
right_child=1 2 4 -5 5 -7 -8
leaf_value=0.053889860164171778 0.013307902018310723 -0.067273637662674329 -0.054949501662147265 0.059539970836041262 -0.0545983413752964 -0.054365323902953594 0.054030553302312406
leaf_weight=1.2724574282765382 0.76189062744379032 0.85547513514757145 1.6198265030980108 1.5259047746658323 1.8510729074478152 2.0677617788314819 3.3134366869926457
leaf_count=19 5 6 20 17 24 28 48
internal_value=-0.000862897 -0.0488959 -0.0563078 0.0553768 -0.054614 -0.0544754 0.0539915
internal_weight=13.2678 7.15603 6.39414 6.1118 5.53866 3.91883 4.58589
internal_count=167 83 78 84 72 52 67
is_linear=0
shrinkage=0.05


Tree=38
num_leaves=8
num_cat=0
split_feature=124 127 16 18 31 1 1
split_gain=13.5324 1.27885 0.0412145 0.0123378 8.95421e-05 1.80099e-05 6.19103e-06
threshold=0.1560985685799853 0.072741141123488604 1.0000000180025095e-35 1.4020228360233971 90.546218487394967 17.224306532605304 16.570552084014707
decision_type=2 2 2 2 2 2 2
left_child=3 -2 4 6 -3 -6 -1
right_child=1 2 -4 -5 5 -7 -8
leaf_value=0.053818565538557475 0.012682783885618838 -0.054690156645090665 -0.066389799545612027 0.059086102954346444 -0.054354006542217816 -0.054134335360879027 0.053685780633506021
leaf_weight=3.1639394760131836 0.76243778318166722 1.5486401766538618 0.82431129366159428 1.4623529836535452 1.7685098648071289 1.9750961065292358 1.2148837074637411
leaf_count=48 5 20 6 17 24 28 19
internal_value=-0.000856286 -0.0483788 -0.0559902 0.0551097 -0.0543704 -0.0542381 0.0537817
internal_weight=12.7202 6.879 6.11656 5.84118 5.29225 3.74361 4.37882
internal_count=167 83 78 84 72 52 67
is_linear=0
shrinkage=0.05


Tree=39
num_leaves=9
num_cat=0
split_feature=35 56 10 2 8 17 1 1
split_gain=11.1451 1.17448 0.373907 0.00232948 3.33609e-05 1.97386e-05 5.44138e-06 4.75348e-06
threshold=228.41953105310276 5992054.0407374902 0.91709401709401728 5.5000000000000009 8.5000000000000018 0.46026351944169624 16.498732617346729 16.570552084014707
decision_type=2 2 2 2 2 2 2 2
left_child=1 3 5 4 -1 7 -6 -2
right_child=2 -3 -4 -5 6 -7 -8 -9
leaf_value=-0.053916480014617289 0.053612952832747529 0.011983444050304047 0.01356692771833028 -0.057238343463495871 -0.054257663888758627 0.053815811594288769 -0.05412367150822113 0.053493128486948753
leaf_weight=1.8861690461635587 2.8910176753997803 0.75464764237403859 0.65631666779518116 0.66280541568994511 1.3739552721381187 1.1198699399828909 1.6892368197441101 1.1596899107098577
leaf_count=28 46 5 3 6 19 17 24 19
internal_value=-0.000849877 -0.0465799 0.0491175 -0.0544547 -0.0540819 0.05363 -0.0541838 0.0535786
internal_weight=12.1937 6.36681 5.82689 5.61217 4.94936 5.17058 3.06319 4.05071
internal_count=167 82 85 77 71 82 43 65
is_linear=0
shrinkage=0.05


Tree=40
num_leaves=9
num_cat=0
split_feature=35 58 36 77 8 20 2 7
split_gain=12.0443 1.11224 0.0640181 0.00269838 2.91488e-05 2.0327e-05 4.48148e-06 3.80442e-06
threshold=228.41953105310276 32.821847295453111 3.0579422780348091 0.30726875572763618 8.5000000000000018 19.946775105238867 32.500000000000007 12.000000000000002
decision_type=2 2 2 2 2 2 2 2
left_child=1 -1 -2 -3 -5 -4 -7 -6
right_child=2 3 5 4 7 6 -8 -9
leaf_value=0.009986796314012239 0.070483000259200249 -0.056801069239648394 0.053620951560111464 -0.053710909489825945 -0.053906415663882559 0.053311176603567684 0.053424352990089165 -0.054032804668991512
leaf_weight=0.76905205100774754 0.61846634745597828 0.9483097419142722 1.196378272026777 1.9295065104961393 1.1426578387618065 1.3398116640746596 2.5195286795496941 1.2431822866201401
leaf_count=5 3 9 19 30 17 23 42 18
internal_value=0.00300541 -0.0461798 0.0552984 -0.0543861 -0.0538554 0.0534409 0.0533851 -0.0539723
internal_weight=11.7069 6.03271 5.67418 5.26366 4.31535 5.05572 3.85934 2.38584
internal_count=166 79 87 74 65 84 65 35
is_linear=0
shrinkage=0.05


Tree=41
num_leaves=9
num_cat=0
split_feature=35 54 10 12 8 18 1 1
split_gain=11.3713 1.08131 0.0534602 0.00228712 2.47965e-05 1.73108e-05 3.81749e-06 3.23476e-06
threshold=228.41953105310276 -16205.616165413516 0.9403508771929826 271.59211347771105 8.5000000000000018 -1.0000000180025095e-35 16.570552084014707 16.498732617346729
decision_type=2 2 2 2 2 2 2 2
left_child=1 -1 5 4 -3 6 -2 -6
right_child=2 3 -4 -5 7 -7 -8 -9
leaf_value=0.0094767065154356157 0.053246209096866073 -0.053516846532828954 0.069089003088118703 -0.056425551772712301 -0.053820680015789157 0.053431908132663103 0.053139279030672518 -0.053701411844034874
leaf_weight=0.76990215480327595 2.4044656008481979 1.8418905884027479 0.59986929595470417 0.9079112410545348 1.1870944797992706 1.1419548094272616 1.2784868031740186 1.0909741520881653
leaf_count=5 42 30 3 9 18 19 23 17
internal_value=0.00298018 -0.0457042 0.055012 -0.0541539 -0.0536533 0.0532618 0.0532091 -0.0537636
internal_weight=11.2225 5.79777 5.42478 5.02787 4.11996 4.82491 3.68295 2.27807
internal_count=166 79 87 74 65 84 65 35
is_linear=0
shrinkage=0.05


Tree=42
num_leaves=9
num_cat=0
split_feature=35 58 10 12 1 17 1 1
split_gain=10.7376 1.05194 0.0447299 0.00194015 2.11066e-05 1.475e-05 3.254e-06 2.75264e-06
threshold=228.41953105310276 32.821847295453111 0.9403508771929826 271.59211347771105 17.224306532605304 0.46026351944169624 16.570552084014707 16.498732617346729
decision_type=2 2 2 2 2 2 2 2
left_child=1 -1 5 4 7 6 -2 -3
right_child=2 3 -4 -5 -6 -7 -8 -9
leaf_value=0.0089931883492105347 0.053077883342920677 -0.05362048744456132 0.067814686445833106 -0.056073050602607769 -0.053333583391397626 0.053253347147233787 0.052976813600335043 -0.053507881904636526
leaf_weight=0.77070976048707951 2.2942684963345528 1.133308544754982 0.58106128871440876 0.86892350018024433 1.7579287290573122 1.0898112244904039 1.2197695784270766 1.0414252541959286
leaf_count=5 42 18 3 9 30 19 23 17
internal_value=0.00295553 -0.0452312 0.0547425 -0.0539349 -0.0534624 0.0530926 0.0530428 -0.0535666
internal_weight=10.7572 5.5723 5.18491 4.80159 3.93266 4.60385 3.51404 2.17473
internal_count=166 79 87 74 65 84 65 35
is_linear=0
shrinkage=0.05


Tree=43
num_leaves=8
num_cat=0
split_feature=124 1 17 12 1 1 7
split_gain=9.47392 2.94287 0.00972961 0.00386241 1.7976e-05 2.94312e-06 2.34391e-06
threshold=0.1560985685799853 15.839748675123948 1.4359577091476583 271.59211347771105 17.224306532605304 16.570552084014707 12.000000000000002
decision_type=2 2 2 2 2 2 2
left_child=2 -2 5 4 6 -1 -3
right_child=1 3 -4 -5 -6 -7 -8
leaf_value=0.052921217179123917 0.066646640713242986 -0.053325111445321705 0.057851966126854393 -0.0565417573173186 -0.053160449414068535 0.052823214427596826 -0.053431471151720047
leaf_weight=2.2424980737268925 0.5621618628501891 0.99394382536411297 1.3897704705595968 1.1991834864020345 1.6775019094347956 1.1635692529380324 1.0817536041140556
leaf_count=43 3 17 20 12 30 23 18
internal_value=0.00293139 -0.0417653 0.0543263 -0.0540715 -0.0532822 0.0528877 -0.0533805
internal_weight=10.3104 5.51454 4.79584 4.95238 3.7532 3.40607 2.0757
internal_count=166 80 86 77 65 66 35
is_linear=0
shrinkage=0.05


Tree=44
num_leaves=8
num_cat=0
split_feature=112 83 10 46 10 1 1
split_gain=7.42535 4.07703 0.0597019 0.0089808 8.48845e-05 9.13826e-06 2.36705e-06
threshold=49.108380363684695 4989.9394366197439 0.73706896551724144 0.050997879317999005 0.8521303258145364 15.509176692385012 16.570552084014707
decision_type=2 2 2 2 2 2 2
left_child=3 2 5 -1 -5 -2 -7
right_child=1 -3 -4 4 -6 6 -8
leaf_value=-0.047716702111359977 0.052914528461583836 -0.056337198545786463 0.066758373450692243 -0.052996825700077327 -0.053552267968700329 0.05276832397170466 0.052677955099346779
leaf_weight=0.99972017481923137 0.93683023005723942 0.97386618703603733 0.93651284277439106 1.6004912182688715 1.2062608823180196 2.0878052115440369 1.109796289354563
leaf_count=18 18 10 5 30 20 42 23
internal_value=0.00291704 0.0373641 0.0553593 -0.0517861 -0.0532355 0.0527772 0.052737
internal_weight=9.85128 6.04481 5.07094 3.80647 2.80675 4.13443 3.1976
internal_count=166 98 88 68 50 83 65
is_linear=0
shrinkage=0.05


Tree=45
num_leaves=8
num_cat=0
split_feature=124 19 57 17 59 1 7
split_gain=9.15624 1.06191 0.0445443 0.00244541 0.000108254 6.31843e-06 2.90738e-06
threshold=0.1560985685799853 1.0000000180025095e-35 0.57562167148698162 1.4359577091476583 260.71230341065353 17.224306532605304 10.500000000000002
decision_type=2 2 2 2 2 2 2
left_child=3 -2 4 6 5 -3 -1
right_child=1 2 -4 -5 -6 -7 -8
leaf_value=0.052540539551553994 0.016654073685786034 -0.053005552473247113 -0.065883960538327804 0.055423865631575447 -0.053491408079060124 -0.052842139250626287 0.052645353115317477
leaf_weight=0.96633068472147021 0.57533581554889668 1.069748848676682 0.84076673537492741 1.0344496965408323 1.2361703962087629 1.3232079595327377 2.0981743633747101
leaf_count=21 4 20 8 18 21 26 44
internal_value=-0.00218672 -0.0472842 -0.0555139 0.0533219 -0.0531115 -0.0529152 0.0526123
internal_weight=9.14418 5.04523 4.46989 4.09895 3.62913 2.39296 3.06451
internal_count=162 79 75 83 67 46 65
is_linear=0
shrinkage=0.05


Tree=46
num_leaves=8
num_cat=0
split_feature=124 19 109 18 59 8 1
split_gain=8.65471 1.02467 0.0393496 0.0021516 9.26527e-05 5.39021e-06 2.48362e-06
threshold=0.1560985685799853 1.0000000180025095e-35 15.455949851678222 1.4020228360233971 260.71230341065353 8.5000000000000018 16.570552084014707
decision_type=2 2 2 2 2 2 2
left_child=3 -2 -3 6 5 -4 -1
right_child=1 2 4 -5 -6 -7 -8
leaf_value=0.052509703899155435 0.015832668278556224 -0.06520578644895085 -0.052695853164078169 0.055177208128084444 -0.053310668747379747 -0.052850391837021907 0.05241049857330219
leaf_weight=2.0008709877729425 0.57493579387664784 0.80786972492933262 1.2620801925659184 0.98828669264912594 1.1797674894332884 1.0204885900020599 0.92142525315284718
leaf_count=44 4 8 26 18 21 20 21
internal_value=-0.00217234 -0.0468322 -0.0552694 0.0531605 -0.0529509 -0.0527649 0.0524784
internal_weight=8.75572 4.84514 4.27021 3.91058 3.46234 2.28257 2.9223
internal_count=162 79 75 83 67 46 65
is_linear=0
shrinkage=0.05


Tree=47
num_leaves=8
num_cat=0
split_feature=124 19 109 18 59 1 2
split_gain=8.18108 0.989536 0.0347213 0.00189144 7.93256e-05 4.60036e-06 2.1221e-06
threshold=0.1560985685799853 1.0000000180025095e-35 15.455949851678222 1.4020228360233971 260.71230341065353 17.224306532605304 32.500000000000007
decision_type=2 2 2 2 2 2 2
left_child=3 -2 -3 6 5 -4 -1
right_child=1 2 4 -5 -6 -7 -8
leaf_value=0.052287416838631418 0.015050850947786954 -0.064552098981291162 -0.05270366024569724 0.05494132705355307 -0.053139805590207881 -0.052557471724541588 0.052381330512061466
leaf_weight=0.87849789485335428 0.57457044720649708 0.77605463564395893 0.97335301339626368 0.94402160122990597 1.1257467195391653 1.203608937561512 1.9078338667750356
leaf_count=21 4 8 20 18 21 26 44
internal_value=-0.00215812 -0.0463814 -0.0550353 0.0530071 -0.052799 -0.0526228 0.0523517
internal_weight=8.38369 4.65333 4.07876 3.73035 3.30271 2.17696 2.78633
internal_count=162 79 75 83 67 46 65
is_linear=0
shrinkage=0.05


Tree=48
num_leaves=8
num_cat=0
split_feature=124 19 57 20 87 26 2
split_gain=7.73371 0.956337 0.0306023 0.00166131 6.79366e-05 3.92788e-06 1.81389e-06
threshold=0.1560985685799853 1.0000000180025095e-35 0.57562167148698162 18.177287614255359 5.5000000000000009 -1.0000000180025095e-35 32.500000000000007
decision_type=2 2 2 2 2 2 2
left_child=3 -2 4 -1 5 -3 -5
right_child=1 2 -4 6 -6 -7 -8
leaf_value=0.054715752733934676 0.014306823079783489 -0.052564856114842212 -0.063922123517819826 0.05217088868501938 -0.052978227124575443 -0.052426528453332469 0.052259815084956085
leaf_weight=0.90158979967236552 0.57423725724220265 0.92826515436172541 0.74529740959405888 0.8374724127352241 1.074026860296726 1.1476955935359006 1.8189009875059126
leaf_count=18 4 20 8 21 21 26 44
internal_value=-0.00214402 -0.0459309 -0.0548111 0.0528612 -0.0526554 -0.0524884 0.0522318
internal_weight=8.02749 4.46952 3.89529 3.55796 3.14999 2.07596 2.65637
internal_count=162 79 75 83 67 46 65
is_linear=0
shrinkage=0.05


Tree=49
num_leaves=8
num_cat=0
split_feature=124 58 109 17 59 1 1
split_gain=7.31104 0.924932 0.0269414 0.00145796 5.81986e-05 3.35501e-06 1.55101e-06
threshold=0.1560985685799853 32.821847295453111 15.455949851678222 1.4359577091476583 260.71230341065353 17.224306532605304 16.570552084014707
decision_type=2 2 2 2 2 2 2
left_child=3 -2 -3 6 5 -4 -1
right_child=1 2 4 -5 -6 -7 -8
leaf_value=0.052144757636123362 0.013598862728270803 -0.063315170735155871 -0.052433513716439041 0.054500038508721899 -0.052825377033666868 -0.052302590203754766 0.052060533777993107
leaf_weight=1.7339133694767959 0.57393367588520039 0.71557320654392276 0.88514909148216259 0.86092758551239956 1.0245273709297178 1.0942433997988701 0.79827440902590741
leaf_count=44 4 8 20 18 21 26 21
internal_value=-0.00213001 -0.0454802 -0.0545964 0.0527225 -0.0525195 -0.0523611 0.0521182
internal_weight=7.68654 4.29343 3.71949 3.39312 3.00392 1.97939 2.53219
internal_count=162 79 75 83 67 46 65
is_linear=0
shrinkage=0.05


end of trees

feature_importances:
avg_daily_turnover_log=61
t30_cmf=27
t0_cci=24
days_in_current_stage=21
t0_macd_signal=15
signal_acceleration=12
t0_macd_line=12
t0_macd_histogram=11
t0_plus_di=11
t0_vwap=10
t0_adx=9
n_signals_fired_in_last_7d=8
n_signals_fired_in_last_30d=7
t0_bb_bandwidth=6
earliest_signal_lead_days=5
t0_ema_21=4
t0_cmf=4
obv_trajectory_slope=4
t7_adx=4
t60_cmf=4
t0_ema_8=3
t0_obv=3
t0_obv_slope_20=3
t0_mfi=3
t0_vwap_distance_sigma=3
t0_ema_100=2
t0_linreg_slope=2
t0_stoch_d=2
t0_bb_lower=2
t0_bb_pct_b=2
t0_ad_line=2
accumulation_trajectory_slope=2
t30_accumulation_score=2
t30_bb_bandwidth=2
t60_obv=2
t0_ema_200=1
t0_ema_ribbon_aligned=1
t0_ichimoku_cloud_pos=1
t0_ichimoku_tk_cross=1
t0_stoch_k=1
t0_williams_r=1
t0_roc=1
t0_ao=1
t0_dc_upper=1
t0_dc_lower=1
rsi_velocity=1
macd_histogram_velocity=1
cmf_velocity=1
days_since_last_swing_low=1
t1_adx=1
t1_rel_volume=1
t1_bb_bandwidth=1
t14_rsi=1
t14_cmf=1
t14_rel_volume=1
t14_bb_bandwidth=1
t30_macd_histogram=1
t30_adx=1
t60_rsi=1
t90_rel_volume=1
t90_bb_bandwidth=1
dow_1.0=1

parameters:
[boosting: gbdt]
[objective: binary]
[metric: binary_logloss]
[tree_learner: serial]
[device_type: cpu]
[data_sample_strategy: bagging]
[data: ]
[valid: ]
[num_iterations: 50]
[learning_rate: 0.05]
[num_leaves: 31]
[num_threads: 0]
[seed: 42]
[deterministic: 1]
[force_col_wise: 0]
[force_row_wise: 0]
[histogram_pool_size: -1]
[max_depth: -1]
[min_data_in_leaf: 10]
[min_sum_hessian_in_leaf: 0.001]
[bagging_fraction: 0.8]
[pos_bagging_fraction: 1]
[neg_bagging_fraction: 1]
[bagging_freq: 5]
[bagging_seed: 42]
[bagging_by_query: 0]
[feature_fraction: 0.8]
[feature_fraction_bynode: 1]
[feature_fraction_seed: 42]
[extra_trees: 0]
[extra_seed: 12879]
[early_stopping_round: 0]
[early_stopping_min_delta: 0]
[first_metric_only: 0]
[max_delta_step: 0]
[lambda_l1: 0]
[lambda_l2: 0]
[linear_lambda: 0]
[min_gain_to_split: 0]
[drop_rate: 0.1]
[max_drop: 50]
[skip_drop: 0.5]
[xgboost_dart_mode: 0]
[uniform_drop: 0]
[drop_seed: 17869]
[top_rate: 0.2]
[other_rate: 0.1]
[min_data_per_group: 100]
[max_cat_threshold: 32]
[cat_l2: 10]
[cat_smooth: 10]
[max_cat_to_onehot: 4]
[top_k: 20]
[monotone_constraints: ]
[monotone_constraints_method: basic]
[monotone_penalty: 0]
[feature_contri: ]
[forcedsplits_filename: ]
[refit_decay_rate: 0.9]
[cegb_tradeoff: 1]
[cegb_penalty_split: 0]
[cegb_penalty_feature_lazy: ]
[cegb_penalty_feature_coupled: ]
[path_smooth: 0]
[interaction_constraints: ]
[verbosity: -1]
[saved_feature_importance_type: 0]
[use_quantized_grad: 0]
[num_grad_quant_bins: 4]
[quant_train_renew_leaf: 0]
[stochastic_rounding: 1]
[linear_tree: 0]
[max_bin: 255]
[max_bin_by_feature: ]
[min_data_in_bin: 3]
[bin_construct_sample_cnt: 200000]
[data_random_seed: 42]
[is_enable_sparse: 1]
[enable_bundle: 1]
[use_missing: 1]
[zero_as_missing: 0]
[feature_pre_filter: 1]
[pre_partition: 0]
[two_round: 0]
[header: 0]
[label_column: ]
[weight_column: ]
[group_column: ]
[ignore_column: ]
[categorical_feature: ]
[forcedbins_filename: ]
[precise_float_parser: 0]
[parser_config_file: ]
[objective_seed: 16083]
[num_class: 1]
[is_unbalance: 0]
[scale_pos_weight: 1]
[sigmoid: 1]
[boost_from_average: 1]
[reg_sqrt: 0]
[alpha: 0.9]
[fair_c: 1]
[poisson_max_delta_step: 0.7]
[tweedie_variance_power: 1.5]
[lambdarank_truncation_level: 30]
[lambdarank_norm: 1]
[label_gain: ]
[lambdarank_position_bias_regularization: 0]
[eval_at: ]
[multi_error_top_k: 1]
[auc_mu_weights: ]
[num_machines: 1]
[local_listen_port: 12400]
[time_out: 120]
[machine_list_filename: ]
[machines: ]
[gpu_platform_id: -1]
[gpu_device_id: -1]
[gpu_use_dp: 0]
[num_gpu: 1]

end of parameters

pandas_categorical:[]
