tree
version=v4
num_class=1
num_tree_per_iteration=1
label_index=0
max_feature_idx=191
objective=binary sigmoid:1
feature_names=log_market_cap avg_daily_turnover_log days_in_current_stage pmi_50w_trend brent_30d_trend is_ramadan_period is_earnings_window n_signals_fired_in_last_30d n_signals_fired_in_last_7d earliest_signal_lead_days signal_acceleration t0_ema_8 t0_ema_21 t0_ema_50 t0_ema_100 t0_ema_200 t0_ema_ribbon_aligned t0_macd_line t0_macd_signal t0_macd_histogram t0_adx t0_plus_di t0_minus_di t0_supertrend t0_psar t0_hull_ma t0_linreg_slope t0_ichimoku_cloud_pos t0_ichimoku_tk_cross t0_rsi t0_rsi_divergence t0_stoch_k t0_stoch_d t0_stoch_rsi t0_williams_r t0_cci t0_roc t0_tsi t0_ao t0_connors_rsi t0_atr t0_atr_percentile_252 t0_bb_upper t0_bb_middle t0_bb_lower t0_bb_pct_b t0_bb_bandwidth t0_bb_squeeze t0_kc_upper t0_kc_lower t0_dc_upper t0_dc_lower t0_hist_vol_30d t0_obv t0_obv_slope_20 t0_obv_slope_60 t0_ad_line t0_cmf t0_mfi t0_vwap t0_vwap_distance_sigma t0_rel_volume t0_force_index t0_eom t0_klinger t0_swing_high t0_swing_low t0_zscore_20 t0_zscore_50 t0_zscore_200 t0_accumulation_score t0_wyckoff_phase_code t0_close t0_volume t0_high t0_low rsi_velocity macd_histogram_velocity obv_velocity accumulation_score_velocity cmf_velocity adx_velocity rel_volume_velocity obv_trajectory_slope accumulation_trajectory_slope bb_bandwidth_trajectory days_since_last_swing_high days_since_last_swing_low t1_rsi t1_macd_histogram t1_obv t1_accumulation_score t1_cmf t1_adx t1_rel_volume t1_bb_bandwidth t3_rsi t3_macd_histogram t3_obv t3_accumulation_score t3_cmf t3_adx t3_rel_volume t3_bb_bandwidth t7_rsi t7_macd_histogram t7_obv t7_accumulation_score t7_cmf t7_adx t7_rel_volume t7_bb_bandwidth t14_rsi t14_macd_histogram t14_obv t14_accumulation_score t14_cmf t14_adx t14_rel_volume t14_bb_bandwidth t30_rsi t30_macd_histogram t30_obv t30_accumulation_score t30_cmf t30_adx t30_rel_volume t30_bb_bandwidth t60_rsi t60_macd_histogram t60_obv t60_accumulation_score t60_cmf t60_adx t60_rel_volume t60_bb_bandwidth t90_rsi t90_macd_histogram t90_obv t90_accumulation_score t90_cmf t90_adx t90_rel_volume t90_bb_bandwidth current_stage_dormant stage_before_dormant current_stage_stealth_accumulation stage_before_stealth_accumulation current_stage_early_breakout stage_before_early_breakout current_stage_markup_trending stage_before_markup_trending current_stage_acceleration_climax stage_before_acceleration_climax current_stage_distribution_topping stage_before_distribution_topping current_stage_markdown_decline stage_before_markdown_decline current_stage_capitulation_exhaustion stage_before_capitulation_exhaustion regime_risk_on regime_neutral regime_risk_off sector_banking sector_consumer sector_energy sector_holding_misc sector_industrial sector_insurance sector_investment sector_real_estate sector_technology sector_telecom sector_transport tier_premier dow_0.0 dow_1.0 dow_2.0 dow_3.0 dow_6.0 month_1.0 month_2.0 month_3.0 month_4.0 month_5.0 month_6.0 month_7.0 month_8.0 month_9.0 month_10.0 month_11.0 month_12.0
feature_infos=none [19.899687121624702:22.247646709404162] [1:58] none none none [0:1] [8:15] [3:11] [63:90] [-5.5:0.96969696969696972] [110.0559508662455:363.97437738074228] [108.54027320281406:356.80113492327985] [107.78630497014774:349.22266993505167] [138.02171831467257:348.10690634533057] [183.32223964198823:337.45818989371372] [0:1] [-0.82138672010944447:11.082445985891496] [-3.3225459222032225:10.198431646204275] [-0.76063847632085402:3.8915571666103936] [16.15876196924604:68.176698084283089] [26.532105060915189:55.875434488870404] [7.0806119067802475:22.262922154570195] [-1:1] [106:348.46590087680005] [109.25767973856209:364.39093137254906] [-0.22180451127820072:2.411278195488721] [-1:1] [-1:1] [58.449290309541801:82.033614142401433] [-1:0] [51.162790697674417:100] [45.512820512820518:98.412698412698433] [51.716136904804003:100] [-48.837209302325583:0] [107.51701460579687:479.14475990185673] [4.3321299638989119:26.993865030674847] [-4.9935617628209128:52.573593644166742] [-2.5088235294117567:23.652941176470591] [64.834975508314997:98.180813835903066] [2.8646792248767241:8.1716798893128271] [42.063492063492063:98.015873015873012] [112.52622978924309:371.91194888950054] [108.5:356.55000000000001] [104.47377021075691:341.18805111049949] [0.87952285449608858:1.4313767232922001] [0.074216217313236674:0.36148813987041434] none [114.29754525113457:372.20295208817652] [102.93480558836366:342.21108722926351] [116:391] [105:345] [15.070874211022375:46.89385173304705] [50295702:2318364220] [812032.29699244932:11128463.87894736] [322889.22617393354:8105009.8025840437] [-91054768.170434147:122490931.93861035] [-0.23293163708338149:0.47359250356405708] [61.817781970318769:99.587893413021035] [109.22095058376254:360.85548361379119] [0.8752164630791256:6.6829400165286499] [1.6167712859796033:6.0207633253322044] [5567168.2585592866:220730628.43418324] [-646.60390879153783:574.31115313217458] [-184026564.23092848:61898301.382481433] [0:1] none [1.5180914179843548:3.7255068931688036] [-0.12065632638943603:3.6301973212033798] [0.045053608048694557:3.2498771017084276] [35.39875716555062:86.82595476959419] [0:5] [115:380] [5265392:94673221] [116:391] [110:368] [0.37592058358895503:12.104342957408528] [-0.045341020370978612:0.89744771390816425] [2677758.3333333335:44416336.666666664] [-1.8198292627967614:10.186312962249113] [-0.015299382225895839:0.17955994341604828] [-1.4998695078403586:2.2428326583694607] [-0.50131658726985207:1.8239816433460758] [56739.642253502054:9187164.3042253423] [-0.56826463296585139:1.6040800550782697] [-0.0074105267280281956:0.0054649928382912664] [0:42] [1:26] [54.428599987452785:75.199287064010093] [-1.3206703061513547:3.5700907314385431] [38013859:2313098828] [26.290102318057752:87.230293350821327] [-0.31455900450530289:0.48934483515675642] [15.904971391965251:67.459046125081386] [0.35771794774665416:7.338557625458872] [0.051625662868314479:0.32561279824165934] [37.980690722014856:76.63510950112402] [-1.3206703061513547:3.6565842996154081] [38935363:2309961398] [12.301020406889222:83.738826815642454] [-0.32464175965712222:0.51385108632743748] [16.227827268455844:66.842969010687241] [0.54881839529397713:4.3068812461402608] [0.047570417836991695:0.31114290884741258] [38.072416645703889:77.569246520964214] [-1.6926308614508168:3.3399199376440962] [38949604:2300402305] [14.932464907243501:81.667552223150196] [-0.24234134605789914:0.3176420460315536] [17.762051011393293:63.307370609291645] [0.24545554729673377:5.926792678411136] [0.047469764251051254:0.358967968176931] [35.631053881129034:79.379334840928678] [-1.3990072266587199:3.2973988943770705] [20383732:2286938367] [14.551648317401938:83.466480446927378] [-0.36430230857548784:0.40067851842536067] [14.007479147022734:68.176698084283089] [0.12111070311761439:2.5918813998625874] [0.057994438784028296:0.23405576414589072] [33.743452826766585:82.558157901231056] [-3.7928748880179546:2.940985279061028] [3077324:2280921625] [21.619610906507305:85.162011173184354] [-0.30096264951101798:0.41988737941352372] [11.129441125928107:55.359293207217306] [0.12891238055230256:3.6904817140147883] [0.039391056210660656:0.36045561164122591] [10.078626501412543:77.550194574188254] [-2.5323628049700346:1.1271317148499935] [-9802630:2261628723] [11.945666129886996:71.826220000733883] [-0.31325341938655998:0.34827470946395334] [16.223486074493984:45.652761061798188] [0.16055493696274098:2.8029314843307045] [0.053123512460323652:0.20447190593255224] [20.664992423131807:76.395252533866341] [-4.0326775563989212:1.7518841465502151] [6668447:2280926745] [16.333296876444823:81.755452070278324] [-0.22322632401905945:0.36054706907668732] [16.178391121901956:62.001618975953726] [0.24518486624172509:4.5276609625897875] [0.060210703871890196:0.39160874925048128] [0:1] [0:1] none [0:1] [0:1] [0:1] [0:1] none none none none [0:1] none none none none none none none none none none none none none none none none none none none [0:1] none [0:1] none [0:1] [0:1] none none [0:1] [0:1] none [0:1] none [0:1] [0:1] [0:1] none
tree_sizes=548 571 677 574 673 783 776 785 994 778 984 986 988 986 987 885 1099 1200 998 1202 989 992 1104 1213 1107 989 998 995 982 1201 1087 1211 988 992 1202 1099 985 1098 1086 1089 1101 997 1100 1217 1207 1000 994 993 997 992 1099 1210 1104 1207 1215 1096 1096 994 1210 1214 1326 1217 1215 1213 1112 1003 999 1001 1107 995 1327 1316 1216 1328 1214 1114 1006 1121 1228 1119 1109 1111 1224 1126 1224 1327 1217 1322 1220 1326 1338 1220 1333 1225 1332 1548 1554 1548 1558 1554 1334

Tree=0
num_leaves=4
num_cat=0
split_feature=175 37 1
split_gain=242.5 4.50592 7.10543e-15
threshold=1.0000000180025095e-35 27.833518164385193 20.598200997272016
decision_type=2 2 2
left_child=1 2 -1
right_child=-2 -3 -4
leaf_value=1.3330138800311868 1.0411005131738635 1.2534011436155532 1.3330138800311868
leaf_weight=18.327355057001117 9.4206030666828138 1.884120613336562 13.017560601234434
leaf_count=107 55 11 76
internal_value=1.26502 1.3285 1.33301
internal_weight=42.6496 33.229 31.3449
internal_count=249 194 183
is_linear=0
shrinkage=1


Tree=1
num_leaves=4
num_cat=0
split_feature=175 18 1
split_gain=199.649 4.33273 7.10543e-15
threshold=1.0000000180025095e-35 4.1849779545508987 21.499770193524579
decision_type=2 2 2
left_child=1 2 -1
right_child=-2 -3 -4
leaf_value=0.063184067008310418 -0.191616619888344 -0.014647486425320742 0.063184067008310432
leaf_weight=23.117044866085056 10.606707036495207 1.9005604088306416 7.1002352088689795
leaf_count=140 55 11 43
internal_value=-0.00353448 0.0585784 0.0631841
internal_weight=42.7245 32.1178 30.2173
internal_count=249 194 183
is_linear=0
shrinkage=0.05


Tree=2
num_leaves=5
num_cat=0
split_feature=175 37 6 15
split_gain=169.71 4.1727 7.10543e-15 3.55271e-15
threshold=1.0000000180025095e-35 27.833518164385193 1.0000000180025095e-35 187.07878106377061
decision_type=2 2 2 2
left_child=1 2 -1 -4
right_child=-2 -3 3 -5
leaf_value=0.062376816824480701 -0.16692198376055448 -0.013799848521828716 0.062376816824480687 0.062376816824480735
leaf_weight=13.04206600785256 11.539893597364424 1.9160244315862645 5.5667354911565807 10.497272640466688
leaf_count=82 55 11 35 66
internal_value=-0.00322256 0.0576719 0.0623768 0.0623768
internal_weight=42.562 31.0221 29.1061 16.064
internal_count=249 194 183 101
is_linear=0
shrinkage=0.05


Tree=3
num_leaves=4
num_cat=0
split_feature=175 17 138
split_gain=147.359 5.05915 0.000228985
threshold=1.0000000180025095e-35 5.8223165008417945 652791019.50000012
decision_type=2 2 2
left_child=1 2 -1
right_child=-2 -3 -4
leaf_value=0.062199180774529822 -0.14894706596941484 -0.030274437106514548 0.061628375115506395
leaf_weight=1.8818461000919402 12.265117466449736 1.5795625448226918 26.483397081494331
leaf_count=12 55 9 173
internal_value=-0.00297313 0.0568165 0.0616662
internal_weight=42.2099 29.9448 28.3652
internal_count=249 194 185
is_linear=0
shrinkage=0.05


Tree=4
num_leaves=5
num_cat=0
split_feature=175 37 14 1
split_gain=129.9 4.92687 0.000454184 7.10543e-15
threshold=1.0000000180025095e-35 28.558541815645246 180.80259215928166 20.227459750437841
decision_type=2 2 2 2
left_child=1 2 -1 -4
right_child=-2 -3 3 -5
leaf_value=0.061749163807648881 -0.13525423433996378 -0.029610688829767341 0.060933373640322211 0.060933373640322266
leaf_weight=1.828625500202185 12.815834879875181 1.587886556982993 3.6808975040912655 21.790913224220276
leaf_count=12 55 9 25 148
internal_value=-0.00276747 0.0560081 0.060988 0.0609334
internal_weight=41.7042 28.8883 27.3004 25.4718
internal_count=249 194 185 173
is_linear=0
shrinkage=0.05


Tree=5
num_leaves=6
num_cat=0
split_feature=175 115 14 1 34
split_gain=114.329 2.04268 1.38661e-07 7.10543e-15 3.55271e-15
threshold=1.0000000180025095e-35 45.550203267902894 180.80259215928166 21.684836561283333 -4.9411764705882346
decision_type=2 2 2 2 2
left_child=1 2 -1 4 -4
right_child=-2 -3 3 -5 -6
leaf_value=0.0602728027614996 -0.12446905489070413 0.0018386895985339536 0.060287053756493653 0.060287053756493673 0.060287053756493673
leaf_weight=1.8380592912435592 12.73793204128742 1.5870110094547261 18.680432617664344 2.9718870073556891 2.2642948627471915
leaf_count=13 53 9 132 21 16
internal_value=-0.000746343 0.0568935 0.060286 0.0602871 0.0602871
internal_weight=40.0796 27.3417 25.7547 23.9166 20.9447
internal_count=244 191 182 169 148
is_linear=0
shrinkage=0.05


Tree=6
num_leaves=6
num_cat=0
split_feature=143 136 8 14 1
split_gain=102.799 0.375285 0.233345 0.00201752 3.55271e-15
threshold=0.14490154024028448 45.711182121623231 5.5000000000000009 180.80259215928166 21.684836561283333
decision_type=2 2 2 2 2
left_child=1 -1 -2 -3 -5
right_child=2 3 -4 4 -6
leaf_value=0.038915441663717208 -0.11803044430673354 0.061155792330564042 -0.10482120776119455 0.059685203164268279 0.059685203164268286
leaf_weight=2.3560797721147564 7.5421327501535398 2.6268082559108761 6.005595326423645 17.944005310535434 2.8547281175851813
leaf_count=17 31 18 25 132 21
internal_value=-0.000661236 0.057937 -0.112175 0.0598501 0.0596852
internal_weight=39.3293 25.7816 13.5477 23.4255 20.7987
internal_count=244 188 56 171 153
is_linear=0
shrinkage=0.05


Tree=7
num_leaves=6
num_cat=0
split_feature=175 101 1 32 26
split_gain=93.6082 2.58662 0.000780699 0.000486703 4.18686e-07
threshold=1.0000000180025095e-35 33.481458904333827 21.833993600763936 88.575776926351651 -1.0000000180025095e-35
decision_type=2 2 2 2 2
left_child=1 3 -2 4 -1
right_child=2 -3 -4 -5 -6
leaf_value=0.059098155083205317 -0.10921016896975921 -0.01456143824815148 -0.10843319899043735 0.059865397660229108 0.059124050920240694
leaf_weight=1.6932407915592254 5.7091044783592206 1.2502515614032734 7.4546349048614502 2.4510301351547232 19.9673714786768
leaf_count=13 23 7 30 18 153
internal_value=-0.000588607 0.0555615 -0.10877 0.0591976 0.059122
internal_weight=38.5256 25.3619 13.1637 24.1116 21.6606
internal_count=244 191 53 184 166
is_linear=0
shrinkage=0.05


Tree=8
num_leaves=8
num_cat=0
split_feature=175 18 39 1 14 34 7
split_gain=85.3171 2.77701 0.00213636 0.000559612 3.50483e-07 7.10543e-15 3.55271e-15
threshold=1.0000000180025095e-35 4.6024963897809066 88.255463139820236 21.833993600763936 180.80259215928166 -1.0000000180025095e-35 14.000000000000002
decision_type=2 2 2 2 2 2 2
left_child=1 2 -1 -2 -4 6 -6
right_child=3 -3 4 -5 5 -7 -8
leaf_value=0.060169060318081717 -0.10308440493119163 -0.019344074170583831 0.05857605019785514 -0.10242853185438626 0.058600238066650247 0.058600238066650413 0.058600238066650323
leaf_weight=2.4165185093879762 5.7448522448539716 1.1967187672853459 1.6246521845459962 7.4957840144634247 6.0106723308563312 2.629669144749637 10.518676578998566
leaf_count=18 23 7 13 30 48 21 84
internal_value=-0.000527342 0.0549307 0.058762 -0.102713 0.0585983 0.0586002 0.0586002
internal_weight=37.6375 24.3969 23.2002 13.2406 20.7837 19.159 16.5293
internal_count=244 191 184 53 166 153 132
is_linear=0
shrinkage=0.05


Tree=9
num_leaves=6
num_cat=0
split_feature=143 14 11 64 1
split_gain=78.1477 0.339682 0.203506 0.000524376 3.55271e-15
threshold=0.14490154024028448 156.77641442645478 290.93849423782456 -4847182.9450573521 20.227459750437841
decision_type=2 2 2 2 2
left_child=1 -1 -2 -3 -5
right_child=2 3 -4 4 -6
leaf_value=0.037730030908753473 -0.10023306119560674 0.058915913178807899 -0.088083447608116705 0.058110747577072124 0.058110747577072214
leaf_weight=2.2473939955234554 7.1916179656982404 2.2722115516662624 6.6185708940029144 2.4018613994121578 15.97237830609083
leaf_count=17 29 18 27 20 133
internal_value=-0.000474606 0.05619 -0.0944103 0.0581994 0.0581107
internal_weight=36.704 22.8938 13.8102 20.6465 18.3742
internal_count=244 188 56 171 153
is_linear=0
shrinkage=0.05


Tree=10
num_leaves=8
num_cat=0
split_feature=143 7 60 1 53 10 7
split_gain=68.2443 1.50123 1.17001 0.0483777 0.00176895 1.50873e-05 3.55271e-15
threshold=0.14490154024028448 10.500000000000002 3.2765883111212184 22.045640631623197 809127108.50000012 0.94129554655870462 10.500000000000002
decision_type=2 2 2 2 2 2 2
left_child=2 -2 4 -3 -1 6 -6
right_child=1 3 -4 -5 5 -7 -8
leaf_value=0.059117059797077404 -0.05235814449358122 -0.10001436055491575 0.023808187136727825 -0.093334057448406185 0.057652854913162625 0.057789165957292388 0.05765285491316266
leaf_weight=2.3948586061596933 2.3239701539278022 5.3696064949035627 2.8826474696397772 5.4719453454017639 2.417526751756669 2.3323732614517203 13.238836973905563
leaf_count=19 10 22 24 22 21 20 115
internal_value=0.00214626 -0.0888256 0.0536239 -0.0966427 0.0578405 0.0576705 0.0576529
internal_weight=36.4318 13.1655 23.2662 10.8416 20.3836 17.9887 15.6564
internal_count=253 54 199 44 175 156 136
is_linear=0
shrinkage=0.05


Tree=11
num_leaves=8
num_cat=0
split_feature=143 115 7 1 26 1 21
split_gain=62.8277 3.53982 1.40904 0.0399083 5.31109e-05 9.56586e-06 4.02062e-08
threshold=0.14490154024028448 45.550203267902894 10.500000000000002 22.045640631623197 0.61729323308270156 20.763322466533971 33.764856309723434
decision_type=2 2 2 2 2 2 2
left_child=1 4 -2 -4 5 -1 -7
right_child=2 -3 3 -5 -6 6 -8
leaf_value=0.057472809871042189 -0.049608235505887915 -0.040455774639478838 -0.095561885438529837 -0.089472526598451674 0.057224125339717505 0.057351793399617372 0.057341546696764438
leaf_weight=2.4885807633400026 2.3299837410449973 0.968446284532546 5.3394800722599012 5.4238566160202026 15.001542329788206 2.235112339258194 1.6745965182781222
leaf_count=22 10 6 22 22 136 20 15
internal_value=0.00212582 0.0530442 -0.0848618 -0.0924933 0.0572756 0.0573962 0.0573474
internal_weight=35.4616 22.3683 13.0933 10.7633 21.3998 6.39829 3.90971
internal_count=253 199 54 44 193 57 35
is_linear=0
shrinkage=0.05


Tree=12
num_leaves=8
num_cat=0
split_feature=143 18 84 1 19 1 1
split_gain=58.0036 3.37029 1.33854 0.037833 4.47041e-05 8.04847e-06 3.37991e-08
threshold=0.14490154024028448 4.6024963897809066 -1.0000000180025095e-35 21.177283806332273 1.474381614319664 20.763322466533971 21.499770193524579
decision_type=2 2 2 2 2 2 2
left_child=1 4 -2 -4 5 -1 -7
right_child=2 -3 3 -5 -6 6 -8
leaf_value=0.057055432560622822 -0.047059607629130196 -0.037508422453340268 -0.085622927105570124 -0.091607417099563798 0.056822337331488372 0.056932418575350231 0.05694201767927759
leaf_weight=2.3840888291597411 2.3332644253969201 0.99169126152992149 4.8590287566184962 5.7852703481912613 14.368252098560333 1.6040823608636858 2.1410168707370758
leaf_count=22 10 6 20 24 136 15 20
internal_value=0.00210881 0.0525151 -0.0813574 -0.0888756 0.0568706 0.0569836 0.0569379
internal_weight=34.4667 21.4891 12.9776 10.6443 20.4974 6.12919 3.7451
internal_count=253 199 54 44 193 57 35
is_linear=0
shrinkage=0.05


Tree=13
num_leaves=8
num_cat=0
split_feature=143 55 7 23 19 26 1
split_gain=53.6671 3.2158 1.28427 0.0322241 3.76755e-05 6.78066e-06 2.85115e-08
threshold=0.14490154024028448 4792345.735162545 10.500000000000002 1.0000000180025095e-35 1.474381614319664 0.16616541353383116 21.499770193524579
decision_type=2 2 2 2 2 2 2
left_child=1 4 -2 -4 5 6 -1
right_child=2 -3 3 -5 -6 -7 -8
leaf_value=0.056548762933428226 -0.04468798337762999 -0.034854841416345025 -0.082934637799370201 -0.088476808887202441 0.056445484158853698 0.056664150025508613 0.056557772709167377
leaf_weight=1.5359400585293816 2.3342039138078681 1.0132513791322697 5.2671255171298972 5.224137231707572 13.756441354751587 2.2830784022808075 2.0500838756561279
leaf_count=15 10 6 22 22 136 22 20
internal_value=0.00209153 0.0520062 -0.0782313 -0.0856944 0.0564907 0.0565968 0.0565539
internal_weight=33.4643 20.6388 12.8255 10.4913 19.6255 5.8691 3.58602
internal_count=253 199 54 44 193 57 35
is_linear=0
shrinkage=0.05


Tree=14
num_leaves=8
num_cat=0
split_feature=143 37 84 1 26 1 1
split_gain=49.7487 3.07445 1.24248 0.0298501 3.1789e-05 5.72025e-06 2.40297e-08
threshold=0.14490154024028448 27.833518164385193 -1.0000000180025095e-35 21.177283806332273 0.61729323308270156 20.763322466533971 21.499770193524579
decision_type=2 2 2 2 2 2 2
left_child=1 4 -2 -4 5 -1 -7
right_child=2 -3 3 -5 -6 6 -8
leaf_value=0.05629703511923051 -0.042473194195756868 -0.032453821690910364 -0.079930849161130565 -0.085334176779915477 0.056091742554407326 0.056188714557913903 0.056197168948571921
leaf_weight=2.185534402728087 2.3331458121538171 1.0332662165164936 4.6847906708717311 5.6250278502702713 13.165964186191557 1.4701562002301216 1.9622962176799774
leaf_count=22 10 6 20 24 136 15 20
internal_value=0.00207413 0.0515153 -0.0754224 -0.0828789 0.0561342 0.0562338 0.0561935
internal_weight=32.4602 19.8172 12.643 10.3098 18.784 5.61799 3.43245
internal_count=253 199 54 44 193 57 35
is_linear=0
shrinkage=0.05


Tree=15
num_leaves=7
num_cat=0
split_feature=175 17 84 1 26 1
split_gain=56.6013 0.478014 0.0074685 0.00268692 3.14473e-05 4.22381e-06
threshold=1.0000000180025095e-35 5.8223165008417945 -0.1169352008998432 21.833993600763936 0.61729323308270156 21.499770193524579
decision_type=2 2 2 2 2 2
left_child=1 2 -1 -2 5 -4
right_child=3 -3 4 -5 -6 -7
leaf_value=0.059156718579704975 -0.077631569881413148 0.022402480651292397 0.055952322825286963 -0.079109263871926572 0.055759453511630676 0.055858511723443798
leaf_weight=1.822313100099566 5.0433776974678022 1.1105610728263844 2.566752724349505 7.8871977925300598 13.337571859359739 2.2531487345695496
leaf_count=16 22 6 27 34 144 24
internal_value=0.00383219 0.0543306 0.0561053 -0.0785329 0.055799 0.0559085
internal_weight=34.0209 21.0903 19.9798 12.9306 18.1575 4.8199
internal_count=273 217 211 56 195 51
is_linear=0
shrinkage=0.05


Tree=16
num_leaves=9
num_cat=0
split_feature=175 17 14 1 10 1 18 18
split_gain=52.8044 0.487348 0.00639629 0.00214016 2.65899e-05 3.57049e-06 1.77636e-15 8.88178e-16
threshold=1.0000000180025095e-35 5.8223165008417945 180.80259215928166 21.833993600763936 0.94129554655870462 21.499770193524579 -0.48101900880308385 2.3338518104286621
decision_type=2 2 2 2 2 2 2 2
left_child=1 2 -1 -2 6 -6 -4 -8
right_child=3 -3 4 -5 5 -7 7 -9
leaf_value=0.058657573594192269 -0.075567638764518275 0.021525189390008088 0.055447098881385451 -0.076901846020041728 0.055628423676795491 0.055540236554870073 0.055447098881385527 0.055447098881385465
leaf_weight=1.7478143274784148 4.9250605404376966 1.0983498394489277 8.061558790504936 7.7123335152864456 2.4554268345236769 2.1552323698997498 2.1261253952980015 2.5690681859850883
leaf_count=16 22 6 91 34 27 24 24 29
internal_value=0.00379031 0.0539134 0.0557744 -0.0763819 0.0554843 0.0555872 0.0554471 0.0554471
internal_weight=32.851 20.2136 19.1152 12.6374 17.3674 4.61066 12.7568 4.69519
internal_count=273 217 211 56 195 51 144 53
is_linear=0
shrinkage=0.05


Tree=17
num_leaves=10
num_cat=0
split_feature=175 76 17 7 10 2 11 2 2
split_gain=49.3311 0.874923 0.0475838 0.00180866 2.17242e-05 3.02104e-06 8.36447e-07 3.55271e-15 8.88178e-16
threshold=1.0000000180025095e-35 2.330753922746251 5.8223165008417945 14.000000000000002 0.94129554655870462 2.5000000000000004 171.34855029642554 3.5000000000000004 4.5000000000000009
decision_type=2 2 2 2 2 2 2 2 2
left_child=1 -1 4 -2 6 -6 -3 -8 -9
right_child=3 2 -4 -5 5 -7 7 8 -10
leaf_value=0.0033541189335088688 -0.075025777465861379 0.055200342505820676 0.066937724735359652 -0.073813321321564582 0.055323873151331505 0.055240921686526404 0.055153294180045914 0.05515329418004588 0.05515329418004588
leaf_weight=0.83207994699478405 6.4252689778804797 1.0239990949630797 0.90611261129379173 5.900437518954277 2.3482061326503745 2.0609475374221802 7.7082074433565122 2.4564617127180099 2.0329338312149048
leaf_count=5 29 12 5 27 27 24 91 29 24
internal_value=0.00375066 0.0535118 0.0557633 -0.0744454 0.055189 0.0552851 0.0551569 0.0551533 0.0551533
internal_weight=31.6947 19.3689 18.5369 12.3257 17.6308 4.40915 13.2216 12.1976 4.4894
internal_count=273 217 212 56 207 51 156 144 53
is_linear=0
shrinkage=0.05


Tree=18
num_leaves=8
num_cat=0
split_feature=175 76 137 1 10 18 11
split_gain=46.1396 0.866609 0.0399891 0.00150379 1.84017e-05 2.55868e-06 7.08478e-07
threshold=1.0000000180025095e-35 2.330753922746251 0.15085099071058206 21.833993600763936 0.94129554655870462 0.58653494776320503 171.34855029642554
decision_type=2 2 2 2 2 2 2
left_child=1 -1 -3 -2 6 -6 -4
right_child=3 2 4 -5 5 -7 -8
leaf_value=0.0031927506995404636 -0.071993210945306849 0.065870147854675931 0.05492105696280089 -0.073141332745872686 0.054959255987263381 0.055037332741459846 0.054876770314198131
leaf_weight=0.83047066628933208 4.6676496267318743 0.8755336999893214 0.97888594865799206 7.3320147693157196 1.9702266454696644 2.2450175955891609 11.659705281257628
leaf_count=5 22 5 12 34 24 27 144
internal_value=0.00371279 0.0531132 0.0554516 -0.0726947 0.0549104 0.0550008 0.0548802
internal_weight=30.5595 18.5598 17.7294 11.9997 16.8538 4.21524 12.6386
internal_count=273 217 212 56 207 51 156
is_linear=0
shrinkage=0.05


Tree=19
num_leaves=10
num_cat=0
split_feature=175 76 17 1 10 1 83 1 1
split_gain=43.2029 0.858715 0.0336574 0.00128017 1.56023e-05 2.16894e-06 6.00864e-07 1.77636e-15 1.77636e-15
threshold=1.0000000180025095e-35 2.330753922746251 5.8223165008417945 22.045640631623197 0.94129554655870462 21.499770193524579 1043540.914596657 21.684836561283333 20.598200997272016
decision_type=2 2 2 2 2 2 2 2 2
left_child=1 -1 4 -2 6 -6 -3 8 -8
right_child=3 2 -4 -5 5 -7 7 -9 -10
leaf_value=0.0030388640543835693 -0.071607526825609905 0.054658077398978981 0.064884367167275761 -0.070558825320916688 0.054767583749237347 0.054694054045635737 0.054616357851286226 0.054616357851286171 0.054616357851286206
leaf_weight=0.82893881201744335 6.0880788564682025 0.93551185727119879 0.84516367316245933 5.5748013854026794 2.1457787454128256 1.8829949498176572 7.0415035262703878 1.8570998311042792 2.2439956292510033
leaf_count=5 29 12 5 27 27 24 91 24 29
internal_value=0.00367691 0.0527286 0.0551584 -0.0711063 0.054648 0.0547332 0.0546196 0.0546164 0.0546164
internal_weight=29.4439 17.781 16.952 11.6629 16.1069 4.02877 12.0781 11.1426 9.2855
internal_count=273 217 212 56 207 51 156 144 120
is_linear=0
shrinkage=0.05


Tree=20
num_leaves=8
num_cat=0
split_feature=175 18 84 1 10 1 10
split_gain=36.7702 3.3907 0.0152586 0.00108571 1.38166e-05 1.68821e-06 3.55271e-15
threshold=1.0000000180025095e-35 4.6024963897809066 -0.1169352008998432 22.045640631623197 0.94129554655870462 21.499770193524579 0.90312500000000007
decision_type=2 2 2 2 2 2 2
left_child=1 2 -1 -2 6 -6 -4
right_child=3 -3 4 -5 5 -7 -8
leaf_value=0.059750825779372699 -0.070156462283865614 -0.042297849653345349 0.054370993676553396 -0.069158212157826748 0.054513495970310959 0.054444215081788344 0.05437099367655332
leaf_weight=1.47681359946728 5.7111566662788409 0.95324477553367692 8.0582712218165327 5.2072787284851074 2.1263416409492502 1.499309837818146 1.9960855320096023
leaf_count=15 28 6 109 26 28 20 27
internal_value=0.00115909 0.0491698 0.0549224 -0.0696804 0.0544012 0.0544848 0.054371
internal_weight=27.0285 16.1101 15.1568 10.9184 13.68 3.62565 10.0544
internal_count=259 205 199 54 184 48 136
is_linear=0
shrinkage=0.05


Tree=21
num_leaves=8
num_cat=0
split_feature=175 20 120 2 19 2 2
split_gain=34.4524 3.26323 0.00600997 0.000941157 1.17334e-05 1.43333e-06 1.77636e-15
threshold=1.0000000180025095e-35 38.140046643617666 60.569817175635826 8.0000000000000018 1.474381614319664 2.5000000000000004 3.5000000000000004
decision_type=2 2 2 2 2 2 2
left_child=1 2 4 -2 5 -1 -6
right_child=3 -3 -4 -5 6 -7 -8
leaf_value=0.054274034182742993 -0.067760499262018159 -0.042619117579132476 0.057535755087537679 -0.068730124613554142 0.054139678207498224 0.054208719983511393 0.054139678207498203
leaf_weight=2.0313369631767264 4.0615447908639908 0.91942921280860979 1.4743194878101338 6.5201668292284012 6.2142420411109907 1.4322264492511751 3.3895865678787231
leaf_count=28 21 5 16 33 88 20 48
internal_value=0.00115705 0.0487336 0.0545096 -0.068358 0.0541681 0.054247 0.0541397
internal_weight=26.0429 15.4611 14.5417 10.5817 13.0674 3.46356 9.60383
internal_count=259 205 200 54 184 48 136
is_linear=0
shrinkage=0.05


Tree=22
num_leaves=9
num_cat=0
split_feature=175 104 17 1 10 1 11 108
split_gain=32.3134 4.88969 0.0409066 0.000776096 1.01784e-05 1.21779e-06 1.47059e-10 1.77636e-15
threshold=1.0000000180025095e-35 65.46284565209821 5.8223165008417945 22.045640631623197 0.94129554655870462 21.499770193524579 171.34855029642554 -0.012568418465602587
decision_type=2 2 2 2 2 2 2 2
left_child=1 2 4 -2 6 -6 -1 -8
right_child=3 -3 -4 -5 5 -7 7 -9
leaf_value=0.053922220694127325 -0.067562011000583608 -0.082419190416796087 0.065200620112537438 -0.066690560290116122 0.054048249358603473 0.053986645979784281 0.053921517610936553 0.053921517610936401
leaf_weight=0.80937132239341281 5.3640359044075012 0.68220646679401475 0.85971786081791002 4.8784911334514618 1.9401353597641 1.3678383827209473 7.7552876248955682 1.4161829575896288
leaf_count=12 28 4 5 26 28 20 115 21
internal_value=0.00115508 0.0483264 0.0546306 -0.0671469 0.0539468 0.0540228 0.0539216 0.0539215
internal_weight=25.0733 14.8307 14.1485 10.2425 13.2888 3.30797 9.98084 9.17147
internal_count=259 205 201 54 196 48 148 136
is_linear=0
shrinkage=0.05


Tree=23
num_leaves=10
num_cat=0
split_feature=175 17 7 1 19 1 11 18 92
split_gain=30.3262 5.21839 0.0458899 0.000671987 8.6546e-06 1.03546e-06 1.24045e-10 1.77636e-15 1.77636e-15
threshold=1.0000000180025095e-35 6.9382580125449502 8.5000000000000018 21.833993600763936 1.2415045113861496 21.499770193524579 171.34855029642554 -1.0000000180025095e-35 -0.070407577846084771
decision_type=2 2 2 2 2 2 2 2 2
left_child=1 2 -1 -2 5 -4 -6 8 -8
right_child=3 -3 4 -5 6 -7 7 -9 -10
leaf_value=0.065442048140112397 -0.065512626765682522 -0.090925511648045132 0.05383525623983243 -0.066359811611693562 0.053716326791991009 0.053777124438184068 0.053715665949703478 0.053715665949703222 0.053715665949703333
leaf_weight=0.89693266153335471 3.7951118946075439 0.64610315859317857 1.8526306450366965 6.1077259927988052 0.77277418971061607 1.3060691952705383 1.3521468937396957 1.7384745776653314 5.6661393642425537
leaf_count=5 21 4 28 33 12 20 21 27 88
internal_value=0.00115496 0.0479092 0.0545121 -0.0660351 0.0537395 0.0538112 0.0537157 0.0537157 0.0537157
internal_weight=24.1341 14.2313 13.5852 9.90284 12.6882 3.1587 9.52954 8.75676 7.01829
internal_count=259 205 201 54 196 48 148 136 109
is_linear=0
shrinkage=0.05


Tree=24
num_leaves=9
num_cat=0
split_feature=175 17 7 1 19 18 26 18
split_gain=28.4788 4.7975 0.0385606 0.000557541 7.36426e-06 8.80863e-07 1.05107e-10 1.77636e-15
threshold=1.0000000180025095e-35 6.9382580125449502 8.5000000000000018 22.045640631623197 1.2415045113861496 0.58653494776320503 -1.0000000180025095e-35 -1.0000000180025095e-35
decision_type=2 2 2 2 2 2 2 2
left_child=1 2 -1 -2 5 -4 -6 -8
right_child=3 -3 4 -5 6 -7 7 -9
leaf_value=0.06446659829121025 -0.065375670778455075 -0.082003124356099036 0.053579366897170126 -0.06461126570357642 0.053521963374882492 0.053634241752725388 0.05352134076955422 0.053521340769554018
leaf_weight=0.86576893925666709 5.0142946094274521 0.67965206503868181 1.2468410283327094 4.5500344038009644 0.73768749833106717 1.7687145471572876 6.6996264047920659 1.6595404855907006
leaf_count=5 28 4 20 26 12 28 109 27
internal_value=0.00115528 0.047491 0.0542725 -0.065012 0.0535438 0.0536116 0.0535214 0.0535213
internal_weight=23.2222 13.6578 12.9782 9.56433 12.1124 3.01556 9.09685 8.35917
internal_count=259 205 201 54 196 48 148 136
is_linear=0
shrinkage=0.05


Tree=25
num_leaves=8
num_cat=0
split_feature=143 17 2 14 10 1 18
split_gain=24.4988 3.49865 0.216936 0.00526812 6.14015e-06 7.27451e-07 1.77636e-15
threshold=0.14490154024028448 6.9382580125449502 1.5000000000000002 180.80259215928166 0.94129554655870462 21.499770193524579 -0.48101900880308385
decision_type=2 2 2 2 2 2 2
left_child=1 3 -2 -1 6 -6 -5
right_child=2 -3 -4 4 5 -7 -8
leaf_value=0.056972680312120938 -0.051005609518479683 -0.050696535140263524 -0.066833577490652427 0.053337828948224898 0.05344446135260638 0.053392636635664972 0.053337828948224857
leaf_weight=1.1133048161864287 3.5440207868814451 0.86056549847126085 5.562770664691925 5.1623334586620304 1.6882768124341965 1.1305712312459946 2.8158182501792917
leaf_count=14 21 5 32 88 28 19 48
internal_value=0.00198312 0.0466633 -0.0606739 0.0536979 0.0533602 0.0534237 0.0533378
internal_weight=21.8777 12.7709 9.10679 11.9103 10.797 2.81885 7.97815
internal_count=255 202 53 197 183 47 136
is_linear=0
shrinkage=0.05


Tree=26
num_leaves=8
num_cat=0
split_feature=143 7 28 14 10 1 23
split_gain=22.9648 3.40204 0.221241 0.00556121 5.23035e-06 6.19564e-07 1.77636e-15
threshold=0.14490154024028448 8.5000000000000018 1.0000000180025095e-35 180.80259215928166 0.94129554655870462 21.499770193524579 1.0000000180025095e-35
decision_type=2 2 2 2 2 2 2
left_child=1 -1 -2 -3 6 -6 -5
right_child=2 3 -4 4 5 -7 -8
leaf_value=-0.04913242398285235 -0.049654986378874083 0.056955327024012306 -0.065868795352884715 0.053164460931126617 0.053265202936179146 0.053216244154610751 0.053164460931126478
leaf_weight=0.86828543245792644 3.4605414420366287 1.0810066424310196 5.3669989556074125 1.1755637414753399 1.6112064570188522 1.0789071880280972 6.4376109652221221
leaf_count=5 21 14 32 21 28 19 115
internal_value=0.00197078 0.0462674 -0.0595127 0.0535436 0.0531856 0.0532456 0.0531645
internal_weight=21.0801 12.2526 8.82754 11.3843 10.3033 2.69011 7.61317
internal_count=255 202 53 197 183 47 136
is_linear=0
shrinkage=0.05


Tree=27
num_leaves=8
num_cat=0
split_feature=175 29 37 1 19 1 26
split_gain=21.5913 5.89489 0.0247905 0.000511591 4.73947e-06 5.28002e-07 1.01492e-07
threshold=1.0000000180025095e-35 76.908518929740907 27.833518164385193 22.045640631623197 1.2415045113861496 21.499770193524579 -1.0000000180025095e-35
decision_type=2 2 2 2 2 2 2
left_child=1 2 4 -2 5 -1 -6
right_child=3 -3 -4 -5 6 -7 -8
leaf_value=0.053095830904112476 -0.062797764146522383 -0.070782969810757018 0.061595848762249439 -0.061994872281635083 0.052978947729024839 0.053049561423743757 0.053000617841344078
leaf_weight=1.5373923927545547 3.8827559798955908 1.0379513800144184 0.91649061441421587 4.0572092533111572 0.5837390348315229 1.0294313244521618 7.26369732618332
leaf_count=28 24 5 6 26 11 19 136
internal_value=0.0019585 0.0432648 0.0537121 -0.0623875 0.0530183 0.0530773 0.052999
internal_weight=20.3087 12.3687 11.3308 7.93997 10.4143 2.56682 7.84744
internal_count=255 205 200 50 194 47 147
is_linear=0
shrinkage=0.05


Tree=28
num_leaves=8
num_cat=0
split_feature=128 45 17 1 120 1 1
split_gain=20.1332 2.53753 1.06537 0.0678243 0.003375 3.92398e-06 8.88178e-16
threshold=52.349704653972857 1.0731436834934558 6.9382580125449502 22.045640631623197 57.360843045282834 20.227459750437841 20.598200997272016
decision_type=2 2 2 2 2 2 2
left_child=2 3 4 -2 5 -1 -7
right_child=1 -3 -4 -5 -6 6 -8
leaf_value=0.052935745895943069 -0.070957459056099556 0.00086067350765818269 -0.013055895279801966 -0.061273827463168229 0.055489134260781309 0.052845723165851066 0.052845723165851059
leaf_weight=1.4667237401008586 3.368597209453581 1.7790260873734949 0.64574156701564867 3.903595894575119 1.4301422759890563 4.483588695526123 2.4455938339233398
leaf_count=28 21 18 4 26 22 88 48
internal_value=0.00194961 -0.0526652 0.0491555 -0.0657594 0.0532439 0.0528614 0.0528457
internal_weight=19.523 9.05122 10.4718 7.27219 9.82605 8.39591 6.92918
internal_count=255 65 190 47 186 164 136
is_linear=0
shrinkage=0.05


Tree=29
num_leaves=10
num_cat=0
split_feature=175 88 18 35 11 10 34 2 2
split_gain=19.1823 9.302 0.0436425 0.000505115 5.20414e-06 4.40023e-07 2.35078e-07 8.88178e-16 4.44089e-16
threshold=1.0000000180025095e-35 72.977223326539459 4.1849779545508987 135.92571380590803 171.34855029642554 0.94129554655870462 -4.9411764705882346 3.5000000000000004 4.5000000000000009
decision_type=2 2 2 2 2 2 2 2 2
left_child=1 2 4 -2 6 7 -1 -6 -9
right_child=3 -3 -4 -5 5 -7 -8 8 -10
leaf_value=0.052784381005577141 -0.060603775715644764 -0.13537572393693828 0.062659585694294612 -0.061432108887124741 0.052699242014761685 0.052735896113039471 0.052822803247872953 0.052699242014761651 0.052699242014761644
leaf_weight=1.399090453982353 3.753225326538085 0.69100634753704149 1.250396296381951 3.6112533509731293 4.2764767110347748 0.93456724286079396 0.55641682446002771 1.3121008090674877 1.0205228514969349
leaf_count=28 26 3 8 24 88 19 11 27 21
internal_value=0.00193133 0.0424476 0.0538785 -0.06101 0.0527226 0.0527038 0.0527953 0.0526992 0.0526992
internal_weight=18.8051 11.4406 10.7496 7.36448 9.49917 7.54367 1.95551 6.6091 2.33262
internal_count=255 205 202 50 194 155 39 136 48
is_linear=0
shrinkage=0.05


Tree=30
num_leaves=9
num_cat=0
split_feature=32 105 32 7 14 1 1 1
split_gain=18.1633 8.53152 0.776845 0.0210129 0.00326232 1.30697e-05 2.4089e-06 8.88178e-16
threshold=80.511383181661827 -0.98367658573607675 94.968932748538023 11.500000000000002 180.80259215928166 22.045640631623197 20.227459750437841 20.598200997272016
decision_type=2 2 2 2 2 2 2 2
left_child=4 3 -3 -2 -1 -4 -6 -8
right_child=1 2 5 -5 6 -7 7 -9
leaf_value=0.055567076972726392 0.064128658111060985 -0.097489844717737084 -0.060124091426737469 0.052595355202018662 0.05264121848117749 -0.059980238247558507 0.052560681707035921 0.052560681707035907
leaf_weight=1.0420620106160656 0.83347937464713939 1.7562558948993663 2.6606186330318451 0.75057125091552734 1.0961011014878748 3.8837608695030212 4.0320184975862503 2.0391817688941956
leaf_count=16 5 9 19 16 23 28 87 44
internal_value=-0.00201701 -0.0476704 -0.0679627 0.0586638 0.0529531 -0.0600387 0.052573 0.0525607
internal_weight=18.094 9.88469 8.30064 1.58405 8.20936 6.54438 7.1673 6.0712
internal_count=247 77 56 21 170 47 154 131
is_linear=0
shrinkage=0.05


Tree=31
num_leaves=10
num_cat=0
split_feature=143 29 92 1 18 13 10 34 56
split_gain=16.6429 6.02102 1.25967 0.0466357 0.012019 3.56348e-06 2.74324e-07 1.11241e-07 8.88178e-16
threshold=0.14490154024028448 76.908518929740907 -1.0000000180025095e-35 22.045640631623197 4.6024963897809066 168.06148354385414 0.94129554655870462 -4.9411764705882346 -1.0000000180025095e-35
decision_type=2 2 2 2 2 2 2 2 2
left_child=1 4 -2 -4 5 7 8 -1 -7
right_child=2 -3 3 -5 -6 6 -8 -9 -10
leaf_value=0.052505778561932753 -0.0094263052789179055 -0.13027187271660068 -0.067739873371208126 -0.059399217055407419 0.059428924925465434 0.052429565090285492 0.052462377623751943 0.052532838389428349 0.052429565090285395
leaf_weight=1.0452652201056478 1.3007849007844923 0.47226896882057268 3.0436479896306974 3.7295659184455872 0.66742372512817461 3.8447238765656926 0.71572941541671742 0.5965666063129883 1.9444580525159856
leaf_count=23 8 2 21 28 5 87 16 13 44
internal_value=-0.00198931 0.0436589 -0.0544924 -0.0631472 0.0529783 0.0524498 0.0524332 0.0525156 0.0524296
internal_weight=17.3604 9.28644 8.074 6.77321 8.81417 8.14674 6.50491 1.64183 5.78918
internal_count=247 190 57 49 188 183 147 36 131
is_linear=0
shrinkage=0.05


Tree=32
num_leaves=8
num_cat=0
split_feature=32 105 32 8 14 56 1
split_gain=16.1189 7.66204 0.54886 0.01747 0.00239641 1.75759e-06 1.55394e-06
threshold=80.511383181661827 -0.98367658573607675 94.968932748538023 10.000000000000002 180.80259215928166 -11642670.038494891 22.045640631623197
decision_type=2 2 2 2 2 2 2
left_child=4 3 -3 -2 -1 -6 -4
right_child=1 2 6 -5 5 -7 -8
leaf_value=0.055001701914575957 0.063241261645573199 -0.090792299174844188 -0.058908926043200464 0.052336527125396659 0.052377608189743644 0.05230546411484608 -0.058857174794904765
leaf_weight=0.95232786610722797 0.79534791409969308 1.7357566952705363 2.4388598799705505 0.68241870403289795 0.99665869027376253 5.5195757150650016 3.5795153379440308
leaf_count=16 5 9 19 16 23 131 28
internal_value=-0.00195466 -0.0461368 -0.0660221 0.0582056 0.0526589 0.0523165 -0.0588781
internal_weight=16.7005 9.2319 7.75413 1.47777 7.46856 6.51623 6.01838
internal_count=247 77 56 21 170 154 47
is_linear=0
shrinkage=0.05


Tree=33
num_leaves=8
num_cat=0
split_feature=32 105 32 7 85 1 1
split_gain=15.2149 7.19245 0.464157 0.0147143 0.00206786 1.50189e-06 1.30223e-06
threshold=80.511383181661827 -0.98367658573607675 94.968932748538023 11.500000000000002 -0.0015635216960499469 20.227459750437841 22.045640631623197
decision_type=2 2 2 2 2 2 2
left_child=4 3 -3 -2 -1 -6 -4
right_child=1 2 6 -5 5 -7 -8
leaf_value=0.054750584230484137 0.062443218321486783 -0.088092785382496958 -0.058399274517393164 0.052217385217749414 0.052256275492348847 0.052187974127605202 -0.058350905185028293
leaf_weight=0.9099321514368065 0.76598115265369393 1.7003975212573985 2.3396472558379173 0.65058040618896484 0.9501966871321218 5.2619043476879597 3.4337324202060699
leaf_count=16 5 9 19 16 23 131 28
internal_value=-0.00193005 -0.0455535 -0.0651328 0.0577468 0.0525245 0.0521984 -0.0583705
internal_weight=16.0124 8.89034 7.47378 1.41656 7.12203 6.2121 5.77338
internal_count=247 77 56 21 170 154 47
is_linear=0
shrinkage=0.05


Tree=34
num_leaves=10
num_cat=0
split_feature=32 105 32 7 14 1 1 129 129
split_gain=14.3675 6.75618 0.392879 0.0124091 0.00178415 1.2839e-06 1.09236e-06 8.88178e-16 2.22045e-16
threshold=80.511383181661827 -0.98367658573607675 94.968932748538023 11.500000000000002 180.80259215928166 20.227459750437841 22.045640631623197 -1.0000000180025095e-35 -1.4168447502363932
decision_type=2 2 2 2 2 2 2 2 2
left_child=4 3 -3 -2 -1 -6 -4 8 -7
right_child=1 2 6 -5 5 7 -8 -9 -10
leaf_value=0.05451243084043661 0.061701904075172676 -0.085608258304269602 -0.057922812391583589 0.05210457231395637 0.05214139845622856 0.052076718348923183 -0.057877570966116509 0.052076718348923218 0.052076718348923245
leaf_weight=0.8692401163280018 0.73715497553348519 1.663204237818716 2.2433836311101913 0.62015730142593384 0.90579609945416439 0.8040437176823616 3.2923016548156738 3.3310382589697847 0.88061930984258541
leaf_count=16 5 9 19 16 23 21 28 87 23
internal_value=-0.00190693 -0.045006 -0.0642985 0.0573169 0.0523971 0.0520866 -0.0578959 0.0520767 0.0520767
internal_weight=15.3469 8.5562 7.19889 1.35731 6.79074 5.9215 5.53569 5.0157 1.68466
internal_count=247 77 56 21 170 154 47 131 44
is_linear=0
shrinkage=0.05


Tree=35
num_leaves=9
num_cat=0
split_feature=32 105 32 1 56 1 113 10
split_gain=13.8827 7.24155 0.338999 0.0126891 0.00171689 1.18914e-06 1.02373e-06 8.88178e-16
threshold=80.511383181661827 -0.98367658573607675 94.968932748538023 21.619232446030313 -43166693.72258579 20.227459750437841 -0.43826394002670438 0.90312500000000007
decision_type=2 2 2 2 2 2 2 2
left_child=4 3 -3 -2 -1 -6 -4 -7
right_child=1 2 6 -5 5 7 -8 -9
leaf_value=0.054510702086448273 0.051997720457687184 -0.083316558516221773 -0.05743457411995289 0.061322893947337934 0.052032604800470811 0.051971335678062718 -0.057476934927955574 0.051971335678062683
leaf_weight=0.75490090250968833 0.62803682312369324 1.6244885623455028 3.1552764475345607 0.87035322189331055 0.93845212832093405 4.1601408049464226 2.6027608662843709 0.9123115800321101
leaf_count=14 17 9 28 6 25 114 23 25
internal_value=-0.00169595 -0.042804 -0.0631447 0.0574143 0.0522632 0.0519809 -0.0574537 0.0519713
internal_weight=15.6467 8.88092 7.38253 1.49839 6.76581 6.0109 5.75804 5.07245
internal_count=261 83 60 23 178 164 51 139
is_linear=0
shrinkage=0.05


Tree=36
num_leaves=8
num_cat=0
split_feature=32 71 139 1 7 56 56
split_gain=13.122 5.62488 0.40131 0.0462229 0.0122903 0.00147963 1.01735e-06
threshold=80.511383181661827 4.5000000000000009 47.626876749303072 22.045640631623197 11.500000000000002 -43166693.72258579 -11642670.038494891
decision_type=2 2 2 2 2 2 2
left_child=5 2 -2 -4 -3 -1 -7
right_child=1 4 3 -5 -6 6 -8
leaf_value=0.054283925915288106 -0.081198773484558118 0.061932321615259217 -0.04802506225099816 -0.05701960813273782 0.051896497634952569 0.051929546414407182 0.051871496677825701
leaf_weight=0.72100801393389602 1.5845305323600749 0.62218588590621926 2.7080511227250099 3.0226809978485107 0.59854293242096901 0.89441016316413779 4.8341185487806824
leaf_count=14 9 4 25 28 17 25 139
internal_value=-0.00167723 -0.0423469 -0.0589273 -0.0527692 0.0570116 0.0521492 0.0518806
internal_weight=14.9855 8.53599 7.31526 5.73073 1.22073 6.44954 5.72853
internal_count=261 83 62 53 21 178 164
is_linear=0
shrinkage=0.05


Tree=37
num_leaves=9
num_cat=0
split_feature=128 76 17 17 14 17 1 10
split_gain=12.0677 4.71392 1.07914 0.141084 0.002929 5.01903e-06 8.03862e-07 1.13933e-07
threshold=52.349704653972857 4.6368734072030646 6.9382580125449502 6.9382580125449502 180.80259215928166 -1.0000000180025095e-35 20.227459750437841 0.94129554655870462
decision_type=2 2 2 2 2 2 2 2
left_child=2 3 4 5 -1 -2 -6 -8
right_child=1 -3 -4 -5 6 -7 7 -9
leaf_value=0.056739935033529032 -0.056728290702036048 0.057603343384742267 -0.026299774114424568 -0.075092833928995795 0.051831905511931425 -0.056630548273986406 0.051776893421803395 0.051800583158486749
leaf_weight=0.31402858346700657 2.404380194842815 0.97306755930185307 0.47242797911167134 1.2935957461595533 0.85235154256224621 2.8945157229900365 4.6065454334020615 0.57037922367453564
leaf_count=3 23 15 3 8 25 28 139 17
internal_value=-0.00165294 -0.0451258 0.0466026 -0.0602889 0.0520321 -0.0566749 0.0517869 0.0517795
internal_weight=14.3813 7.56556 6.81573 6.59249 6.3433 5.2989 6.02928 5.17692
internal_count=261 74 187 59 184 51 181 156
is_linear=0
shrinkage=0.05


Tree=38
num_leaves=9
num_cat=0
split_feature=32 36 37 1 1 7 11 1
split_gain=11.6935 4.96294 0.328438 0.0541758 0.00882312 0.00248882 8.58575e-07 1.61716e-08
threshold=80.511383181661827 6.7568362246398186 28.558541815645246 22.045640631623197 21.659284332435949 8.5000000000000018 171.34855029642554 20.763322466533971
decision_type=2 2 2 2 2 2 2 2
left_child=5 4 3 -3 -2 -1 7 -7
right_child=1 2 -4 -5 -6 6 -8 -9
leaf_value=0.056368158393910732 0.05170968550087969 -0.046144004618089693 -0.077907929034151543 -0.056265489931906588 0.060587931210671943 0.051739377218812735 0.051687235948184612 0.051726583086990477
leaf_weight=0.30063345283269871 0.54349116981029488 2.5286179184913635 1.5043275728821752 2.7707599699497223 0.57685798406600952 0.81219524145126321 4.3892908245325089 0.35491364821791649
leaf_count=3 17 25 9 28 4 25 139 11
internal_value=-0.00163456 -0.0412318 -0.057289 -0.051436 0.056281 0.0519371 0.0516974 0.0517355
internal_weight=13.7811 7.92405 6.80371 5.29938 1.12035 5.85703 5.5564 1.16711
internal_count=261 83 62 53 21 178 175 36
is_linear=0
shrinkage=0.05


Tree=39
num_leaves=9
num_cat=0
split_feature=32 105 17 1 7 1 11 1
split_gain=11.0381 5.92489 0.183619 0.00522823 0.00212016 1.0567e-05 7.34979e-07 1.38389e-08
threshold=80.511383181661827 -0.98367658573607675 6.9382580125449502 21.659284332435949 8.5000000000000018 22.045640631623197 171.34855029642554 20.763322466533971
decision_type=2 2 2 2 2 2 2 2
left_child=4 3 5 -2 -1 -3 7 -6
right_child=1 2 -4 -5 6 -7 -8 -9
leaf_value=0.056019124384635161 0.053566122728196587 -0.056070549137043006 -0.076192359998859316 0.059965478739723334 0.051651666686022474 -0.055922695435010772 0.05160224412926321 0.051639541577520764
leaf_weight=0.28770802170038212 0.75246226787567116 2.2205270230770111 1.4623562470078466 0.55427533388137817 0.77386279590427853 2.6513749361038208 4.1819257121533155 0.33815899677574635
leaf_count=3 19 23 9 4 25 28 139 11
internal_value=-0.00161141 -0.0406563 -0.0606541 0.0562805 0.051839 -0.0559901 0.0516119 0.051648
internal_weight=13.2227 7.641 6.33426 1.30674 5.58166 4.8719 5.29395 1.11202
internal_count=261 83 60 23 178 51 175 36
is_linear=0
shrinkage=0.05


Tree=40
num_leaves=9
num_cat=0
split_feature=175 17 7 1 11 10 1 1
split_gain=11.1829 2.37071 0.0122326 1.7448e-05 6.36186e-07 4.33871e-08 1.36148e-08 8.88178e-16
threshold=1.0000000180025095e-35 6.9382580125449502 8.5000000000000018 22.045640631623197 171.34855029642554 0.94129554655870462 20.763322466533971 21.684836561283333
decision_type=2 2 2 2 2 2 2 2
left_child=1 2 -1 -2 6 7 -4 -6
right_child=3 -3 4 -5 5 -7 -8 -9
leaf_value=0.058126236806064061 -0.055788391413408162 -0.043518515887249531 0.051568522655701443 -0.055600568854555082 0.051521660384009141 0.051538850573086471 0.051557027341490418 0.051521660384009099
leaf_weight=0.80750873684883107 2.6032245457172394 0.71837578713893879 0.79626021534204461 2.3551426082849503 3.2388202957808976 0.40553214028477658 0.38074471987783909 0.63056678324937809
leaf_count=7 28 4 27 26 113 14 13 22
internal_value=0.00171309 0.0425097 0.0523829 -0.0556992 0.0515323 0.0515233 0.0515648 0.0515217
internal_weight=11.9362 6.97781 6.25943 4.95837 5.45192 4.27492 1.177 3.86939
internal_count=254 200 196 54 189 149 40 135
is_linear=0
shrinkage=0.05


Tree=41
num_leaves=8
num_cat=0
split_feature=175 18 39 1 11 10 10
split_gain=10.567 2.24699 0.0104147 1.47608e-05 5.44937e-07 3.71738e-08 1.16569e-08
threshold=1.0000000180025095e-35 5.9355916797503321 86.435943844273041 22.045640631623197 171.34855029642554 0.94129554655870462 0.94129554655870462
decision_type=2 2 2 2 2 2 2
left_child=1 2 -1 -2 6 -6 -4
right_child=3 -3 4 -5 5 -7 -8
leaf_value=0.057672330765195845 -0.05547432249944953 -0.041069873432539483 0.051478787251655528 -0.055297672993240378 0.051445249130543325 0.05146155179564265 0.051489685127599674
leaf_weight=0.77401819825172413 2.489928126335144 0.72302162647247303 0.36271214485168435 2.2522415369749069 3.6860039457678795 0.38631892204284657 0.75855658762156963
leaf_count=7 28 4 13 26 135 14 27
internal_value=0.00170667 0.0421758 0.0522617 -0.0553904 0.0514553 0.0514468 0.0514862
internal_weight=11.4328 6.69063 5.96761 4.74217 5.19359 4.07232 1.12127
internal_count=254 200 196 54 189 149 40
is_linear=0
shrinkage=0.05


Tree=42
num_leaves=9
num_cat=0
split_feature=175 104 17 1 12 21 1 1
split_gain=9.98628 2.14778 0.0120988 1.24983e-05 4.66967e-07 3.18327e-08 9.98973e-09 4.44089e-16
threshold=1.0000000180025095e-35 57.836580656594641 5.8223165008417945 22.045640631623197 170.78028761065204 32.772649759687404 20.763322466533971 21.684836561283333
decision_type=2 2 2 2 2 2 2 2
left_child=1 2 4 -2 6 -6 -1 -7
right_child=3 -3 -4 -5 5 7 -8 -9
leaf_value=0.051414924576169155 -0.055178920424426264 -0.03840885231630646 0.058274334665620542 -0.055012682431975296 0.051388236156152636 0.051372778873304173 0.051404587970988673 0.051372778873304117
leaf_weight=0.72258404083549954 2.3808517009019852 0.73787704855203617 0.73085321485996235 2.1532161235809326 0.36798895895481143 2.9388844929635529 0.3455079197883606 0.57217220216989506
leaf_count=27 28 5 6 26 14 113 13 22
internal_value=0.00170022 0.0418407 0.0522694 -0.0551 0.0513823 0.0513742 0.0514116 0.0513728
internal_weight=10.9499 6.41587 5.67799 4.53407 4.94714 3.87905 1.06809 3.51106
internal_count=254 200 195 54 189 149 40 135
is_linear=0
shrinkage=0.05


Tree=43
num_leaves=10
num_cat=0
split_feature=175 17 18 1 12 10 1 18 18
split_gain=9.43692 2.10111 0.00804845 1.05936e-05 4.00211e-07 2.72924e-08 8.56448e-09 4.44089e-16 4.44089e-16
threshold=1.0000000180025095e-35 6.9382580125449502 4.1849779545508987 22.045640631623197 170.78028761065204 0.94129554655870462 20.763322466533971 -1.0000000180025095e-35 -0.48101900880308385
decision_type=2 2 2 2 2 2 2 2 2
left_child=1 2 4 -2 6 7 -1 8 -6
right_child=3 -3 -4 -5 5 -7 -8 -9 -10
leaf_value=0.05134401428771216 -0.054900907017286449 -0.039152621884046945 0.056957298258807278 -0.054744364601573642 0.051304035418024953 0.051318700613267682 0.051334207689675698 0.051304035418024835 0.051304035418024911
leaf_weight=0.68826854601502396 2.2759143114089966 0.71406260132789601 0.7293662205338477 2.0579871386289597 2.2046832609921698 0.35050425678491581 0.32909652218222618 0.59452132880687791 0.54497788473963726
leaf_count=27 28 4 7 26 89 14 13 24 22
internal_value=0.00169335 0.0414874 0.0520696 -0.0548266 0.0513131 0.0513054 0.0513408 0.051304 0.051304
internal_weight=10.4894 6.15548 5.44142 4.3339 4.71205 3.69469 1.01737 3.34418 2.74966
internal_count=254 200 196 54 189 149 40 135 111
is_linear=0
shrinkage=0.05


Tree=44
num_leaves=10
num_cat=0
split_feature=175 104 17 1 11 19 1 1 1
split_gain=8.92068 2.01137 0.00969347 8.98578e-06 3.43083e-07 2.34106e-08 7.34316e-09 4.44089e-16 2.22045e-16
threshold=1.0000000180025095e-35 57.836580656594641 5.8223165008417945 22.045640631623197 171.34855029642554 1.474381614319664 20.763322466533971 20.598200997272016 21.684836561283333
decision_type=2 2 2 2 2 2 2 2 2
left_child=1 2 4 -2 6 -6 -1 -7 -9
right_child=3 -3 -4 -5 5 7 -8 8 -10
leaf_value=0.051276747923270243 -0.054639103915277931 -0.03669309133317613 0.057620650161157284 -0.054491617955537287 0.051252735981852093 0.051238818559671134 0.051267443479179678 0.0512388185596711 0.051238818559671065
leaf_weight=0.65553843788802613 2.1750272661447525 0.72751855105161656 0.68809431791305531 1.9664681851863859 0.33382825553417239 2.0997615121304993 0.31344366446137428 0.56622782349586465 0.51904217153787613
leaf_count=27 28 5 6 26 14 89 13 24 22
internal_value=0.00168703 0.0411528 0.0520947 -0.0545691 0.0512474 0.0512401 0.0512737 0.0512388 0.0512388
internal_weight=10.045 5.90345 5.17594 4.1415 4.48784 3.51886 0.968982 3.18503 1.08527
internal_count=254 200 195 54 189 149 40 135 46
is_linear=0
shrinkage=0.05


Tree=45
num_leaves=8
num_cat=0
split_feature=175 17 18 10 11 10 8
split_gain=8.61615 2.91303 0.00919768 7.33928e-06 2.80309e-07 2.6304e-08 6.72858e-09
threshold=1.0000000180025095e-35 8.8252104712460966 4.1849779545508987 0.96190130624092907 171.34855029642554 0.94129554655870462 8.0000000000000018
decision_type=2 2 2 2 2 2 2
left_child=1 2 4 -2 6 -6 -1
right_child=3 -3 -4 -5 5 -7 -8
leaf_value=0.051212930992261652 -0.054389977633876763 -0.078696529867097381 0.056688465812479785 -0.054253412114508154 0.05117694467741582 0.051190145073845075 0.051204102868432168
leaf_weight=0.57807862758636464 1.854590065777302 0.46266290545463551 0.91909588873386372 2.0953252241015434 3.0107976980507378 0.43147062696516503 0.34444196149706841
leaf_count=25 25 2 9 29 134 19 15
internal_value=0.00253236 0.0416084 0.0521424 -0.0543175 0.0511852 0.0511786 0.0512096
internal_weight=9.69646 5.74655 5.28388 3.94992 4.36479 3.44227 0.922521
internal_count=258 204 202 54 193 153 40
is_linear=0
shrinkage=0.05


Tree=46
num_leaves=8
num_cat=0
split_feature=128 100 17 14 1 1 10
split_gain=8.12456 2.70037 0.0414569 0.00499585 3.04409e-06 2.00157e-07 2.25717e-08
threshold=52.349704653972857 -0.17153379583268766 6.9382580125449502 180.80259215928166 22.045640631623197 20.227459750437841 0.94129554655870462
decision_type=2 2 2 2 2 2 2
left_child=3 -2 4 -1 -3 -5 -7
right_child=1 2 -4 5 -6 6 -8
leaf_value=0.056144941015290654 0.053819494244078059 -0.054124756614611053 -0.066616403251212195 0.051152379079411073 -0.054028799605096156 0.051118226312382026 0.051130756849875107
leaf_weight=0.56919065862894047 0.63865260779857624 1.4080116152763369 0.8157529979944228 0.55051990784704719 2.001211479306221 2.867166075855494 0.41089225374162186
leaf_count=6 18 20 7 25 29 134 19
internal_value=0.00252547 -0.0420061 -0.0564912 0.0517743 -0.0540684 0.0511245 0.0511198
internal_weight=9.2614 4.86363 4.22498 4.39777 3.40922 3.82858 3.27806
internal_count=258 74 56 184 49 178 153
is_linear=0
shrinkage=0.05


Tree=47
num_leaves=8
num_cat=0
split_feature=175 17 96 1 11 19 1
split_gain=7.71996 2.60449 0.0067081 4.42806e-06 1.90489e-07 1.93634e-08 9.20393e-09
threshold=1.0000000180025095e-35 8.8252104712460966 63.548347798268956 22.045640631623197 171.34855029642554 1.474381614319664 20.763322466533971
decision_type=2 2 2 2 2 2 2
left_child=1 2 4 -2 6 -6 -1
right_child=3 -3 -4 -5 5 -7 -8
leaf_value=0.05109491216613276 -0.053928033308824209 -0.074821442668303498 0.055983005664292179 -0.053816900100982536 0.051074393456053704 0.051062500131414369 0.051084061146335805
leaf_weight=0.52424483001232181 1.688171923160553 0.4426414519548415 0.84259430319070805 1.9109169319272041 0.39127323962748084 2.7302340678870678 0.31156137585639954
leaf_count=25 25 2 9 29 19 134 15
internal_value=0.00251889 0.0412301 0.0519322 -0.053869 0.0510697 0.051064 0.0510909
internal_weight=8.84164 5.24255 4.79991 3.59909 3.95731 3.12151 0.835806
internal_count=258 204 202 54 193 153 40
is_linear=0
shrinkage=0.05


Tree=48
num_leaves=8
num_cat=0
split_feature=175 17 18 1 11 10 1
split_gain=7.31591 2.45711 0.00572355 3.76641e-06 1.63375e-07 1.66092e-08 7.89796e-09
threshold=1.0000000180025095e-35 8.8252104712460966 4.1849779545508987 22.045640631623197 171.34855029642554 0.94129554655870462 20.763322466533971
decision_type=2 2 2 2 2 2 2
left_child=1 2 4 -2 6 -6 -1
right_child=3 -3 -4 -5 5 -7 -8
leaf_value=0.051040371210738802 -0.053721817510437489 -0.073034844127183571 0.055658509207263264 -0.053616921664068541 0.051009609328675737 0.051020897455065675 0.051030070338916482
leaf_weight=0.49919653683900866 1.6118470951914787 0.431088626384735 0.80605499446392048 1.8243287950754166 2.5997039079666142 0.37257101014256466 0.29667198657989502
leaf_count=25 25 2 9 29 134 19 15
internal_value=0.00251263 0.0410799 0.0518344 -0.0536661 0.0510164 0.051011 0.0510365
internal_weight=8.44146 5.00529 4.5742 3.43618 3.76814 2.97227 0.795869
internal_count=258 204 202 54 193 153 40
is_linear=0
shrinkage=0.05


Tree=49
num_leaves=8
num_cat=0
split_feature=175 17 18 1 11 10 1
split_gain=6.93437 2.31979 0.00488577 3.20568e-06 1.40263e-07 1.42554e-08 6.77747e-09
threshold=1.0000000180025095e-35 8.8252104712460966 4.1849779545508987 22.045640631623197 171.34855029642554 0.94129554655870462 20.763322466533971
decision_type=2 2 2 2 2 2 2
left_child=1 2 4 -2 6 -6 -1
right_child=3 -3 -4 -5 5 -7 -8
leaf_value=0.050988608588628519 -0.053527151773981166 -0.071414935887868389 0.055353285911448113 -0.053428102064544937 0.050959399317169342 0.05097011660753225 0.050978829594256793
leaf_weight=0.47532035969197783 1.5386714413762093 0.41912683844566334 0.7708640545606612 1.7413330934941769 2.4752898104488854 0.35474468953907479 0.28247963637113571
leaf_count=25 25 2 9 29 134 19 15
internal_value=0.00250665 0.0409381 0.0517418 -0.0534746 0.0509659 0.0509607 0.050985
internal_weight=8.05783 4.77783 4.3587 3.28 3.58783 2.83003 0.7578
internal_count=258 204 202 54 193 153 40
is_linear=0
shrinkage=0.05


Tree=50
num_leaves=9
num_cat=0
split_feature=126 143 13 17 1 1 1 1
split_gain=5.86046 3.86097 0.157498 0.00391163 0.00138508 1.18402e-07 1.75577e-08 3.66721e-09
threshold=0.55680303069497861 0.074961433576157241 198.80692610285021 3.432980730735665 21.833993600763936 20.227459750437841 20.763322466533971 21.499770193524579
decision_type=2 2 2 2 2 2 2 2
left_child=1 6 -3 5 -4 -2 -1 -8
right_child=3 2 4 -5 -6 -7 7 -9
leaf_value=0.050911732631433705 0.050939463732732143 -0.080874332637082491 -0.055376471326738869 0.054968808288990749 -0.053278711649972811 0.050911732631433775 0.050930179360346023 0.050921909132364065
leaf_weight=0.43968609534203984 0.48876902461052019 0.67487657070159945 1.484589695930481 0.80414441972970951 1.6742897406220436 1.8115067128092048 0.21516251564025879 0.35553157329559326
leaf_count=25 27 3 23 10 29 103 12 20
internal_value=-0.00166323 -0.0360328 -0.0589489 0.051967 -0.0542646 0.0509176 0.0509192 0.050925
internal_weight=7.94856 4.84414 3.83376 3.10442 3.15888 2.30028 1.01038 0.570694
internal_count=252 112 55 140 52 130 57 32
is_linear=0
shrinkage=0.05


Tree=51
num_leaves=10
num_cat=0
split_feature=32 105 175 7 7 7 11 14 7
split_gain=5.73498 3.46369 0.138811 0.00153104 0.000747493 1.89602e-06 1.14043e-07 4.42519e-09 4.44089e-16
threshold=80.511383181661827 -0.98367658573607675 1.0000000180025095e-35 11.500000000000002 8.5000000000000018 14.000000000000002 171.34855029642554 188.24112930082728 14.000000000000002
decision_type=2 2 2 2 2 2 2 2 2
left_child=4 3 -3 -2 -1 -4 7 -6 -8
right_child=1 2 5 -5 6 -7 8 -9 -10
leaf_value=0.053693124813520121 0.05520959603484249 -0.076141912818747451 -0.053163294230813313 0.050876138370167662 0.050883987642329036 -0.053081137907939606 0.050866479966850058 0.050892806869635487 0.050866479966850078
leaf_weight=0.25620415806770358 0.51233006268739689 0.85297000408172641 1.5107914507389069 0.33848866820335388 0.20485000312328372 1.3122358918190002 0.77023329213261615 0.46534695290029049 1.3730245642364025
leaf_count=4 6 4 27 20 12 24 46 27 82
internal_value=-0.00164959 -0.0374245 -0.0584659 0.0534856 0.0511076 -0.0531251 0.0508721 0.0508901 0.0508665
internal_weight=7.59648 4.52682 3.676 0.850819 3.06966 2.82303 2.81345 0.670197 2.14326
internal_count=252 81 55 26 171 51 167 39 128
is_linear=0
shrinkage=0.05


Tree=52
num_leaves=9
num_cat=0
split_feature=126 143 13 17 100 10 8 7
split_gain=5.25961 3.44383 0.109568 0.00285417 0.00100935 8.71665e-08 1.29284e-08 2.7045e-09
threshold=0.55680303069497861 0.074961433576157241 198.80692610285021 3.432980730735665 0.19688891866294325 0.94129554655870462 8.0000000000000018 11.500000000000002
decision_type=2 2 2 2 2 2 2 2
left_child=1 6 -3 5 -4 -2 -1 -8
right_child=3 2 4 -5 -6 -7 7 -9
leaf_value=0.050823506289537718 0.05082350628953778 -0.076636312801840856 -0.052947859115010154 0.054453638136179594 -0.054823419973376697 0.050848498332994575 0.050840136432558802 0.050832676515884037
leaf_weight=0.39851763285696495 1.6418926473706967 0.64456784725189242 1.5242052339017393 0.73432901501655568 1.3550670742988584 0.44302767142653454 0.19502319395542145 0.32224871218204498
leaf_count=25 103 3 29 10 23 27 12 20
internal_value=-0.00163653 -0.0355526 -0.0580021 0.051773 -0.0538306 0.0508288 0.0508303 0.0508355
internal_weight=7.25888 4.43963 3.52384 2.81925 2.87927 2.08492 0.91579 0.517272
internal_count=252 112 55 140 52 130 57 32
is_linear=0
shrinkage=0.05


Tree=53
num_leaves=10
num_cat=0
split_feature=32 105 13 1 100 7 19 1 1
split_gain=5.1497 3.09026 0.091346 0.00111448 0.000888657 0.000545696 8.40486e-08 3.25982e-09 4.44089e-16
threshold=80.511383181661827 -0.98367658573607675 198.80692610285021 21.619232446030313 0.19688891866294325 8.5000000000000018 1.474381614319664 20.763322466533971 21.684836561283333
decision_type=2 2 2 2 2 2 2 2 2
left_child=5 3 -3 -2 -4 -1 7 -7 -8
right_child=1 2 4 -5 -6 6 8 -9 -10
leaf_value=0.053314558265166789 0.050791408796790595 -0.074780924772203938 -0.052795841116752444 0.054668584930378697 -0.054597132031167853 0.050806439159860085 0.050782699328128504 0.050798488206016602 0.050782699328128358
leaf_weight=0.23321919143199954 0.30677523463964451 0.62795329093933139 1.4539380483329298 0.46825005859136581 1.2941871881484983 0.42176106479018938 1.6237405277788637 0.18566006049513817 0.31867804750800144
leaf_count=4 20 3 29 6 23 27 107 12 21
internal_value=-0.00162456 -0.0369058 -0.0575756 0.0531339 -0.0536441 0.0509995 0.0507878 0.050804 0.0507827
internal_weight=6.93416 4.1511 3.37608 0.775025 2.74813 2.78306 2.54984 0.607421 1.94242
internal_count=252 81 55 26 52 171 167 39 128
is_linear=0
shrinkage=0.05


Tree=54
num_leaves=10
num_cat=0
split_feature=32 105 175 1 7 1 85 1 1
split_gain=4.8818 2.92045 0.0819584 0.000950942 0.000467222 9.34038e-07 7.21504e-08 2.79283e-09 2.22045e-16
threshold=80.511383181661827 -0.98367658573607675 1.0000000180025095e-35 21.619232446030313 8.5000000000000018 22.045640631623197 0.00042967540452876251 20.763322466533971 21.684836561283333
decision_type=2 2 2 2 2 2 2 2 2
left_child=4 3 -3 -2 -1 -4 7 -6 -8
right_child=1 2 5 -5 6 -7 8 -9 -10
leaf_value=0.053142472249626295 0.05075221551356654 -0.071217504863431605 -0.052690587032712677 0.054420250234761082 0.050766485187177593 -0.052628656268397238 0.050743943833589579 0.050758942321913504 0.050743943833589412
leaf_weight=0.22254517674446139 0.29203331097960505 0.78630121052265201 1.3081448450684547 0.44739434123039246 0.40149928070604812 1.138861745595932 1.5456996392458675 0.17673943564295769 0.30336161144077789
leaf_count=4 20 4 27 6 27 24 107 12 21
internal_value=-0.00161332 -0.0366733 -0.0571743 0.0529716 0.0509498 -0.0526618 0.0507488 0.0507642 0.0507439
internal_weight=6.62258 3.97274 3.23331 0.739428 2.64985 2.44701 2.4273 0.578239 1.84906
internal_count=252 81 55 26 171 51 167 39 128
is_linear=0
shrinkage=0.05


Tree=55
num_leaves=9
num_cat=0
split_feature=143 19 8 18 11 19 2 2
split_gain=5.28717 0.237554 0.00129484 0.00121669 5.58688e-08 5.64014e-09 2.63236e-09 2.22045e-16
threshold=0.14490154024028448 2.3397585365808014 5.5000000000000009 4.6024963897809066 171.34855029642554 1.474381614319664 1.5000000000000002 4.5000000000000009
decision_type=2 2 2 2 2 2 2 2
left_child=3 -2 -3 4 6 -6 -1 -7
right_child=1 2 -4 -5 5 7 -8 -9
leaf_value=0.050728548291177226 -0.017362499687875951 -0.052493896453422818 -0.05495671847201497 0.05375227259898635 0.05071499150755563 0.050707134733689242 0.050721378295146002 0.050707134733689041
leaf_weight=0.36804093234241086 0.57110358774662051 1.1312808841466906 1.0103176310658453 0.37856152653694142 0.26408994290977683 1.4438534528017042 0.19628129899501801 0.24751773476600658
leaf_count=26 8 25 19 6 19 105 14 18
internal_value=0.00415384 -0.046015 -0.0536558 0.0511093 0.0507122 0.0507082 0.0507261 0.0507071
internal_weight=5.61105 2.7127 2.1416 2.89834 2.51978 1.95546 0.564322 1.69137
internal_count=240 52 44 188 182 142 40 123
is_linear=0
shrinkage=0.05


Tree=56
num_leaves=9
num_cat=0
split_feature=143 19 1 18 12 19 1 1
split_gain=4.99817 0.243176 0.00113905 0.00104174 4.79782e-08 4.84382e-09 2.25866e-09 2.22045e-16
threshold=0.14490154024028448 2.3397585365808014 22.045640631623197 4.6024963897809066 170.78028761065204 1.474381614319664 20.763322466533971 21.684836561283333
decision_type=2 2 2 2 2 2 2 2
left_child=3 -2 -3 4 6 -6 -1 -7
right_child=1 2 -4 -5 5 7 -8 -9
leaf_value=0.050692510628103454 -0.016539389834853865 -0.0547309141094037 -0.052366355901274413 0.053556650619238921 0.050679635207779218 0.050672172385557872 0.050685703259582431 0.050672172385557671
leaf_weight=0.35033396817743856 0.56958924978971515 0.96490880846977245 1.0786623694002628 0.3613809049129485 0.2513809651136395 1.3743595965206621 0.18683665432035923 0.23560450226068508
leaf_count=26 8 19 25 6 19 105 14 18
internal_value=0.00412936 -0.0454303 -0.0534828 0.051054 0.050677 0.0506732 0.0506901 0.0506722
internal_weight=5.37306 2.61316 2.04357 2.7599 2.39852 1.86135 0.537171 1.60996
internal_count=240 52 44 188 182 142 40 123
is_linear=0
shrinkage=0.05


Tree=57
num_leaves=8
num_cat=0
split_feature=143 19 1 18 12 10 1
split_gain=4.72473 0.248376 0.00100109 0.0008922 4.12094e-08 4.16165e-09 1.93835e-09
threshold=0.14490154024028448 2.3397585365808014 22.045640631623197 4.6024963897809066 170.78028761065204 0.94129554655870462 20.763322466533971
decision_type=2 2 2 2 2 2 2
left_child=3 -2 -3 4 6 -6 -1
right_child=1 2 -4 -5 5 -7 -8
leaf_value=0.050658278014220598 -0.015751373772949381 -0.054514974869479461 -0.052245625589057577 0.053371856027493607 0.050638958923754133 0.050646049131075024 0.050651814251157112
leaf_weight=0.33346748538315374 0.56821693480014834 0.92139359563589063 1.0283664800226688 0.34491628780961026 1.5324243083596227 0.23927555046975602 0.17784043028950691
leaf_count=26 8 19 25 6 123 19 14
internal_value=0.00410439 -0.0448406 -0.053318 0.0510016 0.0506435 0.0506399 0.050656
internal_weight=5.1459 2.51798 1.94976 2.62792 2.28301 1.7717 0.511308
internal_count=240 52 44 188 182 142 40
is_linear=0
shrinkage=0.05


Tree=58
num_leaves=10
num_cat=0
split_feature=87 7 1 23 18 7 34 1 1
split_gain=4.53935 0.434586 0.416218 0.00277475 0.00154441 3.37093e-08 3.49225e-09 1.66737e-09 2.22045e-16
threshold=9.5000000000000018 10.500000000000002 21.833993600763936 1.0000000180025095e-35 4.1849779545508987 10.500000000000002 -4.9411764705882346 20.763322466533971 20.598200997272016
decision_type=2 2 2 2 2 2 2 2 2
left_child=4 2 -2 -3 5 7 8 -1 -7
right_child=1 3 -4 -5 -6 6 -8 -9 -10
leaf_value=0.050625765752569586 0.050607409023534312 -0.052131318422721111 -0.052491161913739995 -0.055831307871823492 0.053618917713924324 0.05060740902353459 0.050614143031805163 0.050619620960691808 0.050607409023534444
leaf_weight=0.31740266829729114 0.21344970725476775 0.98030325025320109 0.18082529306411743 1.0488732233643527 0.54612494632601727 0.97238199971616246 0.22774579375982273 0.1692719217389822 0.27274129260331392
leaf_count=26 18 25 4 20 9 82 19 14 23
internal_value=0.00407891 -0.0447106 0.00332359 -0.0540438 0.0512675 0.0506122 0.0506085 0.0506236 0.0506074
internal_weight=4.92912 2.42345 0.394275 2.02918 2.50567 1.95954 1.47287 0.486675 1.24512
internal_count=240 67 22 45 173 164 124 40 105
is_linear=0
shrinkage=0.05


Tree=59
num_leaves=10
num_cat=0
split_feature=89 118 37 1 11 19 1 34 34
split_gain=3.71108 1.40648 0.00135195 0.000766737 3.04087e-08 3.07106e-09 1.43142e-09 2.22045e-16 2.22045e-16
threshold=1.9129926613744199 1.8160877438242042 27.833518164385193 22.045640631623197 171.34855029642554 1.474381614319664 20.763322466533971 -1.0000000180025095e-35 -7.9999999999999991
decision_type=2 2 2 2 2 2 2 2 2
left_child=1 2 4 -2 6 -6 -1 8 -7
right_child=3 -3 -4 -5 5 7 -8 -9 -10
leaf_value=0.05059487072781034 -0.054105597168619735 -0.05754735391038357 0.053430782834672376 -0.052023052999432509 0.050583833415618951 0.050577434219260864 0.050589034868821284 0.050577434219261024 0.050577434219261079
leaf_weight=0.30210246890783432 0.83868114650249459 0.33621056377887715 0.52127303928136814 0.93438485637307167 0.21676504611968983 0.25958941224962506 0.16111132316291332 0.20315693132579271 0.92549268715083588
leaf_count=26 19 5 9 25 19 23 14 18 82
internal_value=0.00407145 0.0386634 0.0511551 -0.0530081 0.0505816 0.0505783 0.0505928 0.0505774 0.0505774
internal_weight=4.69877 2.9257 2.58949 1.77307 2.06822 1.605 0.463214 1.38824 1.18508
internal_count=240 196 191 44 182 142 40 123 105
is_linear=0
shrinkage=0.05


Tree=60
num_leaves=11
num_cat=0
split_feature=32 105 64 113 1 7 11 27 10 7
split_gain=3.97975 2.15748 0.110107 0.00215541 0.000523557 0.000182681 2.79306e-08 1.24045e-08 1.15532e-09 2.22045e-16
threshold=80.511383181661827 -0.98367658573607675 -1.0000000180025095e-35 -1.0000000180025095e-35 21.619232446030313 8.5000000000000018 171.34855029642554 1.0000000180025095e-35 0.94129554655870462 10.500000000000002
decision_type=2 2 2 2 2 2 2 2 2 2
left_child=5 4 3 7 -2 -1 8 -3 -7 -8
right_child=1 2 -4 -5 -6 6 9 -9 -10 -11
leaf_value=0.05227991294660999 0.050555038311555167 -0.051928830719713215 -0.080255312174635829 -0.055807651116243931 0.053731416009909938 0.050559979633548108 0.050548956075710784 -0.051920497990628867 0.05056552326302588 0.050548956075710944
leaf_weight=0.16683173179626498 0.21716607734561 0.78680999577045541 0.43113487958908026 0.44456406310200725 0.32221052050590515 0.14238685462623824 0.22558081336319435 1.0330098234117027 0.27647244278341532 1.2030976712703703
leaf_count=4 20 22 2 8 5 13 21 29 25 112
internal_value=-0.0044754 -0.0388302 -0.057096 -0.0526866 0.0524525 0.0506954 0.0505523 -0.0519241 0.0505636 0.050549
internal_weight=5.24926 3.2349 2.69552 2.26438 0.539377 2.01437 1.84754 1.81982 0.418859 1.42868
internal_count=261 86 61 59 25 175 171 51 38 133
is_linear=0
shrinkage=0.05


Tree=61
num_leaves=10
num_cat=0
split_feature=32 105 64 17 1 7 11 17 1
split_gain=3.7732 2.03981 0.0920142 0.00187157 0.000447582 0.000156664 2.39897e-08 1.06147e-08 9.92295e-10
threshold=80.511383181661827 -0.98367658573607675 -1.0000000180025095e-35 6.9382580125449502 21.619232446030313 8.5000000000000018 171.34855029642554 -1.0000000180025095e-35 20.763322466533971
decision_type=2 2 2 2 2 2 2 2 2
left_child=5 4 3 7 -2 -1 8 -3 -7
right_child=1 2 -4 -5 -6 6 -8 -9 -10
leaf_value=0.05216377935699025 0.050527673620995889 -0.051831226012138167 -0.078105446035365747 -0.055529250048629519 0.053536281759222829 0.050537634646464796 0.050521896182104842 -0.051823329944846577 0.050532368353246163
leaf_weight=0.15903963148593891 0.20668381825089488 0.74981062114238817 0.42110583186149542 0.4249490164220332 0.30758501589298248 0.26313017588108767 1.3597105694934724 0.98442525044083629 0.13551470264792442
leaf_count=4 20 22 2 8 5 25 133 29 13
internal_value=-0.0044534 -0.0386024 -0.0567252 -0.0525554 0.0523271 0.050661 0.0505251 -0.0518267 0.0505358
internal_weight=5.01195 3.09456 2.58029 2.15918 0.514269 1.9174 1.75836 1.73424 0.398645
internal_count=261 86 61 59 25 175 171 51 38
is_linear=0
shrinkage=0.05


Tree=62
num_leaves=10
num_cat=0
split_feature=126 119 21 17 97 1 1 1 1
split_gain=3.24975 2.25709 0.0770558 0.00162441 0.000763509 1.79316e-08 9.08639e-09 3.23936e-09 6.20287e-10
threshold=0.55680303069497861 0.13694710825929801 44.642881418170496 6.9382580125449502 1.0000000180025095e-35 20.227459750437841 22.045640631623197 20.763322466533971 21.499770193524579
decision_type=2 2 2 2 2 2 2 2 2
left_child=1 7 3 6 -2 -6 -3 -1 -9
right_child=4 2 -4 -5 5 -7 -8 8 -10
leaf_value=0.050496185876779079 0.05290991793592164 -0.051738728062724393 -0.076153636292137492 -0.055263952250883298 0.050511143974373174 0.050496185876779266 -0.051731244083170702 0.050506134102560774 0.050501672335812688
leaf_weight=0.29188840650022063 0.44516368582844723 0.71448487788438864 0.41057084500789631 0.40611549094319332 0.25042514316737641 1.0021501956507561 0.93803904950618744 0.12897083722054958 0.19670238718390465
leaf_count=30 9 22 2 8 25 103 29 13 20
internal_value=-0.00443264 -0.0349931 -0.0563753 -0.0524308 0.0511313 0.0504992 -0.0517345 0.0505 0.0505034
internal_weight=4.78451 3.08677 2.46921 2.05864 1.69774 1.25258 1.65252 0.617562 0.325673
internal_count=261 124 61 59 137 128 51 63 33
is_linear=0
shrinkage=0.05


Tree=63
num_leaves=10
num_cat=0
split_feature=128 119 64 104 1 1 1 19 1
split_gain=3.13402 1.85075 0.0813429 0.0125638 0.00122708 0.000194905 1.49406e-08 1.77136e-09 2.22045e-16
threshold=44.556476634528345 0.13694710825929801 -1.0000000180025095e-35 57.836580656594641 22.045640631623197 21.659284332435949 20.227459750437841 1.474381614319664 20.598200997272016
decision_type=2 2 2 2 2 2 2 2 2
left_child=6 5 3 -3 -5 -2 -1 -8 -9
right_child=1 2 -4 4 -6 -7 7 8 -10
leaf_value=0.050485966762116335 0.051273968954001319 -0.044449777623623676 -0.074375436759140642 -0.055011161584740446 -0.051643962684385938 0.053259956510314614 0.050476968669876471 0.050471748308636044 0.050471748308635989
leaf_weight=0.23832756560295809 0.26710876356810365 0.7311675623059285 0.39964470267295782 0.38803936541080453 0.89376025646924973 0.22984753549098969 0.18719837069511402 0.75927591323852517 0.47223258018493652
leaf_count=25 17 23 2 8 29 4 20 82 51
internal_value=-0.00441304 -0.0356721 -0.0537707 -0.0496799 -0.0526633 0.0521925 0.0504744 0.0504724 0.0504717
internal_weight=4.5666 2.90957 2.41261 2.01297 1.2818 0.496956 1.65703 1.41871 1.23151
internal_count=261 83 62 60 37 21 178 153 133
is_linear=0
shrinkage=0.05


Tree=64
num_leaves=9
num_cat=0
split_feature=128 105 84 64 23 1 10 1
split_gain=2.9687 1.38717 0.230385 0.0527491 0.000346208 1.28411e-08 1.52169e-09 2.22045e-16
threshold=44.556476634528345 -0.98367658573607675 -0.1169352008998432 -1.0000000180025095e-35 1.0000000180025095e-35 20.227459750437841 0.94129554655870462 21.684836561283333
decision_type=2 2 2 2 2 2 2 2
left_child=5 -2 -3 4 -4 -1 7 -7
right_child=1 2 3 -5 -6 6 -8 -9
leaf_value=0.050462039686200034 0.0522791281425182 -0.013330592031523376 -0.051561217481296578 -0.0727503208851112 -0.053014346693162073 0.050448527604930404 0.050453487450547729 0.050448527604930175
leaf_weight=0.22680896800011385 0.38847375009208951 0.37100223079323846 0.85150098614394765 0.38842800259590049 0.7903431989252564 0.98692439496517159 0.17814937978982914 0.18504832405596972
leaf_count=25 18 11 29 2 23 112 20 21
internal_value=-0.00438343 -0.0353791 -0.0495603 -0.0561808 -0.0522607 0.050451 0.0504492 0.0504485
internal_weight=4.36668 2.78975 2.40127 2.03027 1.64184 1.57693 1.35012 1.17197
internal_count=261 83 65 54 52 178 153 133
is_linear=0
shrinkage=0.05


Tree=65
num_leaves=8
num_cat=0
split_feature=175 26 18 1 11 19 1
split_gain=2.95533 1.30403 0.000623937 1.31164e-06 1.05827e-08 1.24906e-09 8.41485e-10
threshold=1.0000000180025095e-35 1.5631578947368368 4.1849779545508987 22.045640631623197 171.34855029642554 1.474381614319664 20.763322466533971
decision_type=2 2 2 2 2 2 2
left_child=1 2 4 -2 6 -6 -1
right_child=3 -3 -4 -5 5 -7 -8
leaf_value=0.050439303801905623 -0.051572339945353499 -0.061163531947492356 0.052612385663942635 -0.051482759922650945 0.050431173523267904 0.050426465304644612 0.050433866151221751
leaf_weight=0.19857478328049261 0.82344392128288768 0.29832483828067768 0.41173346713185299 0.8111760001629591 0.16105731204152096 1.1236760858446357 0.11087359767407179
leaf_count=23 28 2 9 29 19 134 13
internal_value=-0.000106566 0.0363715 0.0508772 -0.0515279 0.0504291 0.0504271 0.0504374
internal_weight=3.93886 2.30424 2.00592 1.63462 1.59418 1.28473 0.309448
internal_count=257 200 198 57 189 153 36
is_linear=0
shrinkage=0.05


Tree=66
num_leaves=8
num_cat=0
split_feature=128 87 22 14 1 1 21
split_gain=3.05207 0.528757 0.00171122 0.000293938 2.59234e-08 8.87018e-09 1.07359e-09
threshold=52.349704653972857 9.5000000000000018 13.432694033547756 180.80259215928166 22.045640631623197 20.227459750437841 32.772649759687404
decision_type=2 2 2 2 2 2 2
left_child=3 -2 -3 -1 -4 -5 -7
right_child=1 2 4 5 -6 6 -8
leaf_value=0.052291050776096637 0.011850447983038678 -0.055276907894800498 -0.051422447021893664 0.050417692804531761 -0.051408354066336696 0.050409966519419869 0.05040549192739141
leaf_weight=0.24278419464826617 0.39679159689694676 0.36498362198472012 0.56483305245637871 0.18896909616887558 0.77270308509469032 0.15326527971774329 1.0693073011934755
leaf_count=6 17 8 21 23 29 19 134
internal_value=-0.000104862 -0.0401282 -0.0522424 0.050684 -0.0514143 0.0504076 0.0504061
internal_weight=3.75364 2.09931 1.70252 1.65433 1.33754 1.41154 1.22257
internal_count=257 75 58 182 50 176 153
is_linear=0
shrinkage=0.05


Tree=67
num_leaves=8
num_cat=0
split_feature=128 76 17 14 1 57 19
split_gain=2.8888 0.966653 0.00751499 0.000252206 9.2148e-07 7.62103e-09 9.25911e-10
threshold=52.349704653972857 4.6368734072030646 8.5763663276973592 180.80259215928166 22.045640631623197 -1.0000000180025095e-35 1.474381614319664
decision_type=2 2 2 2 2 2 2
left_child=3 2 4 -1 -2 -5 -7
right_child=1 -3 -4 5 -6 6 -8
leaf_value=0.052174651628155766 -0.051416622155679749 0.05178293018649819 -0.060272429752177427 0.050397153161918187 -0.051337781768344595 0.050389818771685052 0.050385558948868904
leaf_weight=0.23144568130373988 0.74655151553452037 0.25254617910832156 0.28274053335189808 0.17982437647879157 0.7360028363764286 0.14584727818146292 1.0175487753003833
leaf_count=6 28 16 2 23 29 19 134
internal_value=-0.000104821 -0.0397126 -0.0528022 0.0506502 -0.0513775 0.0503876 0.0503861
internal_weight=3.59251 2.01784 1.76529 1.57467 1.48255 1.34322 1.1634
internal_count=257 75 59 182 57 176 153
is_linear=0
shrinkage=0.05


Tree=68
num_leaves=9
num_cat=0
split_feature=128 76 31 14 7 11 10 2
split_gain=2.74365 0.917059 0.00637251 0.000216431 7.90116e-07 6.55596e-09 7.94437e-10 1.11022e-16
threshold=52.349704653972857 4.6368734072030646 98.611111111111128 180.80259215928166 14.000000000000002 171.34855029642554 0.94129554655870462 4.5000000000000009
decision_type=2 2 2 2 2 2 2 2
left_child=3 2 -2 -1 -4 -5 7 -7
right_child=1 -3 4 5 -6 6 -8 -9
leaf_value=0.052064390417771625 -0.059671598215725319 0.051695357950960155 -0.05134564393291733 0.050377638843424458 -0.051270840011589269 0.050366615782535512 0.050370660739120478 0.050366615782535255
leaf_weight=0.22061241231858764 0.27159033715724912 0.24062604224309314 0.71109866909682751 0.17111883964389552 0.70099860429763794 0.8020803742110727 0.13878565654158592 0.16619683429598808
leaf_count=6 2 16 28 23 29 111 19 23
internal_value=-0.00010324 -0.0396087 -0.0526575 0.0506181 -0.0513085 0.0503685 0.0503671 0.0503666
internal_weight=3.42311 1.92431 1.68369 1.49879 1.4121 1.27818 1.10706 0.968277
internal_count=257 75 59 182 57 176 153 134
is_linear=0
shrinkage=0.05


Tree=69
num_leaves=8
num_cat=0
split_feature=128 76 31 14 1 1 10
split_gain=2.606 0.870129 0.00540829 0.00018576 6.77722e-07 5.63632e-09 6.83665e-10
threshold=52.349704653972857 4.6368734072030646 98.611111111111128 180.80259215928166 22.045640631623197 20.227459750437841 0.94129554655870462
decision_type=2 2 2 2 2 2 2
left_child=3 2 -2 -1 -4 -5 -7
right_child=1 -3 4 5 -6 6 -8
leaf_value=0.05195992187786487 -0.059111385171565202 0.051612105753594817 -0.051278312504094418 0.050359083868804971 -0.051207323336770305 0.050348606036373367 0.050352452721631517
leaf_weight=0.21026428788900409 0.26073092222213712 0.2292504641227423 0.6772837471216917 0.1628317292779683 0.66761671006679535 0.92137491703033425 0.13206353364512324
leaf_count=6 2 16 28 23 29 134 19
internal_value=-0.000101754 -0.0395104 -0.0525208 0.0505877 -0.0512431 0.0503504 0.0503491
internal_weight=3.26142 1.83488 1.60563 1.42653 1.3449 1.21627 1.05344
internal_count=257 75 59 182 57 176 153
is_linear=0
shrinkage=0.05


Tree=70
num_leaves=11
num_cat=0
split_feature=126 177 34 64 17 113 2 1 1 1
split_gain=2.42749 1.5354 0.0707228 0.00188761 0.000294871 1.29747e-08 8.0319e-09 4.70357e-09 3.94772e-10 1.11022e-16
threshold=0.55680303069497861 1.0000000180025095e-35 -7.9999999999999991 -41358068.489781439 3.432980730735665 -0.43826394002670438 2.5000000000000004 20.227459750437841 21.499770193524579 21.684836561283333
decision_type=2 2 2 2 2 2 2 2 2 2
left_child=1 2 -1 -4 7 -5 -3 -2 -8 -9
right_child=4 6 3 5 -6 -7 8 9 -10 -11
leaf_value=-0.076811131090339574 0.050341449070676517 0.050349100999242495 -0.055244705110976948 -0.051147056109790659 0.052082043905119391 -0.051158253431653734 0.050331490831903872 0.050331490831904115 0.050335143379112879 0.050331490831903816
leaf_weight=0.3697921186685561 0.14146990701556184 0.11016946285963047 0.38722776994109143 0.52616778016090371 0.33272228762507439 0.50894543342292398 0.15048341453075409 0.60193365812301636 0.14550663903355598 0.13085514307022095
leaf_count=2 21 16 8 24 9 23 23 92 22 20
internal_value=-0.00615722 -0.0374382 -0.0573312 -0.0522666 0.0508152 -0.0511526 0.0503376 0.0503331 0.0503333 0.0503315
internal_weight=3.40527 2.19829 1.79213 1.42234 1.20698 1.03511 0.40616 0.874259 0.29599 0.732789
internal_count=260 118 57 55 142 47 61 133 45 112
is_linear=0
shrinkage=0.05


Tree=71
num_leaves=11
num_cat=0
split_feature=32 105 31 17 1 7 11 1 1 10
split_gain=2.29773 1.45617 0.0596718 0.0016247 0.000120731 3.22481e-05 1.19307e-08 1.11392e-08 1.24758e-09 1.11022e-16
threshold=80.511383181661827 -0.98367658573607675 92.000000000000014 6.9382580125449502 21.619232446030313 8.5000000000000018 171.34855029642554 22.045640631623197 20.763322466533971 0.90312500000000007
decision_type=2 2 2 2 2 2 2 2 2 2
left_child=5 4 -3 7 -2 -1 8 -4 -7 -8
right_child=1 2 3 -5 -6 6 9 -9 -10 -11
leaf_value=0.051371158304293896 0.05031869208902761 -0.075062322659215419 -0.051100493115249696 -0.05498048653055642 0.052173919341181256 0.050324685513688655 0.050315219170184326 -0.05108986118746775 0.050331960243091861 0.050315219170184049
leaf_weight=0.077936382964253759 0.13845431245863471 0.35974236577749219 0.48465729132294655 0.37006784602999687 0.23918450623750687 0.13461402710527159 0.69727000594139099 0.50105246901512146 0.10483122617006302 0.14318937622010708
leaf_count=3 22 2 23 8 6 21 112 24 16 23
internal_value=-0.00612924 -0.0373925 -0.0569591 -0.0521556 0.0514937 0.0503889 0.050318 -0.0510951 0.0503279 0.0503152
internal_weight=3.251 2.09316 1.71552 1.35578 0.377639 1.15784 1.0799 0.98571 0.239445 0.840459
internal_count=260 85 57 55 28 175 172 47 37 135
is_linear=0
shrinkage=0.05


Tree=72
num_leaves=10
num_cat=0
split_feature=126 177 68 17 17 1 2 1 1
split_gain=2.18282 1.37363 0.0505192 0.00135626 0.000217107 9.54918e-09 5.93749e-09 3.47741e-09 2.92472e-10
threshold=0.55680303069497861 1.0000000180025095e-35 2.388280335997822 6.9382580125449502 3.432980730735665 22.045640631623197 2.5000000000000004 20.227459750437841 21.499770193524579
decision_type=2 2 2 2 2 2 2 2 2
left_child=1 2 3 5 7 -1 -3 -2 -8
right_child=4 6 -4 -5 -6 -7 8 -9 -10
leaf_value=-0.05104566720816877 0.050308750036263498 0.050315665515554941 -0.073429231407612872 -0.054679090282330922 0.051876523542376207 -0.051035579329452324 0.050299751454382181 0.050299751454382473 0.05030305549332368
leaf_weight=0.46150293201208181 0.12808836065232732 0.099750027060508617 0.35088510811328877 0.35221454501152039 0.3022221215069294 0.47710999846458435 0.13624678272753954 0.66346259415149689 0.13174172583967447
leaf_count=23 21 16 2 8 9 24 23 112 22
internal_value=-0.00610266 -0.037041 -0.0566063 -0.0520334 0.0507365 -0.0510405 0.0503053 0.0503012 0.0503014
internal_weight=3.10322 2.00945 1.64171 1.29083 1.09377 0.938613 0.367739 0.791551 0.267989
internal_count=260 118 57 55 142 47 61 133 45
is_linear=0
shrinkage=0.05


Tree=73
num_leaves=11
num_cat=0
split_feature=126 143 31 17 17 7 7 10 7 6
split_gain=2.07035 1.29977 0.0427242 0.0011621 0.000186359 8.19877e-09 5.10946e-09 2.99213e-09 2.51444e-10 1.11022e-16
threshold=0.55680303069497861 0.074961433576157241 92.000000000000014 6.9382580125449502 3.432980730735665 14.000000000000002 10.500000000000002 0.94129554655870462 11.500000000000002 1.0000000180025095e-35
decision_type=2 2 2 2 2 2 2 2 2 2
left_child=1 6 -3 5 7 -4 -1 9 -8 -2
right_child=4 2 3 -5 -6 -7 8 -9 -10 -11
leaf_value=0.050300178356496111 0.050285044862397259 -0.071940449629819311 -0.050993632639818189 -0.054437066442147936 0.051781861770609394 -0.050984053340922091 0.050285044862396946 0.050293602039074473 0.050288185509660327 0.050285044862396891
leaf_weight=0.094913639128208493 0.51855557598173596 0.34068171679973569 0.43943184614181519 0.33625388145446777 0.2879948578774929 0.45428815484046936 0.12963889399543405 0.12187719298526645 0.12535272352397442 0.11272947303950787
leaf_count=16 92 2 23 8 9 24 23 21 22 20
internal_value=-0.00607741 -0.0368571 -0.0562715 -0.0519315 0.0507001 -0.0509888 0.0502903 0.0502864 0.0502866 0.050285
internal_weight=2.96172 1.92056 1.57066 1.22997 1.04116 0.89372 0.349905 0.753162 0.254992 0.631285
internal_count=260 118 57 55 142 47 61 133 45 112
is_linear=0
shrinkage=0.05


Tree=74
num_leaves=10
num_cat=0
split_feature=126 143 13 17 17 1 2 1 1
split_gain=1.96395 1.2302 0.0362275 0.000972287 0.000159986 7.02983e-09 4.39278e-09 2.56999e-09 2.16024e-10
threshold=0.55680303069497861 0.074961433576157241 179.74808503559609 6.9382580125449502 3.432980730735665 22.045640631623197 2.5000000000000004 20.227459750437841 21.499770193524579
decision_type=2 2 2 2 2 2 2 2 2
left_child=1 6 -3 5 7 -4 -1 -2 -8
right_child=4 2 3 -5 -6 -7 8 -9 -10
leaf_value=0.050285453021009702 0.050279198503520264 -0.070548360928998674 -0.050944233725045029 -0.054172882434821802 0.051692122900518257 -0.0509351432865255 0.05027106826632706 0.050271068266327379 0.050274052600336294
leaf_weight=0.090310417115688657 0.11596554284915317 0.33140897005796421 0.4183955807238815 0.31993681937456131 0.27441275864839554 0.43253673613071442 0.12334975181147456 0.60065966099500656 0.11927187722176313
leaf_count=16 21 2 23 8 9 24 23 112 22
internal_value=-0.00605343 -0.0366824 -0.055954 -0.0518231 0.0506655 -0.0509396 0.050276 0.0502724 0.0502725
internal_weight=2.82625 1.83521 1.50228 1.17087 0.991038 0.850932 0.332932 0.716625 0.242622
internal_count=260 118 57 55 142 47 61 133 45
is_linear=0
shrinkage=0.05


Tree=75
num_leaves=9
num_cat=0
split_feature=128 92 18 14 1 1 10 1
split_gain=2.0142 0.283935 0.00216195 7.75537e-05 5.81332e-09 2.30038e-09 2.64046e-10 1.11022e-16
threshold=52.349704653972857 -1.0000000180025095e-35 4.6024963897809066 180.80259215928166 22.045640631623197 20.227459750437841 0.94129554655870462 20.598200997272016
decision_type=2 2 2 2 2 2 2 2
left_child=3 -2 4 -1 -3 -5 7 -7
right_child=1 2 -4 5 -6 6 -8 -9
leaf_value=0.051398070316371905 0.0082413125277720004 -0.050897334528101572 -0.05597112102533737 0.050265509438951653 -0.050888701258860358 0.050257776011057222 0.050260612704127419 0.050257776011057145
leaf_weight=0.17851969599723838 0.2367245163768531 0.34638926386833147 0.28487511724233627 0.12084761122241616 0.44612499326467514 0.44904547557234764 0.092850943095982075 0.25513947475701571
leaf_count=7 20 20 3 23 26 88 18 50
internal_value=0.000406833 -0.0413411 -0.0522353 0.0504445 -0.0508925 0.0502591 0.0502581 0.0502578
internal_weight=2.41052 1.31411 1.07739 1.0964 0.792514 0.917884 0.797036 0.704185
internal_count=255 69 49 186 46 179 156 138
is_linear=0
shrinkage=0.05


Tree=76
num_leaves=8
num_cat=0
split_feature=128 92 17 14 1 1 10
split_gain=1.90639 0.276385 0.0018437 6.66233e-05 4.98991e-09 1.9775e-09 2.27413e-10
threshold=52.349704653972857 -1.0000000180025095e-35 8.5763663276973592 180.80259215928166 22.045640631623197 20.227459750437841 0.94129554655870462
decision_type=2 2 2 2 2 2 2
left_child=3 -2 4 -1 -3 -5 -7
right_child=1 2 -4 5 -6 6 -8
leaf_value=0.051328160738228205 0.0078393028161455585 -0.050852804363842319 -0.055646345146546587 0.05025249131062666 -0.050844606844424746 0.050245140235579702 0.050247839116530114
leaf_weight=0.17003864049911521 0.23642868362367164 0.32977692782878831 0.27252309769392014 0.11498282896354795 0.4247259646654129 0.67000567261129618 0.088344438001513481
leaf_count=7 20 20 3 23 26 138 18
internal_value=0.000404454 -0.040901 -0.0521214 0.0504227 -0.0508482 0.0502464 0.0502455
internal_weight=2.30683 1.26345 1.02703 1.04337 0.754503 0.873333 0.75835
internal_count=255 69 49 186 46 179 156
is_linear=0
shrinkage=0.05


Tree=77
num_leaves=9
num_cat=0
split_feature=128 45 116 14 2 11 10 10
split_gain=1.80421 0.269152 0.00157308 5.72385e-05 4.28387e-09 1.70239e-09 1.95717e-10 1.11022e-16
threshold=52.349704653972857 1.0731436834934558 -0.10808199526159459 180.80259215928166 8.0000000000000018 171.34855029642554 0.94129554655870462 0.90312500000000007
decision_type=2 2 2 2 2 2 2 2
left_child=3 2 4 -1 -2 -5 7 -7
right_child=1 -3 -4 5 -6 6 -8 -9
leaf_value=0.051261827425285178 -0.050810521345830861 0.0074560199257541863 -0.055340954018319101 0.050240120219193989 -0.050802736751871594 0.050233127854748851 0.050235694681053725 0.050233127854748552
leaf_weight=0.16194977052509818 0.31394798308610916 0.23616044316440821 0.26062630116939522 0.10940131032839417 0.40433640964329243 0.50813436042517424 0.084055636078119278 0.12934329174458981
leaf_count=7 20 20 3 23 26 110 18 28
internal_value=0.000401964 -0.040455 -0.0520135 0.0504019 -0.0508061 0.0502343 0.0502334 0.0502331
internal_weight=2.20796 1.21507 0.978911 0.992884 0.718284 0.830935 0.721533 0.637478
internal_count=255 69 49 186 46 179 156 138
is_linear=0
shrinkage=0.05


Tree=78
num_leaves=10
num_cat=0
split_feature=143 10 35 2 18 14 11 10 2
split_gain=1.59175 0.355227 0.094575 0.000183016 4.94837e-05 4.49504e-08 1.46131e-09 1.67596e-10 1.11022e-16
threshold=0.14490154024028448 -1.0000000180025095e-35 173.82253985496243 8.0000000000000018 4.6024963897809066 180.80259215928166 171.34855029642554 0.94129554655870462 4.5000000000000009
decision_type=2 2 2 2 2 2 2 2 2
left_child=1 -1 3 -2 5 -3 -7 8 -8
right_child=2 4 -4 -5 -6 6 7 -9 -10
leaf_value=-0.055276335685254967 -0.052239347314402995 0.05026513663966399 -0.010469421430216249 -0.050762974888675816 0.051198883610975632 0.050228353163451735 0.050221711870770895 0.050224147004128694 0.050221711870770472
leaf_weight=0.086342372000217327 0.46170099079608895 0.068210565950721724 0.16770663484930992 0.38491034507751465 0.15423600934445858 0.10408950690180063 0.50983001291751862 0.07997411023825407 0.096691899001598358
leaf_count=1 22 13 7 26 7 23 116 18 22
internal_value=0.000399365 0.0420767 -0.0447729 -0.0515681 0.0503743 0.0502262 0.0502228 0.050222 0.0502217
internal_weight=2.11369 1.09937 1.01432 0.846611 1.01303 0.858796 0.790586 0.686496 0.606522
internal_count=255 200 55 48 199 192 179 156 138
is_linear=0
shrinkage=0.05


Tree=79
num_leaves=9
num_cat=0
split_feature=143 2 20 2 18 14 11 10
split_gain=1.50634 0.337538 0.0955852 0.000158345 4.25214e-05 3.86648e-08 1.25944e-09 1.44611e-10
threshold=0.14490154024028448 27.500000000000004 38.140046643617666 8.0000000000000018 4.6024963897809066 180.80259215928166 171.34855029642554 0.94129554655870462
decision_type=2 2 2 2 2 2 2 2
left_child=1 4 3 -2 5 -1 -7 -8
right_child=2 -3 -4 -5 -6 6 7 -9
leaf_value=0.050252137358824424 -0.052132320191409301 -0.054992594951424237 -0.0099682457763243248 -0.050725208133200889 0.051139143657881594 0.050217168476061003 0.050210847405231608 0.050213166416313987
leaf_weight=0.064900259487331136 0.44006245583295811 0.082544445991516113 0.16734124533832073 0.36640377342700958 0.14688088931143284 0.099034502170979977 0.57706313766539097 0.076089944690465927
leaf_count=13 22 1 7 26 7 23 138 18
internal_value=0.000399294 0.0420465 -0.0443573 -0.051493 0.0503559 0.0502151 0.0502119 0.0502111
internal_weight=2.02032 1.04651 0.973807 0.806466 0.963969 0.817088 0.752188 0.653153
internal_count=255 200 55 48 199 192 179 156
is_linear=0
shrinkage=0.05


Tree=80
num_leaves=9
num_cat=0
split_feature=133 1 13 21 1 14 1 19
split_gain=1.2696 0.230355 0.164107 8.6378e-05 5.30742e-05 1.06725e-05 1.06444e-09 1.41326e-10
threshold=26.874738208589672 21.833993600763936 198.80692610285021 47.301630424626097 22.045640631623197 180.80259215928166 20.227459750437841 1.474381614319664
decision_type=2 2 2 2 2 2 2 2
left_child=1 3 -2 5 -4 -1 -7 -8
right_child=2 -3 4 -5 -6 6 7 -9
leaf_value=0.050862955568517103 0.0049435888276591908 -0.051037139261704868 -0.051571508144026827 0.051811066082443215 -0.050689344833417929 0.050206528245361315 0.050202723175823694 0.050200521810843418
leaf_weight=0.066713757812976837 0.1610305979847908 0.05972469225525856 0.36245304439216852 0.10119995847344398 0.32194563746452332 0.094223990105092525 0.084459279198199511 0.53311558719724417
leaf_count=4 16 3 22 3 24 23 21 134
internal_value=0.00398147 0.0439857 -0.040471 0.0504369 -0.0511565 0.0502583 0.0502016 0.0502008
internal_weight=1.78487 0.939437 0.845429 0.879713 0.684399 0.778513 0.711799 0.617575
internal_count=250 188 62 185 46 182 178 155
is_linear=0
shrinkage=0.05


Tree=81
num_leaves=9
num_cat=0
split_feature=133 2 13 11 7 7 11 19
split_gain=1.20197 0.219012 0.160716 7.41542e-05 4.60427e-05 9.17328e-06 9.1639e-10 1.22108e-10
threshold=26.874738208589672 27.500000000000004 198.80692610285021 362.0114727637685 14.000000000000002 8.5000000000000018 171.34855029642554 1.474381614319664
decision_type=2 2 2 2 2 2 2 2
left_child=1 3 -2 5 -4 -1 -7 -8
right_child=2 -3 4 -5 -6 6 7 -9
leaf_value=0.050820157426961443 0.0047007390157833831 -0.050985529601605253 -0.051497299918067223 0.051719622188771568 -0.050655271673505135 0.050196417848821076 0.050192801540367232 0.050190703723990975
leaf_weight=0.063512183725833893 0.16088613029569387 0.056867938488721848 0.34526029322296381 0.096430286765098572 0.30644495040178299 0.089646232314407825 0.080355637706816196 0.50721195759251714
leaf_count=4 16 3 22 3 24 23 21 134
internal_value=0.00396069 0.0439654 -0.040053 0.0504154 -0.0511014 0.0502456 0.0501917 0.050191
internal_weight=1.70662 0.894024 0.812591 0.837156 0.651705 0.740726 0.677214 0.587568
internal_count=250 188 62 185 46 182 178 155
is_linear=0
shrinkage=0.05


Tree=82
num_leaves=10
num_cat=0
split_feature=175 17 17 7 7 14 11 21 2
split_gain=1.13796 0.539395 7.06681e-05 7.81309e-06 1.97333e-07 7.27184e-08 7.88734e-10 1.0504e-10 5.55112e-17
threshold=1.0000000180025095e-35 8.8252104712460966 5.8223165008417945 8.5000000000000018 14.000000000000002 180.80259215928166 171.34855029642554 32.772649759687404 3.5000000000000004
decision_type=2 2 2 2 2 2 2 2 2
left_child=1 2 3 -1 -2 -5 -7 -8 -9
right_child=4 -3 -4 5 -6 6 7 8 -10
leaf_value=0.050779524472049309 -0.050680171802275159 -0.05420548539581347 0.051557431004150583 0.050237481073468329 -0.050622904484453869 0.05018680381016425 0.05018336374312804 0.050181368981672407 0.050181368981672296
leaf_weight=0.060461785644292609 0.31062264740467083 0.14310656487941742 0.11603992059826851 0.065867597237229347 0.29168113321065903 0.085290058050304651 0.07645065919496119 0.30250181257724762 0.18006060272455215
leaf_count=4 24 2 4 14 24 23 21 84 50
internal_value=0.00393931 0.0358693 0.0504071 0.0502339 -0.0506524 0.0501874 0.0501823 0.0501816 0.0501814
internal_weight=1.63208 1.02978 0.886672 0.770633 0.602304 0.710171 0.644303 0.559013 0.482562
internal_count=250 202 200 196 48 192 178 155 134
is_linear=0
shrinkage=0.05


Tree=83
num_leaves=9
num_cat=0
split_feature=175 26 21 19 1 26 1 10
split_gain=1.08165 0.512506 6.0691e-05 6.71645e-06 1.69653e-07 6.25438e-08 6.77963e-10 9.05648e-11
threshold=1.0000000180025095e-35 1.5631578947368368 47.301630424626097 0.37292831035756885 22.045640631623197 1.0000000180025095e-35 20.227459750437841 0.94129554655870462
decision_type=2 2 2 2 2 2 2 2
left_child=1 2 3 -1 -2 -5 -7 -8
right_child=4 -3 -4 5 -6 6 7 -9
leaf_value=0.050740926333644513 -0.050646584173181214 -0.05398359877884016 0.051479209086730794 0.050225841018532835 -0.050592157601245052 0.050177656946415683 0.050172490689444141 0.050174389636272354
leaf_weight=0.057555675506591797 0.29566441755741835 0.13667254149913788 0.11054407432675362 0.062669347040355206 0.27762005478143692 0.081144826719537377 0.45910674566403031 0.072734794579446316
leaf_count=4 24 2 4 14 24 23 134 21
internal_value=0.00393671 0.0358377 0.0503871 0.0502224 -0.0506202 0.0501783 0.0501734 0.0501728
internal_weight=1.55371 0.980428 0.843755 0.733211 0.573284 0.675656 0.612986 0.531842
internal_count=250 202 200 196 48 192 178 155
is_linear=0
shrinkage=0.05


Tree=84
num_leaves=10
num_cat=0
split_feature=175 17 17 7 1 14 1 10 1
split_gain=1.02816 0.486989 5.21279e-05 5.77407e-06 1.45859e-07 5.38033e-08 5.82977e-10 7.77554e-11 5.55112e-17
threshold=1.0000000180025095e-35 8.8252104712460966 5.8223165008417945 8.5000000000000018 22.045640631623197 180.80259215928166 20.227459750437841 0.94129554655870462 20.598200997272016
decision_type=2 2 2 2 2 2 2 2 2
left_child=1 2 3 -1 -2 -5 -7 8 -8
right_child=4 -3 -4 5 -6 6 7 -9 -10
leaf_value=0.050704267729645348 -0.050614672829586017 -0.053774256873132378 0.051405022075292899 0.050214780281542394 -0.05056294473865152 0.050168962425178265 0.050164051054613738 0.050165854985523263 0.050164051054613613
leaf_weight=0.054787233471870422 0.28141753189265728 0.13050025701522827 0.10530070215463638 0.059625727124512196 0.26422908157110214 0.077200385043397546 0.27380707673728466 0.069198949495330453 0.1629804028198123
leaf_count=4 24 2 4 14 24 23 84 21 50
internal_value=0.00393424 0.0358078 0.0503681 0.0502115 -0.0505896 0.0501695 0.0501649 0.0501643 0.0501641
internal_weight=1.47905 0.933401 0.8029 0.6976 0.545647 0.642813 0.583187 0.505986 0.436787
internal_count=250 202 200 196 48 192 178 155 134
is_linear=0
shrinkage=0.05


Tree=85
num_leaves=11
num_cat=0
split_feature=126 177 11 13 17 1 1 2 1 1
split_gain=1.3907 0.786289 0.121052 0.000681617 5.76338e-05 1.84374e-07 1.14004e-07 3.57135e-08 5.76905e-10 3.78292e-11
threshold=0.55680303069497861 1.0000000180025095e-35 184.92817803677443 198.80692610285021 5.8223165008417945 21.156061351760755 22.045640631623197 2.5000000000000004 20.227459750437841 21.499770193524579
decision_type=2 2 2 2 2 2 2 2 2 2
left_child=1 2 -1 -4 5 8 -5 -3 -2 -9
right_child=4 7 3 6 -6 -7 -8 9 -10 -11
leaf_value=-0.091775822501571153 0.05016069599154576 0.050204262148738778 -0.054392822735800962 -0.050579447537418477 0.051311474135757353 0.050241664358745809 -0.050535184184935189 0.050156022837400116 0.050156022837400616 0.050157739413507652
leaf_weight=0.24799244105815865 0.086220482597127668 0.056729331612586975 0.14465407654643059 0.29943389631807804 0.14763348177075386 0.078161030076444149 0.28291168715804815 0.074426852166652679 0.28220181446522474 0.056429537013173103
leaf_count=1 27 14 2 27 6 22 27 24 91 18
internal_value=-0.01177 -0.0435744 -0.0616108 -0.051321 0.050455 0.0501719 -0.0505579 0.0501711 0.0501571 0.0501568
internal_weight=1.75679 1.16258 0.974992 0.727 0.594217 0.446583 0.582346 0.187586 0.368422 0.130856
internal_count=259 113 57 56 146 140 54 56 118 42
is_linear=0
shrinkage=0.05


Tree=86
num_leaves=10
num_cat=0
split_feature=139 64 7 40 1 1 1 1 1
split_gain=1.34827 0.515365 0.132216 0.0348985 6.56804e-05 4.63477e-05 2.12021e-07 4.83257e-10 4.94431e-11
