tree
version=v4
num_class=1
num_tree_per_iteration=1
label_index=0
max_feature_idx=191
objective=binary sigmoid:1
feature_names=log_market_cap avg_daily_turnover_log days_in_current_stage pmi_50w_trend brent_30d_trend is_ramadan_period is_earnings_window n_signals_fired_in_last_30d n_signals_fired_in_last_7d earliest_signal_lead_days signal_acceleration t0_ema_8 t0_ema_21 t0_ema_50 t0_ema_100 t0_ema_200 t0_ema_ribbon_aligned t0_macd_line t0_macd_signal t0_macd_histogram t0_adx t0_plus_di t0_minus_di t0_supertrend t0_psar t0_hull_ma t0_linreg_slope t0_ichimoku_cloud_pos t0_ichimoku_tk_cross t0_rsi t0_rsi_divergence t0_stoch_k t0_stoch_d t0_stoch_rsi t0_williams_r t0_cci t0_roc t0_tsi t0_ao t0_connors_rsi t0_atr t0_atr_percentile_252 t0_bb_upper t0_bb_middle t0_bb_lower t0_bb_pct_b t0_bb_bandwidth t0_bb_squeeze t0_kc_upper t0_kc_lower t0_dc_upper t0_dc_lower t0_hist_vol_30d t0_obv t0_obv_slope_20 t0_obv_slope_60 t0_ad_line t0_cmf t0_mfi t0_vwap t0_vwap_distance_sigma t0_rel_volume t0_force_index t0_eom t0_klinger t0_swing_high t0_swing_low t0_zscore_20 t0_zscore_50 t0_zscore_200 t0_accumulation_score t0_wyckoff_phase_code t0_close t0_volume t0_high t0_low rsi_velocity macd_histogram_velocity obv_velocity accumulation_score_velocity cmf_velocity adx_velocity rel_volume_velocity obv_trajectory_slope accumulation_trajectory_slope bb_bandwidth_trajectory days_since_last_swing_high days_since_last_swing_low t1_rsi t1_macd_histogram t1_obv t1_accumulation_score t1_cmf t1_adx t1_rel_volume t1_bb_bandwidth t3_rsi t3_macd_histogram t3_obv t3_accumulation_score t3_cmf t3_adx t3_rel_volume t3_bb_bandwidth t7_rsi t7_macd_histogram t7_obv t7_accumulation_score t7_cmf t7_adx t7_rel_volume t7_bb_bandwidth t14_rsi t14_macd_histogram t14_obv t14_accumulation_score t14_cmf t14_adx t14_rel_volume t14_bb_bandwidth t30_rsi t30_macd_histogram t30_obv t30_accumulation_score t30_cmf t30_adx t30_rel_volume t30_bb_bandwidth t60_rsi t60_macd_histogram t60_obv t60_accumulation_score t60_cmf t60_adx t60_rel_volume t60_bb_bandwidth t90_rsi t90_macd_histogram t90_obv t90_accumulation_score t90_cmf t90_adx t90_rel_volume t90_bb_bandwidth current_stage_dormant stage_before_dormant current_stage_stealth_accumulation stage_before_stealth_accumulation current_stage_early_breakout stage_before_early_breakout current_stage_markup_trending stage_before_markup_trending current_stage_acceleration_climax stage_before_acceleration_climax current_stage_distribution_topping stage_before_distribution_topping current_stage_markdown_decline stage_before_markdown_decline current_stage_capitulation_exhaustion stage_before_capitulation_exhaustion regime_risk_on regime_neutral regime_risk_off sector_banking sector_consumer sector_energy sector_holding_misc sector_industrial sector_insurance sector_investment sector_real_estate sector_technology sector_telecom sector_transport tier_premier dow_0.0 dow_1.0 dow_2.0 dow_3.0 dow_6.0 month_1.0 month_2.0 month_3.0 month_4.0 month_5.0 month_6.0 month_7.0 month_8.0 month_9.0 month_10.0 month_11.0 month_12.0
feature_infos=none [20.23319909196281:21.226778268743306] [1:32] none none none [0:1] [8:15] [5:12] [58:90] [0.7142857142857143:0.98305084745762716] [753.28000475771864:1063.3749720020492] [741.19460156803132:1026.4581315422322] [739.1053660319194:997.7035553011001] [800.58178306865386:978.05674443500106] [808.34126700872309:965.67642490184301] [0:1] [-10.072379738699851:26.852755361724348] [-18.351641160322131:13.628386452280113] [0.56349849056829271:13.224368909444236] [15.472383454898711:36.291979884508564] [21.701673410260682:47.729477626474022] [5.3603251456214984:18.536546552936723] none [724.80023405275278:997.02838399999996] [757.20294117647052:1065.7230392156862] [-0.52330827067670627:4.4571428571428173] none [-1:1] [62.257609124454376:86.707818242396385] [-1:0] [70:100] [54.007490636704112:91.036708137997337] [99.287128359937427:100] [-30:0] [112.98030969221905:348.31641694860497] [1.3480392156862697:15.593561368209263] [-9.6604288446102835:45.207898989769156] [-23.611764705882365:57.832352941176509] [82.828719123336555:98.250254762359461] [9.8693356266946832:32.16728903429982] [11.111111111111111:100] [771.22448219602632:1100.7307408262946] [735.29999999999995:1018.5] [699.37551780397359:950.30378834489898] [0.86286206426223089:1.391012349970931] [0.033353750634458057:0.16147420878997468] none [769.94771733847665:1077.3256196495561] [713.4026583908867:978.81060322772657] [779:1185] [699:980] [10.662276208655621:40.98479116914335] [-41830304:7263652] [-226904.57218044944:369537.78120300814] [-438411.48305084743:52711.616504584636] [-127156768.40065359:-15107145.19078383] [-0.17711008440723763:0.27622621412187509] [53.334112519042385:88.315362025868595] [733.1335919725243:1039.8394512777186] [1.5357965017691391:3.7510708028967232] [1.759573705778946:3.8065699377339826] [4716913.6815842213:62427556.380386889] [-2571.5850683270714:29727.911730558866] [-6451757.3636891954:110842870.88678485] [0:1] none [1.4514482570489231:3.5640493998837148] [0.60122581786441653:4.5686775217007227] [0:3.13405426181165] [16.399849935763957:58.146557164279173] [0:5] [777:1149] [1507467:4599057] [779:1185] [757:1080] [2.2009061012176709:8.086349426457927] [0.2515840743884003:4.2467201006336088] [561631:2773905.6666666665] [0.55723232093373554:5.4043490928436624] [-0.01070993508189729:0.098034361882156515] [-0.75369092979205499:3.0872030027801181] [0.15468442678821689:0.93832366585266025] [-376685.74955185567:298510.05198463507] [-1.2231461118281008:0.67982190602938075] [-0.00183011717876117:0.0024822772837141552] [0:13] [2:10] [44.937511734222696:80.933990750573173] [-1.068990920303392:8.2395060750764717] [-46429361:3025844] [10.062718752244013:50.654208253512962] [-0.29299536604028392:0.26605286458339134] [13.695525175232058:36.75392926693425] [0.31896640702891582:2.7701058762009336] [0.018690617726513193:0.12843470623588563] [41.909600450774604:62.448769963022606] [-2.6467002912246285:3.6184104594292474] [-44178937:2931786] [9.677374301675977:41.933509885748187] [-0.35068989108333426:0.12623264437698675] [14.588063727310914:38.553052673884729] [0.2170140541017245:1.7428007270002506] [0.019408277090029083:0.13696767466028373] [35.423199336318575:62.586371874887696] [-2.34734997505271:5.3789322588294217] [-44096640:1996220] [11.372826701438747:52.934229069193727] [-0.50415167136397632:0.081488144358725256] [15.145588254039357:40.160944055343343] [0.25606295000600782:2.0667964472026932] [0.020547596392267442:0.14351556281102409] [27.407336063118109:63.314631647719857] [-5.6058925626179779:4.2892995578155393] [-42240049:5165540] [11.831005586592177:49.057472199429597] [-0.46305099723852972:0.0034941864131501467] [17.351670783289876:42.876006984636] [0.22463494253740979:1.4570608069625264] [0.026609505991121989:0.12586581650645337] [29.048960406442802:62.438914045293913] [-4.2094540296241085:3.210463155657743] [-39986604:8155307] [3.1103351955307263:60.671141314163435] [-0.60449352639625764:0.02766637072538343] [12.72825892221798:44.790487037050639] [0.3041519073363898:3.4528568654496206] [0.050066026584819186:0.10540502047442228] [39.336313005448773:77.807783291068532] [-8.1582071784630159:6.0152927344798997] [-41830304:7988153] [14.894070442229328:66.849803693204933] [-0.2796503028379525:0.39733902184624725] [16.650632011191103:42.751044252362533] [0.03283124752174333:6.6188173362981209] [0.020612222783863238:0.17223250045209723] [33.724375087299805:58.260382297963439] [-3.1226407165137307:6.9751016816566951] [-34263414:4385344] [13.650837988826815:56.62568608551409] [-0.55665655634394262:0.31472576097329807] [13.208657625679107:39.931649339094591] [0.15665987992186123:1.6690000928540691] [0.034656226153126198:0.17674602231724304] [0:1] [0:1] none none [0:1] none none [0:1] none none [0:1] [0:1] none none none none none none none none none none none none none none none none none none none [0:1] [0:1] none [0:1] [0:1] none [0:1] [0:1] none [0:1] [0:1] [0:1] none none [0:1] none none
tree_sizes=547 462 672 357 359 359 357 359 465 466 463 683 467 465 465 576 576 582 572 464 573 465 473 570 467 466 570 467 468 775 468 466 468 571 571 674 464 569 462 571 890 575 575 681 678 779 466 571 676 571

Tree=0
num_leaves=4
num_cat=0
split_feature=31 2 1
split_gain=134.773 1.42109e-14 7.10543e-15
threshold=92.429193899782163 11.500000000000002 20.641960644476814
decision_type=2 2 2
left_child=1 -1 -2
right_child=2 -3 -4
leaf_value=0.28046510034714256 0.48879844454590615 0.28046510034714262 0.48879844454590621
leaf_weight=3.1199999302625629 5.279999881982806 9.5999997854232788 14.639999672770498
leaf_count=13 22 40 61
internal_value=0.40761 0.280465 0.488798
internal_weight=32.64 12.72 19.92
internal_count=136 53 83
is_linear=0
shrinkage=1


Tree=1
num_leaves=3
num_cat=0
split_feature=31 1
split_gain=121.011 7.10543e-15
threshold=92.429193899782163 20.641960644476814
decision_type=2 2
left_child=-1 -2
right_child=1 -3
leaf_value=-0.11618726653819665 0.080668145047974829 0.080668145047974885
leaf_weight=12.992814943194388 5.1841322183609035 14.374184787273405
leaf_count=53 22 61
internal_value=0.00209312 0.0806681
internal_weight=32.5511 19.5583
internal_count=136 83
is_linear=0
shrinkage=0.05


Tree=2
num_leaves=5
num_cat=0
split_feature=34 2 34 2
split_gain=109.372 7.10543e-15 7.10543e-15 3.55271e-15
threshold=-7.5708061002178644 26.000000000000004 -24.999999999999996 18.500000000000004
decision_type=2 2 2 2
left_child=2 3 -1 -2
right_child=1 -3 -4 -5
leaf_value=-0.10892708591678937 0.078291358758705187 0.078291358758705187 -0.10892708591678937 0.078291358758705132
leaf_weight=9.9328345060348493 8.5388205051422101 8.0772626399993896 3.2281712144613257 2.5385682582855233
leaf_count=40 37 35 13 11
internal_value=0.00204401 0.0782914 -0.108927 0.0782914
internal_weight=32.3157 19.1547 13.161 11.0774
internal_count=136 83 53 48
is_linear=0
shrinkage=0.05


Tree=3
num_leaves=2
num_cat=0
split_feature=31
split_gain=99.3923
threshold=92.429193899782163
decision_type=2
left_child=-1
right_child=-2
leaf_value=-0.10284557035599065 0.076160876066502431
leaf_weight=13.239856302738191 18.717012241482735
leaf_count=53 83
internal_value=0.0019978
internal_weight=31.9569
internal_count=136
is_linear=0
shrinkage=0.05


Tree=4
num_leaves=2
num_cat=0
split_feature=31
split_gain=90.7359
threshold=92.429193899782163
decision_type=2
left_child=-1
right_child=-2
leaf_value=-0.097680769247743174 0.074242422702406691
leaf_weight=13.242530435323717 18.252394840121269
leaf_count=53 83
internal_value=0.00195465
internal_weight=31.4949
internal_count=136
is_linear=0
shrinkage=0.05


Tree=5
num_leaves=2
num_cat=0
split_feature=31
split_gain=89.1622
threshold=92.429193899782163
decision_type=2
left_child=-1
right_child=-2
leaf_value=-0.093243517171389498 0.07250779815386553
leaf_weight=15.418617039918898 17.124723196029663
leaf_count=62 80
internal_value=-0.00602305
internal_weight=32.5433
internal_count=142
is_linear=0
shrinkage=0.05


Tree=6
num_leaves=2
num_cat=0
split_feature=31
split_gain=81.91
threshold=92.429193899782163
decision_type=2
left_child=-1
right_child=-2
leaf_value=-0.089393621451907754 0.070933569969109184
leaf_weight=15.281800836324694 16.64177417755127
leaf_count=62 80
internal_value=-0.00581498
internal_weight=31.9236
internal_count=142
is_linear=0
shrinkage=0.05


Tree=7
num_leaves=2
num_cat=0
split_feature=34
split_gain=75.4749
threshold=-7.5708061002178644
decision_type=2
left_child=-1
right_child=-2
leaf_value=-0.08602489757531967 0.069500117893241148
leaf_weight=15.09093350172043 16.148273944854736
leaf_count=62 80
internal_value=-0.00563039
internal_weight=31.2392
internal_count=142
is_linear=0
shrinkage=0.05


Tree=8
num_leaves=3
num_cat=0
split_feature=31 29
split_gain=69.7296 7.10543e-15
threshold=92.429193899782163 68.378956471228904
decision_type=2 2
left_child=1 -1
right_child=-2 -3
leaf_value=-0.08305541233827414 0.068190878921685669 -0.083055412338274168
leaf_weight=3.8335108757019052 15.64808130264282 11.021343767642975
leaf_count=16 80 46
internal_value=-0.00546569 -0.0830554
internal_weight=30.5029 14.8549
internal_count=142 62
is_linear=0
shrinkage=0.05


Tree=9
num_leaves=3
num_cat=0
split_feature=31 53
split_gain=64.5725 3.55271e-15
threshold=92.429193899782163 -19932194.499999996
decision_type=2 2
left_child=-1 -2
right_child=1 -3
leaf_value=-0.080420903715322525 0.066991775602181086 0.066991775602181086
leaf_weight=14.581288754940035 8.8974109888076764 6.2471183538436881
leaf_count=62 47 33
internal_value=-0.00531799 0.0669918
internal_weight=29.7258 15.1445
internal_count=142 80
is_linear=0
shrinkage=0.05


Tree=10
num_leaves=3
num_cat=0
split_feature=31 1
split_gain=57.3733 3.55271e-15
threshold=92.429193899782163 20.35996633738473
decision_type=2 2
left_child=-1 -2
right_child=1 -3
leaf_value=-0.078070214832564655 0.065890760057622413 0.065890760057622413
leaf_weight=13.125620931386949 1.8300610780715931 12.810427546501158
leaf_count=57 10 70
internal_value=-0.0021626 0.0658908
internal_weight=27.7661 14.6405
internal_count=137 80
is_linear=0
shrinkage=0.05


Tree=11
num_leaves=5
num_cat=0
split_feature=31 54 57 54
split_gain=53.3529 3.55271e-15 3.55271e-15 8.88178e-16
threshold=92.429193899782163 -1.0000000180025095e-35 -0.17682780359810568 148809.29699248172
decision_type=2 2 2 2
left_child=2 -2 -1 -3
right_child=1 3 -4 -5
leaf_value=-0.075962131478435418 0.064877451166382952 0.064877451166382952 -0.075962131478435335 0.064877451166382896
leaf_weight=9.2235878556966764 10.250357687473295 2.120763659477233 3.5994489192962673 1.7673030495643618
leaf_count=41 58 12 16 10
internal_value=-0.00210672 0.0648775 -0.0759621 0.0648775
internal_weight=26.9615 14.1384 12.823 3.88807
internal_count=137 80 57 22
is_linear=0
shrinkage=0.05


Tree=12
num_leaves=3
num_cat=0
split_feature=31 10
split_gain=49.6963 3.55271e-15
threshold=92.429193899782163 0.91608391608391615
decision_type=2 2
left_child=-1 -2
right_child=1 -3
leaf_value=-0.074063032642843293 0.063942882392247935 0.063942882392247935
leaf_weight=12.502367064356806 4.0921304225921622 9.5483043193817121
leaf_count=57 24 56
internal_value=-0.00205619 0.0639429
internal_weight=26.1428 13.6404
internal_count=137 80
is_linear=0
shrinkage=0.05


Tree=13
num_leaves=3
num_cat=0
split_feature=31 17
split_gain=46.3594 3.55271e-15
threshold=92.429193899782163 7.6291475232210937
decision_type=2 2
left_child=-1 -2
right_child=1 -3
leaf_value=-0.072345245326677105 0.063079242710181116 0.063079242710181047
leaf_weight=12.167743116617205 11.504764109849926 1.6435377299785621
leaf_count=57 70 10
internal_value=-0.00201032 0.0630792
internal_weight=25.316 13.1483
internal_count=137 80
is_linear=0
shrinkage=0.05


Tree=14
num_leaves=3
num_cat=0
split_feature=31 2
split_gain=43.3053 3.55271e-15
threshold=92.429193899782163 18.500000000000004
decision_type=2 2
left_child=-1 -2
right_child=1 -3
leaf_value=-0.070785766714683174 0.062279698380937255 0.062279698380937248
leaf_weight=11.822763696312906 6.1734691858291608 6.4900573492050171
leaf_count=57 39 41
internal_value=-0.00196856 0.0622797
internal_weight=24.4863 12.6635
internal_count=137 80
is_linear=0
shrinkage=0.05


Tree=15
num_leaves=4
num_cat=0
split_feature=31 6 22
split_gain=41.6914 3.55271e-15 3.55271e-15
threshold=92.429193899782163 1.0000000180025095e-35 13.745867227508457
decision_type=2 2 2
left_child=2 -2 -1
right_child=1 -3 -4
leaf_value=-0.069365295889386044 0.061538246347948002 0.061538246347948002 -0.069365295889386058
leaf_weight=8.6532278656959551 4.8749442100524893 8.0741263478994352 2.8173300027847281
leaf_count=43 32 53 14
internal_value=4.93232e-05 0.0615382 -0.0693653
internal_weight=24.4196 12.9491 11.4706
internal_count=142 85 57
is_linear=0
shrinkage=0.05


Tree=16
num_leaves=4
num_cat=0
split_feature=31 2 26
split_gain=39.0413 3.55271e-15 3.55271e-15
threshold=92.429193899782163 14.500000000000002 1.0000000180025095e-35
decision_type=2 2 2
left_child=2 -2 -1
right_child=1 -3 -4
leaf_value=-0.068067545881673533 0.060849610715865823 0.060849610715865803 -0.068067545881673561
leaf_weight=2.7297132611274728 4.6883344650268537 7.7650539577007294 8.3841193020343781
leaf_count=14 32 53 43
internal_value=5.48444e-05 0.0608496 -0.0680675
internal_weight=23.5672 12.4534 11.1138
internal_count=142 85 57
is_linear=0
shrinkage=0.05


Tree=17
num_leaves=4
num_cat=0
split_feature=31 26 108
split_gain=36.5971 3.55271e-15 3.55271e-15
threshold=92.429193899782163 1.0000000180025095e-35 -1.0000000180025095e-35
decision_type=2 2 2
left_child=1 -1 -2
right_child=2 -3 -4
leaf_value=-0.066878652870544356 0.060209099988846083 -0.066878652870544383 0.060209099988846083
leaf_weight=2.6415620446205148 9.9975045621395093 8.1133691370487213 1.971338927745818
leaf_count=14 71 43 14
internal_value=5.97606e-05 -0.0668787 0.0602091
internal_weight=22.7238 10.7549 11.9688
internal_count=142 57 85
is_linear=0
shrinkage=0.05


Tree=18
num_leaves=4
num_cat=0
split_feature=31 1 83
split_gain=34.3382 3.55271e-15 3.55271e-15
threshold=92.429193899782163 20.782686341838811 -46647.253137003572
decision_type=2 2 2
left_child=1 -1 -2
right_child=2 -3 -4
leaf_value=-0.065786752138148732 0.059612559875086985 -0.065786752138148732 0.059612559875086985
leaf_weight=7.8424972295761126 9.3321699500083906 2.5533711910247803 2.1639814376831046
leaf_count=43 69 14 16
internal_value=6.41601e-05 -0.0657868 0.0596126
internal_weight=21.892 10.3959 11.4962
internal_count=142 57 85
is_linear=0
shrinkage=0.05


Tree=19
num_leaves=3
num_cat=0
split_feature=31 8
split_gain=32.2467 1.77636e-15
threshold=92.429193899782163 11.000000000000002
decision_type=2 2
left_child=-1 -2
right_child=1 -3
leaf_value=-0.064781614027036208 0.05905627169532407 0.059056271695323986
leaf_weight=10.038371890783312 9.4778632372617686 1.5580049157142646
leaf_count=57 73 12
internal_value=6.81066e-05 0.0590563
internal_weight=21.0742 11.0359
internal_count=142 85
is_linear=0
shrinkage=0.05


Tree=20
num_leaves=4
num_cat=0
split_feature=26 1 10
split_gain=29.9257 1.77636e-15 1.77636e-15
threshold=0.63533834586464943 20.782686341838811 0.91608391608391615
decision_type=2 2 2
left_child=1 -1 -2
right_child=2 -3 -4
leaf_value=-0.063854400986690929 0.058536934601413793 -0.063854400986690929 0.058536934601413772
leaf_weight=6.2860491424798983 2.9896695613861066 2.8881847411394119 7.9724521636962891
leaf_count=37 24 17 64
internal_value=0.00277477 -0.0638544 0.0585369
internal_weight=20.1364 9.17423 10.9621
internal_count=142 54 88
is_linear=0
shrinkage=0.05


Tree=21
num_leaves=3
num_cat=0
split_feature=26 17
split_gain=28.1494 1.77636e-15
threshold=0.63533834586464943 7.6291475232210937
decision_type=2 2
left_child=-1 -2
right_child=1 -3
leaf_value=-0.062997384036809642 0.058051549028607319 0.058051549028607242
leaf_weight=8.8424939811229724 9.0789482295513118 1.4335181415081031
leaf_count=54 76 12
internal_value=0.00274922 0.0580515
internal_weight=19.355 10.5125
internal_count=142 88
is_linear=0
shrinkage=0.05


Tree=22
num_leaves=3
num_cat=0
split_feature=26 30
split_gain=26.4964 1.77636e-15
threshold=0.63533834586464943 -1.0000000180025095e-35
decision_type=2 2
left_child=1 -1
right_child=-2 -3
leaf_value=-0.062203842151449057 0.057597457506910733 -0.062203842151449064
leaf_weight=1.5770019590854643 10.076604604721068 6.9388086199760455
leaf_count=10 88 44
internal_value=0.00272534 -0.0622038
internal_weight=18.5924 8.51581
internal_count=142 54
is_linear=0
shrinkage=0.05


Tree=23
num_leaves=4
num_cat=0
split_feature=26 1 1
split_gain=24.9562 1.77636e-15 1.77636e-15
threshold=0.63533834586464943 20.782686341838811 21.126426742682845
decision_type=2 2 2
left_child=1 -1 -2
right_child=2 -3 -4
leaf_value=-0.061467843786305466 0.057172219667658647 -0.06146784378630548 0.057172219667658619
leaf_weight=5.6151016950607318 7.0215611457824689 2.5799115896224976 2.6330854296684265
leaf_count=37 64 17 24
internal_value=0.00270301 -0.0614678 0.0571722
internal_weight=17.8497 8.19501 9.65465
internal_count=142 54 88
is_linear=0
shrinkage=0.05


Tree=24
num_leaves=3
num_cat=0
split_feature=26 10
split_gain=23.5193 1.77636e-15
threshold=0.63533834586464943 0.91608391608391615
decision_type=2 2
left_child=-1 -2
right_child=1 -3
leaf_value=-0.060784172881505089 0.056773675194500009 0.056773675194499988
leaf_weight=7.8807852566242245 2.5218052268028242 6.7248139381408691
leaf_count=54 24 64
internal_value=0.00268211 0.0567737
internal_weight=17.1274 9.24662
internal_count=142 88
is_linear=0
shrinkage=0.05


Tree=25
num_leaves=3
num_cat=0
split_feature=31 2
split_gain=23.7963 0.000343445
threshold=92.429193899782163 11.500000000000002
decision_type=2 2
left_child=1 -1
right_child=-2 -3
leaf_value=-0.060861780248799971 0.056399819639103413 -0.060148187781302376
leaf_weight=2.3008407801389712 8.8524817228317243 6.3114034384489059
leaf_count=16 88 45
internal_value=-0.0011666 -0.0603388
internal_weight=17.4647 8.61224
internal_count=149 61
is_linear=0
shrinkage=0.05


Tree=26
num_leaves=4
num_cat=0
split_feature=31 2 1
split_gain=22.4452 0.000292743 1.77636e-15
threshold=92.429193899782163 11.500000000000002 20.971690342909696
decision_type=2 2 2
left_child=1 -1 -2
right_child=2 -3 -4
leaf_value=-0.060227893127966836 0.056048863196037003 -0.059555785398230081 0.056048863196036983
leaf_weight=2.2110766470432299 5.8727282956242544 6.0617923736572266 2.5994043275713921
leaf_count=16 61 45 27
internal_value=-0.00115437 -0.0597354 0.0560489
internal_weight=16.745 8.27287 8.47213
internal_count=149 61 88
is_linear=0
shrinkage=0.05


Tree=27
num_leaves=3
num_cat=0
split_feature=31 11
split_gain=21.1811 0.000249795
threshold=92.429193899782163 835.24824407215749
decision_type=2 2
left_child=1 -1
right_child=-2 -3
leaf_value=-0.059003296768641203 0.055719156474470982 -0.059636857770192078
leaf_weight=5.818776190280917 8.1054210662841779 2.1235558986663818
leaf_count=45 88 16
internal_value=-0.00114296 -0.0591727
internal_weight=16.0478 7.94233
internal_count=149 61
is_linear=0
shrinkage=0.05


Tree=28
num_leaves=3
num_cat=0
split_feature=31 11
split_gain=19.9972 0.000213345
threshold=92.429193899782163 835.24824407215749
decision_type=2 2
left_child=1 -1
right_child=-2 -3
leaf_value=-0.058487442812337254 0.055409205983325029 -0.059085105924917052
leaf_weight=5.5825698003172874 7.7521516680717468 2.0383728295564651
leaf_count=45 88 16
internal_value=-0.00113231 -0.0586473
internal_weight=15.3731 7.62094
internal_count=149 61
is_linear=0
shrinkage=0.05


Tree=29
num_leaves=6
num_cat=0
split_feature=31 2 2 2 2
split_gain=18.8876 0.000182374 1.77636e-15 8.88178e-16 8.88178e-16
threshold=92.429193899782163 11.500000000000002 26.000000000000004 6.0000000000000009 18.500000000000004
decision_type=2 2 2 2 2
left_child=1 -1 3 -2 -5
right_child=2 -3 -4 4 -6
leaf_value=-0.05856946166391247 0.055117639290225229 -0.058005270647722984 0.055117639290225257 0.055117639290225257 0.055117639290225208
leaf_weight=1.9555974453687666 1.0949686691164968 5.3533264249563217 2.9479925706982613 2.2741656973958015 1.0949686691164973
leaf_count=16 13 45 35 27 13
internal_value=-0.00112236 -0.0581562 0.0551176 0.0551176 0.0551176
internal_weight=14.721 7.30892 7.4121 4.4641 3.36913
internal_count=149 61 88 53 40
is_linear=0
shrinkage=0.05


Tree=30
num_leaves=3
num_cat=0
split_feature=34 7
split_gain=18.7854 0.000292257
threshold=-7.5708061002178644 12.500000000000002
decision_type=2 2
left_child=1 -1
right_child=-2 -3
leaf_value=-0.057550590637491628 0.054843198803632032 -0.058405741075247021
leaf_weight=6.1552345454692841 7.487548291683197 1.1927303075790403
leaf_count=54 93 10
internal_value=-0.000893706 -0.0576894
internal_weight=14.8355 7.34796
internal_count=157 64
is_linear=0
shrinkage=0.05


Tree=31
num_leaves=3
num_cat=0
split_feature=31 7
split_gain=17.7568 0.000249769
threshold=92.429193899782163 12.500000000000002
decision_type=2 2
left_child=1 -1
right_child=-2 -3
leaf_value=-0.05712831287490984 0.054584734910226765 -0.057935735999134652
leaf_weight=5.8972211480140686 7.1552481651306152 1.1435307785868642
leaf_count=54 93 10
internal_value=-0.000886325 -0.0572595
internal_weight=14.196 7.04075
internal_count=157 64
is_linear=0
shrinkage=0.05


Tree=32
num_leaves=3
num_cat=0
split_feature=31 7
split_gain=16.7903 0.000213597
threshold=92.429193899782163 12.500000000000002
decision_type=2 2
left_child=1 -1
right_child=-2 -3
leaf_value=-0.056732498668065304 0.054341181666223551 -0.057495271669196081
leaf_weight=5.6477554589509964 6.8360155150294304 1.0958819836378095
leaf_count=54 93 10
internal_value=-0.000879415 -0.0568565
internal_weight=13.5797 6.74364
internal_count=157 64
is_linear=0
shrinkage=0.05


Tree=33
num_leaves=4
num_cat=0
split_feature=34 11 1
split_gain=15.8817 0.000215273 8.88178e-16
threshold=-7.5708061002178644 908.43768494678989 21.126426742682845
decision_type=2 2 2
left_child=1 -1 -2
right_child=2 -3 -4
leaf_value=-0.056358367331571735 0.054111572008540859 -0.05717282487847053 0.054111572008540831
leaf_weight=5.5050353035330772 4.9146876484155655 0.95156136155128468 1.614825941622257
leaf_count=55 70 9 23
internal_value=-0.000872933 -0.0564784 0.0541116
internal_weight=12.9861 6.4566 6.52951
internal_count=157 64 93
is_linear=0
shrinkage=0.05


Tree=34
num_leaves=4
num_cat=0
split_feature=31 11 1
split_gain=15.0268 0.000184163 8.88178e-16
threshold=92.429193899782163 908.43768494678989 20.35996633738473
decision_type=2 2 2
left_child=1 -1 -2
right_child=2 -3 -4
leaf_value=-0.056009932841397152 0.053895003259833034 -0.056779760821132987 0.053895003259833089
leaf_weight=5.2683024257421494 0.87161400169134129 0.91126035153865803 5.3637784719467163
leaf_count=55 13 9 80
internal_value=-0.000866851 -0.0561235 0.053895
internal_weight=12.415 6.17956 6.23539
internal_count=157 64 93
is_linear=0
shrinkage=0.05


Tree=35
num_leaves=5
num_cat=0
split_feature=31 7 1 2
split_gain=13.0217 0.000150099 8.88178e-16 8.88178e-16
threshold=92.429193899782163 12.500000000000002 20.35996633738473 14.500000000000002
decision_type=2 2 2 2
left_child=1 -1 -2 -4
right_child=2 -3 3 -5
leaf_value=-0.055683469486180852 0.053690639787713879 -0.056406971796461494 0.053690639787713913 0.053690639787713927
leaf_weight=4.0325741022825241 0.76816704869270314 0.87185794115066517 1.6003480181097982 3.7128074020147324
leaf_count=44 12 9 25 58
internal_value=0.00480472 -0.0558121 0.0536906 0.0536906
internal_weight=10.9858 4.90443 6.08132 5.31316
internal_count=148 53 95 83
is_linear=0
shrinkage=0.05


Tree=36
num_leaves=3
num_cat=0
split_feature=31 10
split_gain=12.3288 0.000128549
threshold=92.429193899782163 0.8920454545454547
decision_type=2 2
left_child=1 -1
right_child=-2 -3
leaf_value=-0.055375641560761447 0.053497715388404081 -0.056060120461885882
leaf_weight=3.8566864579916 5.8050664700567722 0.83433815836906422
leaf_count=44 95 9
internal_value=0.00478447 -0.0554974
internal_weight=10.4961 4.69102
internal_count=148 53
is_linear=0
shrinkage=0.05


Tree=37
num_leaves=4
num_cat=0
split_feature=31 7 1
split_gain=11.6757 0.000110139 8.88178e-16
threshold=92.429193899782163 12.500000000000002 20.641960644476814
decision_type=2 2 2
left_child=1 -1 -2
right_child=2 -3 -4
leaf_value=-0.055086053762792533 0.053315510057267951 -0.055733854246612848 0.053315510057267972
leaf_weight=3.6873912811279297 1.3996658027172086 0.7981753647327422 4.1406779997050762
leaf_count=44 24 9 71
internal_value=0.00476536 -0.0552013 0.0533155
internal_weight=10.0259 4.48557 5.54034
internal_count=148 53 95
is_linear=0
shrinkage=0.05


Tree=38
num_leaves=3
num_cat=0
split_feature=34 7
split_gain=11.0599 9.44005e-05
threshold=-7.5708061002178644 12.500000000000002
decision_type=2 2
left_child=1 -1
right_child=-2 -3
leaf_value=-0.05481346301600433 0.05314336884044199 -0.055426753451432512
leaf_weight=3.52455685287714 5.2867775596678257 0.76334810256957997
leaf_count=44 95 9
internal_value=0.00474732 -0.0549226
internal_weight=9.57468 4.2879
internal_count=148 53
is_linear=0
shrinkage=0.05


Tree=39
num_leaves=4
num_cat=0
split_feature=31 10 1
split_gain=10.4788 8.09417e-05 8.88178e-16
threshold=92.429193899782163 0.8920454545454547 20.35996633738473
decision_type=2 2 2
left_child=1 -1 -2
right_child=2 -3 -4
leaf_value=-0.054556718234223422 0.052980680629473399 -0.055137530096188395 0.052980680629473469
leaf_weight=3.3680406361818314 0.63713563978672016 0.72983161360025395 4.4068548418581486
leaf_count=44 12 9 83
internal_value=0.00473029 -0.0546602 0.0529807
internal_weight=9.14186 4.09787 5.04399
internal_count=148 53 95
is_linear=0
shrinkage=0.05


Tree=40
num_leaves=7
num_cat=0
split_feature=31 11 34 2 8 2
split_gain=10.3523 6.77768e-05 3.43712e-07 8.88178e-16 4.44089e-16 2.22045e-16
threshold=92.429193899782163 908.43768494678989 -18.999999999999996 18.500000000000004 11.000000000000002 6.0000000000000009
decision_type=2 2 2 2 2 2
left_child=1 2 -1 5 -5 -2
right_child=3 -3 -4 4 -6 -7
leaf_value=-0.05431803695973119 0.052826872186137221 -0.054823166623966892 -0.054279959005239957 0.052826872186137255 0.052826872186137221 0.052826872186137255
leaf_weight=3.2197386026382446 0.65843068435788143 0.77248675376176823 0.72632454335689578 1.9246435388922694 0.65843068435788143 1.0636187978088854
leaf_count=44 13 10 10 38 13 21
internal_value=-0.00324022 -0.0543949 -0.054311 0.0528269 0.0528269 0.0528269
internal_weight=9.02367 4.71855 3.94606 4.30512 2.58307 1.72205
internal_count=149 64 54 85 51 34
is_linear=0
shrinkage=0.05


Tree=41
num_leaves=4
num_cat=0
split_feature=31 121 1
split_gain=9.8114 5.81388e-05 2.91974e-07
threshold=92.429193899782163 0.83086638907048649 20.782686341838811
decision_type=2 2 2
left_child=1 -1 -3
right_child=-2 2 -4
leaf_value=-0.054568389735150484 0.052681416778837378 -0.05408974778947892 -0.054053837365994811
leaf_weight=0.73815613985061634 4.1061815805733204 3.0753094851970677 0.69371841847896565
leaf_count=10 85 44 10
internal_value=-0.0032277 -0.0541626 -0.0540831
internal_weight=8.61337 4.50718 3.76903
internal_count=149 64 54
is_linear=0
shrinkage=0.05


Tree=42
num_leaves=4
num_cat=0
split_feature=31 11 1
split_gain=9.30056 4.98846e-05 2.48174e-07
threshold=92.429193899782163 908.43768494678989 20.782686341838811
decision_type=2 2 2
left_child=1 2 -1
right_child=-2 -3 -4
leaf_value=-0.053874406478544461 0.052543807989188965 -0.054328061961559398 -0.053840526309988174
leaf_weight=2.9367218911647801 3.9158915914595127 0.70518331229686726 0.6624336540699004
leaf_count=44 85 10 10
internal_value=-0.00321588 -0.0539435 -0.0538682
internal_weight=8.22023 4.30434 3.59916
internal_count=149 64 54
is_linear=0
shrinkage=0.05


Tree=43
num_leaves=5
num_cat=0
split_feature=31 11 34 1
split_gain=8.81791 4.28134e-05 2.11138e-07 8.88178e-16
threshold=92.429193899782163 908.43768494678989 -18.999999999999996 20.641960644476814
decision_type=2 2 2 2
left_child=1 2 -1 -2
right_child=3 -3 -4 -5
leaf_value=-0.053671199485170573 0.052413603670422429 -0.054101274420305039 -0.053639216851423678 0.052413603670422471
leaf_weight=2.8038053512573242 1.1421436220407488 0.67353192716836918 0.63243143260479007 2.5917874500155449
leaf_count=44 26 10 10 59
internal_value=-0.00320472 -0.0537368 -0.0536653 0.0524136
internal_weight=7.8437 4.10977 3.43624 3.73393
internal_count=149 64 54 85
is_linear=0
shrinkage=0.05


Tree=44
num_leaves=5
num_cat=0
split_feature=31 11 2 2
split_gain=8.36174 3.67526e-05 1.79642e-07 4.44089e-16
threshold=92.429193899782163 908.43768494678989 11.500000000000002 26.000000000000004
decision_type=2 2 2 2
left_child=1 2 -1 -2
right_child=3 -3 -4 -5
leaf_value=-0.05344915768316727 0.052290356145190502 -0.053887160888814269 -0.053479352983766271 0.052290356145190488
leaf_weight=0.60367248952388841 1.9684624448418617 0.64316468313336361 2.676387757062912 1.5915228277444839
leaf_count=10 47 10 44 38
internal_value=-0.00319418 -0.0535416 -0.0534738 0.0522904
internal_weight=7.48321 3.92322 3.28006 3.55999
internal_count=149 64 54 85
is_linear=0
shrinkage=0.05


Tree=45
num_leaves=6
num_cat=0
split_feature=31 11 1 73 1
split_gain=7.37981 3.44996e-05 4.44089e-16 4.44089e-16 1.11022e-16
threshold=92.429193899782163 908.43768494678989 20.641960644476814 4418432.5000000009 20.35996633738473
decision_type=2 2 2 2 2
left_child=1 -1 4 -4 -2
right_child=2 -3 3 -5 -6
leaf_value=-0.053293759348869631 0.052173668424978607 -0.053727443553516441 0.052173668424978704 0.052173668424978725 0.052173668424978649
leaf_weight=2.609263733029366 0.43919054791331325 0.55634852498769749 0.95823392271995556 1.6369829513132572 0.43919054791331291
leaf_count=45 11 9 24 41 11
internal_value=0.00184987 -0.05337 0.0521737 0.0521737 0.0521737
internal_weight=6.63921 3.16561 3.4736 2.59522 0.878381
internal_count=141 54 87 65 22
is_linear=0
shrinkage=0.05


Tree=46
num_leaves=3
num_cat=0
split_feature=34 11
split_gain=7.00057 2.96201e-05
threshold=-7.5708061002178644 908.43768494678989
decision_type=2 2
left_child=1 -1
right_child=-2 -3
leaf_value=-0.053122819322548753 0.052063165313403895 -0.053534128817182662
leaf_weight=2.4897932447493081 3.3110244199633598 0.53107780218124379
leaf_count=45 87 9
internal_value=0.0018457 -0.0531951
internal_weight=6.3319 3.02087
internal_count=141 54
is_linear=0
shrinkage=0.05


Tree=47
num_leaves=4
num_cat=0
split_feature=31 11 21
split_gain=6.64177 2.54359e-05 4.44089e-16
threshold=92.429193899782163 908.43768494678989 30.693103372508663
decision_type=2 2 2
left_child=1 -1 -2
right_child=2 -3 -4
leaf_value=-0.052961253885280495 0.051958500297168725 -0.053351417408037782 0.051958500297168822
leaf_weight=2.3754070289433007 0.58036381006240878 0.50686316192150105 2.5753644071519375
leaf_count=45 16 9 71
internal_value=0.00184175 -0.0530299 0.0519585
internal_weight=6.038 2.88227 3.15573
internal_count=141 54 87
is_linear=0
shrinkage=0.05


Tree=48
num_leaves=5
num_cat=0
split_feature=34 11 1 34
split_gain=6.3022 2.18463e-05 4.44089e-16 4.44089e-16
threshold=-7.5708061002178644 908.43768494678989 20.971690342909696 -3.645833333333333
decision_type=2 2 2 2
left_child=1 -1 3 -2
right_child=2 -3 -4 -5
leaf_value=-0.052808504807600035 0.051859336469927901 -0.053178670648034033 0.051859336469927887 0.05185933646992779
leaf_weight=2.2659277878701691 1.7975362241268162 0.48366978019475926 0.82963210344314564 0.38024804741144191
leaf_count=45 52 9 24 11
internal_value=0.00183801 -0.0528736 0.0518593 0.0518593
internal_weight=5.75701 2.7496 3.00742 2.17778
internal_count=141 54 87 63
is_linear=0
shrinkage=0.05


Tree=49
num_leaves=4
num_cat=0
split_feature=34 11 2
split_gain=5.98075 1.87657e-05 4.44089e-16
threshold=-7.5708061002178644 908.43768494678989 26.000000000000004
decision_type=2 2 2
left_child=1 -1 -2
right_child=2 -3 -4
leaf_value=-0.052664040656711257 0.051765369600652103 -0.053015284279394698 0.051765369600652089
leaf_weight=2.1611803397536282 1.5152532085776329 0.46146299690008152 1.3505517728626728
leaf_count=45 46 9 41
internal_value=0.00183447 -0.0527258 0.0517654
internal_weight=5.48845 2.62264 2.8658
internal_count=141 54 87
is_linear=0
shrinkage=0.05


end of trees

feature_importances:
t0_stoch_k=37
avg_daily_turnover_log=19
days_in_current_stage=17
t0_ema_8=13
t0_williams_r=12
t0_linreg_slope=7
n_signals_fired_in_last_30d=6
signal_acceleration=5
n_signals_fired_in_last_7d=2
t0_macd_line=2
t0_obv_slope_20=2
is_earnings_window=1
t0_plus_di=1
t0_minus_di=1
t0_rsi=1
t0_rsi_divergence=1
t0_obv=1
t0_cmf=1
t0_volume=1
obv_trajectory_slope=1
t7_cmf=1
t30_macd_histogram=1

parameters:
[boosting: gbdt]
[objective: binary]
[metric: binary_logloss]
[tree_learner: serial]
[device_type: cpu]
[data_sample_strategy: bagging]
[data: ]
[valid: ]
[num_iterations: 50]
[learning_rate: 0.05]
[num_leaves: 31]
[num_threads: 0]
[seed: 42]
[deterministic: 1]
[force_col_wise: 0]
[force_row_wise: 0]
[histogram_pool_size: -1]
[max_depth: -1]
[min_data_in_leaf: 10]
[min_sum_hessian_in_leaf: 0.001]
[bagging_fraction: 0.8]
[pos_bagging_fraction: 1]
[neg_bagging_fraction: 1]
[bagging_freq: 5]
[bagging_seed: 42]
[bagging_by_query: 0]
[feature_fraction: 0.8]
[feature_fraction_bynode: 1]
[feature_fraction_seed: 42]
[extra_trees: 0]
[extra_seed: 12879]
[early_stopping_round: 0]
[early_stopping_min_delta: 0]
[first_metric_only: 0]
[max_delta_step: 0]
[lambda_l1: 0]
[lambda_l2: 0]
[linear_lambda: 0]
[min_gain_to_split: 0]
[drop_rate: 0.1]
[max_drop: 50]
[skip_drop: 0.5]
[xgboost_dart_mode: 0]
[uniform_drop: 0]
[drop_seed: 17869]
[top_rate: 0.2]
[other_rate: 0.1]
[min_data_per_group: 100]
[max_cat_threshold: 32]
[cat_l2: 10]
[cat_smooth: 10]
[max_cat_to_onehot: 4]
[top_k: 20]
[monotone_constraints: ]
[monotone_constraints_method: basic]
[monotone_penalty: 0]
[feature_contri: ]
[forcedsplits_filename: ]
[refit_decay_rate: 0.9]
[cegb_tradeoff: 1]
[cegb_penalty_split: 0]
[cegb_penalty_feature_lazy: ]
[cegb_penalty_feature_coupled: ]
[path_smooth: 0]
[interaction_constraints: ]
[verbosity: -1]
[saved_feature_importance_type: 0]
[use_quantized_grad: 0]
[num_grad_quant_bins: 4]
[quant_train_renew_leaf: 0]
[stochastic_rounding: 1]
[linear_tree: 0]
[max_bin: 255]
[max_bin_by_feature: ]
[min_data_in_bin: 3]
[bin_construct_sample_cnt: 200000]
[data_random_seed: 42]
[is_enable_sparse: 1]
[enable_bundle: 1]
[use_missing: 1]
[zero_as_missing: 0]
[feature_pre_filter: 1]
[pre_partition: 0]
[two_round: 0]
[header: 0]
[label_column: ]
[weight_column: ]
[group_column: ]
[ignore_column: ]
[categorical_feature: ]
[forcedbins_filename: ]
[precise_float_parser: 0]
[parser_config_file: ]
[objective_seed: 16083]
[num_class: 1]
[is_unbalance: 0]
[scale_pos_weight: 1]
[sigmoid: 1]
[boost_from_average: 1]
[reg_sqrt: 0]
[alpha: 0.9]
[fair_c: 1]
[poisson_max_delta_step: 0.7]
[tweedie_variance_power: 1.5]
[lambdarank_truncation_level: 30]
[lambdarank_norm: 1]
[label_gain: ]
[lambdarank_position_bias_regularization: 0]
[eval_at: ]
[multi_error_top_k: 1]
[auc_mu_weights: ]
[num_machines: 1]
[local_listen_port: 12400]
[time_out: 120]
[machine_list_filename: ]
[machines: ]
[gpu_platform_id: -1]
[gpu_device_id: -1]
[gpu_use_dp: 0]
[num_gpu: 1]

end of parameters

pandas_categorical:[]
