tree
version=v4
num_class=1
num_tree_per_iteration=1
label_index=0
max_feature_idx=191
objective=binary sigmoid:1
feature_names=log_market_cap avg_daily_turnover_log days_in_current_stage pmi_50w_trend brent_30d_trend is_ramadan_period is_earnings_window n_signals_fired_in_last_30d n_signals_fired_in_last_7d earliest_signal_lead_days signal_acceleration t0_ema_8 t0_ema_21 t0_ema_50 t0_ema_100 t0_ema_200 t0_ema_ribbon_aligned t0_macd_line t0_macd_signal t0_macd_histogram t0_adx t0_plus_di t0_minus_di t0_supertrend t0_psar t0_hull_ma t0_linreg_slope t0_ichimoku_cloud_pos t0_ichimoku_tk_cross t0_rsi t0_rsi_divergence t0_stoch_k t0_stoch_d t0_stoch_rsi t0_williams_r t0_cci t0_roc t0_tsi t0_ao t0_connors_rsi t0_atr t0_atr_percentile_252 t0_bb_upper t0_bb_middle t0_bb_lower t0_bb_pct_b t0_bb_bandwidth t0_bb_squeeze t0_kc_upper t0_kc_lower t0_dc_upper t0_dc_lower t0_hist_vol_30d t0_obv t0_obv_slope_20 t0_obv_slope_60 t0_ad_line t0_cmf t0_mfi t0_vwap t0_vwap_distance_sigma t0_rel_volume t0_force_index t0_eom t0_klinger t0_swing_high t0_swing_low t0_zscore_20 t0_zscore_50 t0_zscore_200 t0_accumulation_score t0_wyckoff_phase_code t0_close t0_volume t0_high t0_low rsi_velocity macd_histogram_velocity obv_velocity accumulation_score_velocity cmf_velocity adx_velocity rel_volume_velocity obv_trajectory_slope accumulation_trajectory_slope bb_bandwidth_trajectory days_since_last_swing_high days_since_last_swing_low t1_rsi t1_macd_histogram t1_obv t1_accumulation_score t1_cmf t1_adx t1_rel_volume t1_bb_bandwidth t3_rsi t3_macd_histogram t3_obv t3_accumulation_score t3_cmf t3_adx t3_rel_volume t3_bb_bandwidth t7_rsi t7_macd_histogram t7_obv t7_accumulation_score t7_cmf t7_adx t7_rel_volume t7_bb_bandwidth t14_rsi t14_macd_histogram t14_obv t14_accumulation_score t14_cmf t14_adx t14_rel_volume t14_bb_bandwidth t30_rsi t30_macd_histogram t30_obv t30_accumulation_score t30_cmf t30_adx t30_rel_volume t30_bb_bandwidth t60_rsi t60_macd_histogram t60_obv t60_accumulation_score t60_cmf t60_adx t60_rel_volume t60_bb_bandwidth t90_rsi t90_macd_histogram t90_obv t90_accumulation_score t90_cmf t90_adx t90_rel_volume t90_bb_bandwidth current_stage_dormant stage_before_dormant current_stage_stealth_accumulation stage_before_stealth_accumulation current_stage_early_breakout stage_before_early_breakout current_stage_markup_trending stage_before_markup_trending current_stage_acceleration_climax stage_before_acceleration_climax current_stage_distribution_topping stage_before_distribution_topping current_stage_markdown_decline stage_before_markdown_decline current_stage_capitulation_exhaustion stage_before_capitulation_exhaustion regime_risk_on regime_neutral regime_risk_off sector_banking sector_consumer sector_energy sector_holding_misc sector_industrial sector_insurance sector_investment sector_real_estate sector_technology sector_telecom sector_transport tier_premier dow_0.0 dow_1.0 dow_2.0 dow_3.0 dow_6.0 month_1.0 month_2.0 month_3.0 month_4.0 month_5.0 month_6.0 month_7.0 month_8.0 month_9.0 month_10.0 month_11.0 month_12.0
feature_infos=none [18.210224351279368:20.261171846695166] [1:54] none none none [0:1] [9:17] [3:12] [34:90] [-1:0.96969696969696972] [1161.8250997570203:2153.0465247628126] [1155.1243502632251:2132.9593179741446] [1158.3679281361071:2118.8213767742332] [1177.3739026289131:2092.9511123271118] [1295.444119871421:2035.2467236573352] [-1:1] [-33.619825846006506:59.229644687911332] [-28.717997177440644:50.837685582012526] [-5.880219982651635:23.192248287366901] [15.627635668509882:38.949499613655895] [7.0504186830141604:45.198560660555493] [8.2328514049058299:20.646386451073955] [-1:1] [1119.7457790753097:2027.8800000000001] [1165.5773692810458:2146.7521241830063] [-6.5112781954887442:11.632330827067634] none [-1:1] [43.696481647513338:81.323282401145406] none [44.094488188976378:100] [14.698162729658788:97.403085943926541] none [-55.905511811023622:0] [-151.49638802889521:381.36645962732996] [-0.31185031185031464:17.548278757346768] [-16.98593752213937:43.58902908574543] [-82.238235294117658:150.90294117647045] [76.884330467662153:96.883642632091082] [18.870120518111197:84.25665683544176] [27.777777777777779:99.206349206349202] [1177.2381255438718:2239.2310452966526] [1146.5999999999999:2134.25] [1060.6338603411634:2068.4500639897251] [0.25351536594625312:1.3950884771590919] [0.030463514068095627:0.18450340974481685] [0:1] [1197.4328823269848:2230.9810486048491] [1112.7860499057938:2036.143899998053] [1190:2360] [1071:2026] [12.153469747592453:50.186842245951723] [1348843:23787276] [-33827.525563910036:229357.92631578955] [-81086.274659627685:93517.290664073254] [729403.99148079753:29738879.237801448] [-0.011756843882271129:0.58637533876521397] [49.371409595585753:82.095175853373576] [1151.7696245318264:2134.5095628666845] [-1.3092072668039529:4.8174480675527285] [1.5092679590569691:6.1016094995117962] [1196572.8989233426:27503227.917069465] [-442441.62428146519:344834.7755186861] [-5640169.7144805007:692374.51538370259] none none [-0.98593853621498662:3.5803539086363712] [-1.5623762933826921:3.6906795098902103] [-1.9055828503871046:3.2905890681497882] [34.817008796372761:80.986033519553075] [0:5] [1190:2300] [272038:1914703] [1190:2360] [1151:2199] [0.72333768135552157:9.3459396991158403] [-1.958377695861456:5.431420606614016] [19074.666666666668:890274] [0.17039043944049581:6.1362659180472363] [-0.061857728558102787:0.090497635043204919] [-0.59343646989912335:1.8194125890849755] [-0.27967159645170953:1.9010507691962291] [-10541.868117797836:224050.12087067854] [-0.79131748860019957:1.7708202789561811] [-0.0046065741005677455:0.0029393470888855722] [0:39] [1:16] [26.663240702177646:75.714193798283404] [-19.000436248140108:18.20292922351215] [1076805:23003037] [26.80439131274462:79.356256370084751] [-0.056598378598973348:0.55326408848238395] [13.78775028579696:40.873850237575105] [0.30373522356879062:1.7576547546404684] [0.023189020377045615:0.14423376519829867] [37.679043464623881:71.668052736182176] [-7.5310879246199036:10.290415376327761] [606074:22532270] [23.465155520345142:72.095471834443146] [-0.069961151675828351:0.67533118798961456] [13.227050699755365:40.224737456523201] [0.13257879679023488:2.811823820082008] [0.024561937701154897:0.11916503390216998] [38.704741171733531:76.714525967681752] [-7.0870072524684842:12.117766177990617] [-915022:22869284] [21.058899615420575:88.780719671134847] [-0.034541889730878392:0.67533118798961456] [13.516799136478721:38.114003085573891] [0.19962852477227899:1.3680505138008754] [0.025793403241269809:0.24466983671139497] [37.045110883825473:78.665705576075069] [-9.4657000415634514:21.430894922746212] [-1536208:22287852] [13.485017157131196:81.819832402234638] [-0.19908002170544711:0.54824971210510742] [15.724743766616074:40.135857692486027] [0.024905295729789313:2.0309885884086198] [0.028744070640234418:0.35231081309305895] [30.793289445203428:66.090506914099478] [-14.429452370363252:8.2688808155118636] [-693723:21951911] [11.36460697945525:93.375698324022352] [-0.28639899901259641:0.63958317203545501] [15.049345975368634:47.613701192230167] [0.72950855751477717:2.4291582814850319] [0.036156455848050773:0.19758466671712982] [35.64039465897612:72.159553384285914] [-8.0690234222820791:17.615585325726769] [39307:23668958] [9.8739913338891672:68.039510300867335] [-0.24903530605280211:0.63305734091040955] [15.167916862528951:53.969324846827959] [0.036964233263291082:1.444236909893551] [0.029517781973065777:0.16362379126376184] [29.999754600032546:71.502441584087933] [-21.50925716850487:13.70945788159851] [909137:24612520] [9.0337382455922963:83.01136935748336] [-0.21799788043812637:0.44230710417877167] [14.690427645117802:41.924786606010812] [0.27442657236545198:1.8054490073814524] [0.036163696052091229:0.22688539444703471] [0:1] [0:1] none [0:1] [0:1] none none none none none [0:1] [0:1] none none none [0:1] none none none none none none none none none none none none none none none [0:1] [0:1] [0:1] [0:1] [0:1] none none none none none [0:1] [0:1] none [0:1] none [0:1] [0:1]
tree_sizes=548 667 768 772 871 879 879 887 886 792 880 900 881 883 884 883 882 991 994 985 992 994 994 1000 879 991 985 987 989 992 994 989 984 982 985 1099 1109 1098 1094 1098 1104 1104 1100 985 1092 1006 1004 989 993 999

Tree=0
num_leaves=4
num_cat=0
split_feature=115 52 1
split_gain=139.489 3.36128 7.10543e-15
threshold=26.66732223941607 22.94579722386646 19.880327541569169
decision_type=2 2 2
left_child=2 -2 -1
right_child=1 -3 -4
leaf_value=0.84383974367538772 0.61264090344438471 0.68200055551368566 0.84383974367538772
leaf_weight=9.7318824380636233 9.083090275526045 2.162640541791915 11.461994871497152
leaf_count=45 42 10 53
internal_value=0.768315 0.625979 0.84384
internal_weight=32.4396 11.2457 21.1939
internal_count=150 52 98
is_linear=0
shrinkage=1


Tree=1
num_leaves=5
num_cat=0
split_feature=115 61 57 2
split_gain=122.874 3.12748 0.0145827 7.10543e-15
threshold=26.66732223941607 1.898003571296573 0.25621218737222679 49.000000000000007
decision_type=2 2 2 2
left_child=3 -2 -3 -1
right_child=1 2 -4 -5
leaf_value=0.071502805383064569 -0.077988157711488745 -0.14226490864747907 -0.14687322210968085 0.071502805383064583
leaf_weight=13.248279377818109 2.2646746933460227 7.2939195632934553 2.2451077997684479 7.3601552098989478
leaf_count=63 10 32 10 35
internal_value=-0.00217425 -0.130809 -0.14335 0.0715028
internal_weight=32.4121 11.8037 9.53903 20.6084
internal_count=150 52 42 98
is_linear=0
shrinkage=0.05


Tree=2
num_leaves=6
num_cat=0
split_feature=115 79 10 2 2
split_gain=109.409 2.9518 0.0252361 4.76191e-06 7.10543e-15
threshold=26.66732223941607 4.8722433151596531 0.82142857142857151 20.000000000000004 38.500000000000007
decision_type=2 2 2 2 2
left_child=4 2 -2 -4 -1
right_child=1 -3 3 -5 -6
leaf_value=0.070018971260361482 -0.13536302451973917 -0.069336854331098971 -0.12994481409001196 -0.13002979589531521 0.070018971260361551
leaf_weight=3.6749618947505978 3.2611270844936353 2.3422106653451911 3.0774109959602356 3.5499905794858932 16.333163976669312
leaf_count=18 14 10 13 15 80
internal_value=-0.0019972 -0.119808 -0.131762 -0.12999 0.070019
internal_weight=32.2389 12.2307 9.88853 6.6274 20.0081
internal_count=150 52 42 28 98
is_linear=0
shrinkage=0.05


Tree=3
num_leaves=6
num_cat=0
split_feature=21 2 10 18 2
split_gain=98.4772 1.47891 0.0200751 0.00155863 3.18705e-06
threshold=30.914740994019045 4.0000000000000009 0.82142857142857151 -1.0000000180025095e-35 20.000000000000004
decision_type=2 2 2 2 2
left_child=2 -2 -1 -3 -4
right_child=1 3 4 -5 -6
leaf_value=-0.1245968797346801 0.036149032929707024 0.068665216084344602 -0.12020306852358331 0.069639063406040744 -0.1202716956037494
leaf_weight=4.3246283680200595 4.2837015688419369 8.9072144776582771 3.1581885814666748 7.6266855895519212 3.643466904759407
leaf_count=18 21 45 13 38 15
internal_value=-0.00184957 0.062331 -0.121933 0.0691144 -0.12024
internal_weight=31.9439 20.8176 11.1263 16.5339 6.80166
internal_count=150 104 46 83 28
is_linear=0
shrinkage=0.05


Tree=4
num_leaves=7
num_cat=0
split_feature=115 61 10 1 2 1
split_gain=89.5704 2.2365 0.0329552 0.000388231 2.20287e-06 4.34025e-07
threshold=26.66732223941607 1.898003571296573 0.82142857142857151 20.231547632721806 20.000000000000004 19.880327541569169
decision_type=2 2 2 2 2 2
left_child=3 -2 -3 5 -4 -1
right_child=1 2 4 -5 -6 -7
leaf_value=0.06742656903342778 -0.060711169619968808 -0.11828606557281166 -0.11225189877851219 0.068002530255779223 -0.11230847946539579 0.067409608882854036
leaf_weight=8.6244687438011223 2.4028863906860343 3.4137644171714765 3.2112805247306824 3.5036921203136435 3.7049583345651627 6.7047637701034537
leaf_count=45 10 14 13 18 15 35
internal_value=-0.00172686 -0.10416 -0.114266 0.0675277 -0.112282 0.0674192
internal_weight=31.5658 12.7329 10.33 18.8329 6.91624 15.3292
internal_count=150 52 42 98 28 80
is_linear=0
shrinkage=0.05


Tree=5
num_leaves=7
num_cat=0
split_feature=115 128 115 6 1 19
split_gain=87.4443 1.02799 0.0371517 0.00655605 0.00035823 3.48431e-07
threshold=26.66732223941607 42.310196349599032 52.689369363470263 1.0000000180025095e-35 20.231547632721806 14.118056830558467
decision_type=2 2 2 2 2 2
left_child=4 -2 3 -3 5 -1
right_child=1 2 -4 -5 -6 -7
leaf_value=0.066274715648438814 -0.073995995365329567 -0.1085408079325566 -0.11393956451290171 -0.10564861856700458 0.066819009955069161 0.066290299059058186
leaf_weight=5.9284024238586435 2.7082624137401572 3.4783286899328214 2.461516872048378 4.4871336221694946 3.9553933292627326 9.0822858512401581
leaf_count=32 11 14 10 18 21 49
internal_value=-0.00228024 -0.101442 -0.108571 -0.106912 0.0663957 0.0662841
internal_weight=32.1013 13.1352 10.427 7.96546 18.9661 15.0107
internal_count=155 53 42 32 102 81
is_linear=0
shrinkage=0.05


Tree=6
num_leaves=7
num_cat=0
split_feature=115 128 8 6 17 1
split_gain=79.7444 0.920813 0.0266064 0.00472574 0.000293122 2.85188e-07
threshold=26.66732223941607 42.310196349599032 6.5000000000000009 1.0000000180025095e-35 13.524910362544803 19.880327541569169
decision_type=2 2 2 2 2 2
left_child=4 -2 -3 -4 -1 -6
right_child=1 2 3 -5 5 -7
leaf_value=0.065731906952379307 -0.069911058987177768 -0.10706139896309752 -0.10251943316655954 -0.10006933518362258 0.065245423224943255 0.065231079362243274
leaf_weight=3.8231223821640059 2.7227666676044455 2.4879029989242536 3.4978859126567841 4.499994769692421 8.774158909916876 5.727189540863038
leaf_count=21 11 10 14 18 49 32
internal_value=-0.00216462 -0.0958184 -0.102546 -0.101141 0.0653424 0.0652398
internal_weight=31.533 13.2086 10.4858 7.99788 18.3245 14.5013
internal_count=155 53 42 32 102 81
is_linear=0
shrinkage=0.05


Tree=7
num_leaves=7
num_cat=0
split_feature=115 105 8 6 124 17
split_gain=73.019 0.889151 0.0177156 0.00540867 0.000240625 2.34405e-07
threshold=26.66732223941607 -3.386171754820317 6.5000000000000009 1.0000000180025095e-35 -0.15179914503557249 15.394297277495527
decision_type=2 2 2 2 2 2
left_child=4 -2 -3 -4 5 -1
right_child=1 2 3 -5 -6 -7
leaf_value=0.064269249207596524 -0.065559796316364286 -0.10127427469996425 -0.097923929353930447 -0.095301470460461252 0.064731068967127811 0.064282486402797254
leaf_weight=5.5273213386535653 2.7289766371250144 2.49823050200939 3.4983570575714111 4.4890587776899338 3.6914591342210796 8.4680720269680023
leaf_count=32 11 10 14 18 21 49
internal_value=-0.00206355 -0.0909829 -0.0975994 -0.0964501 0.064372 0.0642773
internal_weight=30.9015 13.2146 10.4856 7.98742 17.6869 13.9954
internal_count=155 53 42 32 102 81
is_linear=0
shrinkage=0.05


Tree=8
num_leaves=7
num_cat=0
split_feature=115 57 2 10 2 17
split_gain=67.0895 0.892171 0.00761029 0.000878789 0.000198129 1.93035e-07
threshold=26.66732223941607 0.27362531132577234 20.000000000000004 0.56250000000000011 38.500000000000007 15.394297277495527
decision_type=2 2 2 2 2 2
left_child=4 2 3 -2 -1 -6
right_child=1 -3 -4 -5 5 -7
leaf_value=0.063807718734970195 -0.094576402812451943 -0.059740209281266436 -0.091213655147037484 -0.093453639799613519 0.063381027003498763 0.063393260265667259
leaf_weight=3.5609415024519029 3.4884667843580228 2.4775551110506049 3.7152041494846344 3.4827496856451035 5.3295540809631321 8.1651876121759415
leaf_count=21 14 10 15 14 32 49
internal_value=-0.00197432 -0.0867739 -0.0930414 -0.0940155 0.063476 0.0633884
internal_weight=30.2197 13.164 10.6864 6.97122 17.0557 13.4947
internal_count=155 53 43 28 102 81
is_linear=0
shrinkage=0.05


Tree=9
num_leaves=6
num_cat=0
split_feature=21 113 64 18 14
split_gain=60.3187 1.08698 0.00652301 0.00639651 0.000190535
threshold=30.914740994019045 -1.0000000180025095e-35 1.0000000180025095e-35 -1.0000000180025095e-35 2021.3149496958988
decision_type=2 2 2 2 2
left_child=2 -2 4 -3 -1
right_child=1 3 -4 -5 -6
leaf_value=-0.090186297617469352 0.034313706864067282 0.06257056888478256 -0.088081358994768891 0.064778646853606944 -0.090745567162703891
leaf_weight=3.4584109783172625 4.1812489181757018 7.8664862662553814 5.6442061513662338 5.6252319216728148 2.7211492210626602
leaf_count=14 24 49 23 34 11
internal_value=-0.00189524 0.0565881 -0.0893102 0.0634912 -0.0904326
internal_weight=29.4967 17.673 11.8238 13.4917 6.17956
internal_count=155 107 48 83 25
is_linear=0
shrinkage=0.05


Tree=10
num_leaves=7
num_cat=0
split_feature=21 17 31 1 2 1
split_gain=53.2279 2.62233 0.00521535 0.000800953 0.000563038 1.46686e-06
threshold=30.914740994019045 36.219441641279339 98.510638297872347 20.032078100194077 38.500000000000007 19.880327541569169
decision_type=2 2 2 2 2 2
left_child=2 4 3 -1 -2 -6
right_child=1 -3 -4 -5 5 -7
leaf_value=-0.086264288793327246 0.062517239662599935 -0.0078669134967557335 -0.08461631884891993 -0.087333661493145087 0.061808122564107219 0.061771457939067936
leaf_weight=3.167551517486574 3.5229100286960628 1.4787056297063816 4.1093710511922836 3.9154621660709381 6.6455084383487684 4.6274945139884949
leaf_count=13 22 6 17 16 43 30
internal_value=-0.00210124 0.0556206 -0.0860333 -0.0868554 0.0619655 0.0617931
internal_weight=27.467 16.2746 11.1924 7.08301 14.7959 11.273
internal_count=147 101 46 29 95 73
is_linear=0
shrinkage=0.05


Tree=11
num_leaves=7
num_cat=0
split_feature=21 71 31 1 100 23
split_gain=49.2225 2.53141 0.00401946 0.000615823 0.000466981 1.21722e-06
threshold=30.914740994019045 1.0000000180025095e-35 98.510638297872347 20.032078100194077 -1.0000000180025095e-35 -1.0000000180025095e-35
decision_type=2 2 2 2 2 2
left_child=2 4 3 -1 -2 -6
right_child=1 -3 -4 -5 5 -7
leaf_value=-0.083267172828709546 0.061758649840423299 -0.0074690799609955661 -0.081807860312974087 -0.084211951566841484 0.061066327384241385 0.061100380876014854
leaf_weight=3.1187056154012698 3.3912093937396994 1.4795709103345878 4.0396705865859985 3.8589823096990585 4.4513431191444379 6.3927620649337751
leaf_count=13 22 6 17 16 30 43
internal_value=-0.00203208 0.0547769 -0.083063 -0.0837897 0.0612465 0.0610864
internal_weight=26.7322 15.7149 11.0174 6.97769 14.2353 10.8441
internal_count=147 101 46 29 95 73
is_linear=0
shrinkage=0.05


Tree=12
num_leaves=7
num_cat=0
split_feature=21 18 64 1 10 1
split_gain=45.6151 2.4469 0.0031469 0.000388192 0.000307098 1.01297e-06
threshold=30.914740994019045 29.035809869930521 1.0000000180025095e-35 20.231547632721806 0.94866071428571441 19.880327541569169
decision_type=2 2 2 2 2 2
left_child=2 3 4 5 -1 -2
right_child=1 -3 -4 -5 -6 -7
leaf_value=-0.081449272772220513 0.060442447962662044 -0.007091783685545458 -0.079448540547149282 0.061054421939618853 -0.08072254566541244 0.060410763614724819
leaf_weight=3.7920603007078189 6.1454928219318372 1.480351760983466 4.6650370657444 3.2620792388916007 2.3574230074882507 4.2790290713310242
leaf_count=16 43 6 20 22 10 30
internal_value=-0.00196964 0.0539735 -0.0804278 0.0605784 -0.0811707 0.0604294
internal_weight=25.9815 15.167 10.8145 13.6866 6.14948 10.4245
internal_count=147 101 46 95 26 73
is_linear=0
shrinkage=0.05


Tree=13
num_leaves=7
num_cat=0
split_feature=21 71 31 1 1 1
split_gain=42.3511 2.36816 0.00247023 0.0003693 0.000323366 8.44333e-07
threshold=30.914740994019045 1.0000000180025095e-35 98.510638297872347 20.032078100194077 20.231547632721806 19.880327541569169
decision_type=2 2 2 2 2 2
left_child=2 4 3 -1 5 -2
right_child=1 -3 -4 -5 -6 -7
leaf_value=-0.078243787652349808 0.05982997608838652 -0.0067339032563914283 -0.07707105777765938 -0.078989645010437232 0.060399691553399318 0.059800463344278236
leaf_weight=2.9986764788627642 5.9040947705507225 1.4810564070940024 3.8736637383699417 3.7165361046791077 3.1357664167881021 4.1108223795890808
leaf_count=13 43 6 17 16 22 30
internal_value=-0.00191296 0.053206 -0.0780766 -0.0786566 0.0599566 0.0598179
internal_weight=25.2206 14.6317 10.5889 6.71521 13.1507 10.0149
internal_count=147 101 46 29 95 73
is_linear=0
shrinkage=0.05


Tree=14
num_leaves=7
num_cat=0
split_feature=21 17 64 2 8 2
split_gain=39.3854 2.29463 0.00195442 0.000269883 0.000188005 7.05162e-07
threshold=30.914740994019045 36.219441641279339 1.0000000180025095e-35 38.500000000000007 9.5000000000000018 49.000000000000007
decision_type=2 2 2 2 2 2
left_child=2 3 4 -2 -1 -5
right_child=1 -3 -4 5 -6 -7
leaf_value=-0.076788176797993671 0.059790144915045265 -0.0063943911325111992 -0.07517765083428081 0.059259097878381496 -0.076207102489747408 0.059231572775230584
leaf_weight=3.6340174227952975 3.0124695897102347 1.4816923439502705 4.4544931203126907 5.668878033757208 2.2563065588474274 3.9469380676746368
leaf_count=16 22 6 20 43 10 30
internal_value=-0.00186127 0.0524705 -0.0759679 0.0593772 -0.0765656 0.0592478
internal_weight=24.4548 14.11 10.3448 12.6283 5.89032 9.61582
internal_count=147 101 46 95 26 73
is_linear=0
shrinkage=0.05


Tree=15
num_leaves=7
num_cat=0
split_feature=115 86 19 9 6 7
split_gain=39.4947 1.88846 0.0292803 0.00117506 0.000242189 6.94848e-07
threshold=26.66732223941607 6.5000000000000009 8.7157002773105159 89.500000000000014 1.0000000180025095e-35 14.000000000000002
decision_type=2 2 2 2 2 2
left_child=4 -2 3 -3 5 -1
right_child=1 2 -4 -5 -6 -7
leaf_value=0.058726351341403416 -0.025382549465302814 -0.073135149008590333 -0.079778075612178076 -0.074505106817903385 0.059221947958565613 0.058700649625025664
leaf_weight=5.8196194469928759 2.3006209731101981 2.8114695101976386 3.177668884396553 3.5312211364507666 3.0238146781921378 4.7975486516952515
leaf_count=46 10 13 14 16 23 38
internal_value=0.000857956 -0.0660364 -0.0758605 -0.0738979 0.0588272 0.0587147
internal_weight=25.462 11.821 9.52036 6.34269 13.641 10.6172
internal_count=160 53 43 29 107 84
is_linear=0
shrinkage=0.05


Tree=16
num_leaves=7
num_cat=0
split_feature=115 86 19 9 2 2
split_gain=36.8344 1.82185 0.0240147 0.000940196 0.000202841 5.82281e-07
threshold=26.66732223941607 6.5000000000000009 8.7157002773105159 89.500000000000014 38.500000000000007 49.000000000000007
decision_type=2 2 2 2 2 2
left_child=4 -2 3 -3 -1 -6
right_child=1 2 -4 -5 5 -7
leaf_value=0.058691663527796735 -0.024213782588614341 -0.071503548371804934 -0.077586097376322105 -0.072745899584212528 0.05822864147668369 0.058204617644322602
leaf_weight=2.9016692787408855 2.2913264185190192 2.7338099032640448 3.105887770652771 3.4381433427333823 5.5819093436002714 4.6014741659164429
leaf_count=23 10 13 14 16 46 38
internal_value=0.000856426 -0.0641397 -0.0740002 -0.0721956 0.0583229 0.0582178
internal_weight=24.6542 11.5692 9.27784 6.17195 13.0851 10.1834
internal_count=160 53 43 29 107 84
is_linear=0
shrinkage=0.05


Tree=17
num_leaves=8
num_cat=0
split_feature=21 71 40 2 1 1 1
split_gain=33.0987 3.17087 0.00217318 0.000586888 0.000170151 4.8913e-07 4.48293e-08
threshold=30.914740994019045 1.0000000180025095e-35 42.073126236196892 20.000000000000004 20.231547632721806 19.880327541569169 20.107934035655386
decision_type=2 2 2 2 2 2 2
left_child=2 4 3 6 5 -2 -1
right_child=1 -3 -4 -5 -6 -7 -8
leaf_value=-0.070959089574786388 0.057763187565921949 -0.014391256203885865 -0.072362184820838824 -0.070019654854048277 0.058196215598547464 0.057740699634241048 -0.070949194312022387
leaf_weight=2.2893860936164874 5.3513762801885552 1.7281305491924293 2.3471028357744217 2.6541776955127716 2.7830549925565728 4.4113325029611588 2.2889436930418015
leaf_count=11 46 7 11 13 23 38 11
internal_value=0.000854454 0.049105 -0.0710402 -0.0706112 0.0578513 0.057753 -0.0709541
internal_weight=23.8535 14.2739 9.57961 7.23251 12.5458 9.76271 4.57833
internal_count=160 114 46 35 107 84 22
is_linear=0
shrinkage=0.05


Tree=18
num_leaves=8
num_cat=0
split_feature=115 7 100 8 34 1 54
split_gain=32.1628 1.86809 0.0122509 0.000474289 0.000142939 4.11057e-07 3.6183e-08
threshold=26.66732223941607 14.000000000000002 0.16602984994019795 8.0000000000000018 -1.0000000180025095e-35 19.880327541569169 -17412.516165413686
decision_type=2 2 2 2 2 2 2
left_child=4 2 3 -2 5 -1 -5
right_child=1 -3 -4 6 -6 -7 -8
leaf_value=0.057327465561549468 -0.068665835617038568 -0.015666909351786436 -0.073548986780774248 -0.069514367663830526 0.057732840479176865 0.057306406177968817 -0.069523392333230266
leaf_weight=5.1280949711799604 2.5732344239950162 1.8957829773426045 2.1127995550632477 2.2210997045040117 2.6680326536297825 4.2271831184625626 2.2215498089790358
leaf_count=46 13 8 10 11 23 38 11
internal_value=0.000851354 -0.0608317 -0.0702112 -0.069206 0.05741 0.0573179 -0.0695189
internal_weight=23.0478 11.0245 9.12868 7.01588 12.0233 9.35528 4.44265
internal_count=160 53 45 35 107 84 22
is_linear=0
shrinkage=0.05


Tree=19
num_leaves=8
num_cat=0
split_feature=115 7 40 2 1 1 1
split_gain=30.0962 1.81549 0.0101861 0.000384955 0.000120245 3.4583e-07 2.93283e-08
threshold=26.66732223941607 14.000000000000002 42.073126236196892 20.000000000000004 20.231547632721806 19.880327541569169 20.107934035655386
decision_type=2 2 2 2 2 2 2
left_child=4 2 3 6 5 -1 -2
right_child=1 -3 -4 -5 -6 -7 -8
leaf_value=0.056919212949460764 -0.068212171690553547 -0.014905745198822748 -0.071940148349767821 -0.067427145338771893 0.057299045973378954 0.056899476317955978 -0.068203917950173873
leaf_weight=4.9120948910713214 2.1527847945690137 1.8930332511663426 2.0535489618778229 2.4915525168180466 2.5566375628113738 4.0490492284297943 2.1523301005363464
leaf_count=46 11 8 10 13 23 38 11
internal_value=0.000848245 -0.0593481 -0.0688542 -0.0679218 0.0569966 0.0569103 -0.068208
internal_weight=22.261 10.7432 8.85022 6.79667 11.5178 8.96114 4.30511
internal_count=160 53 45 35 107 84 22
is_linear=0
shrinkage=0.05


Tree=20
num_leaves=8
num_cat=0
split_feature=21 71 15 2 1 1 18
split_gain=27.8998 1.5808 0.00293119 0.00034289 9.36966e-05 2.57594e-06 2.82935e-07
threshold=30.914740994019045 1.0000000180025095e-35 1980.7247567536413 20.000000000000004 20.231547632721806 20.107934035655386 -1.0000000180025095e-35
decision_type=2 2 2 2 2 2 2
left_child=2 4 3 5 6 -1 -2
right_child=1 -3 -4 -5 -6 -7 -8
leaf_value=-0.067080053608719992 0.056536376802353662 0.0014242028908616356 -0.068981366224264012 -0.06629082105121327 0.056892573582156214 -0.06700373622364901 0.056517857240661919
leaf_weight=2.6570119112730044 4.7033671289682371 1.4787494391202933 1.992143854498863 2.2242695689201355 2.2359372004866609 1.8937221169471739 3.6728735268115962
leaf_count=14 46 6 10 12 21 10 36
internal_value=0.000614636 0.0498563 -0.0672954 -0.0667996 0.056605 -0.0670483 0.0565283
internal_weight=20.8581 12.0909 8.76715 6.775 10.6122 4.55073 8.37624
internal_count=155 109 46 36 103 24 82
is_linear=0
shrinkage=0.05


Tree=21
num_leaves=8
num_cat=0
split_feature=21 71 20 11 2 10 2
split_gain=26.1429 1.55562 0.00239213 0.000280393 7.90166e-05 2.10523e-06 2.38691e-07
threshold=30.914740994019045 1.0000000180025095e-35 21.275566032258315 1204.4212388442604 38.500000000000007 1.0000000180025095e-35 49.000000000000007
decision_type=2 2 2 2 2 2 2
left_child=2 4 3 -1 -2 -5 -6
right_child=1 -3 -4 5 6 -7 -8
leaf_value=-0.065245903412785883 0.056511382737703765 0.0013529660569689898 -0.067717244816892216 -0.065901747946885983 0.05617708426195886 -0.065971917211146466 0.05615969764224768
leaf_weight=2.1488097310066241 2.1408721804618809 1.4787774533033378 1.9294554144144056 1.8307161331176756 4.5018705576658231 2.5687963366508484 3.515462189912796
leaf_count=12 21 6 10 10 46 14 36
internal_value=0.000613449 0.0492665 -0.06617 -0.0657141 0.0562415 -0.0659427 0.0561695
internal_weight=20.1148 11.637 8.47778 6.54832 10.1582 4.39951 8.01733
internal_count=155 109 46 36 103 24 82
is_linear=0
shrinkage=0.05


Tree=22
num_leaves=8
num_cat=0
split_feature=21 71 15 2 34 1 1
split_gain=24.5136 1.5314 0.00195912 0.000230049 6.6711e-05 1.7262e-06 2.01661e-07
threshold=30.914740994019045 1.0000000180025095e-35 1980.7247567536413 20.000000000000004 -1.0000000180025095e-35 20.107934035655386 19.880327541569169
decision_type=2 2 2 2 2 2 2
left_child=2 4 3 5 6 -1 -2
right_child=1 -3 -4 -5 -6 -7 -8
leaf_value=-0.064952234397120237 0.055839642730038608 0.0012852933196175981 -0.066558177398497051 -0.064282928660564856 0.056153619258158871 -0.064887578017148381 0.055823304973716563
leaf_weight=2.4808958172798175 4.307534232735633 1.4788027256727225 1.8664989769458769 2.0738494992256165 2.0491064786910984 1.7679540812969206 3.3636515736579895
leaf_count=14 46 6 10 12 21 10 36
internal_value=0.000611961 0.0486885 -0.0651348 -0.0647146 0.0559002 -0.0649253 0.0558325
internal_weight=19.3883 11.1991 8.1892 6.3227 9.72029 4.24885 7.67119
internal_count=155 109 46 36 103 24 82
is_linear=0
shrinkage=0.05


Tree=23
num_leaves=8
num_cat=0
split_feature=21 71 15 9 7 63 1
split_gain=23.0001 1.50803 0.00160971 0.000189325 5.63809e-05 1.41978e-06 1.70517e-07
threshold=30.914740994019045 1.0000000180025095e-35 1980.7247567536413 89.500000000000014 12.500000000000002 -1.0000000180025095e-35 19.880327541569169
decision_type=2 2 2 2 2 2 2
left_child=2 4 3 -1 -2 -5 -6
right_child=1 -3 -4 5 6 -7 -8
leaf_value=-0.063393665769350988 0.055817593336902727 0.0012210105726890522 -0.065492839020262025 -0.064011931450466783 0.055522498143821819 -0.063952234131763513 0.055507137178688562
leaf_weight=1.9996733665466306 1.9606072381138764 1.4788255393505103 1.8036116063594816 2.3936823159456244 4.1202652752399445 1.7056988179683719 3.2173676490783691
leaf_count=12 21 6 10 14 46 10 36
internal_value=0.000610211 0.0481204 -0.0641806 -0.0637925 0.0555794 -0.0639871 0.0555158
internal_weight=18.6797 10.7771 7.90267 6.09905 9.29824 4.09938 7.33763
internal_count=155 109 46 36 103 24 82
is_linear=0
shrinkage=0.05


Tree=24
num_leaves=7
num_cat=0
split_feature=21 26 1 15 2 1
split_gain=21.5922 1.49456 0.0359745 0.00132657 0.000156247 1.17108e-06
threshold=30.914740994019045 5.6721804511278107 19.880327541569169 1980.7247567536413 20.000000000000004 20.107934035655386
decision_type=2 2 2 2 2 2
left_child=3 2 -2 4 5 -1
right_child=1 -3 -4 -5 -6 -7
leaf_value=-0.063143114256862462 0.055224230494818428 0.01485298149419461 0.06203472165280545 -0.064511451334620065 -0.062570949317460864 -0.06308789252575385
leaf_weight=2.3074719160795238 3.9399498999118787 2.6127257868647575 3.8179721385240555 1.7410816848278043 1.926521301269531 1.6441735625267031
leaf_count=14 46 24 39 10 12 10
internal_value=0.000608226 0.0475606 0.0585759 -0.0632992 -0.0629401 -0.0631201
internal_weight=17.9899 10.3706 7.75792 7.61925 5.87817 3.95165
internal_count=155 109 85 46 36 24
is_linear=0
shrinkage=0.05


Tree=25
num_leaves=8
num_cat=0
split_feature=115 82 86 12 1 10 1
split_gain=22.0909 2.85098 0.135145 0.000161527 0.000159286 3.52886e-06 1.46556e-06
threshold=26.66732223941607 0.2600651977544009 8.5000000000000018 1190.9916598475199 20.231547632721806 1.0000000180025095e-35 19.880327541569169
decision_type=2 2 2 2 2 2 2
left_child=4 -2 -3 -4 6 -5 -1
right_child=1 2 3 5 -6 -7 -8
leaf_value=0.054943546137185745 0.0081363300022238953 -0.077521991792703082 -0.061808472830638429 -0.062287712029199194 0.055420655699170276 -0.062381317319757747 0.054896414047394593
leaf_weight=4.0939755737781542 1.5596707314252842 1.8529242128133754 2.1636939644813538 1.7419228404760358 2.1178228855133057 2.3860827535390854 2.7620976269245148
leaf_count=50 8 9 14 11 24 15 34
internal_value=-0.00150424 -0.0537942 -0.0656537 -0.0621584 0.0550416 -0.0623418 0.0549246
internal_weight=18.6782 9.70429 8.14462 6.2917 8.9739 4.12801 6.85607
internal_count=165 57 49 40 108 26 84
is_linear=0
shrinkage=0.05


Tree=26
num_leaves=8
num_cat=0
split_feature=115 82 7 11 1 11 17
split_gain=20.7376 2.73374 0.137903 0.000204338 0.000134965 3.3051e-05 1.24271e-06
threshold=26.66732223941607 0.2600651977544009 12.500000000000002 1204.4212388442604 20.231547632721806 1986.3203607569246 15.394297277495527
decision_type=2 2 2 2 2 2 2
left_child=4 -2 3 -3 6 -5 -1
right_child=1 2 -4 5 -6 -7 -8
leaf_value=0.054634862420890551 0.0077138753461102327 -0.061100707934941156 -0.078460730703994286 -0.061875355625211105 0.055128409589635025 -0.06159195301811933 0.054679258422175761
leaf_weight=2.6396481841802615 1.5627513080835322 2.0814036130905151 1.4771250486373899 1.7035238295793531 2.0249444246292114 2.5972832441329956 3.912656381726265
leaf_count=34 8 14 7 11 24 17 50
internal_value=-0.00147809 -0.0526841 -0.0646937 -0.0615074 0.0547716 -0.0617042 0.0546614
internal_weight=17.9993 9.42209 7.85934 6.38221 8.57725 4.30081 6.5523
internal_count=165 57 49 42 108 28 84
is_linear=0
shrinkage=0.05


Tree=27
num_leaves=8
num_cat=0
split_feature=115 135 139 19 1 1 17
split_gain=19.4755 2.63622 0.109358 0.000947146 0.00011446 6.0995e-05 1.05444e-06
threshold=26.66732223941607 0.1537944269900017 51.336490311212181 4.4840997050189406 20.231547632721806 20.107934035655386 15.394297277495527
decision_type=2 2 2 2 2 2 2
left_child=4 2 -2 -4 6 -5 -1
right_child=1 -3 3 5 -6 -7 -8
leaf_value=0.054388427728244329 -0.07646245510385126 0.0062385233353294744 -0.061897553007143606 -0.060442753301489099 0.054853345604072602 -0.060856022528117906 0.054430265340198181
leaf_weight=2.5220001637935656 1.4408609420061091 1.6199740916490553 2.4702641069889069 2.0008965134620667 1.9356012940406797 1.6122273504734042 3.7384286522865295
leaf_count=34 7 9 16 14 24 11 50
internal_value=-0.00145308 -0.0516197 -0.0640766 -0.061143 0.0545173 -0.0606272 0.0544134
internal_weight=17.3403 9.14422 7.52425 6.08339 8.19603 3.61312 6.26043
internal_count=165 57 48 41 108 25 84
is_linear=0
shrinkage=0.05


Tree=28
num_leaves=8
num_cat=0
split_feature=115 52 118 63 1 1 1
split_gain=18.2944 2.63196 0.0935409 0.000275704 9.71405e-05 5.08156e-05 8.953e-07
threshold=26.66732223941607 26.289293492271817 0.71416210598534857 -1.0000000180025095e-35 20.231547632721806 20.107934035655386 19.880327541569169
decision_type=2 2 2 2 2 2 2
left_child=4 2 -2 -4 6 -5 -1
right_child=1 -3 3 5 -6 -7 -8
leaf_value=0.05419556995598325 -0.074643941971944169 0.0089562197144284154 -0.060693564842831595 -0.059830262639548583 0.054594289218747497 -0.060215065877392504 0.054156125395550675
leaf_weight=3.5711135715246227 1.403122678399084 1.5352217704057691 2.4640639126300807 1.9223007559776311 1.8497164249420164 1.549507275223732 2.4090309590101242
leaf_count=50 7 8 17 14 24 11 34
internal_value=-0.0014288 -0.0505795 -0.0630335 -0.0602891 0.0542776 -0.060002 0.0541797
internal_weight=16.7041 8.87422 7.33899 5.93587 7.82986 3.47181 5.98014
internal_count=165 57 49 42 108 25 84
is_linear=0
shrinkage=0.05


Tree=29
num_leaves=8
num_cat=0
split_feature=115 52 7 19 2 34 2
split_gain=17.196 2.52927 0.0778528 0.000230176 8.25062e-05 4.24179e-05 7.61094e-07
threshold=26.66732223941607 26.289293492271817 12.500000000000002 4.4840997050189406 38.500000000000007 -1.0000000180025095e-35 49.000000000000007
decision_type=2 2 2 2 2 2 2
left_child=4 2 3 -2 -1 -5 -6
right_child=1 -3 -4 5 6 -7 -8
leaf_value=0.054350194243857335 -0.060064197019546919 0.0084895987243625952 -0.072983786803449108 -0.059618118025293487 0.053974244843834986 -0.059259362239583918 0.053937029852588525
leaf_weight=1.7672070264816309 2.3678255230188352 1.5385359972715376 1.3642728626728056 1.4883201122283933 3.4105256199836731 1.8457175195217135 2.3006141632795334
leaf_count=24 17 8 7 11 50 14 34
internal_value=-0.00140644 -0.0496052 -0.0622544 -0.0596872 0.0540516 -0.0594195 0.0539593
internal_weight=16.083 8.60467 7.06614 5.70186 7.47835 3.33404 5.71114
internal_count=165 57 49 42 108 25 84
is_linear=0
shrinkage=0.05


Tree=30
num_leaves=8
num_cat=0
split_feature=21 19 6 97 6 11 7
split_gain=18.3232 0.356271 0.137855 0.00284265 0.000101796 1.35653e-05 6.73951e-07
threshold=30.914740994019045 7.0020058027275409 1.0000000180025095e-35 -2.3791886717779356 1.0000000180025095e-35 2048.3974321210057 14.000000000000002
decision_type=2 2 2 2 2 2 2
left_child=3 -2 6 -1 5 -5 -3
right_child=1 2 -4 4 -6 -7 -8
leaf_value=-0.061564922115655896 0.086456201433626603 0.053765422071422264 0.038030022793321044 -0.059279510109485345 -0.058726601654773919 -0.05906145904499014 0.053730304777964234
leaf_weight=1.357805013656616 0.73159441351890375 3.4518621116876602 1.8445459604263303 1.5820539742708215 2.1507717370986938 1.2988530099391937 2.2612252458930016
leaf_count=9 3 53 24 12 17 10 35
internal_value=0.00409368 0.0531396 0.0499145 -0.0595347 -0.0589869 -0.0591812 0.0537515
internal_weight=14.6787 8.28923 7.55763 6.38948 5.03168 2.88091 5.71309
internal_count=163 115 112 48 39 22 88
is_linear=0
shrinkage=0.05


Tree=31
num_leaves=8
num_cat=0
split_feature=54 7 2 70 11 1 10
split_gain=17.2489 0.302089 0.145624 0.00238132 4.67172e-05 5.73374e-07 7.58269e-08
threshold=76261.148872180333 16.500000000000004 38.500000000000007 48.151787575803567 1204.4212388442604 19.880327541569169 -1.0000000180025095e-35
decision_type=2 2 2 2 2 2 2
left_child=3 2 -2 4 -1 -4 -6
right_child=1 -3 5 -5 6 -7 -8
leaf_value=-0.05822887485200702 0.037138722238882045 0.083436744601087853 0.053568318505533168 -0.060659557214131771 -0.058541778193520223 0.053535166468967492 -0.058559214718972713
leaf_weight=2.0629210844635963 1.7956303358078001 0.72044451534748066 3.295289121568203 1.576175197958946 1.2461964786052702 2.1585860475897789 1.2478431016206744
leaf_count=17 24 3 53 11 10 35 10
internal_value=0.00405042 0.0525577 0.049489 -0.0589843 -0.0584049 0.0535552 -0.0585505
internal_weight=14.1031 7.96995 7.24951 6.13314 4.55696 5.45388 2.49404
internal_count=163 115 112 48 37 88 20
is_linear=0
shrinkage=0.05


Tree=32
num_leaves=8
num_cat=0
split_feature=21 7 2 118 13 10 1
split_gain=16.2433 0.258049 0.15354 0.00199919 7.11993e-05 9.36415e-06 4.88248e-07
threshold=30.914740994019045 16.500000000000004 38.500000000000007 0.77513494923701909 1188.3375764182535 1.0000000180025095e-35 19.880327541569169
decision_type=2 2 2 2 2 2 2
left_child=3 2 -2 -1 -5 -6 -4
right_child=1 -3 6 4 5 -7 -8
leaf_value=-0.060240270433450253 0.036246580168207941 0.080760105728849729 0.053382199992768359 -0.05776339721437334 -0.058056085268041117 -0.058244942215121526 0.05335088616528802
leaf_weight=1.2551441192626951 1.7490335702896116 0.7074330300092696 3.1452285051345825 1.9777229428291319 1.1950841546058655 1.4560464918613434 2.060223612934351
leaf_count=9 24 3 53 17 10 12 35
internal_value=0.00400884 0.05199 0.0490634 -0.0584704 -0.0579904 -0.0581598 0.0533698
internal_weight=13.5459 7.66192 6.95449 5.884 4.62885 2.65113 5.20545
internal_count=163 115 112 48 39 22 88
is_linear=0
shrinkage=0.05


Tree=33
num_leaves=8
num_cat=0
split_feature=21 2 2 70 9 1 11
split_gain=15.3012 0.229399 0.154202 0.00167903 3.27746e-05 4.15857e-07 4.48103e-08
threshold=30.914740994019045 4.0000000000000009 38.500000000000007 48.151787575803567 89.500000000000014 19.880327541569169 2048.3974321210057
decision_type=2 2 2 2 2 2 2
left_child=3 -2 -3 4 -1 -4 -6
right_child=1 2 5 -5 6 -7 -8
leaf_value=-0.057327668940016056 0.03535439979505834 0.078373585275477595 0.053206384120517508 -0.059453362602591431 -0.057615679980441176 0.053176800526634316 -0.0576016990513534
leaf_weight=1.8952045440673826 1.7046547234058378 0.69289277493953694 3.001470185816288 1.4545436054468153 1.1469434276223183 1.9659988209605215 1.1455392837524414
leaf_count=17 24 3 53 11 10 35 10
internal_value=0.00396874 0.0514343 0.0562769 -0.0579898 -0.0574815 0.0531947 -0.0576087
internal_weight=13.0072 7.36502 5.66036 5.64223 4.18769 4.96747 2.29248
internal_count=163 115 91 48 37 88 20
is_linear=0
shrinkage=0.05


Tree=34
num_leaves=8
num_cat=0
split_feature=21 26 64 97 9 11 17
split_gain=14.4179 0.234473 0.127618 0.00141444 5.01127e-05 6.51469e-06 3.54499e-07
threshold=30.914740994019045 5.6721804511278107 -1175048.4029693753 -2.3791886717779356 89.500000000000014 2048.3974321210057 15.394297277495527
decision_type=2 2 2 2 2 2 2
left_child=3 2 -2 -1 -5 -6 -4
right_child=1 -3 6 4 5 -7 -8
leaf_value=-0.059089802544952663 0.076234754287027917 0.03446302347206498 0.053012278957904641 -0.056919403986438258 -0.057340559703125141 -0.057176196056434807 0.053040242057530364
leaf_weight=1.1574348062276838 0.67711468040943046 1.6623958759009836 1.8757730722427375 1.8153771609067915 1.3375441357493401 1.0975741595029831 2.8638038896024227
leaf_count=9 3 24 35 17 12 10 53
internal_value=0.00392994 0.0508889 0.05593 -0.0575402 -0.0571182 -0.0572665 0.0530292
internal_weight=12.487 7.07909 5.41669 5.40793 4.2505 2.43512 4.73958
internal_count=163 115 91 48 39 22 88
is_linear=0
shrinkage=0.05


Tree=35
num_leaves=9
num_cat=0
split_feature=123 7 7 19 46 1 6 18
split_gain=13.1175 3.72506 0.14843 0.107241 0.00109009 0.000137732 1.68605e-05 2.91331e-07
threshold=28.894351401141389 11.500000000000002 12.500000000000002 7.0020058027275409 0.063553008295320026 20.231547632721806 1.0000000180025095e-35 -1.0000000180025095e-35
decision_type=2 2 2 2 2 2 2 2
left_child=1 -1 4 -3 6 7 -2 -5
right_child=2 3 -4 5 -6 -7 -8 -9
leaf_value=-0.05677739942616207 -0.056785927922025081 0.074309082488894493 -0.077332261464447674 0.052883189948017634 -0.058376620024160768 0.053437133057719736 -0.056536552959658037 0.052856751259980995
leaf_weight=0.84095376729965199 1.1572792679071426 0.66035284101963032 1.1766498982906339 2.3196399025619021 1.3354725092649458 1.4444115757942197 1.6359881162643433 1.8916599154472358
leaf_count=8 11 3 6 45 11 24 16 37
internal_value=-0.00208615 0.0420797 -0.0616663 0.0552421 -0.0572016 0.0530158 -0.0566399 0.0528713
internal_weight=12.4624 7.15702 5.30539 6.31606 4.12874 5.65571 2.79327 4.2113
internal_count=161 117 44 109 38 106 27 82
is_linear=0
shrinkage=0.05


Tree=36
num_leaves=9
num_cat=0
split_feature=123 10 21 64 46 124 6 18
split_gain=12.3653 3.52393 0.123468 0.0892396 0.000919261 0.000117425 1.42211e-05 2.48588e-07
threshold=28.894351401141389 0.68750000000000011 29.019086312207897 -1175048.4029693753 0.063553008295320026 -0.15179914503557249 1.0000000180025095e-35 -1.0000000180025095e-35
decision_type=2 2 2 2 2 2 2 2
left_child=1 -1 4 -3 6 7 -2 -5
right_child=2 3 -4 5 -6 -7 -8 -9
leaf_value=-0.056403314598090483 -0.056411332790718249 0.072568181922494535 -0.07543635692566919 0.05273467978192025 -0.057903444516671725 0.053258279472100468 -0.056177254709102543 0.052709673363129664
leaf_weight=0.80511093139648426 1.1079628840088849 0.64282885193824668 1.1466711461544035 2.2125666216015807 1.2804582193493841 1.3784641921520249 1.5659010410308838 1.804296590387821
leaf_count=8 11 3 6 45 11 24 16 37
internal_value=-0.00206608 0.0418565 -0.0609907 0.0549582 -0.0568018 0.0528601 -0.0562742 0.0527234
internal_weight=11.9443 6.84327 5.10099 6.03816 3.95432 5.39533 2.67386 4.01686
internal_count=161 117 44 109 38 106 27 82
is_linear=0
shrinkage=0.05


Tree=37
num_leaves=9
num_cat=0
split_feature=123 7 7 64 80 1 6 1
split_gain=11.6622 3.33467 0.102911 0.0744288 0.000776121 0.000100164 1.20088e-05 2.12112e-07
threshold=28.894351401141389 11.500000000000002 12.500000000000002 -1175048.4029693753 1.0000000180025095e-35 20.231547632721806 1.0000000180025095e-35 19.880327541569169
decision_type=2 2 2 2 2 2 2 2
left_child=1 -1 4 -3 -2 7 -6 -5
right_child=2 3 -4 5 6 -7 -8 -9
leaf_value=-0.056052145517257373 -0.05746044918641266 0.070988462195123878 -0.073705420267578675 0.052594200276894515 -0.056059683037240432 0.05308929263553374 -0.055839796682088806 0.052570547070270236
leaf_weight=0.77052170038223255 1.2271616756916048 0.62473574280738731 1.1157056540250776 2.1101379208266744 1.0603703930974007 1.3153039813041685 1.4983047246932983 1.7207274697721007
leaf_count=8 11 3 6 45 11 24 16 37
internal_value=-0.00204729 0.0416467 -0.0603597 0.0546913 -0.0564267 0.0527128 -0.0559309 0.0525836
internal_weight=11.443 6.54143 4.90154 5.77091 3.78584 5.14617 2.55868 3.83087
internal_count=161 117 44 109 38 106 27 82
is_linear=0
shrinkage=0.05


Tree=38
num_leaves=9
num_cat=0
split_feature=123 7 7 64 70 2 6 1
split_gain=11.0044 3.15646 0.0859372 0.0622052 0.000655978 8.54778e-05 1.01506e-05 1.81155e-07
threshold=28.894351401141389 11.500000000000002 12.500000000000002 -1175048.4029693753 48.151787575803567 38.500000000000007 1.0000000180025095e-35 19.880327541569169
decision_type=2 2 2 2 2 2 2 2
left_child=1 -1 4 -3 6 -5 -2 -7
right_child=2 3 -4 5 -6 7 -8 -9
leaf_value=-0.055722244232961606 -0.055729335518550117 0.069550179491227562 -0.072121021605298125 0.052929561267977612 -0.057045325467518553 0.052461290526290866 -0.055522645802723439 0.052438905554468118
leaf_weight=0.73717236518859852 1.0144831165671353 0.60624124109744926 1.0840095132589338 1.2548361718654639 1.1755915209650991 2.0121821388602257 1.43316650390625 1.6408118233084681
leaf_count=8 11 3 6 24 11 45 16 37
internal_value=-0.00202968 0.0414492 -0.0597698 0.05444 -0.0560746 0.0525735 -0.0556083 0.0524512
internal_weight=10.9585 6.25124 4.70725 5.51407 3.62324 4.90783 2.44765 3.65299
internal_count=161 117 44 109 38 106 27 82
is_linear=0
shrinkage=0.05


Tree=39
num_leaves=9
num_cat=0
split_feature=123 10 19 19 80 2 9 1
split_gain=10.3884 2.98858 0.0718883 0.0520881 0.000555003 7.29782e-05 8.58895e-06 1.54807e-07
threshold=28.894351401141389 0.68750000000000011 5.6520283525997375 7.0020058027275409 1.0000000180025095e-35 38.500000000000007 89.500000000000014 19.880327541569169
decision_type=2 2 2 2 2 2 2 2
left_child=1 -1 4 -3 -2 -5 -6 -7
right_child=2 3 -4 5 6 7 -8 -9
leaf_value=-0.055412109212028951 -0.056655993505868953 0.068236664762331936 -0.070667303385765434 0.052778531986071214 -0.055224370053884114 0.052335496092659452 -0.055418787927801971 0.052314303793854815
leaf_weight=0.70504528284072865 1.1257469430565836 0.58749085664749134 1.0518105328083036 1.1969664394855497 1.3704469203948977 1.9185313023626804 0.97027680277824391 1.5644119530916214
leaf_count=8 11 3 6 24 16 45 11 37
internal_value=-0.00201317 0.0412633 -0.0592178 0.0542034 -0.0557437 0.0524417 -0.055305 0.052326
internal_weight=10.4907 5.97245 4.51828 5.2674 3.46647 4.67991 2.34072 3.48294
internal_count=161 117 44 109 38 106 27 82
is_linear=0
shrinkage=0.05


Tree=40
num_leaves=9
num_cat=0
split_feature=123 7 7 7 129 2 6 55
split_gain=9.27748 3.1283 0.0605076 0.0434635 0.000267595 6.30318e-05 7.07862e-06 1.22844e-07
threshold=28.894351401141389 11.500000000000002 12.500000000000002 16.500000000000004 -1.0000000180025095e-35 38.500000000000007 1.0000000180025095e-35 -1.0000000180025095e-35
decision_type=2 2 2 2 2 2 2 2
left_child=1 -1 4 5 6 -3 -2 -7
right_child=2 3 -4 -5 -6 7 -8 -9
leaf_value=-0.055120368528318177 -0.055126660357480844 0.052635684826164902 -0.069330552152649091 0.067033764279934571 -0.055998797739681784 0.052216408879053725 -0.054943675209312197 0.052196343776978155
leaf_weight=0.75838454067707051 0.92772290110588085 1.1891683563590048 1.0193103700876234 0.56861025094985951 1.0403765738010409 1.7883755564689632 1.2282193824648857 1.3301611281931405
leaf_count=9 11 25 6 3 11 44 15 33
internal_value=-0.00262285 0.0393488 -0.058723 0.054041 -0.0553402 0.052326 -0.0550224 0.0522079
internal_weight=9.85033 5.6347 4.21563 4.87632 3.19632 4.30771 2.15594 3.11854
internal_count=157 114 43 105 37 102 26 77
is_linear=0
shrinkage=0.05


Tree=41
num_leaves=9
num_cat=0
split_feature=123 7 7 64 129 1 121 17
split_gain=8.76432 2.96316 0.0507766 0.0365146 0.000226952 5.38592e-05 6.00013e-06 1.05027e-07
threshold=28.894351401141389 11.500000000000002 12.500000000000002 -1175048.4029693753 -1.0000000180025095e-35 20.231547632721806 -5.5981425486245948 15.394297277495527
decision_type=2 2 2 2 2 2 2 2
left_child=1 -1 4 -3 6 7 -2 -5
right_child=2 3 -4 5 -6 -7 -8 -9
leaf_value=-0.054845768055409166 -0.054679379696848142 0.065929354201930038 -0.068098845497346863 0.052084640632126235 -0.055673002143940213 0.052500545935761783 -0.054851700193404886 0.052103643419193213
leaf_weight=0.7249181494116782 1.1738226190209391 0.54970774054527183 0.98668693006038655 1.2679334878921518 0.99528142064809833 1.1340101249516008 0.88678905367851246 1.7047441452741623
leaf_count=9 15 3 6 33 11 25 11 44
internal_value=-0.00260463 0.0391879 -0.0582371 0.0538273 -0.055053 0.0522074 -0.0547535 0.0520955
internal_weight=9.42389 5.38131 4.04258 4.6564 3.05589 4.10669 2.06061 2.97268
internal_count=157 114 43 105 37 102 26 77
is_linear=0
shrinkage=0.05


Tree=42
num_leaves=9
num_cat=0
split_feature=124 7 7 7 46 1 6 1
split_gain=8.28267 2.80737 0.042671 0.0307226 0.000192638 4.60351e-05 5.08985e-06 8.97756e-08
threshold=-0.063663871186209378 11.500000000000002 12.500000000000002 16.500000000000004 0.063553008295320026 20.231547632721806 1.0000000180025095e-35 19.880327541569169
decision_type=2 2 2 2 2 2 2 2
left_child=1 -1 4 5 6 7 -2 -3
right_child=2 3 -4 -5 -6 -7 -8 -9
leaf_value=-0.054587159115833998 -0.05459274789545028 0.051996844311109618 -0.06696179291330602 0.064913016700436366 -0.055366608757820124 0.052372648419509088 -0.054430387441049159 0.051978848540101021
leaf_weight=0.69274766743183125 0.84743975102901514 1.6248494535684586 0.95409609377384175 0.53087612986564625 0.95184746384620655 1.0812714695930483 1.1215531826019287 1.2084884718060493
leaf_count=9 11 44 6 3 11 25 15 33
internal_value=-0.0025875 0.0390363 -0.0577814 0.0536258 -0.0547826 0.0520951 -0.0545003 0.0519892
internal_weight=9.01317 5.13823 3.87494 4.44549 2.92084 3.91461 1.96899 2.83334
internal_count=157 114 43 105 37 102 26 77
is_linear=0
shrinkage=0.05


Tree=43
num_leaves=8
num_cat=0
split_feature=115 113 20 1 9 1 1
split_gain=7.83483 1.45828 0.0343559 3.93636e-05 1.16051e-05 2.46783e-06 7.68209e-08
threshold=26.66732223941607 0.63999923637677958 21.275566032258315 20.231547632721806 89.500000000000014 20.032078100194077 19.880327541569169
decision_type=2 2 2 2 2 2 2
left_child=3 2 4 6 -2 -6 -1
right_child=1 -3 -4 -5 5 -7 -8
leaf_value=0.051895668553932475 -0.05419568623957443 0.013626367846975025 -0.064808006488429312 0.052251585902542363 -0.054330964405139952 -0.054448843566419207 0.051878616434169848
leaf_weight=1.5485418289899826 1.0713576525449755 0.89065505564212788 1.0664281323552129 1.030860096216202 0.73360092937946353 1.1247089579701421 1.151714701205492
leaf_count=44 15 8 7 25 10 15 33
internal_value=-0.0025714 -0.044229 -0.0571239 0.0519887 -0.0543267 -0.0544023 0.0518884
internal_weight=8.61787 4.88675 3.9961 3.73112 2.92967 1.85831 2.70026
internal_count=157 55 47 102 40 25 77
is_linear=0
shrinkage=0.05


Tree=44
num_leaves=9
num_cat=0
split_feature=123 7 7 7 10 2 2 2
split_gain=7.46618 2.52815 0.0301349 0.0251836 0.000156733 3.36698e-05 2.70815e-06 6.57536e-08
threshold=28.894351401141389 11.500000000000002 12.500000000000002 16.500000000000004 0.82142857142857151 38.500000000000007 20.000000000000004 49.000000000000007
decision_type=2 2 2 2 2 2 2 2
left_child=1 -1 4 5 -2 -3 -6 -7
right_child=2 3 -4 -5 6 7 -8 -9
leaf_value=-0.054113291927732343 -0.054825022312652238 0.052136954805520656 -0.064889219825335409 0.063786571548062207 -0.054101938144733241 0.051799798773983025 -0.053974347869635148 0.051783637846076494
leaf_weight=0.63211244344711293 0.95381806790828783 0.9826859459280971 0.89934445917606343 0.50826363265514363 0.70070207118988004 1.4756758809089661 1.0231803730130196 1.0975035019218922
leaf_count=9 12 25 6 3 10 44 15 33
internal_value=-0.00254606 0.038908 -0.0569704 0.053376 -0.0543108 0.051888 -0.0540262 0.0517929
internal_weight=8.27329 4.69624 3.57704 4.06413 2.6777 3.55587 1.72388 2.57318
internal_count=157 114 43 105 37 102 25 77
is_linear=0
shrinkage=0.05


Tree=45
num_leaves=8
num_cat=0
split_feature=115 177 57 1 1 18 1
split_gain=7.26374 0.614026 0.0171002 0.000126425 2.56964e-05 2.30226e-06 5.98842e-08
threshold=26.66732223941607 1.0000000180025095e-35 0.27362531132577234 20.012228340865025 20.231547632721806 -1.0000000180025095e-35 19.880327541569169
decision_type=2 2 2 2 2 2 2
left_child=4 2 3 5 6 -2 -1
right_child=1 -3 -4 -5 -6 -7 -8
leaf_value=0.051708941998205443 -0.053765521107104079 -0.0079082804154661113 -0.062609657141230499 -0.054533795334466575 0.052028398221394906 -0.053885908073654898 0.051693623528399346
leaf_weight=1.5019816495478158 0.9769639000296596 0.82632690668106068 0.75801748037338246 0.97119423747062672 0.78679516911506642 0.66913299262523684 1.1091284081339836
leaf_count=47 15 9 6 13 21 10 35
internal_value=-0.00257967 -0.0465392 -0.0559966 -0.0540814 0.0517779 -0.0538145 0.0517024
internal_weight=7.59954 4.20164 3.37531 2.61729 3.39791 1.6461 2.61111
internal_count=156 53 44 38 103 25 82
is_linear=0
shrinkage=0.05


Tree=46
num_leaves=8
num_cat=0
split_feature=115 177 57 84 1 1 1
split_gain=6.85415 0.609057 0.0145318 0.000107716 2.19934e-05 1.95883e-06 5.12666e-08
threshold=26.66732223941607 1.0000000180025095e-35 0.27362531132577234 -1.0000000180025095e-35 20.231547632721806 18.28921182746371 19.880327541569169
decision_type=2 2 2 2 2 2 2
left_child=4 2 3 5 6 -2 -1
right_child=1 -3 -4 -5 -6 -7 -8
leaf_value=0.051622823210079355 -0.053682058506757974 -0.007529787350264658 -0.061888952199262437 -0.054294022165972899 0.051925565713368774 -0.053568409516861086 0.051608302663464944
leaf_weight=1.4310524519532923 0.63885487616062187 0.82451734691858281 0.7292317822575568 0.92780513316392932 0.74986751005053509 0.93264983966946602 1.0567358043044806
leaf_count=47 10 9 6 13 21 15 35
internal_value=-0.00255409 -0.0458838 -0.0556788 -0.0538668 0.0516882 -0.0536146 0.0516167
internal_weight=7.29071 4.05306 3.22854 2.49931 3.23766 1.5715 2.48779
internal_count=156 53 44 38 103 25 82
is_linear=0
shrinkage=0.05


Tree=47
num_leaves=8
num_cat=0
split_feature=115 135 70 1 1 1 1
split_gain=6.46797 0.679701 0.0124607 9.1139e-05 1.88295e-05 1.6672e-06 4.39205e-08
threshold=26.66732223941607 0.1537944269900017 48.767179028983158 20.012228340865025 20.231547632721806 18.28921182746371 19.880327541569169
decision_type=2 2 2 2 2 2 2
left_child=4 2 3 5 6 -2 -1
right_child=1 -3 -4 -5 -6 -7 -8
leaf_value=0.051541174451305738 -0.053489607338805978 -0.0023126461122659294 -0.061184499237797209 -0.054051357818092519 0.051828132090209436 -0.053382290546492489 0.051527404790195519
leaf_weight=1.3633612561970954 0.60982871800661198 0.7463276833295821 0.7115073800086974 0.95224235206842411 0.71460312232375134 0.89017895981669426 1.0067364852875471
leaf_count=47 10 8 6 14 21 15 35
internal_value=-0.00252877 -0.0452339 -0.055359 -0.0536688 0.0516032 -0.0534259 0.0515353
internal_weight=6.99479 3.91009 3.16376 2.45225 3.0847 1.50001 2.3701
internal_count=156 53 45 39 103 25 82
is_linear=0
shrinkage=0.05


Tree=48
num_leaves=8
num_cat=0
split_feature=115 52 86 1 1 1 1
split_gain=6.10563 0.701735 0.0108373 3.82995e-05 1.61247e-05 1.42007e-06 3.76358e-08
threshold=26.66732223941607 26.289293492271817 8.5000000000000018 20.032078100194077 20.231547632721806 18.28921182746371 19.880327541569169
decision_type=2 2 2 2 2 2 2
left_child=4 2 -2 5 6 -4 -1
right_child=1 -3 3 -5 -6 -7 -8
leaf_value=0.051463754407224775 -0.060554251175331524 0.00016114377497002786 -0.053307855003109986 -0.053657816348900871 0.051735795488489549 -0.053206469858931328 0.051450694765922206
leaf_weight=1.2987710554152734 0.68367202579975206 0.71019513905048359 0.5820148438215258 0.94504513591527928 0.6809341013431548 0.84949180483818054 0.95902914181351651
leaf_count=47 6 7 10 15 21 15 35
internal_value=-0.00250513 -0.0446153 -0.0550067 -0.0534108 0.0515225 -0.0532477 0.0514582
internal_weight=6.70915 3.77042 3.06022 2.37655 2.93873 1.43151 2.2578
internal_count=156 53 46 40 103 25 82
is_linear=0
shrinkage=0.05


Tree=49
num_leaves=8
num_cat=0
split_feature=115 82 109 23 2 2 2
split_gain=5.76491 0.688872 0.0103585 3.23385e-05 1.38121e-05 1.16639e-06 3.22358e-08
threshold=26.66732223941607 0.2600651977544009 22.195189403032931 1.0000000180025095e-35 38.500000000000007 20.000000000000004 49.000000000000007
decision_type=2 2 2 2 2 2 2
left_child=4 -2 3 -3 -1 -5 -6
right_child=1 2 -4 5 6 -7 -8
leaf_value=0.051648275126951686 0.0001530819155835631 -0.053468940337512996 -0.06055929940719286 -0.053129658287943853 0.051390328422693976 -0.053040321533729839 0.051377944551800364
leaf_weight=0.64879442006349597 0.71021522581577334 0.84187102317810114 0.60693482309579838 0.665220707654953 1.2371498327702286 0.81052886322140694 0.91351585462689389
leaf_count=21 7 14 5 12 47 15 35
internal_value=-0.00248254 -0.0440178 -0.0547444 -0.0532217 0.0514461 -0.0530806 0.0513851
internal_weight=6.43423 3.63477 2.92456 2.31762 2.79946 1.47575 2.15067
internal_count=156 53 46 41 103 27 82
is_linear=0
shrinkage=0.05


end of trees

feature_importances:
avg_daily_turnover_log=63
days_in_current_stage=35
n_signals_fired_in_last_30d=26
t14_accumulation_score=24
t0_plus_di=18
is_earnings_window=12
signal_acceleration=12
t0_macd_line=9
t0_macd_histogram=9
t0_klinger=8
t30_accumulation_score=8
earliest_signal_lead_days=7
t0_ema_8=7
t0_macd_signal=7
t0_wyckoff_phase_code=7
n_signals_fired_in_last_7d=4
t0_ema_200=4
t0_hist_vol_30d=4
t0_cmf=4
t0_accumulation_score=4
days_since_last_swing_high=4
t0_stoch_k=3
t0_williams_r=3
t0_bb_bandwidth=3
rel_volume_velocity=3
t30_cmf=3
t0_adx=2
t0_supertrend=2
t0_linreg_slope=2
t0_atr=2
t0_obv_slope_20=2
t0_rel_volume=2
t0_eom=2
cmf_velocity=2
t3_macd_histogram=2
t3_cmf=2
t14_macd_histogram=2
t14_rel_volume=2
t60_rsi=2
t60_macd_histogram=2
t60_bb_bandwidth=2
dow_2.0=2
t0_ema_21=1
t0_ema_50=1
t0_ema_100=1
t0_obv_slope_60=1
accumulation_score_velocity=1
accumulation_trajectory_slope=1
t7_macd_histogram=1
t7_adx=1
t30_macd_histogram=1
t90_accumulation_score=1

parameters:
[boosting: gbdt]
[objective: binary]
[metric: binary_logloss]
[tree_learner: serial]
[device_type: cpu]
[data_sample_strategy: bagging]
[data: ]
[valid: ]
[num_iterations: 50]
[learning_rate: 0.05]
[num_leaves: 31]
[num_threads: 0]
[seed: 42]
[deterministic: 1]
[force_col_wise: 0]
[force_row_wise: 0]
[histogram_pool_size: -1]
[max_depth: -1]
[min_data_in_leaf: 10]
[min_sum_hessian_in_leaf: 0.001]
[bagging_fraction: 0.8]
[pos_bagging_fraction: 1]
[neg_bagging_fraction: 1]
[bagging_freq: 5]
[bagging_seed: 42]
[bagging_by_query: 0]
[feature_fraction: 0.8]
[feature_fraction_bynode: 1]
[feature_fraction_seed: 42]
[extra_trees: 0]
[extra_seed: 12879]
[early_stopping_round: 0]
[early_stopping_min_delta: 0]
[first_metric_only: 0]
[max_delta_step: 0]
[lambda_l1: 0]
[lambda_l2: 0]
[linear_lambda: 0]
[min_gain_to_split: 0]
[drop_rate: 0.1]
[max_drop: 50]
[skip_drop: 0.5]
[xgboost_dart_mode: 0]
[uniform_drop: 0]
[drop_seed: 17869]
[top_rate: 0.2]
[other_rate: 0.1]
[min_data_per_group: 100]
[max_cat_threshold: 32]
[cat_l2: 10]
[cat_smooth: 10]
[max_cat_to_onehot: 4]
[top_k: 20]
[monotone_constraints: ]
[monotone_constraints_method: basic]
[monotone_penalty: 0]
[feature_contri: ]
[forcedsplits_filename: ]
[refit_decay_rate: 0.9]
[cegb_tradeoff: 1]
[cegb_penalty_split: 0]
[cegb_penalty_feature_lazy: ]
[cegb_penalty_feature_coupled: ]
[path_smooth: 0]
[interaction_constraints: ]
[verbosity: -1]
[saved_feature_importance_type: 0]
[use_quantized_grad: 0]
[num_grad_quant_bins: 4]
[quant_train_renew_leaf: 0]
[stochastic_rounding: 1]
[linear_tree: 0]
[max_bin: 255]
[max_bin_by_feature: ]
[min_data_in_bin: 3]
[bin_construct_sample_cnt: 200000]
[data_random_seed: 42]
[is_enable_sparse: 1]
[enable_bundle: 1]
[use_missing: 1]
[zero_as_missing: 0]
[feature_pre_filter: 1]
[pre_partition: 0]
[two_round: 0]
[header: 0]
[label_column: ]
[weight_column: ]
[group_column: ]
[ignore_column: ]
[categorical_feature: ]
[forcedbins_filename: ]
[precise_float_parser: 0]
[parser_config_file: ]
[objective_seed: 16083]
[num_class: 1]
[is_unbalance: 0]
[scale_pos_weight: 1]
[sigmoid: 1]
[boost_from_average: 1]
[reg_sqrt: 0]
[alpha: 0.9]
[fair_c: 1]
[poisson_max_delta_step: 0.7]
[tweedie_variance_power: 1.5]
[lambdarank_truncation_level: 30]
[lambdarank_norm: 1]
[label_gain: ]
[lambdarank_position_bias_regularization: 0]
[eval_at: ]
[multi_error_top_k: 1]
[auc_mu_weights: ]
[num_machines: 1]
[local_listen_port: 12400]
[time_out: 120]
[machine_list_filename: ]
[machines: ]
[gpu_platform_id: -1]
[gpu_device_id: -1]
[gpu_use_dp: 0]
[num_gpu: 1]

end of parameters

pandas_categorical:[]
