tree
version=v4
num_class=1
num_tree_per_iteration=1
label_index=0
max_feature_idx=191
objective=binary sigmoid:1
feature_names=log_market_cap avg_daily_turnover_log days_in_current_stage pmi_50w_trend brent_30d_trend is_ramadan_period is_earnings_window n_signals_fired_in_last_30d n_signals_fired_in_last_7d earliest_signal_lead_days signal_acceleration t0_ema_8 t0_ema_21 t0_ema_50 t0_ema_100 t0_ema_200 t0_ema_ribbon_aligned t0_macd_line t0_macd_signal t0_macd_histogram t0_adx t0_plus_di t0_minus_di t0_supertrend t0_psar t0_hull_ma t0_linreg_slope t0_ichimoku_cloud_pos t0_ichimoku_tk_cross t0_rsi t0_rsi_divergence t0_stoch_k t0_stoch_d t0_stoch_rsi t0_williams_r t0_cci t0_roc t0_tsi t0_ao t0_connors_rsi t0_atr t0_atr_percentile_252 t0_bb_upper t0_bb_middle t0_bb_lower t0_bb_pct_b t0_bb_bandwidth t0_bb_squeeze t0_kc_upper t0_kc_lower t0_dc_upper t0_dc_lower t0_hist_vol_30d t0_obv t0_obv_slope_20 t0_obv_slope_60 t0_ad_line t0_cmf t0_mfi t0_vwap t0_vwap_distance_sigma t0_rel_volume t0_force_index t0_eom t0_klinger t0_swing_high t0_swing_low t0_zscore_20 t0_zscore_50 t0_zscore_200 t0_accumulation_score t0_wyckoff_phase_code t0_close t0_volume t0_high t0_low rsi_velocity macd_histogram_velocity obv_velocity accumulation_score_velocity cmf_velocity adx_velocity rel_volume_velocity obv_trajectory_slope accumulation_trajectory_slope bb_bandwidth_trajectory days_since_last_swing_high days_since_last_swing_low t1_rsi t1_macd_histogram t1_obv t1_accumulation_score t1_cmf t1_adx t1_rel_volume t1_bb_bandwidth t3_rsi t3_macd_histogram t3_obv t3_accumulation_score t3_cmf t3_adx t3_rel_volume t3_bb_bandwidth t7_rsi t7_macd_histogram t7_obv t7_accumulation_score t7_cmf t7_adx t7_rel_volume t7_bb_bandwidth t14_rsi t14_macd_histogram t14_obv t14_accumulation_score t14_cmf t14_adx t14_rel_volume t14_bb_bandwidth t30_rsi t30_macd_histogram t30_obv t30_accumulation_score t30_cmf t30_adx t30_rel_volume t30_bb_bandwidth t60_rsi t60_macd_histogram t60_obv t60_accumulation_score t60_cmf t60_adx t60_rel_volume t60_bb_bandwidth t90_rsi t90_macd_histogram t90_obv t90_accumulation_score t90_cmf t90_adx t90_rel_volume t90_bb_bandwidth current_stage_dormant stage_before_dormant current_stage_stealth_accumulation stage_before_stealth_accumulation current_stage_early_breakout stage_before_early_breakout current_stage_markup_trending stage_before_markup_trending current_stage_acceleration_climax stage_before_acceleration_climax current_stage_distribution_topping stage_before_distribution_topping current_stage_markdown_decline stage_before_markdown_decline current_stage_capitulation_exhaustion stage_before_capitulation_exhaustion regime_risk_on regime_neutral regime_risk_off sector_banking sector_consumer sector_energy sector_holding_misc sector_industrial sector_insurance sector_investment sector_real_estate sector_technology sector_telecom sector_transport tier_premier dow_0.0 dow_1.0 dow_2.0 dow_3.0 dow_6.0 month_1.0 month_2.0 month_3.0 month_4.0 month_5.0 month_6.0 month_7.0 month_8.0 month_9.0 month_10.0 month_11.0 month_12.0
feature_infos=none [19.389982001032216:20.68023322130626] [1:91] none none none [0:1] [9:17] [3:13] [56:90] [0.5:0.96969696969696972] [224.13303177080334:308.71939849592547] [219.37005923913071:303.3201729744531] [218.85161063841997:300.38512322228695] [227.21723038384525:297.76252545997295] [249.32608656732953:295.06142031721475] [0:1] [-1.948917898038161:7.9738796078391374] [-4.2881419722689431:6.5882423253645337] [-0.19053840210246342:3.3479485382760052] [18.891647619574439:51.77861088364439] [22.353244212583508:47.081748781712129] [6.4550442770826928:24.316372555427176] [-1:1] [215.48183080766748:297.58172156870387] [225.74485294117648:314.02401960784312] [-0.20375939849624519:1.075187969924803] [-1:1] [-1:1] [60.064022035627474:79.173100703212469] none [84.615384615384613:100] [69.696969696969703:100] none [-15.384615384615385:0] [138.23953823953772:342.99516908212922] [2.583025830258312:12.648221343873512] [-9.1239501714261291:39.237292500217379] [-4.7617647058823422:16.308823529411768] [79.283904387739071:98.021423782824556] [3.1370689045257985:6.7450649280688442] [11.111111111111111:96.031746031746039] [229.64482065006075:315.80687453662534] [217.25:300.30000000000001] [204.85517934993925:285.45946182604052] [0.95856621001821674:1.3443378849320105] [0.031546720213186975:0.13476138305347948] [0:1] [226.95840401139694:312.09955874123841] [212.16727619748704:294.95958876484099] [233:316] [209:291] [11.322399523005901:32.361511294004956] [44028706:257137622] [-16190.687969928231:1964885.606015037] [-195402.32206168518:683573.15265351499] [16377765.789877051:253752451.31142229] [0.082355830360152649:0.62415272154869261] [48.587824647917571:94.324254247136153] [217.98074018170536:302.83432219206128] [0.92290561739066979:3.526710408696125] [1.6828008723560197:8.1099844828567456] [2083809.0637046956:55262203.959219553] [-282.01187953095734:522.21919835129097] [-44331173.403824866:12405284.244616523] [0:1] none [1.8342648400728674:3.3773515397280596] [0.091681631926644649:4.6197643037537652] [-0.38589523308888013:2.5704208414941556] [32.970994425052133:75.987430167597765] [0:5] [233:315] [2573336:22969681] [233:316] [227:311] [1.5120338022238233:6.7169573770370219] [0.082681596843355562:0.7293689223282227] [337933.66666666669:7965241.333333333] [-1.1412420855485361:5.692133371289394] [-0.0032974291571309009:0.10508940155005179] [-1.9413236590799308:2.6453793568606669] [-0.56293084105156377:1.3175840283912219] [-66629.949807940633:1306714.8816901387] [-0.19878296602520862:0.74909925401485022] [-0.0077487461592189852:0.0026788183497830011] [0:21] [3:13] [48.04762888616154:71.354596379620318] [-0.88066828931144414:2.9153559091258274] [39931949:251996910] [26.543671499778149:74.544692737430154] [-0.066406941684994461:0.65188540803520545] [19.106872703148795:49.92422884816051] [0.31446744173281715:3.0426796504466407] [0.020122355439927554:0.11348524750196709] [42.9443358949908:73.464407135952342] [-1.541075882513562:1.9790413604953274] [23188038:244833269] [19.285794395666539:73.329608938547494] [-0.087680810005082988:0.49988347864117211] [19.825304617932616:49.476190402681148] [0.34103032480172785:4.3527476868268735] [0.020122355439927554:0.13978259685362898] [31.620730733127402:59.73770243200255] [-1.8123222660526963:1.1625942181226672] [14299458:231325930] [14.860660770260502:74.757209506482084] [-0.26867575813390504:0.39478474138606723] [16.369850129232788:58.704355727780239] [0.080935994027147046:2.6633678966224692] [0.018845239953410114:0.17893689077573158] [26.706580048569307:77.037416169099174] [-1.5722311392633861:2.9784021846770505] [11448414:219820553] [18.532122692961973:78.364525139664806] [-0.23668995049605698:0.52751581179403195] [8.8151499924763979:66.341692940327746] [0.037512930014188178:3.1603703011512656] [0.032094722006264287:0.23132899487805991] [34.010846489005189:77.423862854705845] [-1.4444020494846037:4.6068532477854411] [17175083:220784896] [22.888211254835539:73.261608330513113] [-0.42816602182658681:0.49793808249367766] [13.960796696581539:38.677808936081462] [0.20894003791411286:8.0673775132405421] [0.027140735008831983:0.26830808134948608] [19.376971550373696:76.923999803054883] [-4.2645689437620886:3.7828262158697199] [-7002550:201632515] [6.2868937030930416:79.826474020654643] [-0.42201789582217869:0.51114733178054717] [13.960796696581539:56.910450373824695] [0.3692641770753019:2.0653661559230954] [0.025869694437513288:0.46274603566587796] [31.837693778700995:79.173100703212469] [-1.4259979456928162:3.7837055928409922] [6510286:184934272] [22.641132600388229:74.11385192371408] [-0.36674093081324804:0.55098528600340302] [13.716416448437624:51.77861088364439] [0.19843307060104051:3.8113935839599709] [0.018845239953410114:0.22625435745839245] [0:1] [0:1] none [0:1] [0:1] [0:1] [0:1] [0:1] none none none none none none none none none none none none none none none none none none none none none none none [0:1] none [0:1] [0:1] [0:1] [0:1] none none none [0:1] none [0:1] none [0:1] [0:1] none [0:1]
tree_sizes=760 680 577 570 677 566 767 764 877 878 884 884 876 872 879 885 882 894 877 874 879 878 977 987 982 988 986 976 975 979 893 874 985 876 878 985 990 985 989 986 979 987 1086 1088 1093 1088 1083 1098 1089 1087

Tree=0
num_leaves=6
num_cat=0
split_feature=117 20 26 1 2
split_gain=183.96 5.86079 0.265909 1.42109e-14 1.42109e-14
threshold=33.041224791769828 28.041271776682613 0.32180451127818965 20.21121470392287 4.0000000000000009
decision_type=2 2 2 2 2
left_child=1 -1 -2 -3 -4
right_child=2 3 4 -5 -6
leaf_value=0.17212881535929822 0.066842157713769057 0.25264214179411476 0.051358825707073508 0.25264214179411476 0.051358825707073452
leaf_weight=2.4840608239173916 3.2292790710926083 20.617704838514332 11.426679790019991 4.4713094830512992 8.1974007189273816
leaf_count=10 13 83 46 18 33
internal_value=0.158446 0.245389 0.0535467 0.252642 0.0513588
internal_weight=50.4264 27.5731 22.8534 25.089 19.6241
internal_count=203 111 92 101 79
is_linear=0
shrinkage=1


Tree=1
num_leaves=5
num_cat=0
split_feature=116 89 26 1
split_gain=160.279 14.5262 0.000701975 1.42109e-14
threshold=1.0000000180025095e-35 1.0000000180025095e-35 0.32180451127818965 20.185420945278008
decision_type=2 2 2 2
left_child=-1 -2 -3 -4
right_child=1 2 3 -5
leaf_value=0.088837289045442677 0.019295485080094769 -0.10345633765333261 -0.10263502840871641 -0.10263502840871644
leaf_weight=24.85133296251297 2.7312943339347866 2.9966515302658108 8.4943970739841461 11.242584362626076
leaf_count=101 11 12 34 45
internal_value=-0.00149656 -0.0896538 -0.102743 -0.102635
internal_weight=50.3163 25.4649 22.7336 19.737
internal_count=203 102 91 79
is_linear=0
shrinkage=0.05


Tree=2
num_leaves=4
num_cat=0
split_feature=116 89 2
split_gain=145.635 13.0948 0.000512591
threshold=1.0000000180025095e-35 1.0000000180025095e-35 63.000000000000007
decision_type=2 2 2
left_child=-1 -2 -3
right_child=1 2 -4
leaf_value=0.085535907523349025 0.018361883563221854 -0.09750081011234929 -0.098202401035942077
leaf_weight=24.527983009815216 2.7267739772796658 19.737023815512661 2.9989947080612174
leaf_count=101 11 79 12
internal_value=-0.00141611 -0.0851759 -0.0975934
internal_weight=49.9908 25.4628 22.736
internal_count=203 102 91
is_linear=0
shrinkage=0.05


Tree=3
num_leaves=4
num_cat=0
split_feature=117 19 26
split_gain=137.149 4.77678 0.215827
threshold=33.041224791769828 1.1458198446288339 0.32180451127818965
decision_type=2 2 2
left_child=1 -1 -2
right_child=2 -3 -4
leaf_value=0.0096544425266794076 -0.079151619209951674 0.082622674519618688 -0.093088064179448538
leaf_weight=2.4726940691471126 3.2357283383607891 24.133063465356827 19.641112118959427
leaf_count=10 13 101 79
internal_value=-0.00134705 0.0758411 -0.0911169
internal_weight=49.4826 26.6058 22.8768
internal_count=203 111 92
is_linear=0
shrinkage=0.05


Tree=4
num_leaves=5
num_cat=0
split_feature=117 19 31 55
split_gain=125.421 4.49179 0.203853 7.10543e-15
threshold=33.041224791769828 1.1458198446288339 94.153846153846175 -1.0000000180025095e-35
decision_type=2 2 2 2
left_child=1 -1 -2 -3
right_child=2 3 -4 -5
leaf_value=0.0091814363076031247 -0.075669249605048075 0.080035650487929877 -0.089258106834991441 0.080035650487929905
leaf_weight=2.4701435863971737 3.215883448719981 12.894448265433313 19.463955357670784 10.784447640180586
leaf_count=10 13 55 79 46
internal_value=-0.00128662 0.0733425 -0.0873313 0.0800357
internal_weight=48.8289 26.149 22.6798 23.6789
internal_count=203 111 92 101
is_linear=0
shrinkage=0.05


Tree=5
num_leaves=4
num_cat=0
split_feature=117 19 26
split_gain=111.183 3.2334 1.06864
threshold=33.041224791769828 1.1458198446288339 0.32180451127818965
decision_type=2 2 2
left_child=1 -1 -2
right_child=2 -3 -4
leaf_value=0.022239857879841805 -0.052303440516207514 0.077725414027753167 -0.085905831307937719
leaf_weight=2.9611380100250271 2.7031475603580501 23.176257759332657 18.975110739469528
leaf_count=12 11 101 78
internal_value=0.00200317 0.0714394 -0.0817158
internal_weight=47.8157 26.1374 21.6783
internal_count=202 113 89
is_linear=0
shrinkage=0.05


Tree=6
num_leaves=6
num_cat=0
split_feature=9 15 26 39 1
split_gain=98.4419 15.521 0.142089 0.123765 0.00618123
threshold=87.500000000000014 268.90577620235615 0.32180451127818965 90.785737480470416 19.42260933368545
decision_type=2 2 2 2 2
left_child=3 -2 -3 -1 -5
right_child=1 2 -4 4 -6
leaf_value=0.067208258501446391 0.04296719260127585 -0.094443928923639092 -0.08295009367762389 0.075652060414096195 0.077479643138128856
leaf_weight=4.4974249750375774 2.6871749013662365 3.1699218750000027 17.718404084444046 10.757019996643066 8.1182416677474976
leaf_count=20 11 13 74 48 36
internal_value=0.00194662 -0.0701433 -0.0846943 0.0746621 0.0764381
internal_weight=46.9482 23.5755 20.8883 23.3727 18.8753
internal_count=202 98 87 104 84
is_linear=0
shrinkage=0.05


Tree=7
num_leaves=6
num_cat=0
split_feature=9 19 39 8 1
split_gain=90.7526 14.3076 0.122781 0.11216 0.00518036
threshold=87.500000000000014 0.56993582907227169 90.785737480470416 9.5000000000000018 19.42260933368545
decision_type=2 2 2 2 2
left_child=2 -2 -1 -3 -4
right_child=1 3 4 -5 -6
leaf_value=0.065219368468805411 0.040902478032220795 -0.080327163050103678 0.073783016428826245 -0.090594617984229783 0.075477127955342393
leaf_weight=4.4051942527294186 2.6818103343248394 17.39036384224892 10.484926700592043 3.1401007026433936 7.9219172894954673
leaf_count=20 11 74 48 13 36
internal_value=0.00189324 -0.06771 0.0727176 -0.0818976 0.0745121
internal_weight=46.0243 23.2123 22.812 20.5305 18.4068
internal_count=202 98 104 87 84
is_linear=0
shrinkage=0.05


Tree=8
num_leaves=7
num_cat=0
split_feature=117 20 26 1 1 10
split_gain=88.0198 2.64655 0.986162 0.00218498 0.000222787 1.01965e-05
threshold=33.041224791769828 28.041271776682613 0.32180451127818965 20.185420945278008 20.21121470392287 0.76388888888888895
decision_type=2 2 2 2 2 2
left_child=1 -1 -2 -4 5 -3
right_child=2 4 3 -5 -6 -7
leaf_value=0.02158544631191087 -0.04549549074091927 0.072013749545402794 -0.079111164474636564 -0.07798634803445037 0.072470340651852982 0.072091410348661747
leaf_weight=2.943924784660342 2.6004287302494076 7.2162586450576827 7.1867352575063714 10.813764601945877 4.0645518600940695 10.201584577560425
leaf_count=12 11 34 31 47 19 48
internal_value=0.00184415 0.0660444 -0.0742775 -0.0784354 0.072137 0.0720592
internal_weight=45.0272 24.4263 20.6009 18.0005 21.4824 17.4178
internal_count=202 113 89 78 101 82
is_linear=0
shrinkage=0.05


Tree=9
num_leaves=7
num_cat=0
split_feature=117 19 31 1 19 1
split_gain=81.4284 2.57722 0.957293 0.00175255 0.000179099 8.20041e-06
threshold=33.041224791769828 1.1458198446288339 94.153846153846175 20.185420945278008 1.6668300428140364 19.42260933368545
decision_type=2 2 2 2 2 2
left_child=1 -1 -2 -4 -3 -6
right_child=2 4 3 -5 5 -7
leaf_value=0.020563461082803516 -0.043653881505602794 0.07089951375600631 -0.076905671237149573 -0.075886727715336971 0.07055485882194662 0.070484194150078422
leaf_weight=2.9359309077262905 2.5752712786197689 3.9497835189104107 7.0272243469953546 10.563634365797043 9.9099597930908221 7.0094555020332328
leaf_count=12 11 19 31 47 48 34
internal_value=0.00180046 0.0644257 -0.0721256 -0.0762938 0.0705964 0.0705256
internal_weight=43.9713 23.8051 20.1661 17.5909 20.8692 16.9194
internal_count=202 113 89 78 101 82
is_linear=0
shrinkage=0.05


Tree=10
num_leaves=7
num_cat=0
split_feature=117 20 26 1 1 23
split_gain=78.3506 3.4168 1.06017 0.00112642 0.000168675 6.73971e-06
threshold=33.041224791769828 28.041271776682613 0.32180451127818965 20.185420945278008 20.21121470392287 -1.0000000180025095e-35
decision_type=2 2 2 2 2 2
left_child=1 -1 -2 -4 5 -3
right_child=2 4 3 -5 -6 -7
leaf_value=0.0068180178791318368 -0.038465896697772881 0.069154594972345496 -0.074787156191536558 -0.073994955464188411 0.069469060903065191 0.06909008896288904
leaf_weight=2.4450625777244595 2.3213979601860073 10.013154149055486 7.9517229944467553 10.298728048801422 4.6393800526857367 6.7986919581890097
leaf_count=10 10 50 36 47 23 34
internal_value=0.00123923 0.062819 -0.0702919 -0.0743401 0.0692022 0.0691285
internal_weight=44.4681 23.8963 20.5718 18.2505 21.4512 16.8118
internal_count=210 117 93 83 107 84
is_linear=0
shrinkage=0.05


Tree=11
num_leaves=7
num_cat=0
split_feature=9 15 64 10 2 17
split_gain=74.3728 8.62418 0.200376 0.0966232 0.0101706 6.92402e-06
threshold=87.500000000000014 268.90577620235615 -1.0000000180025095e-35 0.94505494505494514 1.5000000000000002 0.65389599563283707
decision_type=2 2 2 2 2 2
left_child=3 -2 5 4 -1 -3
right_child=1 2 -4 -5 -6 -7
leaf_value=0.067874728874235235 0.031397849057959885 -0.072218224927277322 -0.08670896515674642 0.060835588480491226 0.070366763059814694 -0.072283545031950974
leaf_weight=9.6998110413551384 2.1395069360733059 6.8160958290100178 2.7968869209289506 4.7296481132507315 7.0847897231578818 10.022436067461967
leaf_count=50 9 32 12 24 36 47
internal_value=0.00121494 -0.0639287 -0.0743156 0.0671479 0.0689266 -0.0722571
internal_weight=43.2892 21.7749 19.6354 21.5142 16.7846 16.8385
internal_count=210 100 91 110 86 79
is_linear=0
shrinkage=0.05


Tree=12
num_leaves=7
num_cat=0
split_feature=9 15 8 1 81 1
split_gain=69.141 8.07078 0.162985 0.0985388 0.00884311 5.56773e-06
threshold=87.500000000000014 268.90577620235615 9.5000000000000018 19.809104953542896 -1.0000000180025095e-35 20.185420945278008
decision_type=2 2 2 2 2 2
left_child=3 -2 5 4 -1 -3
right_child=1 2 -4 -5 -6 -7
leaf_value=0.069063287840933726 0.029871940043867437 -0.070670231518551965 -0.083864696913661774 0.059412591306983023 0.06670174355836235 -0.070729657016689693
leaf_weight=6.863199949264529 2.1364334821701076 6.6220474243164107 2.7483748793601981 4.6039863079786292 9.3848533928394335 9.73770971596241
leaf_count=36 9 32 12 24 50 47
internal_value=0.00119053 -0.0622935 -0.0725983 0.0658696 0.0676993 -0.0707056
internal_weight=42.0966 21.2446 19.1081 20.852 16.2481 16.3598
internal_count=210 100 91 110 86 79
is_linear=0
shrinkage=0.05


Tree=13
num_leaves=7
num_cat=0
split_feature=9 19 8 1 1 1
split_gain=64.3605 7.57042 0.133304 0.100951 0.0077062 4.49688e-06
threshold=87.500000000000014 0.56993582907227169 9.5000000000000018 19.809104953542896 19.42260933368545 20.185420945278008
decision_type=2 2 2 2 2 2
left_child=3 -2 5 4 -1 -3
right_child=1 2 -4 -5 -6 -7
leaf_value=0.065624048911916186 0.028429564482583315 -0.069259884357812329 -0.08132140443058844 0.058061917762790176 0.067865744555313759 -0.069314106372986364
leaf_weight=9.0700067579746264 2.1326794177293804 6.4240674972534189 2.6939846873283377 4.478727474808692 6.6407327950000754 9.4471143931150436
leaf_count=50 9 32 12 24 36 47
internal_value=0.00116751 -0.0607887 -0.0710377 0.0646838 0.0665716 -0.0692922
internal_weight=40.8873 20.6978 18.5652 20.1895 15.7107 15.8712
internal_count=210 100 91 110 86 79
is_linear=0
shrinkage=0.05


Tree=14
num_leaves=7
num_cat=0
split_feature=117 19 26 1 19 1
split_gain=59.6754 2.64548 1.02733 0.00550685 0.000502897 3.24046e-05
threshold=33.041224791769828 1.1458198446288339 0.32180451127818965 20.185420945278008 1.6668300428140364 19.42260933368545
decision_type=2 2 2 2 2 2
left_child=1 -1 -2 -4 -3 -6
right_child=2 4 3 -5 5 -7
leaf_value=0.0091074264758135431 -0.03197045828081449 0.065196227213151131 -0.06987073991135144 -0.068020709606179106 0.064631653695774671 0.064480213524301042
leaf_weight=2.4143178164958981 2.1373861432075527 4.1113903671503094 7.1760500818490991 9.1528716236352921 8.7567500770091993 5.9206720590591422
leaf_count=10 10 23 36 47 50 34
internal_value=0.00114574 0.0583765 -0.064567 -0.0688337 0.0647075 0.0645706
internal_weight=39.6694 21.2031 18.4663 16.3289 18.7888 14.6774
internal_count=210 117 93 83 107 84
is_linear=0
shrinkage=0.05


Tree=15
num_leaves=7
num_cat=0
split_feature=117 19 31 109 116 2
split_gain=57.0988 1.17986 0.907406 0.00481642 0.000389416 2.71163e-05
threshold=33.041224791769828 1.1458198446288339 94.153846153846175 40.746333650598025 -0.14606679717269261 1.5000000000000002
decision_type=2 2 2 2 2 2
left_child=1 -1 -2 -4 5 -3
right_child=2 4 3 -5 -6 -7
leaf_value=0.026418113386855069 -0.034078848891434636 0.063715900046301788 -0.066835688288861481 -0.068607492773742007 0.064237097343866928 0.063575995761600862
leaf_weight=2.3989072144031551 2.3179846554994592 8.1084887981414813 8.8569017797708494 6.7654651105403909 3.6227547079324696 6.0458562970161447
leaf_count=10 11 48 47 35 21 36
internal_value=0.00162628 0.0593329 -0.0632715 -0.067603 0.0637745 0.0636561
internal_weight=38.1164 20.176 17.9404 15.6224 17.7771 14.1543
internal_count=208 115 93 82 105 84
is_linear=0
shrinkage=0.05


Tree=16
num_leaves=7
num_cat=0
split_feature=9 141 11 39 1 23
split_gain=50.4783 11.7142 0.127537 0.113855 0.00922279 1.35006e-05
threshold=87.500000000000014 40.054937331040549 282.72695969348433 90.785737480470416 19.42260933368545 -1.0000000180025095e-35
decision_type=2 2 2 2 2 2
left_child=3 2 5 -1 -5 -2
right_child=1 -3 -4 4 -6 -7
leaf_value=0.054197054486909736 -0.065747237884996909 0.065493403301095085 -0.076737402775367017 0.062869236083727756 0.065437483169838898 -0.065647110032956646
leaf_weight=3.7294068932533291 8.3787111043930071 1.8235498666763295 3.2236919850110999 7.8142576217651349 6.3251857757568359 5.6277473121881512
leaf_count=22 46 8 15 48 38 31
internal_value=0.00159885 -0.0550166 -0.0677707 0.0619684 0.0640181 -0.065707
internal_weight=36.9226 19.0537 17.2302 17.8689 14.1394 14.0065
internal_count=208 100 92 108 86 77
is_linear=0
shrinkage=0.05


Tree=17
num_leaves=7
num_cat=0
split_feature=117 16 26 6 19 17
split_gain=49.9372 1.16972 0.898534 0.00418906 0.000422838 2.97832e-05
threshold=33.041224791769828 1.0000000180025095e-35 0.32180451127818965 1.0000000180025095e-35 1.6668300428140364 -1.0000000180025095e-35
decision_type=2 2 2 2 2 2
left_child=1 4 -2 -4 -1 -6
right_child=2 -3 3 -5 5 -7
leaf_value=0.062646961960730108 -0.031410787601767069 0.024496534917873694 -0.064745199258041161 -0.066447731295013038 0.061932781916078795 0.062085070306541271
leaf_weight=3.3835722059011522 2.226761832833291 2.3572970777750006 8.0902771055698377 6.5285195410251626 5.5998076200485265 7.524644851684565
leaf_count=21 11 10 46 36 36 48
internal_value=0.00157206 0.0574438 -0.0609986 -0.0655055 0.0621486 0.0620201
internal_weight=35.7109 18.8653 16.8456 14.6188 16.508 13.1245
internal_count=208 115 93 82 105 84
is_linear=0
shrinkage=0.05


Tree=18
num_leaves=7
num_cat=0
split_feature=117 19 32 7 19 1
split_gain=46.6724 1.18423 0.898238 0.00354415 0.000350513 2.47053e-05
threshold=33.041224791769828 1.1458198446288339 85.546990371551786 9.5000000000000018 1.6668300428140364 19.42260933368545
decision_type=2 2 2 2 2 2
left_child=1 -1 -2 -4 -3 -6
right_child=2 4 3 -5 5 -7
leaf_value=0.023370573922473457 -0.030193173423421666 0.061878972576434182 -0.063820771504074961 -0.065414651953498035 0.061357579136696698 0.061216176844862247
leaf_weight=2.3475773185491589 2.201390981674197 3.2574821412563315 7.8043367862701398 6.3056910634040833 7.2403686046600324 5.387470006942749
leaf_count=10 11 21 46 36 48 36
internal_value=0.00154744 0.0565179 -0.0598986 -0.0645331 0.0614165 0.0612973
internal_weight=34.5443 18.2329 16.3114 14.11 15.8853 12.6278
internal_count=208 115 93 82 105 84
is_linear=0
shrinkage=0.05


Tree=19
num_leaves=7
num_cat=0
split_feature=9 22 18 1 1 1
split_gain=41.8152 10.3852 0.12766 0.117718 0.0116348 1.84299e-05
threshold=87.500000000000014 11.113658915558419 -1.3621052926810251 19.809104953542896 19.42260933368545 20.185420945278008
decision_type=2 2 2 2 2 2
left_child=3 -2 5 4 -1 -3
right_child=1 2 -4 -5 -6 -7
leaf_value=0.060681655016990604 0.062747600487686656 -0.062842716942219753 -0.074304755736476671 0.051529208643383118 0.063731202357568836 -0.062966273602099582
leaf_weight=6.9620161056518572 1.7667628377676035 5.0405582934617996 3.0604360252618763 3.3656077980995169 5.6790810227394104 7.5218915939331055
leaf_count=48 8 31 15 22 38 46
internal_value=0.00152399 -0.0521536 -0.0651476 0.0598392 0.0620517 -0.0629167
internal_weight=33.3964 17.3896 15.6229 16.0067 12.6411 12.5624
internal_count=208 100 92 108 86 77
is_linear=0
shrinkage=0.05


Tree=20
num_leaves=7
num_cat=0
split_feature=9 15 64 39 1 2
split_gain=46.6535 6.11641 0.126519 0.12558 0.0212489 4.62028e-05
threshold=87.500000000000014 268.90577620235615 -1.0000000180025095e-35 90.785737480470416 19.42260933368545 27.000000000000004
decision_type=2 2 2 2 2 2
left_child=3 -2 5 -1 -5 -3
right_child=1 2 -4 4 -6 -7
leaf_value=0.051297421437623628 0.029188135868064853 -0.062249952384047486 -0.07330439846175546 0.060052752002509473 0.064035456017807565 -0.062060478343616644
leaf_weight=3.5553923100233105 1.954557448625567 8.5279002487659472 3.1412930488586399 7.3869469314813596 6.1267344206571579 5.1667599231004724
leaf_count=24 9 54 16 53 42 33
internal_value=-0.000178934 -0.0545346 -0.0642544 0.0596586 0.0618584 -0.0621785
internal_weight=35.8596 18.7905 16.836 17.0691 13.5137 13.6947
internal_count=231 112 103 119 95 87
is_linear=0
shrinkage=0.05


Tree=21
num_leaves=7
num_cat=0
split_feature=9 19 39 8 1 1
split_gain=43.7175 5.78935 0.129882 0.106544 0.0188909 3.84715e-05
threshold=87.500000000000014 0.56993582907227169 90.785737480470416 9.5000000000000018 19.42260933368545 20.185420945278008
decision_type=2 2 2 2 2 2
left_child=2 -2 -1 5 -4 -3
right_child=1 3 4 -5 -6 -7
leaf_value=0.050288528658831461 0.027809669301097559 -0.061334752332431533 0.059466821394473984 -0.071817010373278561 0.063296923534409022 -0.061511006101017666
leaf_weight=3.4481244832277325 1.9490121155977274 4.9714463800191888 7.0941562652587873 3.0483914613723746 5.8942009806632996 8.2069598883390427
leaf_count=24 9 33 53 16 42 54
internal_value=-0.000176612 -0.0536133 0.0589148 -0.0633931 0.0612049 -0.0614445
internal_weight=34.6123 18.1758 16.4365 16.2268 12.9884 13.1784
internal_count=231 112 119 103 95 87
is_linear=0
shrinkage=0.05


Tree=22
num_leaves=8
num_cat=0
split_feature=9 22 11 1 7 18 1
split_gain=40.9889 7.93514 0.20396 0.134538 0.0167908 0.00427934 1.11807e-05
threshold=87.500000000000014 11.113658915558419 291.42453634931604 19.809104953542896 12.000000000000002 -1.3621052926810251 20.185420945278008
decision_type=2 2 2 2 2 2 2
left_child=3 -2 5 4 -1 6 -3
right_child=1 2 -4 -5 -6 -7 -8
leaf_value=0.062604266084847759 0.05800881400537812 -0.060660432092796437 -0.07986313654081445 0.04930033278057059 0.058920275816698876 -0.063219809538363037 -0.060757729900785318
leaf_weight=5.6671949923038465 1.481050089001658 4.7802177071571368 1.6021838337182988 3.3440372943878165 6.8091763406991959 1.9845866560935963 7.7225979566574097
leaf_count=42 7 33 7 24 53 12 53
internal_value=-0.000174687 -0.0527405 -0.062935 0.0582065 0.0605937 -0.0610629 -0.0607205
internal_weight=33.391 17.5706 16.0896 15.8204 12.4764 14.4874 12.5028
internal_count=231 112 105 119 95 98 86
is_linear=0
shrinkage=0.05


Tree=23
num_leaves=8
num_cat=0
split_feature=9 22 16 1 1 1 6
split_gain=38.4751 7.44074 0.166981 0.139529 0.0149188 0.00355379 9.31422e-06
threshold=87.500000000000014 11.113658915558419 1.0000000180025095e-35 19.809104953542896 19.42260933368545 20.1363929791329 1.0000000180025095e-35
decision_type=2 2 2 2 2 2 2
left_child=3 -2 5 4 -1 -3 -7
right_child=1 2 -4 -5 -6 6 -8
leaf_value=0.058409876331855438 0.055964195060396099 -0.062409925208856465 -0.077623749570559508 0.048330174745830901 0.061953632930027064 -0.060123578458774612 -0.060032986313136909
leaf_weight=6.5322504043579084 1.4589678496122385 1.9116708040237398 1.5668775886297233 3.2431831508874884 5.4459794238209724 7.4214737266302091 4.5933999270200729
leaf_count=53 7 12 7 24 42 53 33
internal_value=-0.000172672 -0.0519835 -0.0621486 0.0575301 0.0600211 -0.0604075 -0.0600889
internal_weight=32.1738 16.9524 15.4934 15.2214 11.9782 13.9265 12.0149
internal_count=231 112 105 119 95 98 86
is_linear=0
shrinkage=0.05


Tree=24
num_leaves=8
num_cat=0
split_feature=9 22 10 16 2 2 2
split_gain=36.1352 6.98416 0.144834 0.137198 0.0132491 0.00295762 7.7725e-06
threshold=87.500000000000014 11.113658915558419 0.94505494505494514 1.0000000180025095e-35 1.5000000000000002 63.000000000000007 27.000000000000004
decision_type=2 2 2 2 2 2 2
left_child=2 -2 4 5 -1 6 -3
right_child=1 3 -4 -5 -6 -7 -8
leaf_value=0.057932727982261845 0.054020301713357026 -0.059532846078024705 0.04737574072610818 -0.075606756737886707 0.061341615635442936 -0.061659095165158842 -0.059448400520358984
leaf_weight=6.2635474652051943 1.4364725500345255 7.1277937889099068 3.1455892324447623 1.5291976481676108 5.230750098824501 1.8400170207023627 4.4112516939640045
leaf_count=53 7 53 24 7 42 12 33
internal_value=-0.000171079 -0.0512736 0.0568824 -0.061419 0.059484 -0.0597974 -0.0595006
internal_weight=30.9846 16.3447 14.6399 14.9083 11.4943 13.3791 11.539
internal_count=231 112 119 105 95 98 86
is_linear=0
shrinkage=0.05


Tree=25
num_leaves=8
num_cat=0
split_feature=9 10 18 11 8 6 6
split_gain=29.7955 9.9447 0.0856248 0.0373535 0.00242309 5.60325e-05 5.81234e-06
threshold=87.500000000000014 0.70833333333333337 -1.0000000180025095e-35 250.55426414597085 9.5000000000000018 1.0000000180025095e-35 1.0000000180025095e-35
decision_type=2 2 2 2 2 2 2
left_child=3 -2 4 5 6 -1 -3
right_child=1 2 -4 -5 -6 -7 -8
leaf_value=0.057486217067747696 0.070125754264525983 -0.05898188887551184 -0.07217611092994311 0.06366836755265845 -0.060961920342782333 0.057236785699083859 -0.058903075137720112
leaf_weight=5.88990670442581 1.6370316743850715 5.6800621151924098 1.4457354992628086 3.1534786969423303 1.7697855234146125 3.6448472812771797 3.9773687124252319
leaf_count=52 8 44 7 23 12 33 31
internal_value=0.00298717 -0.0459504 -0.0607116 0.058951 -0.0592611 0.0573909 -0.0589494
internal_weight=27.1982 14.51 12.873 12.6882 11.4272 9.53475 9.65743
internal_count=210 102 94 108 87 85 75
is_linear=0
shrinkage=0.05


Tree=26
num_leaves=8
num_cat=0
split_feature=9 10 16 12 2 2 2
split_gain=28.0673 9.34162 0.0709893 0.0324544 0.00202435 4.71521e-05 4.86829e-06
threshold=87.500000000000014 0.70833333333333337 1.0000000180025095e-35 247.96568716646462 63.000000000000007 1.5000000000000002 27.000000000000004
decision_type=2 2 2 2 2 2 2
left_child=3 -2 4 5 6 -1 -3
right_child=1 2 -4 -5 -6 -7 -8
leaf_value=0.057068000691002263 0.068762771341245352 -0.058467443884724336 -0.0706701088265341 0.062947979930503398 -0.060313623659387278 0.056834211136823944 -0.058393801625502451
leaf_weight=5.6426696777343732 1.5872678756713874 5.4493755400180763 1.4037811905145652 3.0331387668848047 1.7011072039604194 3.4910219460725784 3.8155486062169075
leaf_count=52 8 44 7 23 12 33 31
internal_value=0.00295819 -0.0454304 -0.0600834 0.0584668 -0.0587282 0.0569786 -0.0584371
internal_weight=26.1239 13.9571 12.3698 12.1668 10.966 9.13369 9.26492
internal_count=210 102 94 108 87 85 75
is_linear=0
shrinkage=0.05


Tree=27
num_leaves=8
num_cat=0
split_feature=9 120 35 1 1 1 1
split_gain=26.454 8.78216 0.0590043 0.0282025 0.00169415 3.97302e-05 4.08347e-06
threshold=87.500000000000014 64.797600780396891 189.00238133673477 19.640349543344271 20.1363929791329 19.42260933368545 20.185420945278008
decision_type=2 2 2 2 2 2 2
left_child=3 2 -2 5 -4 -1 -6
right_child=1 -3 4 -5 6 -7 -8
leaf_value=0.056675938135779404 -0.069293599975907047 0.067515949897234959 -0.059709957077083431 0.062270338245021255 -0.057917694994701098 0.056456625811187947 -0.057986571673939717
leaf_weight=5.403662443161009 1.3611644953489292 1.5370249748229987 1.6340866684913624 2.915811389684678 3.6585407182574254 3.3424092829227448 5.2255021631717682
leaf_count=52 7 8 12 23 31 33 44
internal_value=0.0029311 -0.0449468 -0.059498 0.0580118 -0.0582304 0.0565921 -0.0579582
internal_weight=25.0782 13.4163 11.8793 11.6619 10.5181 8.74607 8.88404
internal_count=210 102 94 108 87 85 75
is_linear=0
shrinkage=0.05


Tree=28
num_leaves=8
num_cat=0
split_feature=9 1 35 1 1 1 2
split_gain=24.9462 8.2623 0.0491564 0.0245095 0.00142011 3.35158e-05 3.43005e-06
threshold=87.500000000000014 19.809104953542896 189.00238133673477 19.640349543344271 20.1363929791329 19.42260933368545 27.000000000000004
decision_type=2 2 2 2 2 2 2
left_child=3 -2 -3 5 -4 -1 -6
right_child=1 2 4 -5 6 -7 -8
leaf_value=0.056308093270840409 0.066372378241316352 -0.068031950695400231 -0.059147142596126634 0.06163220613751208 -0.057536627374140725 0.05610220352471107 -0.057472147408215019
leaf_weight=5.1728505194187147 1.4866100549697883 1.3181769996881474 1.5688063502311695 2.8015943765640268 5.0085363984107953 3.1989746242761612 3.5064064860343933
leaf_count=52 8 7 12 23 44 33 31
internal_value=0.00290573 -0.0444964 -0.0589518 0.0575841 -0.0577648 0.0562294 -0.0575101
internal_weight=24.062 12.8885 11.4019 11.1734 10.0837 8.37183 8.51494
internal_count=210 102 94 108 87 85 75
is_linear=0
shrinkage=0.05


Tree=29
num_leaves=8
num_cat=0
split_feature=9 1 35 1 1 7 1
split_gain=23.5357 7.77852 0.0410394 0.0213003 0.00119222 2.83037e-05 2.88536e-06
threshold=87.500000000000014 19.809104953542896 189.00238133673477 19.640349543344271 20.1363929791329 12.000000000000002 20.185420945278008
decision_type=2 2 2 2 2 2 2
left_child=3 -2 -3 5 -4 -1 -6
right_child=1 2 4 -5 6 -7 -8
leaf_value=0.055769285456764385 0.065320984468623222 -0.066872649515595281 -0.058621810352221075 0.061030697101957625 -0.057054813843247967 0.055962710586679544 -0.057115234237029723
leaf_weight=3.0606638789176923 1.4362870454788215 1.2750704884529103 1.5053282976150502 2.6905581653118142 3.3591752424836141 4.9501661062240601 4.7985261082649231
leaf_count=33 8 7 12 23 31 52 44
internal_value=0.00288197 -0.0440764 -0.0584415 0.0571816 -0.0573289 0.0558888 -0.0570904
internal_weight=23.0758 12.3744 10.9381 10.7014 9.66303 8.01083 8.1577
internal_count=210 102 94 108 87 85 75
is_linear=0
shrinkage=0.05


Tree=30
num_leaves=7
num_cat=0
split_feature=117 19 84 6 19 17
split_gain=24.4796 0.794713 0.168869 0.0118048 0.000158987 2.39694e-05
threshold=33.041224791769828 1.1458198446288339 0.52530440252650223 1.0000000180025095e-35 1.6668300428140364 -1.0000000180025095e-35
decision_type=2 2 2 2 2 2
left_child=1 -1 3 -2 -3 -6
right_child=2 4 -4 -5 5 -7
leaf_value=0.019554321469514718 -0.056720234680002625 0.056069159462234432 -0.040907297102105264 -0.060344099983219962 0.055456344798607199 0.055638192471823313
leaf_weight=1.8216278254985834 5.4310223758220637 1.9305470585823039 1.6610986590385444 3.833535447716713 3.1935343444347373 4.1891074180603036
leaf_count=10 52 20 13 34 36 46
internal_value=-0.00241564 0.0497575 -0.0555876 -0.0582197 0.0556652 0.0555595
internal_weight=22.0605 11.1348 10.9257 9.26456 9.31319 7.38264
internal_count=211 112 99 86 102 82
is_linear=0
shrinkage=0.05


Tree=31
num_leaves=7
num_cat=0
split_feature=117 20 26 1 1 1
split_gain=23.0235 0.811696 0.177415 0.0106499 0.00013445 2.02835e-05
threshold=33.041224791769828 28.041271776682613 0.32180451127818965 20.185420945278008 20.21121470392287 19.42260933368545
decision_type=2 2 2 2 2 2
left_child=1 -1 -2 -4 5 -3
right_child=2 4 3 -5 -6 -7
leaf_value=0.01866076596663778 -0.03982196960353801 0.055333060147973512 -0.059866169626352543 -0.056349665216453362 0.055738227928328665 0.055161993622252672
leaf_weight=1.813621506094935 1.6220576316118229 4.006219878792761 3.6749458909034711 5.1992608606815338 1.847020089626312 3.0535833835601807
leaf_count=10 13 46 34 52 20 36
internal_value=-0.00238792 0.0491501 -0.0550267 -0.0578059 0.0553584 0.0552591
internal_weight=21.2167 10.7204 10.4963 8.87421 8.90682 7.0598
internal_count=211 112 99 86 102 82
is_linear=0
shrinkage=0.05


Tree=32
num_leaves=8
num_cat=0
split_feature=118 1 144 1 1 1 1
split_gain=19.2828 7.62945 0.118291 0.0010886 0.000113813 1.71815e-05 6.24143e-06
threshold=1.7223659176723267 19.809104953542896 1.0000000180025095e-35 20.1363929791329 20.21121470392287 19.42260933368545 20.185420945278008
decision_type=2 2 2 2 2 2 2
left_child=1 -1 -3 -4 5 -2 -5
right_child=4 2 3 6 -6 -7 -8
leaf_value=0.065656434802729965 0.055045981973004976 -0.072285565358759671 -0.057500307745019186 -0.055908814796199718 0.055427143185271012 0.054884954280353171 -0.056001760538019169
leaf_weight=1.4108018279075647 3.8302053809165937 1.3047698438167543 1.3610996603965757 2.8355088829994202 1.7665509879589079 2.9189488291740417 4.9756361544132233
leaf_count=8 46 7 12 30 20 36 52
internal_value=-0.00236073 -0.0435005 -0.0581992 -0.0561954 0.0550699 0.0549763 -0.055968
internal_weight=20.4035 11.8878 10.477 9.17224 8.51571 6.74915 7.81115
internal_count=211 109 101 94 102 82 82
is_linear=0
shrinkage=0.05


Tree=33
num_leaves=7
num_cat=0
split_feature=117 20 76 1 1 1
split_gain=20.4481 0.797835 0.180145 0.00838666 9.64267e-05 1.45644e-05
threshold=33.041224791769828 28.041271776682613 4.4842373126571902 20.185420945278008 20.21121470392287 19.42260933368545
decision_type=2 2 2 2 2 2
left_child=1 -1 3 -2 5 -3
right_child=2 4 -4 -5 -6 -7
leaf_value=0.017520398345352545 -0.058932585609622612 0.05477572426721361 -0.038288304820236957 -0.055674887009657226 0.055134514112974167 0.05462407117184917
leaf_weight=1.7426276206970239 3.3774150311946833 3.6609251201152784 1.5225597918033607 4.760055273771286 1.6890881955623624 2.789515346288681
leaf_count=10 34 46 13 52 20 36
internal_value=-0.00234306 0.0482246 -0.0540735 -0.057027 0.0547982 0.0547101
internal_weight=19.5422 9.88216 9.66003 8.13747 8.13953 6.45044
internal_count=211 112 99 86 102 82
is_linear=0
shrinkage=0.05


Tree=34
num_leaves=7
num_cat=0
split_feature=117 86 26 1 1 1
split_gain=19.2395 0.820364 0.188987 0.0260365 0.00754825 1.23571e-05
threshold=33.041224791769828 7.0000000000000009 0.32180451127818965 19.474790006362706 20.185420945278008 19.42260933368545
decision_type=2 2 2 2 2 2
left_child=1 -1 -2 5 -4 -3
right_child=2 3 4 -5 -6 -7
leaf_value=0.021019138415915874 -0.037234027215053346 0.054521165622143201 -0.058526611111803441 0.06271154333590484 -0.055367572729966667 0.054378259090430585
leaf_weight=2.2188131660223025 1.4882712960243205 3.4982276111841202 3.2344178110361099 1.1312832981348035 4.5524000525474548 2.6651603579521179
leaf_count=23 13 46 34 7 52 36
internal_value=-0.00231699 0.0476415 -0.0535595 0.0557391 -0.0566797 0.0544594
internal_weight=18.7886 9.51348 9.27509 7.29467 7.78682 6.16339
internal_count=211 112 99 89 86 82
is_linear=0
shrinkage=0.05


Tree=35
num_leaves=8
num_cat=0
split_feature=117 19 29 10 7 2 2
split_gain=16.5933 1.01424 0.785276 0.00131229 0.000136547 1.06889e-05 7.14829e-06
threshold=33.041224791769828 1.1458198446288339 71.897227051297833 0.84444444444444455 14.000000000000002 1.5000000000000002 27.000000000000004
decision_type=2 2 2 2 2 2 2
left_child=1 -1 3 6 5 -3 -2
right_child=2 4 -4 -5 -6 -7 -8
leaf_value=0.009881596927662252 -0.055078462830650689 0.054281264370220773 -0.0097486604021747945 -0.056752444449839928 0.054758022008917766 0.054146531034502357 -0.054968296090562543
leaf_weight=1.5434043556451813 3.8503165841102582 3.6325559020042419 1.0785478204488752 1.3563337177038191 1.5074900761246679 2.475038655102253 2.384245477616787
leaf_count=9 46 50 6 13 19 35 29
internal_value=-9.10998e-05 0.046841 -0.0496707 -0.055343 0.0543319 0.0542267 -0.0550363
internal_weight=17.8279 9.15849 8.66944 7.5909 7.61508 6.10759 6.23456
internal_count=207 113 94 88 104 85 75
is_linear=0
shrinkage=0.05


Tree=36
num_leaves=8
num_cat=0
split_feature=1 54 52 1 10 1 63
split_gain=15.871 6.15473 0.123971 0.0688793 0.00244743 9.0821e-06 6.05855e-06
threshold=19.809104953542896 1.0000000180025095e-35 29.063998876187068 19.474790006362706 0.84444444444444455 19.42260933368545 -1.0000000180025095e-35
decision_type=2 2 2 2 2 2 2
left_child=3 -2 4 5 6 -1 -3
right_child=1 2 -4 -5 -6 -7 -8
leaf_value=0.054055067277189055 0.054504484938206192 -0.054702570174941206 -0.075285281972946483 0.066433513899593066 -0.056927409479359474 0.053927983232178879 -0.054806312615359412
leaf_weight=3.4694876521825817 1.4404704123735417 2.2787026613950725 0.85812711715698231 1.377775967121124 1.6799407377839086 2.3636294901371002 3.6802610754966723
leaf_count=50 19 29 4 8 16 35 46
internal_value=-8.97863e-05 -0.0410646 -0.0572661 0.0563785 -0.0552418 0.0540036 -0.0547666
internal_weight=17.1484 9.9375 8.49703 7.21089 7.6389 5.83312 5.95896
internal_count=207 114 95 93 91 85 75
is_linear=0
shrinkage=0.05


Tree=37
num_leaves=8
num_cat=0
split_feature=1 54 52 1 18 1 1
split_gain=14.9992 5.81482 0.103375 0.0582043 0.00207445 7.72167e-06 5.13991e-06
threshold=19.809104953542896 -1.0000000180025095e-35 29.063998876187068 19.474790006362706 -1.3621052926810251 19.42260933368545 20.185420945278008
decision_type=2 2 2 2 2 2 2
left_child=3 -2 4 5 6 -1 -3
right_child=1 2 -4 -5 -6 -7 -8
leaf_value=0.053841689399033381 0.054265542256127543 -0.05445223134794254 -0.0735292317386807 0.065434631774251462 -0.056546067418072471 0.053721770015561159 -0.05454998393958789
leaf_weight=3.3130273222923305 1.3760986477136636 2.1772819682955733 0.83526949584484089 1.3300772309303281 1.6085127368569327 2.2567660734057426 3.5168064832687378
leaf_count=50 19 29 4 8 16 35 46
internal_value=-8.81624e-05 -0.0407923 -0.0568664 0.0560372 -0.0549605 0.0537931 -0.0545126
internal_weight=16.4138 9.51397 8.13787 6.89987 7.3026 5.56979 5.69409
internal_count=207 114 95 93 91 85 75
is_linear=0
shrinkage=0.05


Tree=38
num_leaves=8
num_cat=0
split_feature=1 54 52 1 10 1 1
split_gain=14.1802 5.49575 0.0864012 0.0492456 0.00175981 6.57023e-06 4.36336e-06
threshold=19.809104953542896 1.0000000180025095e-35 29.063998876187068 19.474790006362706 0.84444444444444455 19.42260933368545 20.185420945278008
decision_type=2 2 2 2 2 2 2
left_child=3 -2 4 5 6 -1 -3
right_child=1 2 -4 -5 -6 -7 -8
leaf_value=0.053640318508951436 0.054040236875548611 -0.054216283527610758 -0.071930699262566455 0.064508587132907733 -0.056187989137648081 0.053527103778213174 -0.054308432699616965
leaf_weight=3.1629808247089395 1.3143048509955386 2.0798801183700562 0.81173695623874653 1.2829081714153288 1.5395684987306593 2.1543120220303535 3.3597924113273621
leaf_count=50 19 29 4 8 16 35 46
internal_value=-8.66687e-05 -0.0405366 -0.0564913 0.0557159 -0.0546956 0.0535944 -0.0542732
internal_weight=15.7055 9.10528 7.79098 6.6002 6.97924 5.31729 5.43967
internal_count=207 114 95 93 91 85 75
is_linear=0
shrinkage=0.05


Tree=39
num_leaves=8
num_cat=0
split_feature=1 9 52 1 10 1 17
split_gain=13.4104 5.19602 0.0723662 0.041714 0.00149409 5.59346e-06 3.70677e-06
threshold=19.809104953542896 75.500000000000014 29.063998876187068 19.474790006362706 0.84444444444444455 19.42260933368545 -1.0000000180025095e-35
decision_type=2 2 2 2 2 2 2
left_child=3 -2 4 5 6 -1 -3
right_child=1 2 -4 -5 -6 -7 -8
leaf_value=0.053450193066200191 0.053827696066405362 -0.053993781411783785 -0.070470818491221318 0.063648591564657742 -0.055851513954038472 0.053343269718317154 -0.054080689107767144
leaf_weight=3.0191518366336831 1.2550171092152576 1.9863899424672111 0.78773407638072956 1.2364087998867033 1.4730820804834364 2.0561286062002182 3.209051609039308
leaf_count=50 19 29 4 8 16 35 46
internal_value=-8.52912e-05 -0.0402963 -0.056139 0.0554131 -0.054446 0.0534069 -0.0540475
internal_weight=15.023 8.71127 7.45626 6.31169 6.66852 5.07528 5.19544
internal_count=207 114 95 93 91 85 75
is_linear=0
shrinkage=0.05


Tree=40
num_leaves=8
num_cat=0
split_feature=1 68 52 1 31 1 1
split_gain=13.5044 4.24363 0.0613982 0.0487719 0.0010551 4.657e-06 3.40659e-06
threshold=19.809104953542896 4.0786672720159682 29.063998876187068 19.474790006362706 98.275862068965537 19.42260933368545 20.185420945278008
decision_type=2 2 2 2 2 2 2
left_child=3 2 4 5 -2 -1 -6
right_child=1 -3 -4 -5 6 -7 -8
leaf_value=0.053270622465227235 -0.055385091664071143 0.053627106484782486 -0.069133623458756593 0.063896033902233626 -0.053783856044223546 0.053169604249353103 -0.053865862380770492
leaf_weight=2.535581275820733 1.3831080496311168 1.0089782476425169 0.76343825459480275 1.3948044776916502 2.1583149656653404 2.0741955116391182 3.0644103139638901
leaf_count=44 16 16 4 9 33 37 46
internal_value=-0.00152579 -0.0425416 -0.0557087 0.0557039 -0.0541572 0.0532252 -0.053832
internal_weight=14.3828 8.37825 7.36927 6.00458 6.60583 4.60978 5.22273
internal_count=205 115 99 90 95 81 79
is_linear=0
shrinkage=0.05


Tree=41
num_leaves=8
num_cat=0
split_feature=1 9 52 1 10 10 1
split_gain=12.7752 4.01492 0.0516205 0.041328 0.000897115 3.96916e-06 2.89808e-06
threshold=19.809104953542896 75.500000000000014 29.063998876187068 19.474790006362706 0.84444444444444455 0.76388888888888895 20.185420945278008
decision_type=2 2 2 2 2 2 2
left_child=3 -2 4 5 6 -1 -3
right_child=1 2 -4 -5 -6 -7 -8
leaf_value=0.053005477516370726 0.053437719900308815 -0.053585722335225607 -0.067905514910226825 0.063077502324996843 -0.055096009240246935 0.053100952468960849 -0.053663135052919135
leaf_weight=1.9789907112717635 0.96308529376983454 2.0604519098997116 0.73900289833545674 1.3435577899217603 1.3223814293742178 2.4194313734769821 2.9256909936666489
leaf_count=37 16 33 4 9 16 44 46
internal_value=-0.00151739 -0.0423173 -0.0554028 0.0554024 -0.0539382 0.053058 -0.0536311
internal_weight=13.7526 8.01061 7.04753 5.74198 6.30852 4.39842 4.98614
internal_count=205 115 99 90 95 81 79
is_linear=0
shrinkage=0.05


Tree=42
num_leaves=9
num_cat=0
split_feature=9 10 10 7 35 10 2 2
split_gain=11.2313 3.26055 0.257101 0.0440357 0.0137238 0.000429977 3.38476e-06 2.46694e-06
threshold=87.500000000000014 0.70833333333333337 0.94505494505494514 10.500000000000002 150.90844193915623 0.84444444444444455 1.5000000000000002 27.000000000000004
decision_type=2 2 2 2 2 2 2 2
left_child=2 -2 3 -1 -3 7 -5 -6
right_child=1 4 -4 6 5 -7 -8 -9
leaf_value=0.067620417227523807 0.058027866223178098 -0.061099814400025335 0.028267642702377818 0.052940585188489077 -0.05347174100794469 -0.0545526352865814 0.052850317629611614 -0.053398636131129565
leaf_weight=0.57803191244602192 0.71523396670818318 0.69051155447959889 1.1414563953876493 2.3082296699285507 2.7927128598093987 1.0656824409961698 1.8878611624240873 1.9666556529700754
leaf_count=3 6 5 17 44 46 14 37 33
internal_value=-0.00150948 -0.0433106 0.0495854 0.0546823 -0.0544349 -0.0536448 0.0529 -0.0534415
internal_weight=13.1464 7.2308 5.91558 4.77412 6.51556 5.82505 4.19609 4.75937
internal_count=205 104 101 84 98 93 81 79
is_linear=0
shrinkage=0.05


Tree=43
num_leaves=9
num_cat=0
split_feature=1 9 52 1 1 10 10 1
split_gain=11.4233 3.68048 0.042545 0.0338329 0.00544994 0.000643609 2.88752e-06 2.10113e-06
threshold=19.809104953542896 75.500000000000014 29.063998876187068 19.640349543344271 19.474790006362706 0.84444444444444455 0.76388888888888895 20.185420945278008
decision_type=2 2 2 2 2 2 2 2
left_child=3 -2 5 4 6 7 -1 -3
right_child=1 2 -4 -5 -6 -7 -8 -9
leaf_value=0.052703591374870455 0.053168009947844111 -0.053221914870482112 -0.06659890466464756 0.066468309316099372 0.0575752849247049 -0.054561353793945624 0.052788958557629252 -0.053290977495431227
leaf_weight=1.8006622754037378 0.89655226469039906 1.8767955154180525 0.69901372492313374 0.5591277927160262 0.68556395173072804 1.2071341797709463 2.2018032371997833 2.6652937531471252
leaf_count=37 16 33 4 3 6 16 44 46
internal_value=-0.00150121 -0.0417536 -0.0549513 0.0548427 0.0534561 -0.0535352 0.0527506 -0.0532624
internal_weight=12.5919 7.34479 6.44824 5.24716 4.68803 5.74922 4.00247 4.54209
internal_count=205 115 99 90 87 95 81 79
is_linear=0
shrinkage=0.05


Tree=44
num_leaves=9
num_cat=0
split_feature=1 9 64 1 1 18 1 23
split_gain=10.8142 3.48469 0.0359609 0.0283855 0.00462493 0.000548244 2.4648e-06 1.79061e-06
threshold=19.809104953542896 75.500000000000014 7688138.4929720787 19.640349543344271 19.474790006362706 -1.3621052926810251 19.42260933368545 -1.0000000180025095e-35
decision_type=2 2 2 2 2 2 2 2
left_child=3 -2 5 4 6 7 -1 -3
right_child=1 2 -4 -5 -6 -7 -8 -9
leaf_value=0.052645552534243037 0.053003970463005083 -0.053120189514676563 -0.065581193687473394 0.065409277802003826 0.057151452892704548 -0.054319898515604641 0.052564789964523496 -0.053054921075676324
leaf_weight=2.0999811142683029 0.85539954900741566 2.5432511717081061 0.67497763037681568 0.54025009274482716 0.65684205293655384 1.1532364934682853 1.717251528054476 1.7907403260469434
leaf_count=44 16 46 4 3 6 16 37 33
internal_value=-0.00149411 -0.0415634 -0.0546907 0.0545833 0.0532761 -0.053351 0.0526092 -0.0530932
internal_weight=12.0319 7.01761 6.16221 5.01432 4.47407 5.48723 3.81723 4.33399
internal_count=205 115 99 90 87 95 81 79
is_linear=0
shrinkage=0.05


Tree=45
num_leaves=9
num_cat=0
split_feature=1 9 141 1 1 18 1 1
split_gain=10.1561 4.00536 0.0262741 0.0240622 0.00395256 0.000387972 2.18635e-06 1.64473e-06
threshold=19.809104953542896 75.500000000000014 28.61958792738314 19.640349543344271 19.474790006362706 -1.3621052926810251 19.42260933368545 20.185420945278008
decision_type=2 2 2 2 2 2 2 2
left_child=3 -2 5 4 6 7 -1 -3
right_child=1 2 -4 -5 -6 -7 -8 -9
leaf_value=0.05250987481667601 0.052848893355619542 -0.05289706885779967 -0.064253102121870145 0.064433622807246779 0.056754196863031618 -0.054043437145458499 0.052433455592041683 -0.052958768812498648
leaf_weight=2.184648871421814 1.0200106352567671 1.7601281255483616 0.58715569972991932 0.52148468792438496 0.62907001376152027 0.95476339757442552 1.6374884657561781 2.7956379912793636
leaf_count=48 20 34 4 3 6 14 37 53
internal_value=-0.000554132 -0.0388578 -0.0541983 0.0542721 0.0530816 -0.053127 0.0524771 -0.0529349
internal_weight=12.0904 7.1177 6.09769 4.97269 4.45121 5.51053 3.82214 4.55577
internal_count=219 125 105 94 91 101 85 87
is_linear=0
shrinkage=0.05


Tree=46
num_leaves=9
num_cat=0
split_feature=1 9 141 1 1 1 1 1
split_gain=9.62082 3.7951 0.0223593 0.0202503 0.00335929 0.000330876 1.86782e-06 1.40319e-06
threshold=19.809104953542896 75.500000000000014 28.61958792738314 19.640349543344271 19.474790006362706 20.1363929791329 19.42260933368545 20.185420945278008
decision_type=2 2 2 2 2 2 2 2
left_child=3 -2 5 4 6 -3 -1 -7
right_child=1 2 -4 -5 -6 7 -8 -9
leaf_value=0.05238148357728957 0.05270224290330832 -0.053831304467951695 -0.063427688398813506 0.063532944276974451 0.056381542409560031 -0.052747801525663641 0.052309146791131522 -0.052806152819205504
leaf_weight=2.0830671787261963 0.9728957712650298 0.9116874337196349 0.5656030774116515 0.50290453433990467 0.60224470496177662 1.6789038106799123 1.5612352527678015 2.6667846441268921
leaf_count=48 20 14 4 3 6 34 37 53
internal_value=-0.000551914 -0.0387087 -0.0539815 0.0540457 0.0529222 -0.0529653 0.0523505 -0.0527836
internal_weight=11.5453 6.79587 5.82298 4.74945 4.24655 5.25738 3.6443 4.34569
internal_count=219 125 105 94 91 101 85 87
is_linear=0
shrinkage=0.05


Tree=47
num_leaves=9
num_cat=0
split_feature=9 10 7 16 2 7 2 17
split_gain=9.06729 2.48193 0.19749 0.00361284 0.000132859 3.24615e-05 1.59607e-06 1.19759e-06
threshold=87.500000000000014 0.70833333333333337 10.500000000000002 1.0000000180025095e-35 63.000000000000007 14.000000000000002 1.5000000000000002 0.65389599563283707
decision_type=2 2 2 2 2 2 2 2
left_child=2 -2 -1 4 7 6 -4 -3
right_child=1 3 5 -5 -6 -7 -8 -9
leaf_value=0.023495879366155856 0.056031698755946484 -0.052606616101349979 0.05225994995646624 -0.057213939625469702 -0.053379964477989254 0.052563515334942794 0.052191465531547888 -0.05266181507680065
leaf_weight=0.68805472552776326 0.57635910809040058 1.6012005135416982 1.9859665632247925 0.49964358657598484 0.71171669661998738 0.92782787978649128 1.4883569478988647 2.5435010902583599
leaf_count=4 6 34 48 5 12 20 37 53
internal_value=-0.00054981 -0.0425564 0.0484072 -0.0531654 -0.0527489 0.0523008 0.0522306 -0.0526405
internal_weight=11.0226 5.93242 5.09021 5.35606 4.85642 4.40215 3.47432 4.1447
internal_count=219 110 109 104 99 105 85 87
is_linear=0
shrinkage=0.05


Tree=48
num_leaves=9
num_cat=0
split_feature=1 9 141 8 1 18 1 1
split_gain=8.68941 3.41569 0.0192907 0.0162553 0.00243137 0.000239436 1.3644e-06 1.02235e-06
threshold=19.809104953542896 75.500000000000014 28.61958792738314 4.0000000000000009 19.474790006362706 -1.3621052926810251 19.42260933368545 20.185420945278008
decision_type=2 2 2 2 2 2 2 2
left_child=3 -2 5 -1 6 7 -5 -3
right_child=1 2 -4 4 -6 -7 -8 -9
leaf_value=0.062404979963084667 0.052432251306290312 -0.052473038430683128 -0.062697979375788665 0.052144876458255544 0.055703026509829529 -0.053439016756262482 0.052080022578791345 -0.052525265064004928
leaf_weight=0.47780299186706532 0.88473089039325703 1.5268884077668188 0.53270238637924183 1.8931733965873723 0.5514027178287505 0.83048394322395358 1.4187219180166721 2.4255839660763741
leaf_count=3 20 34 4 48 6 14 37 53
internal_value=-0.000548086 -0.0385324 -0.0536725 0.0537049 0.0526289 -0.0526673 0.0521171 -0.0525051
internal_weight=10.5415 6.20039 5.31566 4.3411 3.8633 4.78296 3.3119 3.95247
internal_count=219 125 105 94 91 101 85 87
is_linear=0
shrinkage=0.05


Tree=49
num_leaves=9
num_cat=0
split_feature=1 9 141 1 1 1 1 1
split_gain=8.2359 3.23804 0.0164646 0.0137234 0.00207039 0.000204477 1.16673e-06 8.73158e-07
threshold=19.809104953542896 75.500000000000014 28.61958792738314 19.640349543344271 19.474790006362706 20.1363929791329 19.42260933368545 20.185420945278008
decision_type=2 2 2 2 2 2 2 2
left_child=3 -2 5 4 6 -3 -1 -7
right_child=1 2 -4 -5 -6 7 -8 -9
leaf_value=0.052035896392633077 0.052308006544967894 -0.053260485161219229 -0.061983093183389293 0.061654507857661189 0.055394035598023153 -0.052346618389115133 0.051974467696454654 -0.052396047356327628
leaf_weight=1.8045185208320622 0.84353052079677571 0.79256188869476307 0.51241794973611821 0.45989169180393208 0.5273621231317519 1.4558403268456461 1.3522015623748302 2.3128332644701004
leaf_count=48 20 14 4 3 6 34 37 53
internal_value=-0.000546151 -0.0384037 -0.0534852 0.0535107 0.0524941 -0.0525305 0.0520096 -0.052377
internal_weight=10.0612 5.91718 5.07365 4.14397 3.68408 4.56124 3.15672 3.76867
internal_count=219 125 105 94 91 101 85 87
is_linear=0
shrinkage=0.05


end of trees

feature_importances:
avg_daily_turnover_log=106
earliest_signal_lead_days=27
days_in_current_stage=18
signal_acceleration=17
t0_macd_histogram=17
t14_adx=16
t0_linreg_slope=11
n_signals_fired_in_last_30d=7
t0_macd_signal=7
t0_hist_vol_30d=7
n_signals_fired_in_last_7d=6
is_earnings_window=5
t0_ema_ribbon_aligned=5
t0_macd_line=5
t0_adx=5
t0_connors_rsi=5
t90_adx=5
t0_ema_200=4
t0_minus_di=4
t0_stoch_k=4
t0_cci=4
t0_ema_8=3
t0_supertrend=3
t0_obv_slope_20=3
t0_klinger=3
t14_cmf=3
t1_macd_histogram=2
t0_ema_21=1
t0_rsi=1
t0_stoch_d=1
t0_obv_slope_60=1
t0_eom=1
t0_zscore_50=1
rsi_velocity=1
adx_velocity=1
accumulation_trajectory_slope=1
days_since_last_swing_high=1
t7_adx=1
t14_rel_volume=1
t30_rsi=1
current_stage_dormant=1

parameters:
[boosting: gbdt]
[objective: binary]
[metric: binary_logloss]
[tree_learner: serial]
[device_type: cpu]
[data_sample_strategy: bagging]
[data: ]
[valid: ]
[num_iterations: 50]
[learning_rate: 0.05]
[num_leaves: 31]
[num_threads: 0]
[seed: 42]
[deterministic: 1]
[force_col_wise: 0]
[force_row_wise: 0]
[histogram_pool_size: -1]
[max_depth: -1]
[min_data_in_leaf: 10]
[min_sum_hessian_in_leaf: 0.001]
[bagging_fraction: 0.8]
[pos_bagging_fraction: 1]
[neg_bagging_fraction: 1]
[bagging_freq: 5]
[bagging_seed: 42]
[bagging_by_query: 0]
[feature_fraction: 0.8]
[feature_fraction_bynode: 1]
[feature_fraction_seed: 42]
[extra_trees: 0]
[extra_seed: 12879]
[early_stopping_round: 0]
[early_stopping_min_delta: 0]
[first_metric_only: 0]
[max_delta_step: 0]
[lambda_l1: 0]
[lambda_l2: 0]
[linear_lambda: 0]
[min_gain_to_split: 0]
[drop_rate: 0.1]
[max_drop: 50]
[skip_drop: 0.5]
[xgboost_dart_mode: 0]
[uniform_drop: 0]
[drop_seed: 17869]
[top_rate: 0.2]
[other_rate: 0.1]
[min_data_per_group: 100]
[max_cat_threshold: 32]
[cat_l2: 10]
[cat_smooth: 10]
[max_cat_to_onehot: 4]
[top_k: 20]
[monotone_constraints: ]
[monotone_constraints_method: basic]
[monotone_penalty: 0]
[feature_contri: ]
[forcedsplits_filename: ]
[refit_decay_rate: 0.9]
[cegb_tradeoff: 1]
[cegb_penalty_split: 0]
[cegb_penalty_feature_lazy: ]
[cegb_penalty_feature_coupled: ]
[path_smooth: 0]
[interaction_constraints: ]
[verbosity: -1]
[saved_feature_importance_type: 0]
[use_quantized_grad: 0]
[num_grad_quant_bins: 4]
[quant_train_renew_leaf: 0]
[stochastic_rounding: 1]
[linear_tree: 0]
[max_bin: 255]
[max_bin_by_feature: ]
[min_data_in_bin: 3]
[bin_construct_sample_cnt: 200000]
[data_random_seed: 42]
[is_enable_sparse: 1]
[enable_bundle: 1]
[use_missing: 1]
[zero_as_missing: 0]
[feature_pre_filter: 1]
[pre_partition: 0]
[two_round: 0]
[header: 0]
[label_column: ]
[weight_column: ]
[group_column: ]
[ignore_column: ]
[categorical_feature: ]
[forcedbins_filename: ]
[precise_float_parser: 0]
[parser_config_file: ]
[objective_seed: 16083]
[num_class: 1]
[is_unbalance: 0]
[scale_pos_weight: 1]
[sigmoid: 1]
[boost_from_average: 1]
[reg_sqrt: 0]
[alpha: 0.9]
[fair_c: 1]
[poisson_max_delta_step: 0.7]
[tweedie_variance_power: 1.5]
[lambdarank_truncation_level: 30]
[lambdarank_norm: 1]
[label_gain: ]
[lambdarank_position_bias_regularization: 0]
[eval_at: ]
[multi_error_top_k: 1]
[auc_mu_weights: ]
[num_machines: 1]
[local_listen_port: 12400]
[time_out: 120]
[machine_list_filename: ]
[machines: ]
[gpu_platform_id: -1]
[gpu_device_id: -1]
[gpu_use_dp: 0]
[num_gpu: 1]

end of parameters

pandas_categorical:[]
