tree
version=v4
num_class=1
num_tree_per_iteration=1
label_index=0
max_feature_idx=191
objective=binary sigmoid:1
feature_names=log_market_cap avg_daily_turnover_log days_in_current_stage pmi_50w_trend brent_30d_trend is_ramadan_period is_earnings_window n_signals_fired_in_last_30d n_signals_fired_in_last_7d earliest_signal_lead_days signal_acceleration t0_ema_8 t0_ema_21 t0_ema_50 t0_ema_100 t0_ema_200 t0_ema_ribbon_aligned t0_macd_line t0_macd_signal t0_macd_histogram t0_adx t0_plus_di t0_minus_di t0_supertrend t0_psar t0_hull_ma t0_linreg_slope t0_ichimoku_cloud_pos t0_ichimoku_tk_cross t0_rsi t0_rsi_divergence t0_stoch_k t0_stoch_d t0_stoch_rsi t0_williams_r t0_cci t0_roc t0_tsi t0_ao t0_connors_rsi t0_atr t0_atr_percentile_252 t0_bb_upper t0_bb_middle t0_bb_lower t0_bb_pct_b t0_bb_bandwidth t0_bb_squeeze t0_kc_upper t0_kc_lower t0_dc_upper t0_dc_lower t0_hist_vol_30d t0_obv t0_obv_slope_20 t0_obv_slope_60 t0_ad_line t0_cmf t0_mfi t0_vwap t0_vwap_distance_sigma t0_rel_volume t0_force_index t0_eom t0_klinger t0_swing_high t0_swing_low t0_zscore_20 t0_zscore_50 t0_zscore_200 t0_accumulation_score t0_wyckoff_phase_code t0_close t0_volume t0_high t0_low rsi_velocity macd_histogram_velocity obv_velocity accumulation_score_velocity cmf_velocity adx_velocity rel_volume_velocity obv_trajectory_slope accumulation_trajectory_slope bb_bandwidth_trajectory days_since_last_swing_high days_since_last_swing_low t1_rsi t1_macd_histogram t1_obv t1_accumulation_score t1_cmf t1_adx t1_rel_volume t1_bb_bandwidth t3_rsi t3_macd_histogram t3_obv t3_accumulation_score t3_cmf t3_adx t3_rel_volume t3_bb_bandwidth t7_rsi t7_macd_histogram t7_obv t7_accumulation_score t7_cmf t7_adx t7_rel_volume t7_bb_bandwidth t14_rsi t14_macd_histogram t14_obv t14_accumulation_score t14_cmf t14_adx t14_rel_volume t14_bb_bandwidth t30_rsi t30_macd_histogram t30_obv t30_accumulation_score t30_cmf t30_adx t30_rel_volume t30_bb_bandwidth t60_rsi t60_macd_histogram t60_obv t60_accumulation_score t60_cmf t60_adx t60_rel_volume t60_bb_bandwidth t90_rsi t90_macd_histogram t90_obv t90_accumulation_score t90_cmf t90_adx t90_rel_volume t90_bb_bandwidth current_stage_dormant stage_before_dormant current_stage_stealth_accumulation stage_before_stealth_accumulation current_stage_early_breakout stage_before_early_breakout current_stage_markup_trending stage_before_markup_trending current_stage_acceleration_climax stage_before_acceleration_climax current_stage_distribution_topping stage_before_distribution_topping current_stage_markdown_decline stage_before_markdown_decline current_stage_capitulation_exhaustion stage_before_capitulation_exhaustion regime_risk_on regime_neutral regime_risk_off sector_banking sector_consumer sector_energy sector_holding_misc sector_industrial sector_insurance sector_investment sector_real_estate sector_technology sector_telecom sector_transport tier_premier dow_0.0 dow_1.0 dow_2.0 dow_3.0 dow_6.0 month_1.0 month_2.0 month_3.0 month_4.0 month_5.0 month_6.0 month_7.0 month_8.0 month_9.0 month_10.0 month_11.0 month_12.0
feature_infos=none [15.555182715155249:19.530222000623674] [1:54] none none none [0:1] [8:18] [2:14] [44:90] [0:0.9850746268656716] [23.196489572834231:83.155578196083965] [21.757066596893484:80.538416368657423] [29.782181637319891:79.186718256021564] [36.241372806134393:78.005726891213641] [39.922347836472468:74.526385613927431] [0:1] [-0.80232479674052115:5.8094403514302684] [-0.74904763588090451:3.498511789986182] [-0.053277160859616646:2.3827637437021982] [11.432764141254541:48.601213950874289] [17.220934911762949:63.053028747404028] [3.1144899496393843:20.468651197408086] [-1:1] [18.372:75.716005683199995] [21.912148692810462:85.767810457516333] [-0.1681954887218057:1.3385714285714274] [-1:1] [-1:1] [48.044251461427535:86.877089217411623] none [40.000000000000021:100.00000000000001] [30.000000000000028:95.485551616715] [78.826816197182424:100.00000000000001] [-59.999999999999979:0] [-44.900435765900127:578.08499743983475] [-1.7857142857142905:77.083333333333343] [-7.8192468288608534:54.75344837392182] [-1.8420588235294062:15.724411764705891] [66.609019013407192:97.270124800322421] [1.4578226107719265:4.8242380569811587] [6.746031746031746:100] [27.133746000422619:88.548223361380153] [20.77:79.609999999999985] [14.40625399957738:74.298295716377751] [0.40482350939025297:1.5394820911395104] [0.064923091974802671:0.61278247476385361] [0:1] [25.634485900634704:86.879629719693881] [17.896201203941711:74.437090948905379] [34.200000000000003:94.5] [18.300000000000001:74] [20.454429837251812:154.41130761767843] [3031611:114387143] [-1265319.5714285732:2616263.2744360887] [-719632.90705751709:508956.45926646283] [-102206238.91259982:24734723.805358015] [-0.23131203632622629:0.79012912359434107] [39.356444383794404:97.439647810184809] [21.217392249283368:81.901051794692577] [-0.62727935929298639:4.2359439449235117] [1.6374970831180908:13.340296510939632] [96773.67667781435:30803488.961495608] [-703.09063145686594:295.90744198857931] [-44685631.107290372:21470977.830507748] [0:1] none [-0.38070596243898802:4.1579283645580416] [-0.56132354328909517:5.5055908330446526] [0.13879765325897431:5.6508131500040957] [15.368958169651215:78.420903954802256] [0:5] [34:91.900000000000006] [428464:19046625] [34.200000000000003:94.5] [29.199999999999999:83.599999999999994] [0.66958546032409316:13.500821499408481] [0.023521443729889163:0.49026763789668532] [80807.333333333328:8728842.333333334] [-1.6976489332868734:5.2940493826844301] [-0.10673981795761887:0.13787113468910744] [-0.76759858022683625:2.8542747137019711] [-1.0084444040966296:2.9293931420933972] [-506793.26555697952:1704587.3562099854] [-0.68920800786621972:1.6889360462334058] [-0.010690465862864469:0.014473786549343871] [0:25] [1:13] [43.913488696880826:82.117474485026463] [-0.25934682311543256:1.9664563598075828] [2317598:102907260] [10.8276949363841:77.22175141242937] [-0.40841973287965649:0.79012912359434107] [11.024570746747859:47.597867514211465] [0.10563919636742017:13.340296510939632] [0.04491983193130239:0.44844780219932012] [37.228318048407836:78.25045911535581] [-0.20947362500008404:2.0107579768697805] [615886:98762084] [12.226119960628074:76.036723163841799] [-0.36475889160076169:0.50833049516755502] [9.3140647288995844:48.549251815457957] [0.010813463826133766:6.4191599121393965] [0.055676630193004173:0.685520019770677] [31.65683469710423:77.43281943240342] [-0.29833039920537663:0.66624835640474078] [1002341:89208920] [3.7895480225988698:72.247747195121974] [-0.44633716844180338:0.38069944701511194] [9.6183536099790299:48.922195264207375] [9.6817258142421045e-05:7.9265817712582045] [0.061358038632799428:1.0075377370503498] [32.032942965212442:74.513195542530354] [-0.36831443761797011:1.6145492556618934] [-748971:82631121] [7.4833295546718084:66.087169898397931] [-0.55587179143828103:0.3679994733284141] [10.655081564446814:40.289716162118005] [0.019845396255811741:5.3324890868422328] [0.05188454206781544:1.0916415371314601] [21.368411279174637:63.060635104465817] [-1.3530356041192615:0.55882687078490489] [-1672879:80769283] [7.4833295546718084:65.654235886332486] [-0.38543808206184355:0.095725241365137076] [10.655081564446814:41.491057863326013] [0.022363234841919884:4.5490237178854276] [0.058696270692828005:0.43016922207041186] [35.560470369231481:77.43281943240342] [-0.51802809498989144:1.1769314525800354] [-553811:89625896] [18.136562136404724:76.211864406779654] [-0.29824518477818585:0.45686819208448232] [9.724320332662618:49.178999374585601] [0.066876126898176902:2.0308088180446608] [0.068157914436924066:1.0075377370503498] [31.563239340626765:62.366476399555104] [-0.60502817329010128:0.76585546617589584] [-775941:78844810] [9.850014896101154:82.41384180790962] [-0.57267181219898822:0.40959063244480587] [9.2003246461007677:50.063166497508789] [0.034494707414323769:1.9044061887280654] [0.048471260817268713:0.5124481171804226] [0:1] [0:1] none [0:1] [0:1] [0:1] [0:1] [0:1] [0:1] none [0:1] none none none none none none none none none none none none none none none none none none none none [0:1] [0:1] [0:1] [0:1] [0:1] [0:1] [0:1] none [0:1] [0:1] none [0:1] none [0:1] [0:1] [0:1] none
tree_sizes=982 1197 1193 1090 1196 879 985 1098 1197 1094 1207 1305 1418 1509 1414 1425 1521 1422 1527 1530 1409 1313 1412 1313 1408 1524 1413 1530 1528 1543 1426 1315 1429 1427 1303 1427 1402 1405 1532 1525 1312 1414 1418 1522 1429 1422 1320 1424 1417 1532

Tree=0
num_leaves=8
num_cat=0
split_feature=137 37 1 37 55 2 28
split_gain=201.862 84.9401 9.71542 1.79435 1.79058 1.42109e-14 1.42109e-14
threshold=-0.25560373792664254 2.7873345610557103 18.048315172516322 14.66293621284985 36692.669977771373 40.000000000000007 -1.0000000180025095e-35
decision_type=2 2 2 2 2 2 2
left_child=4 2 -2 -3 -1 6 -6
right_child=1 3 -4 -5 5 -7 -8
leaf_value=0.027550085225643145 -0.0010992712560563139 0.19944622411583954 0.093895963393789098 0.16602197488719023 -0.0010992712560562445 -0.0010992712560562445 -0.0010992712560563833
leaf_weight=6.980959594249728 6.2329996377229673 38.145957782864571 4.7370797246694565 4.4877597391605368 11.967359304428106 8.2275595217943209 4.737079724669452
leaf_count=28 25 153 19 18 48 33 19
internal_value=0.104728 0.164001 0.0399214 0.195928 0.00516778 -0.00109927 -0.00109927
internal_weight=85.5168 53.6038 10.9701 42.6337 31.913 24.932 16.7044
internal_count=343 215 44 171 128 100 67
is_linear=0
shrinkage=1


Tree=1
num_leaves=10
num_cat=0
split_feature=137 61 95 7 7 35 8 13 105
split_gain=182.237 104.822 1.81418 1.60928 0.0176669 0.0159855 0.00212695 2.84217e-14 1.42109e-14
threshold=-0.25560373792664254 1.9110228478213951 0.15940301045312072 15.500000000000002 15.500000000000002 199.16543775771905 6.5000000000000009 39.902673156115945 -1.0000000180025095e-35
decision_type=2 2 2 2 2 2 2 2 2
left_child=3 4 5 7 -2 -3 -7 -1 -8
right_child=1 2 -4 -5 -6 6 8 -9 -10
leaf_value=-0.099945068343004012 -0.099945068343004109 0.095203459284909753 0.057709351127850729 -0.072819802573929088 -0.10492227405126944 0.092351382799900336 0.090959211802542267 -0.099945068343004095 0.090959211802542128
leaf_weight=7.9999976158142152 6.249998137354849 2.4933331459760657 4.4593187570571891 6.9986719489097586 2.4944977462291718 2.9794220924377433 28.961035966873162 16.999994933605194 5.6931951045990052
leaf_count=32 25 10 18 28 10 12 117 68 23
internal_value=0.000320416 0.0569204 0.0879641 -0.0940123 -0.101365 0.0913263 0.0910694 -0.0999451 0.0909592
internal_weight=85.3295 53.3308 44.5863 31.9987 8.7445 40.127 37.6337 25 34.6542
internal_count=343 215 180 128 35 162 152 100 140
is_linear=0
shrinkage=0.05


Tree=2
num_leaves=10
num_cat=0
split_feature=137 61 22 55 61 7 8 32 63
split_gain=165.28 95.4015 1.81981 1.47662 0.0129914 0.012935 0.00186987 2.84217e-14 1.42109e-14
threshold=-0.25560373792664254 1.9110228478213951 9.6423351327709099 36692.669977771373 2.2951044536608696 15.500000000000002 6.5000000000000009 90.789402139516582 -193.23565814857162
decision_type=2 2 2 2 2 2 2 2 2
left_child=3 5 -3 -1 -4 -2 -6 -5 -8
right_child=1 2 4 7 6 -7 8 -9 -10
leaf_value=-0.069200915134346841 -0.095194647692651083 0.05307809559989797 0.09124478883263866 -0.095194647692651069 0.08866239642186069 -0.099451715968557799 0.087398012746340945 -0.095194647692651027 0.087398012746340903
leaf_weight=6.9964147210121181 6.2340740114450437 4.1838571131229392 2.4769024997949591 16.707318350672722 3.1968567818403235 2.4999240040779114 22.032202631235119 8.2289776951074618 12.240112572908403
leaf_count=28 25 17 10 67 13 10 90 33 50
internal_value=0.000316244 0.0545698 0.0844517 -0.0894995 0.0877377 -0.0964131 0.0875059 -0.0951946 0.087398
internal_weight=84.7966 52.8639 44.1299 31.9327 39.9461 8.734 37.4692 24.9363 34.2723
internal_count=343 215 180 128 163 35 153 100 140
is_linear=0
shrinkage=0.05


Tree=3
num_leaves=9
num_cat=0
split_feature=137 61 22 55 61 1 8 10
split_gain=150.505 87.1576 1.71336 1.37874 0.00991725 0.00962302 0.00143173 1.42109e-14
threshold=-0.25560373792664254 1.9110228478213951 9.6423351327709099 36692.669977771373 2.2951044536608696 18.048315172516322 6.5000000000000009 0.79807692307692324
decision_type=2 2 2 2 2 2 2 2
left_child=3 5 -3 -1 -4 -2 -6 -8
right_child=1 2 4 -5 6 -7 7 -9
leaf_value=-0.065926778074393913 -0.091090790087048457 0.050803123856672405 0.087648183641289845 -0.091090790087048443 0.085382061901881745 -0.094770301576688948 0.084268265201066256 0.084268265201066256
leaf_weight=6.9771189689636257 6.190212815999983 4.1534208357334128 2.4502646923065177 24.760851263999939 3.1547375023365012 2.4923871457576752 5.0670277923345557 28.713157489895821
leaf_count=28 25 17 10 100 13 10 21 119
internal_value=0.00031186 0.0525007 0.0813467 -0.0855589 0.0845678 -0.092147 0.0843634 0.0842683
internal_weight=83.9592 52.2212 43.5386 31.738 39.3852 8.6826 36.9349 33.7802
internal_count=343 215 180 128 163 35 153 140
is_linear=0
shrinkage=0.05


Tree=4
num_leaves=10
num_cat=0
split_feature=137 61 22 55 61 1 8 1 15
split_gain=137.53 79.8892 1.63064 1.30638 0.00764935 0.00725777 0.00110727 1.42109e-14 1.42109e-14
threshold=-0.25560373792664254 1.9110228478213951 9.6423351327709099 36692.669977771373 2.2951044536608696 18.048315172516322 6.5000000000000009 16.227608557425864 57.850141343146326
decision_type=2 2 2 2 2 2 2 2 2
left_child=3 5 -3 -1 -4 -2 -6 -8 -5
right_child=1 2 4 8 6 -7 7 -9 -10
leaf_value=-0.062942402562124536 -0.087513216696632035 0.048674432626182255 0.084489019232081478 -0.087513216696631951 0.082486445830134397 -0.090722252513529264 0.081498853205748234 0.081498853205748234 -0.087513216696632021
leaf_weight=6.9433569312095669 6.122756749391554 4.1191826313734046 2.4156499207019797 4.6532951295375851 3.10349017381668 2.4738544225692749 6.1650290191173545 27.03128108382225 19.837731868028641
leaf_count=28 25 17 10 19 13 10 26 114 81
internal_value=0.000307437 0.0506656 0.0785825 -0.0820859 0.0817646 -0.0884367 0.0815833 0.0814989 -0.0875132
internal_weight=82.8656 51.4312 42.8346 31.4344 38.7155 8.59661 36.2998 33.1963 24.491
internal_count=343 215 180 128 163 35 153 140 100
is_linear=0
shrinkage=0.05


Tree=5
num_leaves=7
num_cat=0
split_feature=137 61 95 8 8 120
split_gain=127.298 68.9248 2.81852 1.33442 0.021043 6.47203e-05
threshold=-0.25560373792664254 1.9110228478213951 0.15940301045312072 12.500000000000002 6.5000000000000009 46.921303616579571
decision_type=2 2 2 2 2 2
left_child=3 -2 4 -1 -3 -6
right_child=1 2 -4 -5 5 -7
leaf_value=-0.084369860981912875 -0.085146468680308895 0.082614835555863506 0.03850705998182824 -0.059129830357915247 0.079230806600750714 0.07903356253435867
leaf_weight=24.624832481145862 7.9955145567655554 4.7778586745262137 4.7163636833429328 6.6510538458824149 4.8877158015966407 27.88871169090271
leaf_count=102 33 20 20 27 21 120
internal_value=0.000197174 0.0494756 0.0749394 -0.0790024 0.0795149 0.079063
internal_weight=81.5421 50.2662 42.2706 31.2759 37.5543 32.7764
internal_count=343 214 181 129 161 141
is_linear=0
shrinkage=0.05


Tree=6
num_leaves=8
num_cat=0
split_feature=137 61 95 7 31 11 15
split_gain=116.98 63.5014 2.69544 1.29115 0.0164946 5.14095e-05 1.42109e-14
threshold=-0.25560373792664254 1.9110228478213951 0.15940301045312072 15.500000000000002 62.866218974257684 76.728398686867862 57.850141343146326
decision_type=2 2 2 2 2 2 2
left_child=3 -2 4 6 -3 -6 -1
right_child=1 2 -4 -5 5 -7 -8
leaf_value=-0.081589040400760579 -0.082279407825906523 0.080029149551720427 0.036938228942428646 -0.056637048083603252 0.076827267211652978 0.077005028959288999 -0.081589040400760718
leaf_weight=4.0335894525051179 7.8637154549360266 4.6878802776336661 4.6719864755868903 6.5979380607604972 27.270739674568176 4.7802565395832053 20.167947262525558
leaf_count=17 33 20 20 27 120 21 85
internal_value=0.000195974 0.0479753 0.07271 -0.0762438 0.077259 0.0768538 -0.081589
internal_weight=80.0741 49.2746 41.4109 30.7995 36.7389 32.051 24.2015
internal_count=343 214 181 129 161 141 102
is_linear=0
shrinkage=0.05


Tree=7
num_leaves=9
num_cat=0
split_feature=135 77 7 37 8 45 11 28
split_gain=97.4993 76.3218 1.03105 0.683531 0.0120856 0.00383795 1.31905e-07 7.10543e-15
threshold=0.10178556596254038 0.3223628647392634 15.500000000000002 14.66293621284985 6.5000000000000009 1.1193550017309042 76.728398686867862 -1.0000000180025095e-35
decision_type=2 2 2 2 2 2 2 2
left_child=5 3 -3 4 -2 -1 -6 -7
right_child=1 2 -4 -5 6 7 -8 -9
leaf_value=-0.081226832447766559 0.077482855299686432 -0.082955719005884457 -0.054319809827057135 0.053265492472088519 0.074843385291401318 -0.079114059327534125 0.074834071108695319 -0.079114059327534153
leaf_weight=2.3659821301698711 5.0351812541484824 6.0550020635128003 6.5369772166013718 3.9353443682193747 26.610631942749027 12.791695445775987 4.4345462322235099 10.698508918285368
leaf_count=10 22 26 27 17 120 55 20 46
internal_value=0.000194639 0.0392691 -0.0680897 0.0730524 0.0752106 -0.0793074 0.0748421 -0.0791141
internal_weight=78.4639 52.6077 12.592 40.0157 36.0804 25.8562 31.0452 23.4902
internal_count=343 232 53 179 162 111 140 101
is_linear=0
shrinkage=0.05


Tree=8
num_leaves=10
num_cat=0
split_feature=39 1 8 84 8 115 22 17 1
split_gain=89.984 68.7626 1.42081 0.874889 0.193573 0.150683 0.00105547 3.87418e-05 3.57372e-05
threshold=86.852988114554975 18.231981989801763 12.500000000000002 1.0000000180025095e-35 7.5000000000000009 60.31153456325783 11.172888312503909 0.49394290789069656 16.376825012597902
decision_type=2 2 2 2 2 2 2 2 2
left_child=3 2 5 -1 6 8 -3 -5 -2
right_child=1 4 -4 7 -6 -7 -8 -9 -10
leaf_value=0.041980613986271405 -0.076757060745477085 0.076988543966243092 -0.052155157516060306 0.073051904012769814 0.062691578642764006 -0.089550520631999572 0.075672195787611377 0.073198012448009928 -0.076899479265522042
leaf_weight=2.4748008698225048 5.4498302936554017 2.9582971185445768 6.4695919454097739 20.302127778530124 4.5607079714536667 2.5541928410530081 3.1382558643817902 5.8426918089389792 22.971453502774239
leaf_count=11 24 13 27 94 21 11 14 27 101
internal_value=0.000193819 -0.041574 -0.0734665 0.0703949 0.0704826 -0.0779176 0.0763109 0.0730846 -0.0768722
internal_weight=76.7219 48.1023 37.4451 28.6196 10.6573 30.9755 6.09655 26.1448 28.4213
internal_count=343 211 163 132 48 136 27 121 125
is_linear=0
shrinkage=0.05


Tree=9
num_leaves=9
num_cat=0
split_feature=137 61 37 55 8 10 10 6
split_gain=92.0883 50.0969 2.66731 1.22871 0.009607 6.73636e-05 4.14509e-05 1.67108e-08
threshold=-0.25560373792664254 1.9110228478213951 14.66293621284985 36692.669977771373 6.5000000000000009 0.79807692307692324 0.65760869565217395 1.0000000180025095e-35
decision_type=2 2 2 2 2 2 2 2
left_child=3 -2 4 -1 -3 -6 -5 -7
right_child=1 2 -4 6 5 7 -8 -9
leaf_value=-0.050123970513428331 -0.075261833466621131 0.073868203689390927 0.029955870973585624 -0.075085784521734561 0.071643193510260175 0.071424824588636984 -0.074908459743670497 0.071427950032850351
leaf_weight=6.3970274627208736 7.3556770384311667 4.8116563260555258 4.2859055548906317 4.0032470226287868 4.216687977313998 5.4596178233623567 18.643800795078278 19.73977246880531
leaf_count=27 33 22 19 18 20 26 84 94
internal_value=0.000192565 0.0443049 0.0671408 -0.0694741 0.071797 0.0714582 -0.0749398 0.0714273
internal_weight=74.9134 45.8693 38.5136 29.0441 34.2277 29.4161 22.647 25.1994
internal_count=343 214 181 129 162 140 102 120
is_linear=0
shrinkage=0.05


Tree=10
num_leaves=10
num_cat=0
split_feature=135 60 11 111 26 10 10 1 6
split_gain=86.4043 64.3089 1.15058 0.789068 0.0242054 0.00212034 0.000669952 2.50954e-08 1.48613e-08
threshold=0.10178556596254038 3.3464668580658716 80.122380097683759 0.21776953328671336 0.23033834586466098 0.9737373737373739 0.79807692307692324 18.14317868747499 1.0000000180025095e-35
decision_type=2 2 2 2 2 2 2 2 2
left_child=5 3 -3 4 6 7 -2 -1 -8
right_child=1 2 -4 -5 -6 -7 8 -9 -10
leaf_value=-0.073110780453801288 0.070554606311527587 -0.077665457341950156 -0.047565554328088441 0.046125433503671549 0.074426504745763386 -0.074596089918879852 0.069947929058962119 -0.073106676380693625 0.069950782880029302
leaf_weight=20.753578662872322 5.5699463337659862 5.6529896408319456 7.2423539608716965 3.6693626791238776 3.5248215496540061 2.6520711779594413 5.9117507189512315 4.5395493060350409 19.97886702418327
leaf_count=96 27 26 31 17 16 12 29 21 98
internal_value=-0.00245192 0.0359282 -0.0607606 0.0681838 0.0704974 -0.0732511 0.0700572 -0.07311 0.0699501
internal_weight=79.4953 51.5501 12.8953 38.6547 34.9854 27.9452 31.4606 25.2931 25.8906
internal_count=373 244 57 187 170 129 154 117 127
is_linear=0
shrinkage=0.05


Tree=11
num_leaves=11
num_cat=0
split_feature=137 61 17 7 26 2 10 8 6 8
split_gain=87.95 47.083 2.46505 1.03327 0.0167932 0.00166467 0.000543736 2.00727e-08 1.20317e-08 7.10543e-15
threshold=-0.25560373792664254 1.9110228478213951 1.4082637476470981 15.500000000000002 0.23033834586466098 10.000000000000002 0.79807692307692324 9.5000000000000018 1.0000000180025095e-35 7.5000000000000009
decision_type=2 2 2 2 2 2 2 2 2 2
left_child=3 5 4 7 6 -2 -3 -1 -8 -10
right_child=1 2 -4 -5 -6 -7 8 -9 9 -11
leaf_value=-0.071481418522328602 -0.071266093853949053 0.069155260668399957 0.029798524883197886 -0.049628831153059716 0.072502852876461979 -0.072828081693655067 0.068600292845861041 -0.071477696240564409 0.06860290081132514 0.068602900811325113
leaf_weight=20.179847717285163 5.0246182680129996 5.4027593582868603 4.5352451950311652 6.9352099299430838 3.2088765501976004 2.5823963284492493 5.7310721725225511 4.414036586880683 5.5338036417961094 13.83450910449028
leaf_count=96 24 27 21 30 15 12 29 21 28 70
internal_value=-0.00239112 0.0418104 0.0644063 -0.0666742 0.0690622 -0.0717964 0.0687002 -0.0714808 0.0686023 0.0686029
internal_weight=77.3824 45.8533 38.2463 31.5291 33.711 7.60701 30.5021 24.5939 25.0994 19.3683
internal_count=373 226 190 147 169 36 154 117 127 98
is_linear=0
shrinkage=0.05


Tree=12
num_leaves=12
num_cat=0
split_feature=137 61 81 55 84 8 1 1 10 6 18
split_gain=81.6947 43.8255 3.35072 1.04412 0.19777 0.0197594 0.00133928 0.000181951 1.61817e-08 9.74352e-09 7.10543e-15
threshold=-0.25560373792664254 1.9110228478213951 1.2348006000319354 36692.669977771373 0.92478928352035894 6.5000000000000009 18.048315172516322 18.492914010223412 0.65760869565217395 1.0000000180025095e-35 -0.40049858653479115
decision_type=2 2 2 2 2 2 2 2 2 2 2
left_child=3 6 4 -1 5 7 -2 -3 -5 -7 -10
right_child=1 2 -4 8 -6 9 -8 -9 10 -11 -12
leaf_value=-0.047838513580660158 -0.069803287562306957 0.070724380861667532 -0.00034303392927501758 -0.069996099906364115 0.056771342899812505 0.067367094573693553 -0.071224648728704792 0.070201231500776548 -0.069999491805287195 0.067369485378432903 -0.069999491805287278
leaf_weight=6.8375229835510281 4.8771575689315787 2.9002889692783382 1.973144307732581 4.285356447100642 4.4545802026987067 5.5488055348396363 2.5103318095207214 3.8929528295993805 11.83660632371903 18.369682788848873 7.7550179362297014
leaf_count=30 24 14 9 21 23 29 12 19 58 96 38
internal_value=-0.00233526 0.0409359 0.0630593 -0.0650656 0.0666168 0.0680448 -0.0702863 0.0704246 -0.0699989 0.0673689 -0.0699995
internal_weight=75.2414 44.5269 37.1395 30.7145 35.1663 30.7117 7.38749 6.79324 23.877 23.9185 19.5916
internal_count=373 226 190 147 181 158 36 33 117 125 96
is_linear=0
shrinkage=0.05


Tree=13
num_leaves=13
num_cat=0
split_feature=39 1 8 92 8 79 2 8 9 1 1 1
split_gain=69.7316 53.4451 1.22978 0.385873 0.179884 0.144893 0.000655829 0.000196698 5.01789e-05 1.3006e-08 7.22002e-09 7.10543e-15
threshold=86.852988114554975 18.231981989801763 12.500000000000002 0.034040255530735905 7.5000000000000009 1.8200776855392868 1.5000000000000002 5.5000000000000009 83.000000000000014 18.14317868747499 16.495027994362236 16.785625275200534
decision_type=2 2 2 2 2 2 2 2 2 2 2 2
left_child=3 2 5 -1 7 -2 10 -3 -7 11 -5 -10
right_child=1 4 -4 6 -6 8 -8 -9 9 -11 -12 -13
leaf_value=0.042418376808020984 -0.080359272491018707 0.069101042314049552 -0.046138876783650168 0.066235663945116346 0.05597013348264486 -0.068468094107031141 0.066856114887978088 0.069682141361412833 -0.06864740864268036 -0.068644320247737964 0.066237854424370399 -0.068647408642680374
leaf_weight=1.8083518743515039 2.9002410024404552 2.8001796603202802 6.7374980449676505 5.3660436719656035 4.350496917963028 4.7274491786956849 5.6205237954854956 3.0342472940683365 7.5183726251125345 4.1545747071504584 12.583314597606659 11.475410848855972
leaf_count=9 14 14 30 29 23 24 30 15 38 21 68 58
internal_value=-0.00228319 -0.0379098 -0.0654874 0.064677 0.0636653 -0.0697231 0.0663848 0.0694032 -0.0686165 -0.0686469 0.0662372 -0.0686474
internal_weight=73.0767 47.6985 37.5135 25.3782 10.1849 30.776 23.5699 5.83443 27.8758 23.1484 17.9494 18.9938
internal_count=373 237 185 136 52 155 127 29 141 117 97 96
is_linear=0
shrinkage=0.05


Tree=14
num_leaves=12
num_cat=0
split_feature=39 1 8 108 35 79 8 2 1 132 6
split_gain=65.0639 49.7317 1.24156 0.387532 0.182493 0.126107 0.00496681 0.000547405 4.07967e-05 1.06126e-08 5.91704e-09
threshold=86.852988114554975 18.231981989801763 12.500000000000002 0.0087031401725851127 280.16660072409246 1.8200776855392868 7.5000000000000009 1.5000000000000002 16.376825012597902 -1.0000000180025095e-35 1.0000000180025095e-35
decision_type=2 2 2 2 2 2 2 2 2 2 2
left_child=3 2 5 -1 6 -2 -3 10 -7 -10 -5
right_child=1 4 -4 7 -6 8 -8 -9 9 -11 -12
leaf_value=0.041076886723134469 -0.07848896776876893 0.068359548242703252 -0.04452021102780452 0.065195122366003833 0.051951287292360405 -0.067245937393406716 0.065651964388490455 0.06577172854038292 -0.067407429131347993 -0.067410264312431287 0.065197139933433942
leaf_weight=1.7748994827270532 2.8228457421064403 2.9406774491071683 6.6359473764896384 5.1837251782417377 2.9491463303565979 4.5765262842178371 3.9945336282253265 5.4323022216558448 4.0226141810417237 18.390543937683102 12.155805110931393
leaf_count=9 14 15 30 29 15 24 22 30 21 96 68
internal_value=-0.00223553 -0.0371039 -0.0640799 0.0635798 0.0623697 -0.0684337 0.0668 0.0653338 -0.067382 -0.0674098 0.0651965
internal_weight=70.8796 46.3328 36.4485 24.5467 9.88436 29.8125 6.93521 22.7718 26.9897 22.4132 17.3395
internal_count=373 237 185 136 52 155 37 127 141 117 97
is_linear=0
shrinkage=0.05


Tree=15
num_leaves=12
num_cat=0
split_feature=126 132 116 55 79 11 7 2 9 10 18
split_gain=53.0242 54.959 0.36762 0.225366 0.110985 0.0101508 0.00431682 0.000158707 2.92662e-05 7.51258e-09 5.04493e-09
threshold=0.35804513104283231 -0.079873712052019971 -0.089329933461151853 36692.669977771373 1.8200776855392868 43.288362921635994 13.500000000000002 6.0000000000000009 83.000000000000014 0.65760869565217395 -1.0000000180025095e-35
decision_type=2 2 2 2 2 2 2 2 2 2 2
left_child=2 6 -1 -3 -5 10 7 -2 -6 -10 -4
right_child=1 3 5 4 8 -7 -8 -9 9 -11 -12
leaf_value=0.041778545260024821 0.06465738613326126 -0.05657916836683801 0.064237941713365068 -0.076527029142581374 -0.066124351128177994 0.067368462953668579 0.066819598030459851 0.064220967440538651 -0.066272712289376895 -0.066275319524806336 0.064236071789797913
leaf_weight=1.9135539829731012 4.0319775044918043 5.880216345191001 11.903728634119039 2.9604143798351314 3.8721191436052385 3.0509096384048453 2.4486190527677527 4.3100811541080475 3.3345171511173239 16.118146151304245 5.1751573383808127
leaf_count=10 23 27 69 15 21 16 13 25 18 87 30
internal_value=-0.000320307 -0.0326706 0.0627211 -0.0654278 -0.0674074 0.0647119 0.0649737 0.0644319 -0.0662499 -0.0662749 0.0642374
internal_weight=64.9994 42.9561 22.0433 32.1654 26.2852 20.1298 10.7907 8.34206 23.3248 19.4527 17.0789
internal_count=354 229 125 168 141 115 61 48 126 105 99
is_linear=0
shrinkage=0.05


Tree=16
num_leaves=13
num_cat=0
split_feature=137 61 17 7 31 18 1 10 1 1 1 2
split_gain=63.9838 31.2629 1.96615 0.190497 0.00958305 0.000202705 0.000200266 0.000171227 0.000153162 3.0534e-07 4.12797e-09 3.55271e-15
threshold=-0.25560373792664254 1.9110228478213951 1.4082637476470981 15.500000000000002 82.947994987468718 -0.15366683598530514 18.231981989801763 0.65760869565217395 18.048315172516322 16.227608557425864 16.495027994362236 40.000000000000007
decision_type=2 2 2 2 2 2 2 2 2 2 2 2
left_child=3 8 4 7 5 -3 9 -1 -2 -6 -11 -9
right_child=1 2 -4 -5 6 -7 -8 11 -10 10 -12 -13
leaf_value=-0.065621783749842483 -0.06509262660126218 0.066307843410328263 0.021957830725680302 -0.054920825730429772 0.063336391070510908 0.065629556175464857 0.063739668028620869 -0.065231634385059259 -0.065620169744036561 0.063350357657738665 0.063352080252256998 -0.065231634385059231
leaf_weight=3.432088211178784 3.7401629984378806 1.8506156206130979 3.1071197837591162 5.7580057829618445 4.155676066875464 2.7210292518138912 3.8891478627920142 8.9489065110683423 2.1765185594558716 4.9898332357406625 11.477472916245461 6.6221908181905755
leaf_count=19 21 10 16 27 25 15 23 50 12 30 69 37
internal_value=-0.000312062 0.040348 0.0597636 -0.062888 0.0638025 0.0659041 0.0634106 -0.0653021 -0.0652867 0.0633485 0.0633516 -0.0652316
internal_weight=62.8688 38.1076 32.1909 24.7612 29.0838 4.57164 24.5121 19.0032 5.91668 20.623 16.4673 15.5711
internal_count=354 221 188 133 172 25 147 106 33 124 99 87
is_linear=0
shrinkage=0.05


Tree=17
num_leaves=12
num_cat=0
split_feature=137 61 17 7 31 18 10 17 7 7 6
split_gain=59.7929 29.2584 1.94516 0.208104 0.00789696 0.000166909 0.000165388 0.000142988 0.000125778 2.52368e-07 3.39335e-09
threshold=-0.25560373792664254 1.9110228478213951 1.4082637476470981 15.500000000000002 82.947994987468718 -0.15366683598530514 0.86607142857142871 0.49394290789069656 15.500000000000002 10.500000000000002 1.0000000180025095e-35
decision_type=2 2 2 2 2 2 2 2 2 2 2
left_child=3 8 4 7 5 -3 -6 -1 -2 -8 -11
right_child=1 2 -4 -5 6 -7 9 -9 -10 10 -12
leaf_value=-0.064269764057770504 -0.064141495414291747 0.065263120668788768 0.021069774724559107 -0.053348899724413916 0.062891233754209949 0.064636835196608164 0.06251790327023142 -0.064632632494734873 -0.064628079777465722 0.062530842871882389 0.062532434093141687
leaf_weight=15.027703061699873 3.6091634631156913 1.7878199219703672 3.0769602358341208 5.6344425827264777 3.7481075972318676 2.6270609796047273 4.0034353733062753 3.3133916407823554 2.1013389229774475 4.8070974647998908 11.057168304920186
leaf_count=87 21 10 16 27 23 15 25 19 12 30 69
internal_value=-0.000304746 0.0397099 0.058807 -0.0617534 0.0629495 0.0648905 0.0625866 -0.0643353 -0.0643205 0.0625291 0.062532
internal_weight=60.7937 36.8182 31.1076 23.9755 28.0307 4.41488 23.6158 18.3411 5.7105 19.8677 15.8643
internal_count=354 221 188 133 172 25 147 106 33 124 99
is_linear=0
shrinkage=0.05


Tree=18
num_leaves=13
num_cat=0
split_feature=137 118 73 22 55 10 1 18 1 1 6 1
split_gain=55.9213 22.1869 5.51459 0.903053 0.225723 0.0101512 0.000230847 0.000119694 0.000103595 2.0903e-07 2.82689e-09 3.55271e-15
threshold=-0.25560373792664254 0.12543249500820211 2422941.0000000005 9.6423351327709099 36692.669977771373 0.96760710553814022 18.231981989801763 -1.0000000180025095e-35 18.048315172516322 16.227608557425864 1.0000000180025095e-35 16.785625275200534
decision_type=2 2 2 2 2 2 2 2 2 2 2 2
left_child=4 2 8 -3 -1 6 9 11 -2 -5 -11 -6
right_child=1 3 -4 5 7 -7 -8 -9 -10 10 -12 -13
leaf_value=-0.051853078221778828 -0.063262920656755303 0.032591930525696616 0.037982698159969706 0.061759270975543061 -0.063381496635132858 0.065303603625946782 0.062190041216113282 -0.063719556508035638 -0.063712597381458277 0.061771270762958436 0.06177275103571872 -0.063381496635132872
leaf_weight=5.5103084743022945 3.479605257511138 2.8747649192810085 1.7719213664531706 3.8537729531526645 6.1624226123094585 2.331223487854003 3.938536435365676 3.1958076357841465 2.026844322681427 4.6274484694004157 10.643959164619435 8.3275981247425079
leaf_count=27 21 16 10 25 37 13 25 19 12 30 69 50
internal_value=-0.000297882 0.0391094 -0.0387399 0.0591526 -0.0606895 0.0621593 0.0618415 -0.0634426 -0.0634284 0.0617697 0.0617723 -0.0633815
internal_weight=58.7442 35.5481 7.27837 28.2697 23.1961 25.3949 23.0637 17.6858 5.50645 19.1252 15.2714 14.49
internal_count=354 221 43 178 133 162 149 106 33 124 99 87
is_linear=0
shrinkage=0.05


Tree=19
num_leaves=13
num_cat=0
split_feature=137 61 17 7 34 1 10 11 17 54 15 1
split_gain=52.3333 25.6768 2.01777 0.243344 0.00750762 0.000112935 0.000100419 9.30341e-05 8.55629e-05 1.73531e-07 2.33815e-09 3.55271e-15
threshold=-0.25560373792664254 1.9110228478213951 1.4082637476470981 15.500000000000002 -17.052005012531293 18.231981989801763 0.65760869565217395 61.151728803802634 0.44860385597447744 -1.0000000180025095e-35 57.850141343146326 16.785625275200534
decision_type=2 2 2 2 2 2 2 2 2 2 2 2
left_child=3 8 4 6 7 9 -1 -3 -2 -6 -11 -8
right_child=1 2 -4 -5 5 -7 11 -9 -10 10 -12 -13
leaf_value=-0.062875111175058215 -0.062866185670994099 0.063716122345995219 0.017947450033975697 -0.050424502416400035 0.061055003890568706 0.061375550363639203 -0.06255967622167237 0.063234817533109042 -0.062449858923008819 0.061067526034391466 0.061066153412768491 -0.062559676221672356
leaf_weight=3.0797336548566863 1.953290283679961 1.6864208877086699 2.9642503559589377 5.3862757533788672 3.7070315331220707 3.4727969467639914 5.9369205832481375 2.4812317937612534 3.3518979996442795 10.2387965619564 4.4512979686260232 8.0228656530380249
leaf_count=19 12 10 16 27 25 23 37 15 21 69 30 50
internal_value=-0.000292029 0.0385341 0.0570348 -0.0596883 0.0614847 0.061114 -0.0626167 0.0634296 -0.0626031 0.0610647 0.0610671 -0.0625597
internal_weight=56.7328 34.307 29.0018 22.4258 26.0376 21.8699 17.0395 4.16765 5.30519 18.3971 14.6901 13.9598
internal_count=354 221 188 133 172 147 106 25 33 124 99 87
is_linear=0
shrinkage=0.05


Tree=20
num_leaves=12
num_cat=0
split_feature=135 77 7 143 1 1 18 22 1 15 1
split_gain=40.6764 30.7541 1.37068 0.307571 0.0145986 0.00135778 0.000105144 8.3237e-05 1.54444e-07 1.88076e-09 3.55271e-15
threshold=0.10178556596254038 0.3223628647392634 15.500000000000002 0.22313615310120824 18.339799802835746 18.492914010223412 -0.26538147764210451 13.160966451465402 16.227608557425864 57.850141343146326 16.785625275200534
decision_type=2 2 2 2 2 2 2 2 2 2 2
left_child=6 3 -3 4 7 -6 10 -2 -9 -10 -1
right_child=1 2 -4 -5 5 -7 -8 8 9 -11 -12
leaf_value=-0.06179801793753982 0.060698360746592878 -0.066479804828477609 -0.028383863654905847 0.040661882306764735 0.062548887031422237 0.064240382129454501 -0.062089915229432052 0.060400227898188032 0.060411876568131573 0.060410599662951862 -0.061798017937539855
leaf_weight=5.0973446667194384 2.9037773609161475 4.0640113055706006 5.634938657283783 1.9993005245923985 2.0848718881607047 2.752951443195343 4.0626916736364356 3.9911106228828439 8.8439475893974286 4.2789848148822793 7.7232494950294495
leaf_count=33 20 26 29 12 13 16 26 28 62 30 50
internal_value=0.00232031 0.0319673 -0.0443467 0.0595289 0.0610465 0.0635114 -0.0618683 0.0604508 0.0604088 0.0604115 -0.061798
internal_weight=53.4372 36.5539 9.69895 26.8549 24.8556 4.83782 16.8833 20.0178 17.114 13.1229 12.8206
internal_count=345 236 55 181 169 29 109 140 120 92 83
is_linear=0
shrinkage=0.05


Tree=21
num_leaves=11
num_cat=0
split_feature=137 61 56 39 57 7 18 81 39 1
split_gain=41.995 22.4144 1.50192 1.10409 0.0138109 0.00101599 7.04968e-05 6.93733e-05 1.28881e-07 1.57972e-09
threshold=-0.25560373792664254 1.9110228478213951 -56540884.125028156 88.63252826166196 0.20150967760351532 13.500000000000002 -1.0000000180025095e-35 -1.0000000180025095e-35 84.144030461811482 16.495027994362236
decision_type=2 2 2 2 2 2 2 2 2 2
left_child=2 -2 -1 4 5 -3 -4 8 -6 -10
right_child=1 3 6 -5 7 -7 -8 -9 9 -11
leaf_value=-0.030409286970298245 -0.061035430344512177 0.061940245367050978 -0.061090996265504863 0.025361213161471871 0.059790646170078399 0.063483342022855299 -0.061366778656916469 0.060068307100847755 0.059800310102876841 0.059801504065173254
leaf_weight=5.3847702741622951 4.7388907670974758 1.7105077058076918 12.332874640822411 2.4793646931648246 3.8341840505600109 2.834120124578476 2.8534038960933659 2.790394127368919 4.1107794642448399 8.4963056445121765
leaf_count=28 32 11 83 15 28 17 19 20 30 62
internal_value=0.00228853 0.0390484 -0.0530979 0.0571126 0.0604236 0.0629026 -0.0611428 0.0598378 0.0597987 0.0598011
internal_weight=51.5656 30.9945 20.571 26.2557 23.7763 4.54463 15.1863 19.2317 16.4413 12.6071
internal_count=345 215 130 183 168 28 102 140 120 92
is_linear=0
shrinkage=0.05


Tree=22
num_leaves=12
num_cat=0
split_feature=137 60 7 55 92 10 1 10 1 1 1
split_gain=39.3313 21.2897 4.00689 1.51058 0.0110055 0.000374925 0.00011823 5.94689e-05 1.07638e-07 1.32454e-09 3.55271e-15
threshold=-0.25560373792664254 3.3464668580658716 14.500000000000002 36692.669977771373 -0.029707704536445664 0.96760710553814022 18.231981989801763 0.65760869565217395 16.227608557425864 16.495027994362236 16.785625275200534
decision_type=2 2 2 2 2 2 2 2 2 2 2
left_child=3 2 4 -1 5 -2 8 -5 -6 -10 -9
right_child=1 -3 -4 7 6 -7 -8 10 9 -11 -12
leaf_value=-0.029330403061754075 0.061449845501310933 -0.068627326085942214 -0.027927734832706764 -0.060692034969409885 0.059222414784424887 0.062271993760557809 0.059573979485526597 -0.060433717632613515 0.059231426500992529 0.05923254224987709 -0.060433717632613494
leaf_weight=5.3057456016540554 3.3353759497404161 4.0096359699964514 1.3724443912506092 2.7436496317386618 3.6812937855720564 2.3735086619853973 2.9656737744808188 4.7137273102998716 3.9468964934349051 8.1575947701931 7.1420110762119293
leaf_count=28 22 27 9 19 28 15 22 33 30 62 50
internal_value=0.00225751 0.0385669 0.055205 -0.0521787 0.0598695 0.0617917 0.0592843 -0.0604823 0.0592299 0.0592322 -0.0604337
internal_weight=49.7476 29.8424 25.8328 19.9051 24.4603 5.70888 18.7515 14.5994 15.7858 12.1045 11.8557
internal_count=345 215 188 130 179 37 142 102 120 92 83
is_linear=0
shrinkage=0.05


Tree=23
num_leaves=11
num_cat=0
split_feature=137 60 80 55 140 2 10 10 1 1
split_gain=36.8625 20.0162 4.55435 1.51976 0.0108707 0.000713315 9.89644e-05 5.02416e-05 9.00122e-08 1.09011e-09
threshold=-0.25560373792664254 3.3464668580658716 -0.015172634928522206 36692.669977771373 -0.020246438345290271 2.5000000000000004 0.86607142857142871 0.65760869565217395 16.227608557425864 16.495027994362236
decision_type=2 2 2 2 2 2 2 2 2 2
left_child=3 2 -2 -1 5 -4 -6 -5 -8 -10
right_child=1 -3 4 7 6 -7 8 -9 9 -11
leaf_value=-0.028284217765109854 -0.041563835598513794 -0.067825895893695795 0.061897879464093669 -0.06006406255869267 0.059020400067388616 0.060767440049997616 0.058692100673672767 -0.059821845078938174 0.058700518820384441 0.058701552105278748
leaf_weight=5.2288863658905056 1.173439159989363 3.8580062240362158 2.4702432304620805 2.6364325582981101 2.8468238413333884 3.2074300795793533 3.5325917005538932 11.389944791793821 3.7874977290630323 7.8281531035900116
leaf_count=28 8 27 16 19 22 22 28 83 30 62
internal_value=0.00223014 0.0381329 0.0545857 -0.0512908 0.0593518 0.0612593 0.0587499 -0.0598674 0.0586991 0.0587012
internal_weight=47.9594 28.7042 24.8462 19.2553 23.6727 5.67767 17.9951 14.0264 15.1482 11.6157
internal_count=345 215 188 130 180 38 142 102 120 92
is_linear=0
shrinkage=0.05


Tree=24
num_leaves=12
num_cat=0
split_feature=137 61 55 39 57 2 10 1 1 1 1
split_gain=34.5711 18.616 1.52923 1.10819 0.00941101 0.0009155 4.25032e-05 4.00395e-05 7.54677e-08 9.15962e-10 1.77636e-15
threshold=-0.25560373792664254 1.9110228478213951 36692.669977771373 88.63252826166196 0.20150967760351532 25.500000000000004 0.65760869565217395 18.231981989801763 16.227608557425864 16.495027994362236 16.785625275200534
decision_type=2 2 2 2 2 2 2 2 2 2 2
left_child=2 -2 -1 4 5 -3 -4 8 -6 -10 -8
right_child=1 3 6 -5 7 -7 10 -9 9 -11 -12
leaf_value=-0.027269305962096951 -0.059209724918115936 0.061487391083630577 -0.059478855764120521 0.022262142086529008 0.058196624815608305 0.059938029555258787 -0.059251514684406315 0.058421010896113006 0.058204494722299854 0.058205461854505584 -0.059251514684406294
leaf_weight=5.154254317283633 4.1974655240774181 2.5567862987518373 2.5318995565176001 2.3086136281490317 3.3881879448890713 1.5204052776098249 4.348083481192587 2.4673227965831748 3.6327031999826414 7.5082245469093323 6.5880052745342255
leaf_count=28 32 17 19 15 28 11 33 20 30 62 50
internal_value=0.00220469 0.0377447 -0.0504304 0.0551495 0.0587523 0.0609096 -0.0592943 0.0582348 0.0582032 0.0582051 -0.0592515
internal_weight=46.202 27.5797 18.6222 23.3822 21.0736 4.07719 13.468 16.9964 14.5291 11.1409 10.9361
internal_count=345 215 130 183 168 28 102 140 120 92 83
is_linear=0
shrinkage=0.05


Tree=25
num_leaves=13
num_cat=0
split_feature=135 60 7 111 57 45 52 10 10 2 7 2
split_gain=32.4378 20.9933 1.95488 1.18158 0.00736963 0.000541855 0.000209324 3.79131e-05 4.9006e-07 5.92875e-08 7.90834e-10 3.55271e-15
threshold=0.10178556596254038 3.3464668580658716 15.500000000000002 0.21776953328671336 0.20150967760351532 1.1193550017309042 36.557985655732622 0.86607142857142871 0.65760869565217395 6.0000000000000009 13.500000000000002 40.000000000000007
decision_type=2 2 2 2 2 2 2 2 2 2 2 2
left_child=5 3 -3 4 6 -1 -2 -6 -7 10 -9 -10
right_child=1 2 -4 -5 7 8 -8 9 11 -11 -12 -13
leaf_value=-0.059681205441465469 0.059946713324360405 -0.067415420875841708 -0.017931630489608559 0.021336738638281772 0.057943139578650382 -0.058694373745982215 0.060724199367122013 0.057740582417294697 -0.058719270939460125 0.057733226598213699 0.057741493767918275 -0.058719270939460104
leaf_weight=1.6232633590698231 2.2143125534057719 3.4528733491897565 4.7299780249595642 2.4272350221872321 2.7207332253456142 2.3975571841001502 1.4214446544647215 3.3665062785148594 6.8278293907642347 2.9001399874687186 8.1267469376325607 4.4254449754953384
leaf_count=12 16 26 26 16 23 19 10 29 54 25 70 35
internal_value=0.000934602 0.0300373 -0.038812 0.0543451 0.0582063 -0.0588176 0.0602507 0.057772 -0.0587149 0.0577396 0.0577412 -0.0587193
internal_weight=46.6341 31.36 8.18285 23.1771 20.7499 15.2741 3.63576 17.1141 13.6508 14.3934 11.4933 11.2533
internal_count=361 241 52 189 173 120 26 147 108 124 99 89
is_linear=0
shrinkage=0.05


Tree=26
num_leaves=12
num_cat=0
split_feature=135 77 22 115 92 24 91 10 1 1 1
split_gain=30.5112 20.4651 2.10091 1.01388 0.00772178 0.000648979 0.000454754 3.18618e-05 4.10627e-07 4.98824e-08 6.64812e-10
threshold=0.10178556596254038 0.3223628647392634 10.16118401249545 56.084802337045865 0.13137201014222979 62.647744259582517 45.510110255693185 0.86607142857142871 18.14317868747499 16.227608557425864 16.495027994362236
decision_type=2 2 2 2 2 2 2 2 2 2 2
left_child=6 3 -3 4 5 -2 8 -6 -1 -9 -11
right_child=1 2 -4 -5 7 -7 -8 9 -10 10 -12
leaf_value=-0.058222022817823772 0.059367966148483775 -0.070040157755028851 -0.017807731879162906 0.023611422198289711 0.057495971317594943 0.060756885195138034 -0.059121471954091669 0.057299403167801161 -0.05819875204002687 0.057306296037664822 0.057307149632741861
leaf_weight=10.793546639382834 2.1263308525085551 3.2786799222230902 4.6634171009063721 2.4347975552082053 2.6076591163873699 1.391381651163101 1.5583432018756873 2.7790552005171767 2.2995557561516771 3.2259725183248502 7.7875050902366638
leaf_count=89 16 26 26 16 23 10 12 25 19 29 70
internal_value=0.000923509 0.0295725 -0.0393705 0.0540685 0.0577916 0.0599173 -0.058314 0.0573357 -0.0582179 0.0573054 0.0573069
internal_weight=44.9462 30.2948 7.9421 22.3527 19.9179 3.51771 14.6514 16.4002 13.0931 13.7925 11.0135
internal_count=361 241 52 189 173 26 120 147 108 124 99
is_linear=0
shrinkage=0.05


Tree=27
num_leaves=13
num_cat=0
split_feature=135 77 7 115 92 24 61 56 10 1 1 2
split_gain=28.7118 19.2157 2.05211 1.02201 0.00650941 0.000554369 0.000382226 2.68113e-05 3.44745e-07 4.19922e-08 5.56408e-10 1.77636e-15
threshold=0.10178556596254038 0.3223628647392634 15.500000000000002 56.084802337045865 0.13137201014222979 62.647744259582517 2.4865456258371061 -1.0000000180025095e-35 0.65760869565217395 16.227608557425864 16.495027994362236 40.000000000000007
decision_type=2 2 2 2 2 2 2 2 2 2 2 2
left_child=6 3 -3 4 5 -2 -1 -6 -8 -9 -11 -10
right_child=1 2 -4 -5 7 -7 8 9 11 10 -12 -13
leaf_value=-0.058598862217955267 0.058827991648956794 -0.069421187068181026 -0.017070428638076823 0.022747585611901367 0.057077136626248796 0.060137908030369273 -0.057735212490383964 0.056892908153569122 -0.057756989582191887 0.056899371705973457 0.056900169606498657 -0.057756989582191866
leaf_weight=1.4952263832092274 2.0407223701477153 3.1458815038204184 4.6226589381694794 2.4017532765865317 2.4982221946120324 1.3367994427680967 2.2045214474201194 2.6619277894496838 6.2783847749233228 3.0900293141603452 7.4593444168567657 4.0693234652280807
leaf_count=12 16 26 26 16 23 10 19 25 54 29 70 35
internal_value=0.000912641 0.0291233 -0.0382699 0.0534871 0.0573551 0.0593464 -0.0578432 0.0569269 -0.0577532 0.0568985 0.0568999 -0.057757
internal_weight=43.3048 29.2573 7.76854 21.4888 19.087 3.37752 14.0475 15.7095 12.5522 13.2113 10.5494 10.3477
internal_count=361 241 52 189 173 26 120 147 108 124 99 89
is_linear=0
shrinkage=0.05


Tree=28
num_leaves=13
num_cat=0
split_feature=135 77 7 115 18 69 45 10 15 1 6 18
split_gain=27.0277 18.0478 2.00362 1.0303 0.0052565 0.000667956 0.000321711 2.25907e-05 2.89805e-07 3.53562e-08 4.66059e-10 1.77636e-15
threshold=0.10178556596254038 0.3223628647392634 15.500000000000002 56.084802337045865 0.36668779100642751 0.99257896771810528 1.1193550017309042 0.86607142857142871 57.850141343146326 16.227608557425864 1.0000000180025095e-35 -0.40049858653479115
decision_type=2 2 2 2 2 2 2 2 2 2 2 2
left_child=6 3 -3 4 5 -2 -1 -7 -8 -9 -11 -10
right_child=1 2 -4 -5 -6 7 8 9 11 10 -12 -13
leaf_value=-0.058110386785616114 0.057914804591864759 -0.068825684174149873 -0.016359112100330999 0.021907424336419363 0.059182375523044596 0.056684507395750178 -0.057301268879195177 0.056511700545773827 -0.057321665766004781 0.056517763053637038 0.056518509339393425 -0.057321665766004705
leaf_weight=1.4339556992053974 0.94388902187348378 3.017692804336547 4.5834961831569672 2.3699937462806693 2.2972967922687522 2.392425373196601 2.1124835610389683 2.5487517938017836 6.0163894146680805 2.9586701840162322 7.1422482281923232 3.8995116576552418
leaf_count=12 8 26 26 16 18 23 19 25 54 29 70 35
internal_value=0.000902061 0.0286823 -0.0371885 0.0529252 0.056946 0.0566246 -0.0574025 0.0565436 -0.0573181 0.056517 0.0565183 -0.0573217
internal_weight=41.7168 28.2545 7.60119 20.6533 18.2833 15.986 13.4623 15.0421 12.0284 12.6497 10.1009 9.9159
internal_count=361 241 52 189 173 155 120 147 108 124 99 89
is_linear=0
shrinkage=0.05


Tree=29
num_leaves=13
num_cat=0
split_feature=135 77 8 95 18 69 45 81 10 27 18 1
split_gain=25.4503 16.9556 1.9553 0.947818 0.00350579 0.000562674 0.000271138 1.90557e-05 2.43958e-07 2.98518e-08 3.91307e-10 1.77636e-15
threshold=0.10178556596254038 0.3223628647392634 12.500000000000002 0.15940301045312072 0.36668779100642751 0.99257896771810528 1.1193550017309042 -1.0000000180025095e-35 0.65760869565217395 1.0000000180025095e-35 -1.0000000180025095e-35 16.785625275200534
decision_type=2 2 2 2 2 2 2 2 2 2 2 2
left_child=6 3 -3 4 5 -2 -1 9 -8 -7 -11 -10
right_child=1 2 -4 -5 -6 7 8 -9 11 10 -12 -13
leaf_value=-0.057653365186728624 0.057469440180395265 -0.068250128554759468 -0.015673095219652922 0.023536723838044084 0.058460296428633624 0.056153916340287435 -0.056894656649404476 0.056316134052630487 -0.05691377797437272 0.056160310689744336 0.056159611726843077 -0.056913777974372692
leaf_weight=1.3745592758059491 0.90463650226593983 2.8941144943237296 4.5458926260471344 2.4906485378742209 2.0530037134885779 2.4395035579800615 2.0234534218907347 2.2902540862560228 3.7352399155497533 6.8361513316631335 2.831867687404154 5.7629415839910507
leaf_count=12 8 26 26 17 17 25 19 23 35 70 29 54
internal_value=0.000891732 0.0282481 -0.0361252 0.0523808 0.0565202 0.0562599 -0.0569896 0.0561839 -0.0569104 0.0561589 0.0561601 -0.0569138
internal_weight=40.1823 27.2861 7.44001 19.8461 17.3554 15.3024 12.8962 14.3978 11.5216 12.1075 9.66802 9.49818
internal_count=361 241 52 189 172 155 120 147 108 124 99 89
is_linear=0
shrinkage=0.05


Tree=30
num_leaves=12
num_cat=0
split_feature=137 61 111 97 92 8 10 1 121 1 1
split_gain=25.9557 13.4336 1.22349 0.574888 0.00383274 0.000460432 1.53842e-05 2.12099e-07 2.41214e-08 3.22176e-10 1.77636e-15
threshold=-0.25560373792664254 1.9110228478213951 0.21776953328671336 -1.0000000180025095e-35 0.13137201014222979 5.5000000000000009 0.86607142857142871 18.14317868747499 -1.0000000180025095e-35 16.495027994362236 16.785625275200534
decision_type=2 2 2 2 2 2 2 2 2 2 2
left_child=3 -2 4 -1 5 -3 -6 10 9 -8 -5
right_child=1 2 -4 7 6 -7 8 -9 -10 -11 -12
leaf_value=-0.036460929941669405 -0.05625336825733547 0.057052277230691506 0.016118543921759362 -0.056531274926832756 0.055970270036973628 0.058359585107416935 0.055823220332144187 -0.056513336797173908 0.055817873427741971 0.055823882505412786 -0.056531274926832679
leaf_weight=5.3750475347042093 3.4460035338997868 1.0833116620779066 2.1604405194520941 3.4743157029151863 2.0963879823684684 1.7804903760552404 2.6161434054374677 2.0393963158130655 2.2407782077789298 6.1671764552593231 5.1092877984046936
leaf_count=31 35 10 15 34 22 15 28 20 24 66 50
internal_value=-0.00151796 0.0342469 0.0514345 -0.0497857 0.0562078 0.0578651 0.0558461 -0.0565278 0.0558225 0.0558237 -0.0565313
internal_weight=37.5888 21.5907 18.1447 15.998 15.9843 2.8638 13.1205 10.623 11.0241 8.78332 8.5836
internal_count=350 215 180 135 165 25 140 104 118 94 84
is_linear=0
shrinkage=0.05


Tree=31
num_leaves=11
num_cat=0
split_feature=120 41 76 56 81 55 1 1 27 105
split_gain=21.3917 11.8214 9.57085 0.870294 0.18902 0.00778418 0.00141648 2.42583e-05 2.03998e-08 2.70033e-10
threshold=46.921303616579571 60.119047619047628 3.0955336183566891 -56540884.125028156 -1.0000000180025095e-35 230908.46957488175 18.339799802835746 19.447179219320635 1.0000000180025095e-35 -0.022706135623475478
decision_type=2 2 2 2 2 2 2 2 2 2
left_child=2 -2 -1 -4 -5 6 8 -8 -3 -10
right_child=1 5 3 4 -6 -7 7 -9 9 -11
leaf_value=0.056496369494836475 -0.056294391435768101 0.055502024979193043 -0.035370995470606445 -0.056172295788705008 -0.071019941094171687 0.059346203540762532 0.05698034038935515 0.056661191421961757 0.055507674496866145 0.055507054643579572
leaf_weight=2.3150083571672466 2.7782306373119381 2.1433167457580504 5.2664399147033736 8.2158334851264971 2.900227829813951 1.7100020647048957 1.3974613770842561 1.0374101251363754 5.8989720493555042 2.5023682713508633
leaf_count=24 28 24 31 84 29 13 13 10 66 28
internal_value=-0.00149807 0.038287 -0.0386664 -0.0521139 -0.0600461 0.0561751 0.0557574 0.0568444 0.0555064 0.0555075
internal_weight=36.1653 17.4678 18.6975 16.3825 11.1161 14.6895 12.9795 2.43487 10.5447 8.40134
internal_count=350 182 168 144 113 154 141 23 118 94
is_linear=0
shrinkage=0.05


Tree=32
num_leaves=12
num_cat=0
split_feature=137 52 87 97 17 23 2 10 8 2 6
split_gain=22.9248 11.3072 5.47174 0.624925 0.00760463 0.00119464 2.04483e-05 1.02475e-05 1.66907e-07 1.72978e-08 2.3074e-10
threshold=-0.25560373792664254 82.758297821180307 8.5000000000000018 -1.0000000180025095e-35 1.4082637476470981 1.0000000180025095e-35 25.500000000000004 0.86607142857142871 9.5000000000000018 6.0000000000000009 1.0000000180025095e-35
decision_type=2 2 2 2 2 2 2 2 2 2 2
left_child=3 2 4 -1 5 6 -2 -7 -5 10 -9
right_child=1 -3 -4 8 -6 7 -8 9 -10 -11 -12
leaf_value=-0.034307370045959608 0.056593717912471392 -0.064791610430533206 -0.055477412938669562 -0.055835139155161223 0.058896242304342462 0.055335194498740636 0.056294253291631582 0.055209705031435075 -0.055818510318752304 0.055204970267458513 0.055210290985710966
leaf_weight=5.1609475910663614 1.3381573408842133 2.5400323793292037 1.1857474297285069 7.8611380755901301 1.7792368680238713 1.9166373014450115 0.99308431148529042 2.3928217887878436 1.8674769997596739 2.0494787693023673 5.6407351791858638
leaf_count=31 13 28 10 84 14 22 10 28 20 24 66
internal_value=-0.00148081 0.0337168 0.0481835 -0.0483712 0.0558132 0.0554304 0.0564661 0.0552292 -0.0558319 0.0552091 0.0552101
internal_weight=34.7255 19.8359 17.2959 14.8896 16.1102 14.3309 2.33124 11.9997 9.72862 10.083 8.03356
internal_count=350 215 187 135 177 163 23 140 104 118 94
is_linear=0
shrinkage=0.05


Tree=33
num_leaves=12
num_cat=0
split_feature=137 61 37 55 10 23 2 10 64 2 6
split_gain=21.5551 11.0843 3.21891 0.648764 0.00409732 0.00101043 1.72557e-05 8.67913e-06 1.41154e-07 1.46248e-08 1.9622e-10
threshold=-0.25560373792664254 1.9110228478213951 16.575605141456435 36692.669977771373 0.96760710553814022 1.0000000180025095e-35 25.500000000000004 0.86607142857142871 -1.0000000180025095e-35 6.0000000000000009 1.0000000180025095e-35
decision_type=2 2 2 2 2 2 2 2 2 2 2
left_child=3 -2 4 -1 5 6 -3 -7 -5 10 -9
right_child=1 2 -4 8 -6 7 -8 9 -10 -11 -12
leaf_value=-0.033268548492626095 -0.055200317386541214 0.056230914310395674 -0.041945066800562633 -0.055518261227389669 0.057957869199592719 0.055047986827103358 0.055949714582292844 0.054929872520530887 -0.05550262518580016 0.054925420866678079 0.054930425174826158
leaf_weight=5.0586329251527777 2.9718325734138515 1.2808992266654944 0.89969018101692277 7.5193451642990103 1.4214228093624122 1.8324330151081092 0.95032081007957447 2.2874242663383439 1.7862531542778004 1.9591957926750181 5.3922784924507168
leaf_count=31 35 13 5 84 12 22 10 28 20 24 66
internal_value=-0.00146198 0.0334882 0.0499368 -0.0476807 0.0554027 0.0551376 0.0561111 0.0549482 -0.0555153 0.0549293 0.0549303
internal_weight=33.3597 18.9955 16.0237 14.3642 15.124 13.7026 2.23122 11.4713 9.3056 9.6389 7.6797
internal_count=350 215 180 135 175 163 23 140 104 118 94
is_linear=0
shrinkage=0.05


Tree=34
num_leaves=11
num_cat=0
split_feature=120 41 90 55 17 55 1 1 1 1
split_gain=17.8848 10.0054 8.10731 0.95178 0.168901 0.00516349 0.000857033 1.45786e-05 1.24165e-08 1.66427e-10
threshold=46.921303616579571 60.119047619047628 85978645.000000015 36692.669977771373 0.44860385597447744 230908.46957488175 18.339799802835746 19.447179219320635 16.227608557425864 16.495027994362236
decision_type=2 2 2 2 2 2 2 2 2 2
left_child=2 -2 3 -1 -5 6 8 -8 -3 -10
right_child=1 5 -4 4 -6 -7 7 -9 9 -11
leaf_value=-0.032253265049914742 -0.055324340048450799 0.054662184075599668 0.055859409114380254 -0.055220248569214252 -0.070154746182408897 0.057979207882823972 0.055890216786510842 0.055625968969853203 0.054666380061437196 0.054666900700795121
leaf_weight=4.959533795714381 2.4330844283103934 1.8723921775817816 2.0580787360668173 7.1902463436126691 2.5698083639144897 1.5189595669507987 1.2256682440638553 0.90910099446773518 2.1860876679420471 5.1533944755792618
leaf_count=31 28 24 24 84 29 13 13 10 28 66
internal_value=-0.00144103 0.0376572 -0.0370927 -0.0500892 -0.0591525 0.0552415 0.054875 0.0557777 0.0546658 0.0546667
internal_weight=32.0764 15.2987 16.7777 14.7196 9.76005 12.8656 11.3466 2.13477 9.21187 7.33948
internal_count=350 182 168 144 113 154 141 23 118 94
is_linear=0
shrinkage=0.05


Tree=35
num_leaves=12
num_cat=0
split_feature=135 60 7 89 17 22 91 12 8 54 6
split_gain=17.7046 11.7922 1.46813 0.848803 0.00803554 0.000760638 0.000146073 5.95698e-06 9.68066e-08 1.22288e-08 1.42462e-10
threshold=0.10178556596254038 3.3464668580658716 15.500000000000002 1.0000000180025095e-35 1.0696215041128598 10.381151960428324 45.510110255693185 78.299975720756137 9.5000000000000018 -1.0000000180025095e-35 1.0000000180025095e-35
decision_type=2 2 2 2 2 2 2 2 2 2 2
left_child=6 3 -3 -2 5 -5 8 9 -1 -7 -11
right_child=1 2 -4 4 -6 7 -8 -9 -10 10 -12
leaf_value=-0.054939801149992834 0.0052870525634508662 -0.062292118552628298 -0.011969640517468638 0.05564833895715935 0.058530254855085888 0.054414183118620112 -0.055608769576078465 0.05451805979947634 -0.054925365424066758 0.054418134993700309 0.05441862067656892
leaf_weight=7.1190896406769753 0.91568881273269909 2.1611380726099005 4.4007422775030136 1.4578100144863118 1.430536426603793 2.1616923138499242 0.89561225473880846 1.7481106445193297 1.387751020491123 2.1633141115307764 4.9984633177518871
leaf_count=87 9 27 28 16 12 29 10 23 17 29 67
internal_value=0.00220214 0.0272915 -0.0285432 0.0519211 0.0549801 0.0545747 -0.0550014 0.0544334 -0.0549374 0.0544175 0.0544185
internal_weight=30.8399 21.4375 6.56188 14.8756 13.9599 12.5294 9.40245 11.0716 8.50684 9.32347 7.16178
internal_count=354 240 55 185 176 164 114 148 104 125 96
is_linear=0
shrinkage=0.05


Tree=36
num_leaves=12
num_cat=0
split_feature=39 1 55 79 10 22 1 1 1 10 1
split_gain=16.7797 12.8857 2.322 0.43102 0.0653575 0.00186021 0.00154313 0.000274833 0.000191953 8.19903e-08 1.01162e-08
threshold=86.852988114554975 18.231981989801763 36692.669977771373 1.8200776855392868 0.79807692307692324 13.924869484171104 18.492914010223412 18.339799802835746 16.376825012597902 0.65760869565217395 16.495027994362236
decision_type=2 2 2 2 2 2 2 2 2 2 2
left_child=4 2 -2 -4 -1 -6 7 -3 -5 -10 -7
right_child=1 6 3 8 5 10 -8 -9 9 -11 -12
leaf_value=0.039775155483999208 -0.014396911265198731 0.054278335895897235 -0.08619918207711684 -0.05410586548265605 0.055727489053508023 0.054180404665733144 0.05692365993490333 0.055268541857004277 -0.054662136092934105 -0.054675725716036516 0.054184593284627575
leaf_weight=0.80330915004015224 4.2051725238561657 1.670012652873992 1.2077782899141301 1.8233051747083653 2.728392153978346 2.0649131685495377 1.062357120215893 1.2073483318090439 1.3262656331062297 6.803766667842865 4.7747018933296204
leaf_count=9 27 23 11 26 34 29 10 14 17 87 67
internal_value=0.00217805 -0.0253783 -0.0460619 -0.0579923 0.0534736 0.0546237 0.0552951 0.0546938 -0.0545695 -0.0546735 0.0541833
internal_weight=29.6773 19.306 15.3663 11.1611 10.3713 9.56801 3.93972 2.87736 9.95334 8.13003 6.83962
internal_count=354 215 168 141 139 130 47 37 130 104 96
is_linear=0
shrinkage=0.05


Tree=37
num_leaves=12
num_cat=0
split_feature=39 1 55 107 10 25 1 8 1 1 15
split_gain=15.8255 12.1031 2.30696 0.38808 0.0709875 0.00161489 0.0013063 0.000233144 0.00016299 6.96118e-08 2.35595e-08
threshold=86.852988114554975 18.231981989801763 36692.669977771373 56.950222876797234 0.79807692307692324 41.630232843137257 18.492914010223412 7.5000000000000009 16.376825012597902 18.14317868747499 57.850141343146326
decision_type=2 2 2 2 2 2 2 2 2 2 2
left_child=4 2 -2 8 -1 10 7 -3 -4 -10 -6
right_child=1 6 3 -5 5 -7 -8 -9 9 -11 -12
leaf_value=0.038710398978888082 -0.013802157796168418 0.054985259275974377 -0.053889615576018526 -0.084887926508329478 0.053963883230370692 0.055433321395081663 0.056541221258027179 0.054052308668479924 -0.054426944127113464 -0.054414133752045395 0.053957341025355411
leaf_weight=0.78461715579033153 4.168028891086581 1.1542323380708686 1.7411653250455836 1.1661749854683865 4.5599428415298444 2.6099157780408859 1.0172072798013689 1.5950399860739708 6.5007776543498039 1.2671872898936269 1.9709253907203672
leaf_count=9 27 14 26 11 67 34 10 23 87 17 29
internal_value=0.00215662 -0.0250367 -0.0453485 -0.0576654 0.0531432 0.054382 0.0550104 0.054444 -0.0543268 -0.0544249 0.0539619
internal_weight=28.5352 18.6098 14.8433 10.6753 9.9254 9.14078 3.76648 2.74927 9.50913 7.76796 6.53087
internal_count=354 215 168 141 139 130 47 37 130 104 96
is_linear=0
shrinkage=0.05


Tree=38
num_leaves=13
num_cat=0
split_feature=39 132 34 79 22 89 18 8 137 15 105 6
split_gain=14.9263 10.1028 3.55536 0.347965 0.0768851 0.00744927 0.00110683 0.000197937 0.000138493 5.91237e-08 4.80569e-08 3.57088e-09
threshold=86.852988114554975 -0.052025220537029522 -1.1665652262122299 1.8200776855392868 18.442602478497662 0.26052905620824057 1.5963112237883759 7.5000000000000009 -0.20100983048600798 57.850141343146326 -0.06072225271681643 1.0000000180025095e-35
decision_type=2 2 2 2 2 2 2 2 2 2 2 2
left_child=4 2 6 -3 5 10 7 -2 9 -5 -1 -12
right_child=1 3 -4 8 -6 -7 -8 -9 -10 -11 11 -13
leaf_value=0.053755648928549504 0.054718547343568125 -0.083560119296188021 -0.013227814780797074 -0.054180359449008564 0.037642579368290324 0.059462447162429703 0.056182244654305893 0.053839082213360971 -0.053685557411725066 -0.054192438894038457 0.05374947342968376 0.05374639269472492
leaf_weight=4.3539295792579624 1.1031559854745869 1.1264838427305193 4.132479697465901 1.2104551941156394 0.76698653399944383 0.61434511840343553 0.9736233353614806 1.5231059342622757 1.6623839139938326 6.2098127603530884 1.881869338452816 1.8805418238043794
leaf_count=67 14 11 27 17 9 5 10 23 26 87 29 29
internal_value=0.00213532 -0.0246958 0.0184164 -0.0573489 0.0528205 0.0541539 0.0547423 0.0542085 -0.0540981 -0.0541905 0.0537521 0.0537479
internal_weight=27.4392 17.9415 7.73236 10.2091 9.49767 8.73069 3.59989 2.62626 9.08265 7.42027 8.11634 3.76241
internal_count=354 215 74 141 139 130 47 37 130 104 125 58
is_linear=0
shrinkage=0.05


Tree=39
num_leaves=13
num_cat=0
split_feature=39 1 55 79 10 89 1 1 1 1 18 1
split_gain=14.0781 10.6762 2.27302 0.310747 0.0830095 0.00632606 0.000938623 0.000168165 0.00011776 5.02512e-08 4.08014e-08 3.02723e-09
threshold=86.852988114554975 18.231981989801763 36692.669977771373 1.8200776855392868 0.79807692307692324 0.26052905620824057 18.492914010223412 18.339799802835746 16.376825012597902 18.14317868747499 -1.0000000180025095e-35 16.227608557425864
decision_type=2 2 2 2 2 2 2 2 2 2 2 2
left_child=4 2 -2 -4 -1 10 7 -3 -5 -10 -6 -12
right_child=1 6 3 8 5 -7 -8 -9 9 -11 11 -13
leaf_value=0.036573257558317369 -0.012673447830212426 0.053637856646806731 -0.082224129561370901 -0.053492912413844407 0.053559086024792014 0.058928537802776099 0.055845037762607824 0.054467291806052032 -0.053971287263983383 -0.053959891761157945 0.053550357852751099 0.053553261029710197
leaf_weight=0.75037073343992489 4.0984698235988644 1.4541210457682605 1.0885166972875584 1.5868592411279658 4.1564010307192794 0.58954341709613789 0.93158972263336171 1.0540725439786911 5.9305485337972641 1.1560060158371923 1.7952096834778777 1.7964823171496391
leaf_count=9 27 23 11 26 67 5 10 14 87 17 29 29
internal_value=0.00211402 -0.0243555 -0.0439228 -0.0570425 0.0525021 0.0539356 0.0544898 0.0539864 -0.0538822 -0.0539694 0.0535557 0.0535518
internal_weight=26.3882 17.3002 13.8604 9.76193 9.08801 8.33764 3.43978 2.50819 8.67341 7.08655 7.74809 3.59169
internal_count=354 215 168 141 139 130 47 37 130 104 125 58
is_linear=0
shrinkage=0.05


Tree=40
num_leaves=11
num_cat=0
split_feature=137 77 107 55 18 1 18 1 1 1
split_gain=13.469 8.23427 4.46644 0.462592 0.00353096 0.000514671 9.32669e-05 2.35753e-06 3.12684e-08 2.35947e-09
threshold=-0.25560373792664254 0.33330967772322367 56.950222876797234 36692.669977771373 0.57259730708679013 18.339799802835746 1.0000000180025095e-35 18.231981989801763 16.495027994362236 16.227608557425864
decision_type=2 2 2 2 2 2 2 2 2 2
left_child=3 2 4 -1 5 7 -5 8 9 -2
right_child=1 -3 -4 6 -6 -7 -8 -9 -10 -11
leaf_value=-0.031143479283003234 0.053365231231811527 -0.065461860872767313 -0.078530601455332416 -0.053762632558444073 0.05647470151558065 0.054343781789196348 -0.054253347695552762 0.053447872272127883 0.053373482688885643 0.053367976196289219
leaf_weight=3.3129925131797808 1.5361789166927284 1.9410280063748349 0.67737329378724176 5.7928283661603928 1.1595405936241157 1.6897896900773046 1.1626366376876829 1.1466047167778013 3.5526200383901596 1.5963979996740818
leaf_count=22 26 26 8 89 12 23 17 19 60 27
internal_value=-0.00350314 0.0297101 0.0459738 -0.0465204 0.0538696 0.0535524 -0.0538447 0.0533816 0.0533703 0.0533666
internal_weight=23.568 13.2995 11.3585 10.2685 10.6811 9.52159 6.95547 7.8318 6.6852 3.13258
internal_count=329 201 175 128 167 155 106 132 113 53
is_linear=0
shrinkage=0.05


Tree=41
num_leaves=12
num_cat=0
split_feature=137 19 115 97 9 18 1 10 1 18 1
split_gain=12.6789 7.19762 4.21868 0.479802 0.0335064 0.00266872 0.000437952 8.04728e-05 2.00788e-06 2.66515e-08 2.00775e-09
threshold=-0.25560373792664254 1.0547896626182998 60.31153456325783 0.070498795774777287 83.000000000000014 0.57259730708679013 18.339799802835746 0.65760869565217395 18.231981989801763 0.17882499984491845 16.227608557425864
decision_type=2 2 2 2 2 2 2 2 2 2 2
left_child=3 2 5 -1 -3 6 8 -5 9 -2 -11
right_child=1 4 -4 7 -6 -7 -8 -9 -10 10 -12
leaf_value=-0.030193032488562949 0.053198152029239325 -0.053101174569605697 -0.077608734039735894 -0.054032126480966641 -0.066624089634529191 0.056079855854675301 0.054114061852622478 -0.053565684732684332 0.05326842575032914 0.053190354822671218 0.053192946893126231
leaf_weight=3.2480932176113146 3.3902129530906624 1.2647821046411989 0.65179948508739549 1.1103476285934446 0.718161441385745 1.0071216747164733 1.6140284761786459 5.53005675598979 1.0942654274404047 1.4659414067864418 1.5234111696481705
leaf_count=22 60 23 8 17 4 11 23 89 19 26 27
internal_value=-0.00346653 0.0295276 0.0456776 -0.0459408 -0.0579988 0.0536378 0.0533672 -0.0536437 0.0532059 0.0531951 0.0531917
internal_weight=22.6182 12.7297 10.7468 9.8885 1.98294 10.095 9.08786 6.6404 7.47383 6.37957 2.98935
internal_count=329 201 174 128 27 166 155 106 132 113 53
is_linear=0
shrinkage=0.05


Tree=42
num_leaves=12
num_cat=0
split_feature=137 77 115 55 17 1 10 1 1 1 64
split_gain=11.9276 7.34493 3.99434 0.496312 0.00275713 0.000372893 6.94353e-05 1.71136e-06 2.27106e-08 1.70999e-09 8.88178e-16
threshold=-0.25560373792664254 0.33330967772322367 60.31153456325783 36692.669977771373 1.4082637476470981 18.339799802835746 0.65760869565217395 18.231981989801763 16.495027994362236 16.227608557425864 -1675255.808519149
decision_type=2 2 2 2 2 2 2 2 2 2 2
left_child=3 2 4 -1 5 7 -5 8 9 -2 -8
right_child=1 -3 -4 6 -6 -7 10 -9 -10 -11 -12
leaf_value=-0.029261676083092426 0.053025092139408606 -0.062883339314245321 -0.076665641783303484 -0.053823126605892051 0.055880735840775089 0.053897382015873102 -0.053379707508520835 0.053098877903306266 0.053032460523296292 0.053027541130808632 -0.053379707508520828
leaf_weight=3.185517221689226 1.3986828476190514 1.8360347747802723 0.62744662910699922 1.0601929351687429 1.0713762417435653 1.5413275733590124 2.1350088715553279 1.0441371090710161 3.2346910983324051 1.4535193741321564 3.143207505345345
leaf_count=22 26 26 8 17 12 23 36 19 60 27 53
internal_value=-0.00342434 0.0292951 0.0456136 -0.0453622 0.0534878 0.0531922 -0.0534539 0.0530397 0.0530296 0.0530263 -0.0533797
internal_weight=21.7311 12.2072 10.3712 9.52393 9.74373 8.67236 6.33841 7.13103 6.08689 2.8522 5.27822
internal_count=329 201 175 128 167 155 106 132 113 53 89
is_linear=0
shrinkage=0.05


Tree=43
num_leaves=13
num_cat=0
split_feature=137 77 115 55 41 17 1 10 1 15 1 1
split_gain=11.2257 6.92016 3.77732 0.512095 0.0986391 0.00235109 0.000317683 5.99084e-05 1.45937e-06 1.93673e-08 1.4592e-09 8.88178e-16
threshold=-0.25560373792664254 0.33330967772322367 60.31153456325783 36692.669977771373 91.865079365079382 1.4082637476470981 18.339799802835746 0.65760869565217395 18.231981989801763 57.850141343146326 16.227608557425864 16.785625275200534
decision_type=2 2 2 2 2 2 2 2 2 2 2 2
left_child=3 2 5 -1 -3 6 8 -5 9 -2 -11 -9
right_child=1 4 -4 7 -6 -7 -8 11 -10 10 -12 -13
leaf_value=-0.028348923227592276 0.052875830978390617 -0.052761562539148647 -0.075707797011141151 -0.053625594415992017 -0.077266405638469079 0.055565715194662524 0.053692918750686061 -0.053204033253594511 0.052938624152604467 0.052868863942596545 0.052871180166971621 -0.053204033253594518
leaf_weight=3.1252346932888049 3.0858175456523842 1.140820339322089 0.60420734807849008 1.0121076330542562 0.64163215458393086 1.0247560441493995 1.4715981036424635 2.0374196469783783 0.9961445927619933 1.3343004733324051 1.3866160959005356 2.9995344802737236
leaf_count=22 60 23 8 17 3 12 23 36 19 26 27 53
internal_value=-0.00338727 0.0291119 0.0454354 -0.0447836 -0.0615826 0.0533066 0.0530268 -0.0532746 0.0528827 0.0528731 0.05287 -0.053204
internal_weight=20.8602 11.6859 9.90344 9.1743 1.78245 9.29923 8.27448 6.04906 6.80288 5.80673 2.72092 5.03695
internal_count=329 201 175 128 26 167 155 106 132 113 53 89
is_linear=0
shrinkage=0.05


Tree=44
num_leaves=12
num_cat=0
split_feature=137 19 118 55 107 17 1 10 10 38 1
split_gain=10.5609 6.00332 3.56799 0.527125 0.135031 0.00165529 0.000270788 5.16883e-05 1.24494e-06 1.6524e-08 1.24099e-09
threshold=-0.25560373792664254 1.0547896626182998 0.038260187781806794 36692.669977771373 45.546717068467991 1.4082637476470981 18.339799802835746 0.65760869565217395 0.86607142857142871 -1.0000000180025095e-35 16.227608557425864
decision_type=2 2 2 2 2 2 2 2 2 2 2
left_child=3 2 -2 -1 -3 6 8 -5 -4 -10 -11
right_child=1 4 5 7 -6 -7 -8 -9 9 10 -12
leaf_value=-0.027454395393976112 -0.074741734256981579 -0.071802838066588756 0.052787102363278118 -0.053438835536880648 -0.043530615142960777 0.055155772789505786 0.053499892973672504 -0.053038019866350816 0.052727720494840771 0.052721133036713608 0.052723320154195043
leaf_weight=3.0672085881233233 0.58198180794715781 0.65555170178413269 0.95021320506930163 0.96602610498666752 1.1871183514595032 0.88079476356506337 1.4047503024339674 4.8059169054031372 2.9433573782443974 1.2726925835013416 1.3225956223905087
leaf_count=22 8 3 19 17 24 11 23 89 60 26 27
internal_value=-0.00334625 0.028902 0.0451479 -0.0442042 -0.0535888 0.0530999 0.0528705 -0.0531051 0.0527342 0.0527252 0.0527222
internal_weight=20.0382 11.1991 9.35639 8.83915 1.84267 8.7744 7.89361 5.77194 6.48886 5.53865 2.59529
internal_count=329 201 174 128 27 166 155 106 132 113 53
is_linear=0
shrinkage=0.05


Tree=45
num_leaves=12
num_cat=0
split_feature=137 117 7 55 1 1 10 81 10 1 1
split_gain=10.1214 6.73662 3.09463 0.883721 0.000939832 0.000100939 4.79541e-05 1.4105e-06 1.14585e-06 1.59943e-08 1.19979e-09
threshold=-0.25560373792664254 29.804739724848307 14.500000000000002 36692.669977771373 18.492914010223412 18.339799802835746 0.65760869565217395 -1.0000000180025095e-35 0.96760710553814022 16.495027994362236 16.227608557425864
decision_type=2 2 2 2 2 2 2 2 2 2 2
left_child=3 2 4 -1 5 7 -5 9 -6 10 -2
right_child=1 -3 -4 6 8 -7 -8 -9 -10 -11 -12
leaf_value=-0.021997494118423208 0.052581387478363377 -0.065404238463428729 -0.03745412767954389 -0.053285517600388958 0.053947978516036235 0.053230917667574588 -0.052881089564329603 0.052643796614087704 0.054035156858611814 0.052587621225134079 0.052583456760628727
leaf_weight=3.9695691317319888 1.4004909619688961 1.6336528137326229 1.0545217618346203 0.87060163170099247 0.6494140103459356 0.68414676189422596 4.6362673491239548 1.2401577457785613 0.89829903095960617 3.134571336209774 1.4015040546655655
leaf_count=29 30 27 15 16 10 12 90 26 13 67 30
internal_value=-0.00128733 0.0290251 0.0437688 -0.0399815 0.0528724 0.0526506 -0.052945 0.0525953 0.0539986 0.0525852 0.0525824
internal_weight=21.5732 12.0968 10.4631 9.47644 9.40858 7.86087 5.50687 7.17672 1.54771 5.93657 2.802
internal_count=365 230 203 135 188 165 106 153 23 127 60
is_linear=0
shrinkage=0.05


Tree=46
num_leaves=11
num_cat=0
split_feature=137 117 87 89 18 31 10 56 1 1
split_gain=9.50549 6.36248 3.34431 0.894022 0.00116512 0.000200639 4.13654e-05 1.20453e-06 1.36575e-08 1.02054e-09
threshold=-0.25560373792664254 29.804739724848307 8.5000000000000018 0.13081418838249151 1.5963112237883759 82.947994987468718 0.65760869565217395 -1.0000000180025095e-35 16.495027994362236 16.227608557425864
decision_type=2 2 2 2 2 2 2 2 2 2
left_child=3 2 4 -1 5 -2 -5 -7 9 -9
right_child=1 -3 -4 6 -6 7 -8 8 -10 -11
leaf_value=-0.021218774634879881 0.053169382664035272 -0.064898982053031185 -0.046344564405329997 -0.053117238522390225 0.054329580300249029 0.052508220016931964 -0.052732693964265623 0.052449163187444331 0.052455060259233938 0.052451117553192428
leaf_weight=3.9110068082809466 1.1757076494395677 1.5657731406390656 0.93907096982002336 0.83069917559623707 1.0603394955396659 1.1826435402035675 4.4222512096166611 1.3354618102312124 2.9890412986278534 1.3364305347204208
leaf_count=29 21 27 14 16 15 26 90 30 67 30
internal_value=-0.00126742 0.0288327 0.0434816 -0.039318 0.0527719 0.052566 -0.0527935 0.0524623 0.0524527 0.0524501
internal_weight=20.7484 11.5845 10.0187 9.16396 9.07962 8.01928 5.25295 6.84358 5.66093 2.67189
internal_count=365 230 203 135 189 174 106 153 127 60
is_linear=0
shrinkage=0.05


Tree=47
num_leaves=12
num_cat=0
split_feature=137 118 96 55 17 17 1 10 10 1 1
split_gain=8.92871 4.72006 3.427 0.903033 0.616531 0.00452757 9.82058e-05 3.56821e-05 1.0288e-06 1.16547e-08 8.71918e-10
threshold=-0.25560373792664254 0.12543249500820211 60.241295016550019 36692.669977771373 -1.0000000180025095e-35 1.0696215041128598 18.339799802835746 0.65760869565217395 0.86607142857142871 16.495027994362236 16.227608557425864
decision_type=2 2 2 2 2 2 2 2 2 2 2
left_child=3 4 5 -1 -2 6 8 -5 -3 10 -10
right_child=1 2 -4 7 -6 -7 -8 -9 9 -11 -12
leaf_value=-0.02045918048931903 -0.0059507503360535716 0.05237991061957329 -0.071813380952849601 -0.052957989834655439 -0.060497668053683756 0.055848106435821054 0.052946116715269921 -0.052592322541558739 0.052324017124211933 0.052329596624043608 0.052325867159186135
leaf_weight=3.8548592478036898 0.88022001832723651 1.1276514083147011 0.59023216366767961 0.79250162467360485 1.2589526586234558 1.0943745002150533 0.73499202728271473 4.2175192013382912 1.2732921168208122 2.8499086163938046 1.2742181494832039
leaf_count=29 19 26 3 16 26 15 14 90 30 67 30
internal_value=-0.00124825 0.0286674 0.0446239 -0.038652 -0.0380529 0.0528501 0.0523982 -0.0526502 0.0523365 0.0523274 0.0523249
internal_weight=19.9487 11.0838 8.94467 8.86488 2.13917 8.35444 7.26006 5.01002 6.52507 5.39742 2.54751
internal_count=365 230 185 135 45 182 167 106 153 127 60
is_linear=0
shrinkage=0.05


Tree=48
num_leaves=12
num_cat=0
split_feature=137 118 96 55 17 17 1 10 10 1 1
split_gain=8.373 4.45293 3.20979 0.910747 0.604761 0.00392272 8.38725e-05 3.07769e-05 8.793e-07 9.96975e-09 7.48858e-10
threshold=-0.25560373792664254 0.12543249500820211 60.241295016550019 36692.669977771373 -1.0000000180025095e-35 1.0696215041128598 18.339799802835746 0.65760869565217395 0.86607142857142871 16.495027994362236 16.227608557425864
decision_type=2 2 2 2 2 2 2 2 2 2 2
left_child=3 4 5 -1 -2 6 8 -5 -3 10 -10
right_child=1 2 -4 7 -6 -7 -8 -9 9 -11 -12
leaf_value=-0.019718592002683333 -0.0056574475400665075 0.052258462697749489 -0.06776991371196682 -0.052807237198092542 -0.060204952198749773 0.055560592387558665 0.052794206819100013 -0.05245951050884793 0.052205537978252586 0.05221082496866665 0.052207293957392334
leaf_weight=3.8010542839765566 0.87957829982042346 1.0750850737094859 0.59406977146863926 0.75594855099916447 1.2032295018434513 1.046252019703388 0.7011069357395171 4.0217286720871925 1.2138722464442253 2.7169281877577305 1.214757151901722
leaf_count=29 19 26 3 16 26 15 14 90 30 67 30
internal_value=-0.00122533 0.028398 0.0443479 -0.0379833 -0.0371693 0.0527071 0.0522758 -0.0525145 0.0522173 0.0522087 0.0522064
internal_weight=19.2236 10.6449 8.56207 8.57873 2.08281 7.968 6.92175 4.77768 6.22064 5.14556 2.42863
internal_count=365 230 185 135 45 182 167 106 153 127 60
is_linear=0
shrinkage=0.05


Tree=49
num_leaves=13
num_cat=0
split_feature=137 117 7 89 18 101 8 10 10 10 7 2
split_gain=7.84991 5.3605 2.64258 0.917159 0.135091 0.000591451 5.35419e-05 2.6545e-05 3.37392e-06 7.51698e-07 8.52441e-09 6.46605e-10
threshold=-0.25560373792664254 29.804739724848307 14.500000000000002 0.13081418838249151 -1.0000000180025095e-35 16.333809069677912 6.5000000000000009 0.65760869565217395 0.96760710553814022 0.86607142857142871 13.500000000000002 6.0000000000000009
decision_type=2 2 2 2 2 2 2 2 2 2 2 2
left_child=3 2 5 -1 -3 8 -7 -5 -2 -8 11 -11
right_child=1 4 -4 7 -6 6 9 -9 -10 10 -12 -13
leaf_value=-0.018996919013797631 0.053400101950637185 -0.05195130157706173 -0.033131375661046389 -0.052664496156322564 -0.084751833375380212 0.05261333055745241 0.052143471720852368 -0.05233381306412449 0.053239021830018197 0.052095019300122704 0.05209835940129947 0.052093348052979084
leaf_weight=3.7495184540748614 0.57807228341698447 0.90373726561665535 1.0224978476762769 0.72098026052117337 0.48097203671932109 0.56644020974636067 1.0248508751392362 3.8345430046319962 0.74279205873608589 1.1579402536153793 2.5898601524531841 1.1570949107408524
leaf_count=29 10 25 15 16 2 12 26 90 13 30 67 30
internal_value=-0.00120255 0.0281285 0.0424577 -0.0373117 -0.0633444 0.052345 0.0521489 -0.0523861 0.0533095 0.0521045 0.0520964 0.0520942
internal_weight=18.5293 10.2243 8.83955 8.30504 1.38471 7.81705 6.49619 4.55552 1.32086 5.92975 4.9049 2.31504
internal_count=365 230 203 135 27 188 165 106 23 153 127 60
is_linear=0
shrinkage=0.05


end of trees

feature_importances:
avg_daily_turnover_log=100
signal_acceleration=46
t90_macd_histogram=32
n_signals_fired_in_last_7d=25
t0_obv_slope_60=25
n_signals_fired_in_last_30d=23
t0_rel_volume=20
t0_macd_signal=19
t0_macd_line=17
days_in_current_stage=16
is_earnings_window=12
t0_minus_di=10
t0_connors_rsi=10
macd_histogram_velocity=9
t60_bb_bandwidth=9
t0_ema_200=8
t14_accumulation_score=7
accumulation_score_velocity=6
t0_ema_8=5
t0_tsi=5
t0_vwap_distance_sigma=5
adx_velocity=5
t1_macd_histogram=5
t1_cmf=5
t0_stoch_k=4
t0_bb_pct_b=4
t0_ad_line=4
t1_bb_bandwidth=4
t14_rel_volume=4
earliest_signal_lead_days=3
t0_atr_percentile_252=3
t0_cmf=3
t3_macd_histogram=3
t7_macd_histogram=3
t7_accumulation_score=3
t7_bb_bandwidth=3
t14_adx=3
t30_rsi=3
t60_cmf=3
t0_macd_histogram=2
t0_supertrend=2
t0_psar=2
t0_linreg_slope=2
t0_ichimoku_cloud_pos=2
t0_ichimoku_tk_cross=2
t0_williams_r=2
t0_cci=2
t0_hist_vol_30d=2
t0_obv_slope_20=2
t0_klinger=2
t0_zscore_200=2
accumulation_trajectory_slope=2
days_since_last_swing_low=2
t1_accumulation_score=2
t3_rsi=2
t0_ema_21=1
t0_ema_50=1
t0_hull_ma=1
t0_stoch_d=1
t0_ao=1
t0_eom=1
t0_volume=1
rsi_velocity=1
cmf_velocity=1
t1_obv=1
t3_adx=1
t7_cmf=1
t14_cmf=1
t30_macd_histogram=1
t30_rel_volume=1
t90_cmf=1
t90_bb_bandwidth=1

parameters:
[boosting: gbdt]
[objective: binary]
[metric: binary_logloss]
[tree_learner: serial]
[device_type: cpu]
[data_sample_strategy: bagging]
[data: ]
[valid: ]
[num_iterations: 50]
[learning_rate: 0.05]
[num_leaves: 31]
[num_threads: 0]
[seed: 42]
[deterministic: 1]
[force_col_wise: 0]
[force_row_wise: 0]
[histogram_pool_size: -1]
[max_depth: -1]
[min_data_in_leaf: 10]
[min_sum_hessian_in_leaf: 0.001]
[bagging_fraction: 0.8]
[pos_bagging_fraction: 1]
[neg_bagging_fraction: 1]
[bagging_freq: 5]
[bagging_seed: 42]
[bagging_by_query: 0]
[feature_fraction: 0.8]
[feature_fraction_bynode: 1]
[feature_fraction_seed: 42]
[extra_trees: 0]
[extra_seed: 12879]
[early_stopping_round: 0]
[early_stopping_min_delta: 0]
[first_metric_only: 0]
[max_delta_step: 0]
[lambda_l1: 0]
[lambda_l2: 0]
[linear_lambda: 0]
[min_gain_to_split: 0]
[drop_rate: 0.1]
[max_drop: 50]
[skip_drop: 0.5]
[xgboost_dart_mode: 0]
[uniform_drop: 0]
[drop_seed: 17869]
[top_rate: 0.2]
[other_rate: 0.1]
[min_data_per_group: 100]
[max_cat_threshold: 32]
[cat_l2: 10]
[cat_smooth: 10]
[max_cat_to_onehot: 4]
[top_k: 20]
[monotone_constraints: ]
[monotone_constraints_method: basic]
[monotone_penalty: 0]
[feature_contri: ]
[forcedsplits_filename: ]
[refit_decay_rate: 0.9]
[cegb_tradeoff: 1]
[cegb_penalty_split: 0]
[cegb_penalty_feature_lazy: ]
[cegb_penalty_feature_coupled: ]
[path_smooth: 0]
[interaction_constraints: ]
[verbosity: -1]
[saved_feature_importance_type: 0]
[use_quantized_grad: 0]
[num_grad_quant_bins: 4]
[quant_train_renew_leaf: 0]
[stochastic_rounding: 1]
[linear_tree: 0]
[max_bin: 255]
[max_bin_by_feature: ]
[min_data_in_bin: 3]
[bin_construct_sample_cnt: 200000]
[data_random_seed: 42]
[is_enable_sparse: 1]
[enable_bundle: 1]
[use_missing: 1]
[zero_as_missing: 0]
[feature_pre_filter: 1]
[pre_partition: 0]
[two_round: 0]
[header: 0]
[label_column: ]
[weight_column: ]
[group_column: ]
[ignore_column: ]
[categorical_feature: ]
[forcedbins_filename: ]
[precise_float_parser: 0]
[parser_config_file: ]
[objective_seed: 16083]
[num_class: 1]
[is_unbalance: 0]
[scale_pos_weight: 1]
[sigmoid: 1]
[boost_from_average: 1]
[reg_sqrt: 0]
[alpha: 0.9]
[fair_c: 1]
[poisson_max_delta_step: 0.7]
[tweedie_variance_power: 1.5]
[lambdarank_truncation_level: 30]
[lambdarank_norm: 1]
[label_gain: ]
[lambdarank_position_bias_regularization: 0]
[eval_at: ]
[multi_error_top_k: 1]
[auc_mu_weights: ]
[num_machines: 1]
[local_listen_port: 12400]
[time_out: 120]
[machine_list_filename: ]
[machines: ]
[gpu_platform_id: -1]
[gpu_device_id: -1]
[gpu_use_dp: 0]
[num_gpu: 1]

end of parameters

pandas_categorical:[]
