tree
version=v4
num_class=1
num_tree_per_iteration=1
label_index=0
max_feature_idx=191
objective=binary sigmoid:1
feature_names=log_market_cap avg_daily_turnover_log days_in_current_stage pmi_50w_trend brent_30d_trend is_ramadan_period is_earnings_window n_signals_fired_in_last_30d n_signals_fired_in_last_7d earliest_signal_lead_days signal_acceleration t0_ema_8 t0_ema_21 t0_ema_50 t0_ema_100 t0_ema_200 t0_ema_ribbon_aligned t0_macd_line t0_macd_signal t0_macd_histogram t0_adx t0_plus_di t0_minus_di t0_supertrend t0_psar t0_hull_ma t0_linreg_slope t0_ichimoku_cloud_pos t0_ichimoku_tk_cross t0_rsi t0_rsi_divergence t0_stoch_k t0_stoch_d t0_stoch_rsi t0_williams_r t0_cci t0_roc t0_tsi t0_ao t0_connors_rsi t0_atr t0_atr_percentile_252 t0_bb_upper t0_bb_middle t0_bb_lower t0_bb_pct_b t0_bb_bandwidth t0_bb_squeeze t0_kc_upper t0_kc_lower t0_dc_upper t0_dc_lower t0_hist_vol_30d t0_obv t0_obv_slope_20 t0_obv_slope_60 t0_ad_line t0_cmf t0_mfi t0_vwap t0_vwap_distance_sigma t0_rel_volume t0_force_index t0_eom t0_klinger t0_swing_high t0_swing_low t0_zscore_20 t0_zscore_50 t0_zscore_200 t0_accumulation_score t0_wyckoff_phase_code t0_close t0_volume t0_high t0_low rsi_velocity macd_histogram_velocity obv_velocity accumulation_score_velocity cmf_velocity adx_velocity rel_volume_velocity obv_trajectory_slope accumulation_trajectory_slope bb_bandwidth_trajectory days_since_last_swing_high days_since_last_swing_low t1_rsi t1_macd_histogram t1_obv t1_accumulation_score t1_cmf t1_adx t1_rel_volume t1_bb_bandwidth t3_rsi t3_macd_histogram t3_obv t3_accumulation_score t3_cmf t3_adx t3_rel_volume t3_bb_bandwidth t7_rsi t7_macd_histogram t7_obv t7_accumulation_score t7_cmf t7_adx t7_rel_volume t7_bb_bandwidth t14_rsi t14_macd_histogram t14_obv t14_accumulation_score t14_cmf t14_adx t14_rel_volume t14_bb_bandwidth t30_rsi t30_macd_histogram t30_obv t30_accumulation_score t30_cmf t30_adx t30_rel_volume t30_bb_bandwidth t60_rsi t60_macd_histogram t60_obv t60_accumulation_score t60_cmf t60_adx t60_rel_volume t60_bb_bandwidth t90_rsi t90_macd_histogram t90_obv t90_accumulation_score t90_cmf t90_adx t90_rel_volume t90_bb_bandwidth current_stage_dormant stage_before_dormant current_stage_stealth_accumulation stage_before_stealth_accumulation current_stage_early_breakout stage_before_early_breakout current_stage_markup_trending stage_before_markup_trending current_stage_acceleration_climax stage_before_acceleration_climax current_stage_distribution_topping stage_before_distribution_topping current_stage_markdown_decline stage_before_markdown_decline current_stage_capitulation_exhaustion stage_before_capitulation_exhaustion regime_risk_on regime_neutral regime_risk_off sector_banking sector_consumer sector_energy sector_holding_misc sector_industrial sector_insurance sector_investment sector_real_estate sector_technology sector_telecom sector_transport tier_premier dow_0.0 dow_1.0 dow_2.0 dow_3.0 dow_6.0 month_1.0 month_2.0 month_3.0 month_4.0 month_5.0 month_6.0 month_7.0 month_8.0 month_9.0 month_10.0 month_11.0 month_12.0
feature_infos=none [14.738226093184382:20.818771398465515] [1:35] none none none [0:1] [7:18] [4:10] [70:90] [-1:0.97826086956521741] [514.75819070691978:791.68034113274689] [512.71684036644922:780.26296147548078] [512.33145179588541:752.89174283734474] [513.18388497109777:700.90742462376897] [518.73156274389885:639.91136378794965] [0:1] [-14.838021606787834:33.564362682178512] [-10.298023506121227:25.539900153424448] [-13.819553397979352:14.215518613959837] [12.814178874728629:51.67997673819653] [18.607770627133004:54.629320820614652] [1.564541870139553:35.272936873674468] [-1:1] [500:745] [510.9661764705881:798.51225490196077] [-4.1503759398496429:7.364661654135328] [-1:1] [-1:1] [38.523491627273273:90.864084673180201] none [31.818181818181817:100] [11.309523809523819:94.106280193236728] none [-68.181818181818187:0] [-163.64271980422998:583.83187605460898] [-15.857142857142858:30.357142857142861] [-14.496567461954887:59.500203916257874] [-72.597058823529437:86.620588235294122] [72.204432876906182:99.571905358896345] [9.8652879679443846:29.958114292530979] [20.634920634920636:98.80952380952381] [527.04135964564477:812.33617322474333] [511.10000000000002:776.70000000000005] [479.51577141126006:741.06382677525676] [0.15698068525434092:1.5181326795472347] [0.052741420236201653:0.34244916978495471] none [532.5269210948004:828.21960663141044] [485.76889394796501:733.63836985490798] [535:893] [500:745] [23.098716471755733:64.615175460572573] [-16061520:-10884274] [-1725.2932330824171:44862.269172932494] [-169162.55829397056:168589.97210336215] [98736227.657862037:117798034.49239899] [0.013880139883047727:0.85514796773147883] [31.837480625173413:98.065935556610981] [513.47193389338418:803.27240735814053] [-1.657804040464842:4.9758085615427543] [1.1076468657696095:19.304874654792233] [10829.449987597178:10381940.236848177] [-274758022.09654629:1391062.0486983818] [-2320278.4472391643:3435667.9436351275] [0:1] [0:1] [-1.3720772589826371:4.072530718188939] [-0.78899718438721156:4.30547035544976] [-0.66422475682643023:5.8034478181139519] [39.336664177528455:80.379556259904916] [0:5] [535:855] [2700:991925] [535:893] [500:768] [0.96875478419030026:7.1376433910081571] [-0.64958629960999603:4.136876387007888] [-7933:329740] [-0.95924141520792006:9.3683445307911359] [-0.11563700507176233:0.23075773883904993] [-1.9072567766534785:3.1614979677324633] [-0.45105876981303533:6.3449224824307828] [-897.71523687559943:31410.964404609698] [-0.72403697495164476:1.2144112042953576] [-0.012405345436871832:0.0073563590476432008] [0:17] [0:22] [29.245009152012756:86.055140646998922] [-15.176131855744449:10.937305826549288] [-16069658:-10977664] [33.458554852192954:74.245641838351816] [-0.36450481346528818:0.76372049222302463] [10.77153706415649:48.401795617350722] [0.00042139862202650595:2.7386231349583667] [0.037424540305876608:0.33844380129663243] [34.552605032893268:82.825698216316454] [-11.870794499149364:9.2982336479813288] [-16082080:-11021576] [35.927816751688404:72.667705462105502] [-0.22144314732014792:0.71411288132229422] [10.21026604359518:45.084244842989968] [0.01304764428859758:2.9848827465880006] [0.04087156163714703:0.37098699514111844] [43.331083589354023:70.082552032837896] [-10.185391432151143:5.4197412995478231] [-16081726:-11110516] [35.047980526815323:79.265451664025363] [-0.39784486110052858:0.78349920624101033] [9.8793444088761238:51.606696568532037] [5.3206135199449846e-05:3.5953401263371743] [0.043630064959376505:0.44536851857629678] [36.491039322515192:83.925998483841838] [-6.3921161105976481:16.639472839815504] [-16075051:-11032373] [36.264669123596192:79.265451664025363] [-0.69775795281129738:0.76945507966959203] [10.772648831990125:57.203270283812799] [0.00047767287097706234:2.8299859492520043] [0.04294740276177135:0.44536851857629678] [23.810761354967951:90.864084673180201] [-4.3310966304658685:15.016175035826933] [-16325370:-11463815] [17.786480866887469:79.445324881141048] [-0.45282225974736218:0.92272003040473327] [11.105988521037803:55.312599596944779] [0.00068649623761923113:4.1593378168649773] [0.0332788807284536:0.49144386771384529] [34.336660136928813:85.028055845292002] [-5.6637377991016873:10.390582538525377] [-34080078:679182] [16.83042789223455:79.445324881141048] [-0.75973771677266388:0.98216473514206126] [9.3737309201585788:54.157413239525894] [2.7393882945938172e-05:2.533495250721002] [0.015269354598561482:0.36031678957051866] [21.785513367706869:65.361762203174194] [-17.177463905399783:2.6175739780578766] [-16048639:679164] [15.620334489059145:78.604595879556257] [-0.45348016320303569:0.8764212203665076] [13.978950013159304:57.661100821087274] [0.0005164755707055056:9.7367409274408878] [0.039714957923838508:0.53111583403900831] [0:1] [0:1] none [0:1] [0:1] none [0:1] [0:1] [0:1] none none none none [0:1] none none none none none none none none none none none none none none none none none [0:1] none [0:1] [0:1] [0:1] [0:1] none [0:1] none none none [0:1] [0:1] [0:1] [0:1] [0:1] none
tree_sizes=454 467 582 469 469 576 576 469 466 680 686 791 690 795 686 794 792 894 896 898 902 901 897 1010 893 916 911 1005 1011 902 799 1001 1000 1006 897 793 902 996 797 903 894 900 898 795 787 1003 1114 997 1007 1005

Tree=0
num_leaves=3
num_cat=0
split_feature=29 39
split_gain=232.343 7.10543e-15
threshold=58.263954434613595 85.712915127730227
decision_type=2 2
left_child=-1 -2
right_child=1 -3
leaf_value=-1.3094379338917719 -1.669437911361217 -1.669437911361217
leaf_weight=5.4166669249534634 3.3333334922790554 22.638889968395233
leaf_count=39 24 163
internal_value=-1.60731 -1.66944
internal_weight=31.3889 25.9722
internal_count=226 187
is_linear=0
shrinkage=1


Tree=1
num_leaves=3
num_cat=0
split_feature=127 41
split_gain=179.645 7.10543e-15
threshold=0.14471704125183935 48.611111111111121
decision_type=2 2
left_child=1 -1
right_child=-2 -3
leaf_value=-0.059417643582298285 0.23520455257820649 -0.05941764358229832
leaf_weight=11.870567649602895 6.5282206088304511 13.070962131023405
leaf_count=89 39 98
internal_value=0.00170005 -0.0594176
internal_weight=31.4698 24.9415
internal_count=226 187
is_linear=0
shrinkage=0.05


Tree=2
num_leaves=4
num_cat=0
split_feature=127 6 130
split_gain=147.347 7.10543e-15 3.55271e-15
threshold=0.14471704125183935 1.0000000180025095e-35 -12415612.499999998
decision_type=2 2 2
left_child=1 -1 -3
right_child=-2 2 -4
leaf_value=-0.058874367843091982 0.19638738158972924 -0.058874367843092135 -0.058874367843092218
leaf_weight=2.4322523772716584 7.4013524651527396 18.049872905015953 3.4563586413860277
leaf_count=19 39 141 27
internal_value=0.00140936 -0.0588744 -0.0588744
internal_weight=31.3398 23.9385 21.5062
internal_count=226 187 168
is_linear=0
shrinkage=0.05


Tree=3
num_leaves=3
num_cat=0
split_feature=127 90
split_gain=125.098 3.55271e-15
threshold=0.14471704125183935 -11977540.999999998
decision_type=2 2
left_child=1 -1
right_child=-2 -3
leaf_value=-0.058366981323992477 0.17028561271839593 -0.058366981323992463
leaf_weight=14.981805428862573 8.0889542698860151 7.9821094498038319
leaf_count=122 39 65
internal_value=0.00119468 -0.058367
internal_weight=31.0529 22.9639
internal_count=226 187
is_linear=0
shrinkage=0.05


Tree=4
num_leaves=3
num_cat=0
split_feature=127 12
split_gain=108.638 3.55271e-15
threshold=0.14471704125183935 514.03860656422069
decision_type=2 2
left_child=1 -1
right_child=-2 -3
leaf_value=-0.057892602075473393 0.15145175636011779 -0.057892602075473414
leaf_weight=8.9486543238163012 8.6247307062149066 13.069745130836962
leaf_count=76 39 111
internal_value=0.00102888 -0.0578926
internal_weight=30.6431 22.0184
internal_count=226 187
is_linear=0
shrinkage=0.05


Tree=5
num_leaves=4
num_cat=0
split_feature=127 1 10
split_gain=80.2053 3.55271e-15 1.77636e-15
threshold=0.14471704125183935 16.948061712611995 0.95804195804195824
decision_type=2 2 2
left_child=1 -1 -3
right_child=-2 2 -4
leaf_value=-0.057448658728554203 0.13263722599335881 -0.057448658728554258 -0.057448658728554147
leaf_weight=10.833264827728277 7.5885933786630622 8.6891811639070475 1.1284650862216956
leaf_count=96 33 77 10
internal_value=-0.00636828 -0.0574487 -0.0574487
internal_weight=28.2395 20.6509 9.81765
internal_count=216 183 87
is_linear=0
shrinkage=0.05


Tree=6
num_leaves=4
num_cat=0
split_feature=127 1 39
split_gain=71.852 3.55271e-15 3.55271e-15
threshold=0.14471704125183935 18.328975841852543 85.712915127730227
decision_type=2 2 2
left_child=1 2 -1
right_child=-2 -3 -4
leaf_value=-0.057032800793399452 0.12180395452882378 -0.057032800793399729 -0.057032800793399729
leaf_weight=2.1621152758598425 7.8431679904460898 3.1350671499967566 14.486172348260878
leaf_count=20 33 29 134
internal_value=-0.00626106 -0.0570328 -0.0570328
internal_weight=27.6265 19.7834 16.6483
internal_count=216 183 154
is_linear=0
shrinkage=0.05


Tree=7
num_leaves=3
num_cat=0
split_feature=127 8
split_gain=64.9047 3.55271e-15
threshold=0.14471704125183935 4.5000000000000009
decision_type=2 2
left_child=1 -1
right_child=-2 -3
leaf_value=-0.056642924923288762 0.11301445744234517 -0.056642924923288852
leaf_weight=4.6585461124777856 8.0253547430038434 14.286208078265188
leaf_count=45 33 138
internal_value=-0.00615886 -0.0566429
internal_weight=26.9701 18.9448
internal_count=216 183
is_linear=0
shrinkage=0.05


Tree=8
num_leaves=3
num_cat=0
split_feature=127 1
split_gain=59.014 3.55271e-15
threshold=0.14471704125183935 16.809858646029834
decision_type=2 2
left_child=1 -1
right_child=-2 -3
leaf_value=-0.056277104690851038 0.10573385786312342 -0.056277104690851079
leaf_weight=7.6305652707815232 8.1456342637538892 10.50441452860832
leaf_count=77 33 106
internal_value=-0.00606207 -0.0562771
internal_weight=26.2806 18.135
internal_count=216 183
is_linear=0
shrinkage=0.05


Tree=9
num_leaves=5
num_cat=0
split_feature=29 85 138 45
split_gain=53.9806 0.671255 0.0133072 3.55271e-15
threshold=58.263954434613595 -0.0022026444489451264 -11509208.499999998 1.1256488795182891
decision_type=2 2 2 2
left_child=-1 -2 3 -3
right_child=1 2 -4 -5
leaf_value=0.10432269664268445 -0.01583889535339188 -0.055933603702387071 -0.061643486234617607 -0.055933603702387251
leaf_weight=7.7366939336061504 1.0915936380624831 2.1810764372348848 1.0915936380624689 13.465776264667509
leaf_count=31 10 23 10 142
internal_value=-0.0059707 -0.0538285 -0.056306 -0.0559336
internal_weight=25.5667 17.83 16.7384 15.6469
internal_count=216 185 175 165
is_linear=0
shrinkage=0.05


Tree=10
num_leaves=5
num_cat=0
split_feature=127 29 6 73
split_gain=56.7326 0.518104 0.00920903 3.55271e-15
threshold=0.26368573198233464 61.793056412844841 1.0000000180025095e-35 188146.50000000003
decision_type=2 2 2 2
left_child=1 -1 -3 -4
right_child=-2 2 3 -5
leaf_value=-0.020436069202608792 0.099737716259972603 -0.059960718610554069 -0.055610828038974575 -0.055610828038974526
leaf_weight=1.0928323566913629 8.9862924367189425 1.3183647096157116 8.4364789277315086 7.3479010015726098
leaf_count=10 36 13 93 81
internal_value=-0.00304959 -0.0538134 -0.0559461 -0.0556108
internal_weight=27.1819 18.1956 17.1027 15.7844
internal_count=233 197 187 174
is_linear=0
shrinkage=0.05


Tree=11
num_leaves=6
num_cat=0
split_feature=85 36 6 8 32
split_gain=52.1655 0.52392 0.00817065 3.55271e-15 1.77636e-15
threshold=-0.0054784304152351538 4.4549041981647894 1.0000000180025095e-35 9.5000000000000018 93.784639781838692
decision_type=2 2 2 2 2
left_child=-1 -2 -3 4 -4
right_child=1 2 3 -5 -6
leaf_value=0.095033144471667358 -0.019663788783088006 -0.059492724597284066 -0.055307322592339218 -0.055307322592339163 -0.055307322592339142
leaf_weight=8.9600903391838091 1.0793164372444177 1.2636826783418698 6.5931636989116615 6.9401723146438608 1.5615387707948682
leaf_count=36 10 13 76 80 18
internal_value=-0.00302125 -0.0534045 -0.0556306 -0.0553073 -0.0553073
internal_weight=26.398 17.4379 16.3586 15.0949 8.1547
internal_count=233 197 187 174 94
is_linear=0
shrinkage=0.05


Tree=12
num_leaves=5
num_cat=0
split_feature=85 22 2 6
split_gain=48.1274 0.546026 0.000109189 1.85557e-06
threshold=-0.0054784304152351538 21.321835874115131 27.000000000000004 1.0000000180025095e-35
decision_type=2 2 2 2
left_child=-1 2 3 -2
right_child=1 -3 -4 -5
leaf_value=0.090965528503897441 -0.054950733333248507 -0.012935536506500759 -0.055610797694515296 -0.055021759213843974
leaf_weight=8.8942606002092379 0.98372465372085471 0.80889202654361803 0.81643009185791093 14.099569022655485
leaf_count=36 12 6 9 170
internal_value=-0.00299319 -0.0530089 -0.0550476 -0.0550171
internal_weight=25.6029 16.7086 15.8997 15.0833
internal_count=233 197 191 182
is_linear=0
shrinkage=0.05


Tree=13
num_leaves=6
num_cat=0
split_feature=127 2 32 29 53
split_gain=44.5918 9.10641e-05 1.81269e-06 9.43195e-07 3.55271e-15
threshold=0.14471704125183935 27.000000000000004 62.678062678062695 65.421939748777163 -11869897.999999998
decision_type=2 2 2 2 2
left_child=1 2 -1 -4 -5
right_child=-2 -3 3 4 -6
leaf_value=-0.054686020939291584 0.083800375425956863 -0.055307297691063177 -0.05479293319842482 -0.054752915215759403 -0.05475291521575934
leaf_weight=0.94016271829605003 9.2711837589740753 0.78076609969139177 1.6758716627955426 8.0856674462556786 4.0428337231278446
leaf_count=12 38 9 21 102 51
internal_value=-0.00296671 -0.0547811 -0.0547532 -0.0547578 -0.0547529
internal_weight=24.7965 15.5253 14.7445 13.8044 12.1285
internal_count=233 195 186 174 153
is_linear=0
shrinkage=0.05


Tree=14
num_leaves=5
num_cat=0
split_feature=85 55 6 21
split_gain=41.4745 0.541065 0.0100828 8.00371e-07
threshold=-0.0054784304152351538 41967.761475410094 1.0000000180025095e-35 29.044364699492196
decision_type=2 2 2 2
left_child=-1 2 -2 -4
right_child=1 -3 3 -5
leaf_value=0.084420660668332537 -0.059425221166481912 -0.016785167414084395 -0.054537391595722955 -0.054499680520735463
leaf_weight=8.6735131144523638 1.1301147788763017 0.99627466499805528 1.6014190092682827 11.58923828601837
leaf_count=36 13 10 21 153
internal_value=-0.00294296 -0.052414 -0.0548926 -0.0545043
internal_weight=23.9906 15.317 14.3208 13.1907
internal_count=233 197 187 174
is_linear=0
shrinkage=0.05


Tree=15
num_leaves=6
num_cat=0
split_feature=127 2 10 22 7
split_gain=42.9431 0.000155283 1.49155e-06 1.83363e-07 4.93809e-11
threshold=0.14471704125183935 27.000000000000004 0.95804195804195824 19.958159014870709 16.000000000000004
decision_type=2 2 2 2 2
left_child=1 2 3 4 -1
right_child=-2 -3 -4 -5 -6
leaf_value=-0.054261006569381959 0.082457365212005529 -0.054938147977633439 -0.054188826332478124 -0.054279876976580356 -0.054260678532961751
leaf_weight=9.6240605488419462 9.7327513545751572 0.89986760169267732 0.71323181688785631 1.4524243324995048 1.3024190068244941
leaf_count=133 41 11 10 20 18
internal_value=0.00180116 -0.0543028 -0.0542591 -0.0542632 -0.054261
internal_weight=23.7248 13.992 13.0921 12.3789 10.9265
internal_count=233 192 181 171 151
is_linear=0
shrinkage=0.05


Tree=16
num_leaves=6
num_cat=0
split_feature=127 2 10 22 7
split_gain=39.9851 0.000131825 1.26731e-06 1.55871e-07 4.23732e-11
threshold=0.14471704125183935 27.000000000000004 0.95804195804195824 19.958159014870709 16.000000000000004
decision_type=2 2 2 2 2
left_child=1 2 3 4 -1
right_child=-2 -3 -4 -5 -6
leaf_value=-0.05403596438167229 0.079909898445454902 -0.054674172842160265 -0.053967882608786058 -0.05405376675635825 -0.054035653448907789
leaf_weight=9.1918517872691083 9.5455853193998337 0.86000876873731691 0.68115437030792314 1.3872218877077109 1.2439280748367316
leaf_count=133 41 11 10 20 18
internal_value=0.00175098 -0.0540754 -0.0540342 -0.054038 -0.0540359
internal_weight=22.9098 13.3642 12.5042 11.823 10.4358
internal_count=233 192 181 171 151
is_linear=0
shrinkage=0.05


Tree=17
num_leaves=7
num_cat=0
split_feature=29 54 10 31 7 1
split_gain=35.2268 0.442369 1.07753e-06 1.326e-07 3.63229e-11 1.77636e-15
threshold=58.263954434613595 -1.0000000180025095e-35 0.95804195804195824 98.571428571428584 16.000000000000004 16.948061712611995
decision_type=2 2 2 2 2 2
left_child=-1 -2 3 4 5 -3
right_child=1 2 -4 -5 -6 -7
leaf_value=0.077219989887677087 -0.020265523101061157 -0.053823664092663308 -0.053759419232744667 -0.053840466985072666 -0.053823369484219778 -0.053823664092663204
leaf_weight=9.091127425432207 1.0701638460159308 5.2795040607452304 0.6503830701112755 1.3246617615222938 1.1878098249435431 3.497671440243721
leaf_count=40 12 80 10 20 18 53
internal_value=0.00170547 -0.0510618 -0.053822 -0.0538256 -0.0538236 -0.0538237
internal_weight=22.1013 13.0102 11.94 11.2896 9.96499 8.77718
internal_count=233 193 181 171 151 133
is_linear=0
shrinkage=0.05


Tree=18
num_leaves=7
num_cat=0
split_feature=29 89 2 22 19 54
split_gain=32.8727 0.624888 0.00015227 1.12866e-07 3.11768e-11 1.59872e-13
threshold=58.263954434613595 -0.66972483515423842 27.000000000000004 19.958159014870709 1.75820205637282 13922.256390977496
decision_type=2 2 2 2 2 2
left_child=-1 -2 3 4 -3 -6
right_child=1 2 -4 -5 5 -7
leaf_value=0.075208442224162064 -0.0081696456473216612 -0.053623022408027909 -0.054336691396890818 -0.05363916130509571 -0.053623296035813575 -0.053623310166616749
leaf_weight=8.8730842769145983 0.80668919533491035 1.1339943856000854 0.80785795301199037 1.2646665871143348 5.1033139005303365 3.3392165303230286
leaf_count=40 10 18 11 20 81 53
internal_value=0.00166366 -0.0507274 -0.0536745 -0.0536251 -0.0536233 -0.0536233
internal_weight=21.3288 12.4557 11.649 10.8412 9.57652 8.44253
internal_count=233 193 183 172 152 134
is_linear=0
shrinkage=0.05


Tree=19
num_leaves=7
num_cat=0
split_feature=127 2 81 54 7 7
split_gain=32.7974 0.00012819 2.68589e-06 4.37801e-11 1.35003e-13 1.35003e-13
threshold=0.14471704125183935 27.000000000000004 -0.41155771592161955 12707.974436090475 16.000000000000004 12.500000000000002
decision_type=2 2 2 2 2 2
left_child=1 2 -1 4 -4 -5
right_child=-2 -3 3 5 -6 -7
leaf_value=-0.053536792505422585 0.073967569332591243 -0.054107339974460239 -0.053433888093078856 -0.053434123608280371 -0.053433863116294368 -0.053434136897382661
leaf_weight=0.67866279184818168 8.8927969038486481 0.77163323014974672 1.0824177190661421 4.8711739405989629 1.0824109464883804 3.187322061508894
leaf_count=11 41 11 18 81 18 53
internal_value=0.00162499 -0.0534846 -0.0534405 -0.0534341 -0.0534339 -0.0534341
internal_weight=20.5664 11.6736 10.902 10.2233 2.16483 8.0585
internal_count=233 192 181 170 36 134
is_linear=0
shrinkage=0.05


Tree=20
num_leaves=7
num_cat=0
split_feature=127 72 81 54 8 8
split_gain=30.1851 8.07484e-05 2.97769e-06 4.42011e-11 1.53655e-13 1.45661e-13
threshold=0.14471704125183935 537.50000000000011 -0.41155771592161955 12707.974436090475 8.5000000000000018 9.5000000000000018
decision_type=2 2 2 2 2 2
left_child=1 -1 -3 4 -4 -5
right_child=-2 2 3 5 -6 -7
leaf_value=-0.053891006679102599 0.068146197545586068 -0.053354111685406984 -0.053255217157503115 -0.053255455869618287 -0.053255192003446097 -0.05325544150885491
leaf_weight=0.5359070301055916 9.1002266854047775 0.82475408539175887 1.6068804860115036 2.697437509894371 0.97559992969036091 5.0505023300647736
leaf_count=8 43 14 28 47 17 88
internal_value=-0.000138965 -0.0532915 -0.0532627 -0.0532554 -0.0532552 -0.0532554
internal_weight=20.7913 11.6911 11.1552 10.3304 2.58248 7.74794
internal_count=245 202 194 180 45 135
is_linear=0
shrinkage=0.05


Tree=21
num_leaves=7
num_cat=0
split_feature=29 35 6 137 7 10
split_gain=28.585 0.602002 0.0272834 1.59935e-07 2.47091e-11 7.28306e-14
threshold=58.263954434613595 319.94719340690864 1.0000000180025095e-35 -0.23650198300071543 10.500000000000002 0.95024570024570043
decision_type=2 2 2 2 2 2
left_child=-1 2 -2 4 -4 -6
right_child=1 -3 3 -5 5 -7
leaf_value=0.070294554481657459 -0.062370324980171268 -0.007712606679082884 -0.053086391070993638 -0.053106768799616733 -0.053086604726637489 -0.053086615197278392
leaf_weight=8.3753399848938006 0.859646335244176 0.75711728632450181 1.5332501083612404 1.1013390347361571 2.5190640911459923 4.8738512918353081
leaf_count=41 12 9 28 20 46 89
internal_value=-0.000153004 -0.0508236 -0.0538217 -0.0530888 -0.0530866 -0.0530866
internal_weight=20.0196 11.6443 10.8872 10.0275 8.92617 7.39292
internal_count=245 204 195 183 163 135
is_linear=0
shrinkage=0.05


Tree=22
num_leaves=7
num_cat=0
split_feature=29 85 32 137 1 1
split_gain=26.8042 0.6023 0.0243982 1.3644e-07 2.03251e-11 1.74083e-13
threshold=58.263954434613595 -0.0022026444489451264 62.678062678062695 -0.23650198300071543 20.179883506671398 16.948061712611995
decision_type=2 2 2 2 2 2
left_child=-1 -2 -3 4 5 -4
right_child=1 2 3 -5 -6 -7
leaf_value=0.068924228660340772 -0.0073583228038399734 -0.061896564980497171 -0.052927020365229061 -0.052946087728282257 -0.052926821302534954 -0.052927036857428202
leaf_weight=8.1212059855461138 0.75397418439388353 0.8238220699131461 4.5975224971771205 1.0507250912487514 1.4627586752176283 2.455504298210144
leaf_count=41 9 12 88 20 28 47
internal_value=-0.000162911 -0.0505089 -0.0536401 -0.0529291 -0.052927 -0.052927
internal_weight=19.2655 11.1443 10.3903 9.56651 8.51579 7.05303
internal_count=245 204 195 183 163 135
is_linear=0
shrinkage=0.05


Tree=23
num_leaves=8
num_cat=0
split_feature=29 115 2 36 62 7 26
split_gain=25.1553 0.619477 0.000139516 5.02436e-07 3.94742e-11 3.59002e-12 9.32587e-14
threshold=58.263954434613595 65.277682746539341 27.000000000000004 5.572755417956655 853701.78104141809 16.000000000000004 -1.0000000180025095e-35
decision_type=2 2 2 2 2 2 2
left_child=-1 2 3 -2 5 -5 -6
right_child=1 -3 -4 4 6 -7 -8
leaf_value=0.067670397275718427 -0.05281984419922129 0.0051236651029008921 -0.053631716377176154 -0.052775942909600908 -0.052776131564193633 -0.052775812417950742 -0.052776143865697844
leaf_weight=7.8646020442247417 0.70738174766301654 0.48312786221504289 0.50504356622696001 1.3952964544296249 4.3854862451553318 0.84710881114006031 2.3422572799026993
leaf_count=41 14 2 8 28 88 17 47
internal_value=-0.000171787 -0.0501968 -0.0528216 -0.0527793 -0.0527761 -0.0527759 -0.0527761
internal_weight=18.5303 10.6657 10.1826 9.67753 8.97015 2.24241 6.72774
internal_count=245 204 202 194 180 45 135
is_linear=0
shrinkage=0.05


Tree=24
num_leaves=7
num_cat=0
split_feature=29 35 102 102 1 1
split_gain=23.6385 0.619143 0.0229926 9.97082e-08 1.54579e-11 7.63833e-14
threshold=58.263954434613595 319.94719340690864 0.05859832964549043 1.3783378825480643 20.179883506671398 16.948061712611995
decision_type=2 2 2 2 2 2
left_child=-1 2 -2 4 5 -4
right_child=1 -3 3 -5 -6 -7
leaf_value=0.06652013320620706 -0.06168127033367285 -0.0055104434786692425 -0.052633418146029433 -0.052650505242975376 -0.052633234884683369 -0.052633429597048788
leaf_weight=7.607095509767535 0.76412367820739469 0.72785475850105363 4.182628780603407 0.95594821870326985 1.33075475692749 2.233912754803896
leaf_count=41 12 9 88 20 28 47
internal_value=-0.000180625 -0.0499489 -0.0533654 -0.0526353 -0.0526334 -0.0526334
internal_weight=17.8023 10.1952 9.46737 8.70324 7.7473 6.41654
internal_count=245 204 195 183 163 135
is_linear=0
shrinkage=0.05


Tree=25
num_leaves=7
num_cat=0
split_feature=85 118 6 32 121 11
split_gain=19.9564 0.460283 0.0209142 1.10312e-07 9.46176e-12 5.86198e-14
threshold=-0.0054784304152351538 0.88820466684926458 1.0000000180025095e-35 92.358468404980059 -1.0000000180025095e-35 653.12635256235433
decision_type=2 2 2 2 2 2
left_child=-1 2 -2 4 5 -4
right_child=1 -3 3 -5 -6 -7
leaf_value=0.065931887694228558 -0.060827587978233726 -0.0088526333099429033 -0.052498403514012207 -0.052516865107660876 -0.052498226634106228 -0.052498393384203118
leaf_weight=6.0985585600137719 0.83369588851928522 0.62424739450216371 3.8526466712355587 0.91231202706694592 0.90644732117652971 2.2209326587617397
leaf_count=34 11 10 85 20 20 49
internal_value=-0.00443401 -0.0503289 -0.0532961 -0.0525005 -0.0524984 -0.0524984
internal_weight=15.4488 9.35028 8.72603 7.89234 6.98003 6.07358
internal_count=229 195 185 174 154 134
is_linear=0
shrinkage=0.05


Tree=26
num_leaves=7
num_cat=0
split_feature=85 175 54 102 7 8
split_gain=18.7746 0.462247 0.0185008 9.42689e-08 8.29559e-12 5.41789e-14
threshold=-0.0054784304152351538 1.0000000180025095e-35 -1.0000000180025095e-35 1.3783378825480643 10.500000000000002 5.5000000000000009
decision_type=2 2 2 2 2 2
left_child=-1 2 -2 4 -4 -6
right_child=1 -3 3 -5 5 -7
leaf_value=0.064938732863035059 -0.06037551599865864 -0.0084454834061986391 -0.052370455527795803 -0.052388102327200071 -0.052370615233938933 -0.052370625259997521
leaf_weight=5.8875847905874261 0.79882416129112055 0.62169180810451585 0.86428984999656489 0.86989717930555333 2.1176408305764198 3.673466619104147
leaf_count=34 11 10 20 20 49 85
internal_value=-0.00440001 -0.0500345 -0.0531406 -0.0523726 -0.0523706 -0.0523706
internal_weight=14.8334 8.94581 8.32412 7.52529 6.6554 5.79111
internal_count=229 195 185 174 154 134
is_linear=0
shrinkage=0.05


Tree=27
num_leaves=8
num_cat=0
split_feature=29 120 2 6 137 7 1
split_gain=17.3094 0.607107 0.000119415 6.18564e-06 8.05461e-08 6.90648e-12 9.9476e-14
threshold=58.263954434613595 67.535710753977327 27.000000000000004 1.0000000180025095e-35 -0.23650198300071543 10.500000000000002 16.948061712611995
decision_type=2 2 2 2 2 2 2
left_child=-1 2 3 -2 5 -5 -7
right_child=1 -3 -4 4 -6 6 -8
leaf_value=0.06354299395046685 -0.052453292278640054 0.0063110214373792292 -0.053032420344630973 -0.052249511413139618 -0.052266215493660811 -0.05224966141901935 -0.052249675274922074
leaf_weight=5.6558088958263406 0.40125092491507341 0.4670361280441292 0.53910881280899037 0.82399293780326566 0.82935274019837457 3.4609846919775009 2.0601174496114254
leaf_count=34 9 2 10 20 20 84 50
internal_value=-0.00436721 -0.049123 -0.0523134 -0.0522622 -0.0522516 -0.0522496 -0.0522497
internal_weight=14.2377 8.58184 8.11481 7.5757 7.17445 6.3451 5.5211
internal_count=229 195 193 183 174 154 134
is_linear=0
shrinkage=0.05


Tree=28
num_leaves=8
num_cat=0
split_feature=85 118 13 6 19 1 8
split_gain=16.7223 0.449546 0.0298276 0.000104796 3.40838e-11 5.79181e-12 1.06581e-14
threshold=-0.0054784304152351538 0.88820466684926458 583.37714369247328 1.0000000180025095e-35 1.75820205637282 20.179883506671398 9.5000000000000018
decision_type=2 2 2 2 2 2 2
left_child=-1 2 3 -2 -5 6 -6
right_child=1 -3 -4 4 5 -7 -8
leaf_value=0.063269810719062611 -0.052875792498249446 -0.0078008508231440406 -0.066404832637280725 -0.052134741436293867 -0.052135134055925236 -0.052134991432374989 -0.052135138798296413
leaf_weight=5.476897507905961 0.51429685205221076 0.59550744667649258 0.3888915292918681 0.66759023070335288 1.9245564974844453 0.78548453748226155 3.2992397099733353
leaf_count=34 10 10 5 17 49 20 84
internal_value=-0.00433918 -0.0496312 -0.0529174 -0.0521881 -0.0521351 -0.0521351 -0.0521351
internal_weight=13.6525 8.17557 7.58006 7.19117 6.67687 6.00928 5.2238
internal_count=229 195 185 180 170 153 133
is_linear=0
shrinkage=0.05


Tree=29
num_leaves=7
num_cat=0
split_feature=85 175 13 2 7 1
split_gain=15.7542 0.450924 0.025861 8.95395e-05 2.88916e-11 4.583e-12
threshold=-0.0054784304152351538 1.0000000180025095e-35 583.37714369247328 27.000000000000004 16.000000000000004 20.179883506671398
decision_type=2 2 2 2 2 2
left_child=-1 2 3 4 5 -2
right_child=1 -3 -4 -5 -6 -7
leaf_value=0.06247814700849097 -0.05202667236118589 -0.0074373711393370713 -0.065569797402936211 -0.052727684462920511 -0.052026299889039465 -0.052026539675766328
leaf_weight=5.2741184830665588 4.9791263677179813 0.59343502670526493 0.37451662123203266 0.49055375158786763 0.63632164523005474 0.74869424104690541
leaf_count=34 133 10 5 10 17 20
internal_value=-0.00430824 -0.0493364 -0.0527758 -0.0520768 -0.0520266 -0.0520267
internal_weight=13.0968 7.82265 7.22921 6.8547 6.36414 5.72782
internal_count=229 195 185 180 170 153
is_linear=0
shrinkage=0.05


Tree=30
num_leaves=6
num_cat=0
split_feature=127 6 32 1 34
split_gain=15.5542 7.87476e-05 1.81771e-08 1.34679e-09 8.88178e-16
threshold=0.14471704125183935 1.0000000180025095e-35 92.358468404980059 17.395805402506635 -24.53097731239092
decision_type=2 2 2 2 2
left_child=1 -1 3 4 -3
right_child=-2 2 -4 -5 -6
leaf_value=-0.052440478126933393 0.057601888612566154 -0.051923927853619059 -0.051932043850401934 -0.051921835782267403 -0.051923927652744339
leaf_weight=0.84027343243360508 6.0136791914701462 1.712635159492492 0.71634067595005024 0.92672042921185482 2.8187123276293282
leaf_count=19 39 48 20 26 79
internal_value=-0.00140221 -0.0519864 -0.0519246 -0.0519236 -0.0519239
internal_weight=13.0284 7.01468 6.17441 5.45807 4.53135
internal_count=231 192 173 153 127
is_linear=0
shrinkage=0.05


Tree=31
num_leaves=8
num_cat=0
split_feature=29 12 2 32 39 1 8
split_gain=14.6933 0.941168 0.0163244 1.82028e-05 2.72127e-09 1.27432e-09 1.24345e-14
threshold=58.263954434613595 696.06673054580449 5.5000000000000009 62.678062678062695 89.26732963005189 17.395805402506635 9.5000000000000018
decision_type=2 2 2 2 2 2 2
left_child=-1 2 3 -2 -5 6 -6
right_child=1 -3 -4 4 5 -7 -8
leaf_value=0.061123373500571593 -0.052175588318102796 0.029465067769776233 -0.060344624176857209 -0.051823215044679197 -0.051826576895143008 -0.051828663020851644 -0.051826582373202895
leaf_weight=5.364439383149147 0.39958730340003956 0.36809639632701863 0.62277933210134495 0.54307743906974781 1.6320918202400205 0.88495768234133709 2.6861511208117008
leaf_count=37 10 5 10 16 48 26 79
internal_value=-0.00139998 -0.0483966 -0.0526309 -0.0518493 -0.0518266 -0.0518269 -0.0518266
internal_weight=12.5012 7.13674 6.76864 6.14587 5.74628 5.2032 4.31824
internal_count=231 194 189 179 169 153 127
is_linear=0
shrinkage=0.05


Tree=32
num_leaves=8
num_cat=0
split_feature=29 12 20 6 45 1 8
split_gain=13.8615 0.903742 0.0143684 1.55742e-05 2.32603e-09 1.0928e-09 1.33227e-14
threshold=58.263954434613595 696.06673054580449 18.783085118176768 1.0000000180025095e-35 1.1256488795182891 17.395805402506635 9.5000000000000018
decision_type=2 2 2 2 2 2 2
left_child=-1 2 -2 -4 -5 6 -6
right_child=1 -3 3 4 5 -7 -8
leaf_value=0.060475410186325101 -0.05990042571287954 0.027846163128321805 -0.052064984549610817 -0.05173113771114897 -0.051734320877388343 -0.051736300245873369 -0.051734326626321409
leaf_weight=5.1560962647199631 0.59668821841478337 0.36997224390506733 0.38088627159595478 0.517487522214651 1.5551923513412473 0.843262668699026 2.5595874115824699
leaf_count=37 10 5 10 16 48 26 79
internal_value=-0.00139628 -0.0481518 -0.0525089 -0.0517558 -0.0517343 -0.0517347 -0.0517343
internal_weight=11.9792 6.82308 6.4531 5.85642 5.47553 4.95804 4.11478
internal_count=231 194 189 179 169 153 127
is_linear=0
shrinkage=0.05


Tree=33
num_leaves=8
num_cat=0
split_feature=127 18 36 1 45 34 1
split_gain=13.1162 0.0997506 4.84562e-05 3.95826e-06 1.99068e-09 9.32161e-10 3.55271e-15
threshold=0.14471704125183935 -1.1901644069261661 5.572755417956655 18.328975841852543 1.1256488795182891 -10.683760683760683 16.948061712611995
decision_type=2 2 2 2 2 2 2
left_child=2 -2 3 -1 -4 6 -6
right_child=1 -3 4 -5 5 -7 -8
leaf_value=-0.051960482731861095 0.059088233637361154 0.042863422737438928 -0.05164386269184687 -0.052177199139526745 -0.051646882269512431 -0.051648752901052003 -0.051646885385745661
leaf_weight=0.50829330831766117 4.1648330688476562 1.2262336909770963 0.49306023865938176 0.35987298935651779 2.4387731067836285 0.80346157215535674 1.4817861020565031
leaf_count=14 32 7 16 9 79 26 48
internal_value=-0.00139253 0.0553978 -0.0517044 -0.0520503 -0.0516469 -0.0516472 -0.0516469
internal_weight=11.4763 5.39107 6.08525 0.868166 5.21708 4.72402 3.92056
internal_count=231 39 192 23 169 153 127
is_linear=0
shrinkage=0.05


Tree=34
num_leaves=7
num_cat=0
split_feature=29 12 62 32 39 34
split_gain=12.4054 0.853518 0.0145559 1.14112e-05 1.70696e-09 7.96336e-10
threshold=58.263954434613595 696.06673054580449 196177.86317964978 62.678062678062695 89.26732963005189 -10.683760683760683
decision_type=2 2 2 2 2 2
left_child=-1 2 -2 -4 -5 -6
right_child=1 -3 3 4 5 -7
leaf_value=0.059353885932482711 -0.060070480803024823 0.026727090107985629 -0.051860973087171115 -0.051561120398489452 -0.051563986746918346 -0.051565756996568735
leaf_weight=4.7648351043462753 0.55823325365781773 0.36188951134681691 0.34596156328916539 0.46974703855812538 3.735195398330688 0.76547533273696933
leaf_count=37 10 5 10 16 127 26
internal_value=-0.00138947 -0.0477988 -0.0523898 -0.0515833 -0.051564 -0.0515643
internal_weight=11.0013 6.2365 5.87461 5.31638 4.97042 4.50067
internal_count=231 194 189 179 169 153
is_linear=0
shrinkage=0.05


Tree=35
num_leaves=6
num_cat=0
split_feature=29 11 6 39 58
split_gain=11.895 0.0192692 2.67179e-05 1.46172e-09 7.56816e-10
threshold=58.263954434613595 660.2981025367443 1.0000000180025095e-35 89.26732963005189 93.884511071732916
decision_type=2 2 2 2 2
left_child=-1 2 -2 -4 -5
right_child=1 -3 3 4 -6
leaf_value=0.058884689041114484 -0.051844589205572902 -0.063605613187637286 -0.051482669744102372 -0.051487212014971653 -0.05148538383049503
leaf_weight=4.2117490470409393 0.58208536729216565 0.35218870639801014 0.44750092923641194 0.67319487221539009 3.5583151951432228
leaf_count=34 17 5 16 24 127
internal_value=-0.00462821 -0.0522831 -0.0515251 -0.0514854 -0.0514857
internal_weight=9.82503 5.61329 5.2611 4.67901 4.23151
internal_count=223 189 184 167 151
is_linear=0
shrinkage=0.05


Tree=36
num_leaves=7
num_cat=0
split_feature=29 35 92 39 22 7
split_gain=11.2543 0.0166725 2.28844e-05 1.25163e-09 6.49621e-10 4.44089e-16
threshold=58.263954434613595 156.49831469532123 1.0000000180025095e-35 89.26732963005189 14.785435895667625 12.500000000000002
decision_type=2 2 2 2 2 2
left_child=-1 -2 -3 -4 5 -5
right_child=1 2 3 4 -6 -7
leaf_value=0.058385815841549261 -0.062911991629599776 -0.051751405218331006 -0.051408269508630068 -0.051410842374577582 -0.051412577833543138 -0.051410842473039703
leaf_weight=4.0397025346755981 0.33861225843429554 0.55466852709650982 0.42627655714750279 2.1351546049118042 0.64126890525221814 1.2544032428413632
leaf_count=34 5 17 16 80 24 47
internal_value=-0.00461016 -0.052174 -0.0514485 -0.0514108 -0.0514111 -0.0514108
internal_weight=9.39009 5.35038 5.01177 4.4571 4.03083 3.38956
internal_count=223 189 184 167 151 127
is_linear=0
shrinkage=0.05


Tree=37
num_leaves=8
num_cat=0
split_feature=113 126 11 6 54 1 1
split_gain=9.63233 0.823473 0.014406 1.95845e-05 7.08944e-12 1.61959e-12 4.44089e-15
threshold=5.6857136490513849 0.510957266034893 660.2981025367443 1.0000000180025095e-35 12707.974436090475 20.179883506671398 16.948061712611995
decision_type=2 2 2 2 2 2 2
left_child=1 2 3 -1 5 -5 -6
right_child=-2 -3 -4 4 6 -7 -8
leaf_value=-0.051663087167028492 0.057956442409033193 0.03704843826992741 -0.0622526964457851 -0.051339909032690118 -0.051340142214538358 -0.051340041491100254 -0.051340145976202615
leaf_weight=0.52849623560905445 3.6506203562021255 0.27319350838661183 0.325422704219818 0.38126486353576172 2.0337481796741486 0.58466023206710815 1.1948269680142405
leaf_count=17 32 4 5 15 80 23 47
internal_value=-0.00459305 -0.0475019 -0.0520773 -0.0513762 -0.0513401 -0.05134 -0.0513401
internal_weight=8.97223 5.32161 5.04842 4.723 4.1945 0.965925 3.22858
internal_count=223 191 187 182 165 38 127
is_linear=0
shrinkage=0.05


Tree=38
num_leaves=6
num_cat=0
split_feature=29 35 6 21 7
split_gain=10.0939 0.0124571 1.66345e-05 3.43097e-08 1.74083e-12
threshold=58.263954434613595 156.49831469532123 1.0000000180025095e-35 36.167740941825066 10.500000000000002
decision_type=2 2 2 2 2
left_child=-1 -2 -3 -4 -5
right_child=1 2 3 4 -6
leaf_value=0.057488283519965017 -0.061626386938731376 -0.051579358832644508 -0.051288223920762946 -0.051272981111503607 -0.051273077177381866
leaf_weight=3.7146547585725784 0.31261790543794621 0.50351662933826435 0.41586901620030392 0.55685502849519286 3.0750314220786095
leaf_count=34 5 17 17 23 127
internal_value=-0.00457357 -0.0519715 -0.0513083 -0.0512746 -0.0512731
internal_weight=8.57854 4.86389 4.55127 4.04776 3.63189
internal_count=223 189 184 167 150
is_linear=0
shrinkage=0.05


Tree=39
num_leaves=7
num_cat=0
split_feature=29 11 6 138 105 8
split_gain=9.55816 0.0107607 1.4258e-05 2.94279e-08 1.67155e-12 4.44089e-15
threshold=58.263954434613595 660.2981025367443 1.0000000180025095e-35 -12840928.499999998 -1.0000000180025095e-35 9.5000000000000018
decision_type=2 2 2 2 2 2
left_child=-1 2 -2 4 5 -4
right_child=1 -3 3 -5 -6 -7
leaf_value=0.057076868826826825 -0.051499973134749161 -0.0610316840982707 -0.051209446040006483 -0.051223821925603812 -0.051209352116234855 -0.051209450078722622
leaf_weight=3.5583128035068512 0.4796795155853032 0.3001955747604369 1.0838137641549115 0.39607165567576919 0.5303384345024823 1.8447893857955933
leaf_count=34 17 5 47 17 23 80
internal_value=-0.00455821 -0.0518769 -0.0512429 -0.0512109 -0.0512094 -0.0512094
internal_weight=8.1932 4.63489 4.33469 3.85501 3.45894 2.9286
internal_count=223 189 184 167 150 127
is_linear=0
shrinkage=0.05


Tree=40
num_leaves=7
num_cat=0
split_feature=29 11 6 44 7 7
split_gain=9.85017 0.0114742 1.1881e-05 2.3876e-08 1.4122e-12 5.32907e-15
threshold=58.263954434613595 660.2981025367443 1.0000000180025095e-35 518.45547013374608 10.500000000000002 12.500000000000002
decision_type=2 2 2 2 2 2
left_child=-1 2 -2 4 -4 -6
right_child=1 -3 3 -5 5 -7
leaf_value=0.0563427042904599 -0.051413607133615029 -0.062511198595438563 -0.051148983177307365 -0.051161951324374733 -0.051149073438409381 -0.051149069197503519
leaf_weight=3.8254529535770416 0.48032956570386875 0.23514270409941662 0.52701276540756303 0.39914983697235573 1.8885998502373695 1.1639045588672161
leaf_count=39 18 3 24 18 86 53
internal_value=-0.00321241 -0.0517464 -0.0511787 -0.0511504 -0.0511491 -0.0511491
internal_weight=8.51959 4.69414 4.459 3.97867 3.57952 3.0525
internal_count=241 202 199 181 163 139
is_linear=0
shrinkage=0.05


Tree=41
num_leaves=7
num_cat=0
split_feature=29 11 6 21 1 1
split_gain=9.33271 0.00982092 1.01878e-05 2.04766e-08 1.16573e-12 5.32907e-15
threshold=58.263954434613595 660.2981025367443 1.0000000180025095e-35 36.167740941825066 20.179883506671398 16.948061712611995
decision_type=2 2 2 2 2 2
left_child=-1 2 -2 -4 5 -5
right_child=1 -3 3 4 -6 -7
leaf_value=0.055997919035296363 -0.051342772430833399 -0.06181363306671122 -0.051103998062510141 -0.051091773437204918 -0.051091692651607637 -0.051091777987922304
leaf_weight=3.660721018910408 0.45751807093620289 0.22613469883799542 0.38010276667773757 1.7984556257724766 0.50185802578926075 1.1083504613488913
leaf_count=39 18 3 18 86 24 53
internal_value=-0.00320357 -0.0516606 -0.0511199 -0.051093 -0.0510918 -0.0510918
internal_weight=8.13314 4.47242 4.24628 3.78877 3.40866 2.90681
internal_count=241 202 199 181 163 139
is_linear=0
shrinkage=0.05


Tree=42
num_leaves=7
num_cat=0
split_feature=17 36 11 14 7 1
split_gain=8.10198 0.356445 0.00840941 3.9136e-06 5.86464e-12 8.92175e-13
threshold=1.0000000180025095e-35 4.4549041981647894 660.2981025367443 570.21038967628374 16.000000000000004 20.179883506671398
decision_type=2 2 2 2 2 2
left_child=-1 -2 3 4 5 -3
right_child=1 2 -4 -5 -6 -7
leaf_value=0.055416613816485855 0.0044123519090397672 -0.051037394369905766 -0.061158515912456662 -0.0512186327220309 -0.051037158657473249 -0.051037320390830657
leaf_weight=3.3509288653731346 0.30528303235769261 2.7679112795740379 0.21735164150595654 0.32490294240415085 0.31853866577148426 0.4778778702020644
leaf_count=38 7 139 3 14 16 24
internal_value=-0.00319521 -0.0477124 -0.0515874 -0.0510525 -0.0510374 -0.0510374
internal_weight=7.76279 4.41187 4.10658 3.88923 3.56433 3.24579
internal_count=241 203 196 193 179 163
is_linear=0
shrinkage=0.05


Tree=43
num_leaves=6
num_cat=0
split_feature=29 11 6 21 1
split_gain=8.40398 0.00719339 9.67801e-06 1.50506e-08 8.83738e-13
threshold=58.263954434613595 660.2981025367443 1.0000000180025095e-35 36.167740941825066 20.179883506671398
decision_type=2 2 2 2 2
left_child=-1 2 -2 -4 -5
right_child=1 -3 3 4 -6
leaf_value=0.05540314914093547 -0.051240333676028919 -0.060542986591643894 -0.050996783063888995 -0.050985778135176546 -0.050985702688584524
leaf_weight=3.3545593097805977 0.42299473285675082 0.20879992470145214 0.3446326740086082 2.6355169285088782 0.45502008497714985
leaf_count=39 18 3 18 139 24
internal_value=-0.00318145 -0.0515038 -0.0510147 -0.0509869 -0.0509858
internal_weight=7.42152 4.06696 3.85816 3.43517 3.09054
internal_count=241 202 199 181 163
is_linear=0
shrinkage=0.05


Tree=44
num_leaves=6
num_cat=0
split_feature=29 11 36 21 1
split_gain=7.96719 0.00615982 8.30341e-06 1.29251e-08 7.42961e-13
threshold=58.263954434613595 660.2981025367443 5.572755417956655 36.167740941825066 20.179883506671398
decision_type=2 2 2 2 2
left_child=-1 2 -2 -4 -5
right_child=1 -3 3 4 -6
leaf_value=0.055114464726139283 -0.051178394366584584 -0.0599644046381963 -0.050947229795568295 -0.050936778178322463 -0.050936707277711595
leaf_weight=3.2072465047240257 0.4028397202491768 0.20048440992832173 0.32813556306064162 2.5093320589512591 0.43323433399200428
leaf_count=39 18 3 18 139 24
internal_value=-0.00317392 -0.05143 -0.0509642 -0.0509378 -0.0509368
internal_weight=7.08127 3.87403 3.67354 3.2707 2.94257
internal_count=241 202 199 181 163
is_linear=0
shrinkage=0.05


Tree=45
num_leaves=8
num_cat=0
split_feature=127 7 36 1 21 1 1
split_gain=7.28239 0.0168078 1.00026e-05 1.58812e-06 1.25211e-08 5.30243e-13 5.77316e-15
threshold=0.14471704125183935 10.500000000000002 5.572755417956655 18.328975841852543 36.167740941825066 20.179883506671398 16.948061712611995
decision_type=2 2 2 2 2 2 2
left_child=2 -2 3 -1 -4 6 -6
right_child=1 -3 4 -5 5 -7 -8
leaf_value=-0.051050426010220001 0.054574384409752555 0.046709398912272326 -0.050901430354492988 -0.051229603058192325 -0.050890254777905222 -0.050890189850232651 -0.050890260292953876
leaf_weight=0.26196185685694251 2.6109815090894704 0.91816329956054676 0.27804652787745032 0.2342570386826992 1.4093838892877109 0.34372702240943898 0.75625468790531147
leaf_count=13 34 7 16 10 82 20 44
internal_value=0.00266414 0.0525282 -0.0509282 -0.051135 -0.0508914 -0.0508902 -0.0508903
internal_weight=6.81278 3.52914 3.28363 0.496219 2.78741 2.50937 2.16564
internal_count=226 41 185 23 162 146 126
is_linear=0
shrinkage=0.05


Tree=46
num_leaves=9
num_cat=0
split_feature=85 29 107 92 7 21 1 1
split_gain=6.48879 1.23938 0.00681207 8.60011e-06 1.36222e-06 5.26512e-09 4.24549e-13 5.77316e-15
threshold=-0.0054784304152351538 58.263954434613595 70.426183614561992 1.0000000180025095e-35 12.500000000000002 36.167740941825066 20.179883506671398 16.948061712611995
decision_type=2 2 2 2 2 2 2 2
left_child=-1 -2 3 4 -3 -5 7 -7
right_child=1 2 -4 5 -6 6 -8 -9
leaf_value=0.057203806296995389 0.059680599775521398 -0.051168198159069415 -0.061031234021729858 -0.050853738117234627 -0.050998144671698609 -0.050846085477308345 -0.050846022186210808 -0.050846079785742064
leaf_weight=2.9690482392907143 0.2717915773391727 0.22309284657239992 0.17461639083921898 0.24736457318067584 0.2494348306208849 1.3417826890945441 0.32724011689424504 0.71998095512390126
leaf_count=38 2 10 2 15 13 82 20 44
internal_value=0.00263898 -0.0429283 -0.0514217 -0.050882 -0.0510784 -0.0508468 -0.0508461 -0.0508461
internal_weight=6.52435 3.5553 3.28351 3.1089 0.472528 2.63637 2.389 2.06176
internal_count=226 188 186 184 23 161 146 126
is_linear=0
shrinkage=0.05


Tree=47
num_leaves=8
num_cat=0
split_feature=127 15 36 1 21 9 1
split_gain=6.51803 0.022459 7.3705e-06 1.16855e-06 8.18898e-09 4.0945e-13 1.77636e-15
threshold=0.14471704125183935 599.9395718549498 5.572755417956655 18.328975841852543 36.167740941825066 77.500000000000014 16.948061712611995
decision_type=2 2 2 2 2 2 2
left_child=2 -2 3 -1 -4 -6 -7
right_child=1 -3 4 -5 5 6 -8
leaf_value=-0.050948518752021124 0.044718099056357215 0.05409060625823129 -0.050813633003187975 -0.05110992428106087 -0.050804077610124149 -0.050804138244806202 -0.050804141282165961
leaf_weight=0.23749503120780024 0.87428715825080905 2.3768026083707809 0.25184683501720462 0.21244833245873451 0.31153092160821061 1.2773704063147295 0.68541822582483303
leaf_count=13 7 34 16 10 20 82 44
internal_value=0.002627 0.0515701 -0.0508383 -0.0510247 -0.0508051 -0.0508041 -0.0508041
internal_weight=6.2272 3.25109 2.97611 0.449943 2.52617 2.27432 1.96279
internal_count=226 41 185 23 162 146 126
is_linear=0
shrinkage=0.05


Tree=48
num_leaves=8
num_cat=0
split_feature=127 15 92 1 21 7 1
split_gain=6.1563 0.0285937 6.32658e-06 1.00269e-06 7.03521e-09 3.57492e-13 1.77636e-15
threshold=0.14471704125183935 599.9395718549498 1.0000000180025095e-35 18.328975841852543 36.167740941825066 10.500000000000002 16.948061712611995
decision_type=2 2 2 2 2 2 2
left_child=2 -2 3 -1 -4 -6 -7
right_child=1 -3 4 -5 5 6 -8
leaf_value=-0.050901402126809471 0.043172317294560253 0.053875219564003742 -0.050773326009218661 -0.051054624818293294 -0.050764248200250252 -0.050764308373129945 -0.050764305232984003
leaf_weight=0.22611609473824534 0.86066487431526217 2.2696947157382965 0.23974950984120402 0.20230047404766083 0.29656402766704593 1.216001635417342 0.65248868241906155
leaf_count=13 7 34 16 10 20 82 44
internal_value=0.00260227 0.0509326 -0.0507967 -0.0509738 -0.0507652 -0.0507643 -0.0507643
internal_weight=5.96358 3.13036 2.83322 0.428417 2.4048 2.16505 1.86849
internal_count=226 41 185 23 162 146 126
is_linear=0
shrinkage=0.05


Tree=49
num_leaves=8
num_cat=0
split_feature=127 31 36 8 21 34 8
split_gain=5.81443 0.0863663 5.4313e-06 8.60375e-07 6.04593e-09 3.13971e-13 1.77636e-15
threshold=0.14471704125183935 89.316239316239333 5.572755417956655 7.5000000000000009 36.167740941825066 -1.0000000180025095e-35 9.5000000000000018
decision_type=2 2 2 2 2 2 2
left_child=2 -2 3 -1 -4 6 -6
right_child=1 -3 4 -5 5 -7 -8
leaf_value=-0.05100212771800372 0.06585967669208731 0.045692767358381875 -0.050735043236797776 -0.050856669758691908 -0.050726476373848674 -0.050726417461519374 -0.050726473027173119
leaf_weight=0.19262723624706302 0.68782731145620379 2.3268134593963623 0.22822453081607852 0.21527269668877125 0.6211176216602331 0.28230549767613355 1.1575374621897936
leaf_count=10 6 35 16 13 44 20 82
internal_value=0.0025775 0.0502941 -0.0507573 -0.0509254 -0.0507273 -0.0507265 -0.0507265
internal_weight=5.71173 3.01464 2.69709 0.4079 2.28919 2.06096 1.77866
internal_count=226 41 185 23 162 146 126
is_linear=0
shrinkage=0.05


end of trees

feature_importances:
avg_daily_turnover_log=32
t0_rsi=23
t30_bb_bandwidth=20
is_earnings_window=18
n_signals_fired_in_last_30d=18
n_signals_fired_in_last_7d=11
days_in_current_stage=10
t0_plus_di=10
bb_bandwidth_trajectory=10
t0_ema_8=9
t0_roc=8
t0_stoch_d=7
t0_connors_rsi=6
t0_obv_slope_20=6
signal_acceleration=5
t0_minus_di=5
t0_ema_21=4
t0_williams_r=4
t0_cci=4
t0_bb_pct_b=3
t1_cmf=3
t3_rel_volume=3
t90_macd_histogram=3
t0_ema_50=2
t0_ema_200=2
t0_macd_histogram=2
t0_stoch_k=2
t0_force_index=2
adx_velocity=2
t14_rel_volume=2
t90_obv=2
dow_0.0=2
earliest_signal_lead_days=1
t0_ema_100=1
t0_macd_line=1
t0_macd_signal=1
t0_adx=1
t0_linreg_slope=1
t0_atr_percentile_252=1
t0_bb_lower=1
t0_obv=1
t0_obv_slope_60=1
t0_mfi=1
t0_close=1
t0_volume=1
t1_macd_histogram=1
t1_obv=1
t7_macd_histogram=1
t7_accumulation_score=1
t14_macd_histogram=1
t14_accumulation_score=1
t30_rsi=1
t30_macd_histogram=1
t30_rel_volume=1
t60_obv=1

parameters:
[boosting: gbdt]
[objective: binary]
[metric: binary_logloss]
[tree_learner: serial]
[device_type: cpu]
[data_sample_strategy: bagging]
[data: ]
[valid: ]
[num_iterations: 50]
[learning_rate: 0.05]
[num_leaves: 31]
[num_threads: 0]
[seed: 42]
[deterministic: 1]
[force_col_wise: 0]
[force_row_wise: 0]
[histogram_pool_size: -1]
[max_depth: -1]
[min_data_in_leaf: 10]
[min_sum_hessian_in_leaf: 0.001]
[bagging_fraction: 0.8]
[pos_bagging_fraction: 1]
[neg_bagging_fraction: 1]
[bagging_freq: 5]
[bagging_seed: 42]
[bagging_by_query: 0]
[feature_fraction: 0.8]
[feature_fraction_bynode: 1]
[feature_fraction_seed: 42]
[extra_trees: 0]
[extra_seed: 12879]
[early_stopping_round: 0]
[early_stopping_min_delta: 0]
[first_metric_only: 0]
[max_delta_step: 0]
[lambda_l1: 0]
[lambda_l2: 0]
[linear_lambda: 0]
[min_gain_to_split: 0]
[drop_rate: 0.1]
[max_drop: 50]
[skip_drop: 0.5]
[xgboost_dart_mode: 0]
[uniform_drop: 0]
[drop_seed: 17869]
[top_rate: 0.2]
[other_rate: 0.1]
[min_data_per_group: 100]
[max_cat_threshold: 32]
[cat_l2: 10]
[cat_smooth: 10]
[max_cat_to_onehot: 4]
[top_k: 20]
[monotone_constraints: ]
[monotone_constraints_method: basic]
[monotone_penalty: 0]
[feature_contri: ]
[forcedsplits_filename: ]
[refit_decay_rate: 0.9]
[cegb_tradeoff: 1]
[cegb_penalty_split: 0]
[cegb_penalty_feature_lazy: ]
[cegb_penalty_feature_coupled: ]
[path_smooth: 0]
[interaction_constraints: ]
[verbosity: -1]
[saved_feature_importance_type: 0]
[use_quantized_grad: 0]
[num_grad_quant_bins: 4]
[quant_train_renew_leaf: 0]
[stochastic_rounding: 1]
[linear_tree: 0]
[max_bin: 255]
[max_bin_by_feature: ]
[min_data_in_bin: 3]
[bin_construct_sample_cnt: 200000]
[data_random_seed: 42]
[is_enable_sparse: 1]
[enable_bundle: 1]
[use_missing: 1]
[zero_as_missing: 0]
[feature_pre_filter: 1]
[pre_partition: 0]
[two_round: 0]
[header: 0]
[label_column: ]
[weight_column: ]
[group_column: ]
[ignore_column: ]
[categorical_feature: ]
[forcedbins_filename: ]
[precise_float_parser: 0]
[parser_config_file: ]
[objective_seed: 16083]
[num_class: 1]
[is_unbalance: 0]
[scale_pos_weight: 1]
[sigmoid: 1]
[boost_from_average: 1]
[reg_sqrt: 0]
[alpha: 0.9]
[fair_c: 1]
[poisson_max_delta_step: 0.7]
[tweedie_variance_power: 1.5]
[lambdarank_truncation_level: 30]
[lambdarank_norm: 1]
[label_gain: ]
[lambdarank_position_bias_regularization: 0]
[eval_at: ]
[multi_error_top_k: 1]
[auc_mu_weights: ]
[num_machines: 1]
[local_listen_port: 12400]
[time_out: 120]
[machine_list_filename: ]
[machines: ]
[gpu_platform_id: -1]
[gpu_device_id: -1]
[gpu_use_dp: 0]
[num_gpu: 1]

end of parameters

pandas_categorical:[]
