tree
version=v4
num_class=1
num_tree_per_iteration=1
label_index=0
max_feature_idx=191
objective=binary sigmoid:1
feature_names=log_market_cap avg_daily_turnover_log days_in_current_stage pmi_50w_trend brent_30d_trend is_ramadan_period is_earnings_window n_signals_fired_in_last_30d n_signals_fired_in_last_7d earliest_signal_lead_days signal_acceleration t0_ema_8 t0_ema_21 t0_ema_50 t0_ema_100 t0_ema_200 t0_ema_ribbon_aligned t0_macd_line t0_macd_signal t0_macd_histogram t0_adx t0_plus_di t0_minus_di t0_supertrend t0_psar t0_hull_ma t0_linreg_slope t0_ichimoku_cloud_pos t0_ichimoku_tk_cross t0_rsi t0_rsi_divergence t0_stoch_k t0_stoch_d t0_stoch_rsi t0_williams_r t0_cci t0_roc t0_tsi t0_ao t0_connors_rsi t0_atr t0_atr_percentile_252 t0_bb_upper t0_bb_middle t0_bb_lower t0_bb_pct_b t0_bb_bandwidth t0_bb_squeeze t0_kc_upper t0_kc_lower t0_dc_upper t0_dc_lower t0_hist_vol_30d t0_obv t0_obv_slope_20 t0_obv_slope_60 t0_ad_line t0_cmf t0_mfi t0_vwap t0_vwap_distance_sigma t0_rel_volume t0_force_index t0_eom t0_klinger t0_swing_high t0_swing_low t0_zscore_20 t0_zscore_50 t0_zscore_200 t0_accumulation_score t0_wyckoff_phase_code t0_close t0_volume t0_high t0_low rsi_velocity macd_histogram_velocity obv_velocity accumulation_score_velocity cmf_velocity adx_velocity rel_volume_velocity obv_trajectory_slope accumulation_trajectory_slope bb_bandwidth_trajectory days_since_last_swing_high days_since_last_swing_low t1_rsi t1_macd_histogram t1_obv t1_accumulation_score t1_cmf t1_adx t1_rel_volume t1_bb_bandwidth t3_rsi t3_macd_histogram t3_obv t3_accumulation_score t3_cmf t3_adx t3_rel_volume t3_bb_bandwidth t7_rsi t7_macd_histogram t7_obv t7_accumulation_score t7_cmf t7_adx t7_rel_volume t7_bb_bandwidth t14_rsi t14_macd_histogram t14_obv t14_accumulation_score t14_cmf t14_adx t14_rel_volume t14_bb_bandwidth t30_rsi t30_macd_histogram t30_obv t30_accumulation_score t30_cmf t30_adx t30_rel_volume t30_bb_bandwidth t60_rsi t60_macd_histogram t60_obv t60_accumulation_score t60_cmf t60_adx t60_rel_volume t60_bb_bandwidth t90_rsi t90_macd_histogram t90_obv t90_accumulation_score t90_cmf t90_adx t90_rel_volume t90_bb_bandwidth current_stage_dormant stage_before_dormant current_stage_stealth_accumulation stage_before_stealth_accumulation current_stage_early_breakout stage_before_early_breakout current_stage_markup_trending stage_before_markup_trending current_stage_acceleration_climax stage_before_acceleration_climax current_stage_distribution_topping stage_before_distribution_topping current_stage_markdown_decline stage_before_markdown_decline current_stage_capitulation_exhaustion stage_before_capitulation_exhaustion regime_risk_on regime_neutral regime_risk_off sector_banking sector_consumer sector_energy sector_holding_misc sector_industrial sector_insurance sector_investment sector_real_estate sector_technology sector_telecom sector_transport tier_premier dow_0.0 dow_1.0 dow_2.0 dow_3.0 dow_6.0 month_1.0 month_2.0 month_3.0 month_4.0 month_5.0 month_6.0 month_7.0 month_8.0 month_9.0 month_10.0 month_11.0 month_12.0
feature_infos=none [14.539725979019927:19.711752239539262] [1:24] none none none [0:1] [9:16] [4:9] [54:90] [0:0.98275862068965514] [15.456259029391866:55.285746418411875] [15.621644835564711:53.503328748093246] [17.100980868316007:52.14122607521432] [21.167119169539198:49.05550416160203] [26.593137485567382:44.508759667112209] [0:1] [-0.50238382860363728:2.1349135827892098] [-0.83925245359328704:1.5608017799156588] [-0.58651295640936074:1.150542619269195] [16.238916391242867:42.737659561248876] [25.678100122031708:64.389472546887276] [4.8596733145180364:17.543908973067172] none [14.1:61.926636413329419] [15.102254901960785:54.596315359477124] [-0.34082706766917403:0.40112781954887083] [-1:1] none [51.196862861638834:88.709406485508623] none [26.811594202898522:94.936708860759509] [12.601703534197753:83.075190087299362] none [-73.188405797101467:-5.0632911392404889] [-3.1670625494855069:623.341768269304] [-9.4117647058823533:43.601895734597143] [-14.176963535208827:39.352703722936354] [-1.9249999999999972:4.1841176470588231] [79.243523814015532:93.469472029509078] [1.3392865028931973:4.1719037892087174] [6.3492063492063489:99.206349206349202] [16.770447596916618:62.08495868371778] [14.905000000000001:55.015000000000001] [13.039552403083384:47.945041316282222] [0.4211452251787649:1.527004389934707] [0.13012147885169478:0.45583559378939226] none [18.172335140173612:61.39113245503394] [12.980814560246284:45.981203360383482] [18.399999999999999:65.700000000000003] [12.800000000000001:49.399999999999999] [39.430562838008889:116.04802745038629] [1110422:362815190] [52442.145112781989:2150710.2330826977] [-39888.730258405543:2071071.5989163662] [-182743456.88038737:22417785.881457079] [-0.21206314870609544:0.51913390364563561] [54.565104861708768:94.60740885152515] [15.411526883189588:57.074298725186182] [-0.7962808562030691:4.740217464125438] [2.0347420978927833:9.0777414635531848] [571301.43346374703:92155201.833742917] [-13251.616217862946:14123.544288911386] [-12994263.270569209:65058255.806140572] [0:1] [0:1] [-0.31541909928494027:4.1080175597388289] [-0.24804530823198029:5.8822173378893412] [0.92033965439742194:4.4009939234598656] [41.977398282820083:71.880038387715928] [0:5] [17:62.600000000000001] [1974678:35939969] [18.399999999999999:65.700000000000003] [15.4:55.200000000000003] [1.9450934026118436:9.8759738458913287] [0.011056897426095355:0.34729243593767406] [492753:14907645] [-2.7472808701215619:5.3130206990828519] [-0.11845604523037394:0.1416870974971188] [-0.8071825355556127:2.2609952524542636] [0.57031917306246793:2.8323917830984051] [28086.790524967982:2821723.3900128012] [-0.19915961600099574:1.127075774312051] [-0.0084151092420852638:0.00451878573955694] [0:31] [0:19] [43.641320381867793:68.278932069004327] [-0.83486836476824244:0.32028004843597735] [-1014067:350934771] [33.602400937248561:71.880038387715928] [-0.41864999468346187:0.51913390364563561] [14.770035186033091:41.483998158480254] [0.26017716387028345:8.1120649937417362] [0.095002215833197429:0.36904935445322024] [38.376052999383944:65.530158354775267] [-0.89390584192249101:0.40333184328855004] [-1456767:350908058] [26.038336185571527:75.102687140115165] [-0.38804131709950523:0.53089220361581824] [15.76687326685286:41.534542492209198] [0.064510494160857759:1.7420472450474189] [0.080963076425690519:0.35909557224019911] [42.659560449964694:66.510479679173258] [-0.50936778396681692:0.36088706477995525] [-906393:352648721] [14.407853173431283:73.49808061420346] [-0.41357490641772304:0.56335504887484233] [11.145156652376015:43.082879180803687] [0.1224629427616377:5.997373788786053] [0.068182757727346319:0.42194186727183947] [30.095480399812303:65.147666911951518] [-0.26184943904426494:0.81464204046425537] [-1910732:356802686] [13.610719642459276:74.776391554702485] [-0.34088572846320758:0.39799478946817185] [9.7942126818284141:44.346427636811896] [0.054188528082172512:1.9282923991203098] [0.095265014095393993:0.55382842919555908] [34.248145413322192:61.740702157361447] [-0.7970816336823634:0.63633630721991663] [-1441367:341555348] [21.477983492052388:63.036973757165669] [-0.55255511524782053:0.39799478946817185] [10.310164923131312:42.887010397427005] [0.052784524806106924:1.4267178927187456] [0.057291844368966782:0.48768568160659914] [29.124644182364094:64.569888717495573] [-0.72907453134264921:0.3235374411543791] [-1947482:247970562] [8.2467223433384458:63.355746551222275] [-0.26924900148487541:0.4505408353460697] [13.881972831049371:42.398876981813693] [0.12925775029470768:6.1251651565565934] [0.086308900680455977:0.56850345264342395] [40.106990177124679:73.644434407697958] [-0.20720937914879023:0.525596164983404] [-105556:231540462] [12.901666107676123:62.969289827255281] [-0.40595607679087958:0.38050632269591184] [10.25619881335453:34.365527316012049] [0.035240708304922659:3.6545837603357585] [0.060486611942904223:0.45728486232009746] none [0:1] none [0:1] [0:1] none [0:1] none none none none none none none none none none none none none none none none none none none none none none none none [0:1] none [0:1] [0:1] [0:1] [0:1] none none [0:1] [0:1] [0:1] [0:1] none [0:1] none none [0:1]
tree_sizes=852 669 774 880 874 879 880 880 878 883 889 884 879 886 888 878 880 883 874 883 885 888 879 882 884 987 984 989 998 983 886 875 874 876 881 985 979 887 883 984 1100 1084 1086 1096 1091 989 992 992 1084 994 1204 1200 1203 1198 1194 890 992 989 993 1001 1103 1094 1104 1093 1204 1099 1208 1097 1202 1094

Tree=0
num_leaves=7
num_cat=0
split_feature=21 2 108 1 34 132
split_gain=229.42 0.492644 0.390459 7.10543e-15 7.10543e-15 3.55271e-15
threshold=39.507821842692785 1.5000000000000002 -0.13917572461425706 17.30858602405112 -8.0479671668590456 -0.24058184652565265
decision_type=2 2 2 2 2 2
left_child=1 3 -2 4 5 -1
right_child=2 -3 -4 -5 -6 -7
leaf_value=1.1229030505960198 0.86183128051423841 1.0967958735878416 0.88556507779440041 1.1229030505960198 1.1229030505960198 1.1229030505960198
leaf_weight=9.0013562142848986 9.7674290835857374 1.9151821732521046 2.1067003905773154 8.0437651276588458 7.2776922583580044 7.660728693008422
leaf_count=47 51 10 11 42 38 40
internal_value=1.05518 1.12143 0.866042 1.1229 1.1229 1.1229
internal_weight=45.7729 33.8987 11.8741 31.9835 23.9398 16.6621
internal_count=239 177 62 167 125 87
is_linear=0
shrinkage=1


Tree=1
num_leaves=5
num_cat=0
split_feature=21 40 8 8
split_gain=195.775 0.439943 0.274674 7.10543e-15
threshold=39.507821842692785 1.9192345540206845 7.5000000000000009 8.5000000000000018
decision_type=2 2 2 2
left_child=1 3 -2 -1
right_child=2 -3 -4 -5
leaf_value=0.066266699394882014 -0.14923208630829662 0.042409059145146026 -0.16837460793835962 0.066266699394881987
leaf_weight=21.855499684810638 2.2742144912481299 2.0619185566902152 10.647448182106016 8.8903727531433123
leaf_count=118 11 11 51 48
internal_value=-0.00015907 0.0647673 -0.165006 0.0662667
internal_weight=45.7295 32.8078 12.9217 30.7459
internal_count=239 177 62 166
is_linear=0
shrinkage=0.05


Tree=2
num_leaves=6
num_cat=0
split_feature=21 2 108 14 1
split_gain=170.503 0.48402 0.213111 2.01507e-07 7.10543e-15
threshold=39.507821842692785 1.5000000000000002 -0.13917572461425706 28.129990368653331 17.30858602405112
decision_type=2 2 2 2 2
left_child=1 3 -2 -1 -5
right_child=2 -3 -4 4 -6
leaf_value=0.065233487130076206 -0.15003094918017199 0.038781886656159066 -0.13365351035563239 0.065223694696137452 0.065223694696137466
leaf_weight=6.8015520274639192 11.332163840532301 1.8367642164230336 2.4085144549608222 15.566772535443308 7.5149936378002158
leaf_count=38 51 10 11 87 42
internal_value=-3.6988e-05 0.0636947 -0.14716 0.0652259 0.0652237
internal_weight=45.4608 31.7201 13.7407 29.8833 23.0818
internal_count=239 177 62 167 129
is_linear=0
shrinkage=0.05


Tree=3
num_leaves=7
num_cat=0
split_feature=21 2 108 58 14 1
split_gain=150.661 0.481242 0.177558 1.66547e-07 3.46958e-11 3.55271e-15
threshold=39.507821842692785 1.5000000000000002 -0.13917572461425706 87.789776898265742 28.129990368653331 17.30858602405112
decision_type=2 2 2 2 2 2
left_child=1 3 -2 4 -1 -6
right_child=2 -3 -4 -5 5 -7
leaf_value=0.064262298816593233 -0.13609477455965044 0.037616266593990907 -0.12146696661389736 0.064271377105731317 0.064262437011134085 0.064262437011134085
leaf_weight=6.3892340809106907 11.853157684206961 1.7999443411827076 2.514658957719802 6.7369228452444068 8.4614641070365888 7.2526835203170785
leaf_count=37 51 10 11 39 49 42
internal_value=5.58559e-05 0.0626991 -0.133535 0.0642645 0.0642624 0.0642624
internal_weight=45.0081 30.6402 14.3678 28.8403 22.1034 15.7141
internal_count=239 177 62 167 128 91
is_linear=0
shrinkage=0.05


Tree=4
num_leaves=7
num_cat=0
split_feature=21 2 32 1 14 1
split_gain=134.571 0.479928 0.162422 0.0237943 1.41686e-07 2.50822e-11
threshold=39.507821842692785 1.5000000000000002 73.689470406868864 18.202134255739754 28.129990368653331 14.733404700299497
decision_type=2 2 2 2 2 2
left_child=1 4 -2 -4 -1 -6
right_child=2 -3 3 -5 5 -7
leaf_value=0.063383205034762066 -0.11547832362601795 0.036482265574672823 -0.12514006585671339 -0.13090175127259374 0.063374609398352613 0.063374727913737133
leaf_weight=6.3293841928243699 5.0342731326818457 1.7640236020088185 7.4372180551290494 2.3606793582439423 6.327091813087466 15.151798516511915
leaf_count=38 21 10 31 10 38 91
internal_value=0.000128137 0.0617723 -0.122778 -0.126528 0.0633766 0.0633747
internal_weight=44.4045 29.5723 14.8322 9.7979 27.8083 21.4789
internal_count=239 177 62 41 167 129
is_linear=0
shrinkage=0.05


Tree=5
num_leaves=7
num_cat=0
split_feature=143 1 55 54 31 1
split_gain=118.711 0.255354 0.0140264 1.28397e-07 5.26548e-11 1.57705e-11
threshold=0.10110462463121685 18.202134255739754 447284.44292859134 635250.19210526242 91.952032833140962 14.733404700299497
decision_type=2 2 2 2 2 2
left_child=1 -1 3 4 5 -2
right_child=2 -3 -4 -5 -6 -7
leaf_value=-0.10512200305225364 0.062553300868364428 -0.11813159801278406 0.066933022322159919 0.062561706867524811 0.062553185045965673 0.062553410898447556
leaf_weight=8.8199146687984449 5.935115486383447 6.5901446193456641 1.9720826596021641 5.9374367743730536 6.2558976709842673 7.2184219211339951
leaf_count=36 37 27 11 37 39 45
internal_value=0.000278652 -0.110686 0.0628713 0.0625553 0.0625533 0.0625534
internal_weight=42.729 15.4101 27.319 25.3469 19.4094 13.1535
internal_count=232 63 169 158 121 82
is_linear=0
shrinkage=0.05


Tree=6
num_leaves=7
num_cat=0
split_feature=143 7 55 54 21 9
split_gain=107.771 0.217132 0.0118737 1.06474e-07 4.52367e-11 1.33191e-11
threshold=0.10110462463121685 13.500000000000002 447284.44292859134 635250.19210526242 29.714443267683411 57.500000000000007
decision_type=2 2 2 2 2 2
left_child=1 -1 3 4 5 -2
right_child=2 -3 -4 -5 -6 -7
leaf_value=-0.11054284276939007 0.061792104339810666 -0.098627594514918038 0.065892819311113918 0.061799908068031123 0.061792210627020033 0.06179199777818456
leaf_weight=6.687628656625745 5.7134326100349506 8.9275742024183273 1.9047607332468022 5.7157121002674094 6.9488062709569922 6.0222325176000604
leaf_count=27 37 36 11 37 45 39
internal_value=0.000322489 -0.103731 0.0620907 0.0617939 0.0617921 0.061792
internal_weight=41.9201 15.6152 26.3049 24.4002 18.6845 11.7357
internal_count=232 63 169 158 121 76
is_linear=0
shrinkage=0.05


Tree=7
num_leaves=7
num_cat=0
split_feature=143 7 55 54 21 1
split_gain=98.3383 0.190742 0.0100721 8.8389e-08 3.89484e-11 1.15143e-11
threshold=0.10110462463121685 13.500000000000002 447284.44292859134 635250.19210526242 29.714443267683411 16.459781797844471
decision_type=2 2 2 2 2 2
left_child=1 -1 3 4 5 -2
right_child=2 -3 -4 -5 -6 -7
leaf_value=-0.10420904995542293 0.061085500388674954 -0.093080488305822898 0.064930682316983221 0.061092749745329522 0.061085600843052673 0.061085399365576679
leaf_weight=6.7378838360309574 5.496051862835893 8.9849213659763336 1.8380278795957554 5.498285397887229 6.6844236105680457 5.793102040886879
leaf_count=27 37 36 11 37 45 39
internal_value=0.000358385 -0.0978495 0.0613663 0.0610872 0.0610855 0.0610854
internal_weight=41.0327 15.7228 25.3099 23.4719 17.9736 11.2892
internal_count=232 63 169 158 121 76
is_linear=0
shrinkage=0.05


Tree=8
num_leaves=7
num_cat=0
split_feature=143 1 55 58 54 1
split_gain=90.1092 0.172199 0.00855935 7.53795e-08 7.4607e-11 3.201e-12
threshold=0.10110462463121685 18.202134255739754 447284.44292859134 87.789776898265742 483320.26691729086 17.30858602405112
decision_type=2 2 2 2 2 2
left_child=1 -1 3 4 -2 -6
right_child=2 -3 -4 -5 5 -7
leaf_value=-0.088280445417626016 0.060428697308579776 -0.09884618650920679 0.064038988555857615 0.060435323756292264 0.060428508085340775 0.060428453343465499
leaf_weight=8.9992346316575986 6.4257828891277411 6.7478495687246314 1.7721106559038151 5.4284192770719519 5.568948492407797 5.1405485272407532
leaf_count=36 45 27 11 38 39 36
internal_value=0.000388124 -0.092808 0.060693 0.0604302 0.0604286 0.0604285
internal_weight=40.0829 15.7471 24.3358 22.5637 17.1353 10.7095
internal_count=232 63 169 158 120 75
is_linear=0
shrinkage=0.05


Tree=9
num_leaves=7
num_cat=0
split_feature=143 10 55 54 21 1
split_gain=82.8609 0.159068 0.00728563 6.3147e-08 3.80105e-11 6.07514e-13
threshold=0.10110462463121685 0.93181818181818199 447284.44292859134 635250.19210526242 29.714443267683411 16.459781797844471
decision_type=2 2 2 2 2 2
left_child=1 -1 3 4 5 -2
right_child=2 -3 -4 -5 -6 -7
leaf_value=-0.094250464436621662 0.059817019852946657 -0.084079659775480015 0.063211083218563308 0.059823437450631838 0.059817164015361683 0.059816995697562617
leaf_weight=6.723530545830724 5.075768083333978 8.9768462032079697 1.7071997523307789 5.0779438167810431 6.173294484615325 5.3501263707876205
leaf_count=27 37 36 11 37 45 39
internal_value=0.000413019 -0.0884352 0.0600662 0.0598186 0.0598171 0.059817
internal_weight=39.0847 15.7004 23.3843 21.6771 16.5992 10.4259
internal_count=232 63 169 158 121 76
is_linear=0
shrinkage=0.05


Tree=10
num_leaves=7
num_cat=0
split_feature=21 8 10 40 100 1
split_gain=83.9591 0.293805 0.00477735 4.22502e-05 6.61018e-11 1.98153e-11
threshold=39.507821842692785 7.5000000000000009 0.96410256410256423 1.7431001097832874 -1.0000000180025095e-35 17.30858602405112
decision_type=2 2 2 2 2 2
left_child=3 -2 -3 4 5 -1
right_child=1 2 -4 -5 -6 -7
leaf_value=0.059247011361746517 -0.072115751847289064 -0.089563045446940159 -0.09147221366912231 0.059399026571443414 0.059247148081640361 0.059246875065050955
leaf_weight=5.4003553092479741 2.4820625782012966 5.1787067502737019 8.9217765927314758 6.2538862377405158 6.3224322795867929 5.2685880661010742
leaf_count=41 10 21 36 47 48 40
internal_value=-0.00202743 -0.0879787 -0.090771 0.0592879 0.059247 0.0592469
internal_weight=39.8278 16.5825 14.1005 23.2453 16.9914 10.6689
internal_count=243 67 57 176 129 81
is_linear=0
shrinkage=0.05


Tree=11
num_leaves=7
num_cat=0
split_feature=21 2 1 55 14 1
split_gain=77.6004 0.277599 0.00362694 3.61473e-05 2.77898e-09 1.79341e-11
threshold=39.507821842692785 1.5000000000000002 19.07205117876433 338375.95821061329 28.129990368653331 14.733404700299497
decision_type=2 2 2 2 2 2
left_child=3 -2 -3 4 -1 -6
right_child=1 2 -4 -5 5 -7
leaf_value=0.058713724427680108 -0.069027588112871241 -0.087846990186812565 -0.086173703452799358 0.058858214261625366 0.058715067445702332 0.058715194101013585
leaf_weight=5.0553882122039857 2.4638975709676769 8.8277512192726117 5.1148482710123053 6.0027518421411505 5.1823343783617002 6.0671868324279785
leaf_count=40 10 36 21 47 41 48
internal_value=-0.00195496 -0.0844991 -0.0872331 0.0587533 0.0587147 0.0587151
internal_weight=38.7142 16.4065 13.9426 22.3077 16.3049 11.2495
internal_count=243 67 57 176 129 89
is_linear=0
shrinkage=0.05


Tree=12
num_leaves=7
num_cat=0
split_feature=134 8 1 40 1 1
split_gain=71.8991 0.265915 0.00278402 3.03947e-05 2.46518e-09 1.59819e-11
threshold=1.2230395579509177 7.5000000000000009 19.07205117876433 1.7431001097832874 17.30858602405112 14.733404700299497
decision_type=2 2 2 2 2 2
left_child=3 -2 -3 4 5 -1
right_child=1 2 -4 -5 -6 -7
leaf_value=0.058218093929255893 -0.066213260446028752 -0.084664095765889624 -0.083187019447314076 0.058352107774017462 0.058216802493825728 0.05821821600975912
leaf_weight=4.9706019312143344 2.4407705813646343 8.7047005891799909 5.0355441570281974 5.7582798376679412 4.8488205671310416 5.8193027973175049
leaf_count=41 10 36 21 47 40 48
internal_value=-0.00188993 -0.0814213 -0.0841228 0.0582539 0.0582177 0.0582182
internal_weight=37.578 16.181 13.7402 21.397 15.6387 10.7899
internal_count=243 67 57 176 129 89
is_linear=0
shrinkage=0.05


Tree=13
num_leaves=7
num_cat=0
split_feature=134 2 7 55 10 22
split_gain=66.759 0.257699 0.00215776 2.60494e-05 6.70286e-09 1.38858e-11
threshold=1.2230395579509177 1.5000000000000002 13.500000000000002 338375.95821061329 0.75909090909090915 17.50353751881714
decision_type=2 2 2 2 2 2
left_child=3 -2 -3 4 -1 -6
right_child=1 2 -4 -5 5 -7
leaf_value=0.057751089295144123 -0.063631196116664554 -0.080537997239566061 -0.081850096359381272 0.057879702862839381 0.057753428689910236 0.057753312473392729
leaf_weight=4.6480667591094997 2.4135109782218924 4.9434279799461338 8.5574596524238586 5.5215402841567984 5.5789099931716901 4.7652682438492775
leaf_count=40 10 21 36 47 48 41
internal_value=-0.00183128 -0.0786795 -0.0813697 0.0577869 0.0577527 0.0577534
internal_weight=36.4282 15.9144 13.5009 20.5138 14.9922 10.3442
internal_count=243 67 57 176 129 89
is_linear=0
shrinkage=0.05


Tree=14
num_leaves=7
num_cat=0
split_feature=21 94 1 148 10 1
split_gain=62.1026 0.252199 0.00168672 2.19488e-05 5.6319e-09 1.0111e-11
threshold=39.507821842692785 0.64773661656970594 19.07205117876433 1.0000000180025095e-35 0.75909090909090915 14.733404700299497
decision_type=2 2 2 2 2 2
left_child=3 -2 -3 -1 -5 -6
right_child=1 2 -4 4 5 -7
leaf_value=0.057436726068249261 -0.061247562505371812 -0.079346999501936313 -0.078174960019863515 0.057316132511587153 0.057318218316031039 0.05731831962548814
leaf_weight=5.291731297969819 2.3828461170196507 8.3902555704116804 4.8408016115427026 4.4540792703628549 4.5663986876606923 5.3460856676101685
leaf_count=47 10 36 21 40 41 48
internal_value=-0.00177811 -0.0762215 -0.0789182 0.0573497 0.0573176 0.0573183
internal_weight=35.2722 15.6139 13.2311 19.6583 14.3666 9.91248
internal_count=243 67 57 176 129 89
is_linear=0
shrinkage=0.05


Tree=15
num_leaves=7
num_cat=0
split_feature=21 1 1 58 10 1
split_gain=56.4246 0.20412 0.000282469 3.80587e-08 9.02248e-09 6.06772e-10
threshold=39.507821842692785 18.202134255739754 17.55853788746489 87.789776898265742 0.75909090909090915 17.30858602405112
decision_type=2 2 2 2 2 2
left_child=2 -2 3 4 5 -1
right_child=1 -3 -4 -5 -6 -7
leaf_value=0.056908594532410074 -0.065455959375256376 -0.077300336988824325 0.057713753785721293 0.056914284990615918 0.05691064504684698 0.05690777765335036
leaf_weight=4.1597627028822952 7.7682574540376645 6.8405894190073013 1.157916486263274 4.695948712527751 5.9743356704711905 5.0125984326004982
leaf_count=39 34 30 10 44 56 47
internal_value=0.00446009 -0.0710021 0.0569546 0.0569104 0.0569091 0.0569081
internal_weight=35.6094 14.6088 21.0006 19.8426 15.1467 9.17236
internal_count=260 64 196 186 142 86
is_linear=0
shrinkage=0.05


Tree=16
num_leaves=7
num_cat=0
split_feature=21 1 1 58 10 1
split_gain=52.6723 0.199347 0.00023783 3.21274e-08 7.63637e-09 5.07457e-10
threshold=39.507821842692785 18.202134255739754 17.55853788746489 87.789776898265742 0.75909090909090915 17.30858602405112
decision_type=2 2 2 2 2 2
left_child=2 -2 3 4 5 -1
right_child=1 -3 -4 -5 -6 -7
leaf_value=0.056526410399137896 -0.063439287111204348 -0.075273544459801806 0.057281166864735278 0.056531756598707662 0.056528340752762973 0.056525646956953529
leaf_weight=3.9829634875059181 7.6182605326175672 6.677659884095192 1.1095513403415669 4.4963843747973433 5.7204238176345816 4.7995477691292763
leaf_count=39 34 30 10 44 56 47
internal_value=0.00440645 -0.0689671 0.0565696 0.0565281 0.0565269 0.056526
internal_weight=34.4048 14.2959 20.1089 18.9993 14.5029 8.78251
internal_count=260 64 196 186 142 86
is_linear=0
shrinkage=0.05


Tree=17
num_leaves=7
num_cat=0
split_feature=143 19 79 22 1 1
split_gain=51.6953 0.0586312 0.0397346 1.36874e-05 7.56954e-09 1.77351e-11
threshold=0.10110462463121685 0.65467765491785501 1.5538922683448428 9.2821694913258366 17.30858602405112 14.733404700299497
decision_type=2 2 2 2 2 2
left_child=1 -1 -2 -4 5 -5
right_child=2 -3 3 4 -6 -7
leaf_value=-0.073444513772897721 0.067118180311244766 -0.066898566350318364 0.05626919625987771 0.05616940309289728 0.056167011351778762 0.056169540173609069
leaf_weight=6.5061043202877027 0.87112119048834102 7.2134441435337067 4.4499548524618175 4.204188406467436 4.5938837453722945 5.3775400295853615
leaf_count=30 7 33 45 43 47 55
internal_value=0.00435577 -0.0700028 0.0566809 0.0561927 0.0561687 0.0561695
internal_weight=33.2162 13.7195 19.4967 18.6256 14.1756 9.58173
internal_count=260 63 197 190 145 98
is_linear=0
shrinkage=0.05


Tree=18
num_leaves=7
num_cat=0
split_feature=134 7 1 22 8 1
split_gain=46.0582 0.191354 0.000157177 2.38025e-08 2.09063e-09 1.66114e-09
threshold=1.2230395579509177 12.500000000000002 17.55853788746489 12.524810087953076 8.5000000000000018 17.30858602405112
decision_type=2 2 2 2 2 2
left_child=2 -2 3 5 -5 -1
right_child=1 -3 -4 4 -6 -7
leaf_value=0.055828744763849962 -0.07178750719440237 -0.059901918098342145 0.056471691413066377 0.055834065620596 0.055832553913748188 0.055830178336113291
leaf_weight=3.7401437535882049 6.3279790878295881 7.2847824394702911 1.0146507620811451 4.1171286925673467 5.1453661918640137 4.39553352445364
leaf_count=40 30 34 10 44 55 47
internal_value=0.00430976 -0.065427 0.0558668 0.0558315 0.0558332 0.0558295
internal_weight=32.0256 13.6128 18.4128 17.3982 9.26249 8.13568
internal_count=260 64 196 186 99 87
is_linear=0
shrinkage=0.05


Tree=19
num_leaves=7
num_cat=0
split_feature=143 1 97 22 8 1
split_gain=45.4814 0.0559162 0.0478602 9.90562e-06 1.31079e-08 1.42411e-11
threshold=0.10110462463121685 18.202134255739754 -0.080714883257098288 9.2821694913258366 6.5000000000000009 14.733404700299497
decision_type=2 2 2 2 2 2
left_child=1 -1 -2 -4 -5 -6
right_child=2 -3 3 4 5 -7
leaf_value=-0.063716849744696255 0.068648043083213414 -0.070281050746110393 0.055603969103260778 0.055512401481305033 0.055515701362378961 0.055515829756360047
leaf_weight=6.8725834339857119 0.72539169341326015 6.1450735777616501 4.0734525024890926 4.293103225529193 3.847757160663603 4.9216395989060402
leaf_count=33 6 30 45 48 43 55
internal_value=0.00426424 -0.0668155 0.0560684 0.0555359 0.0555147 0.0555158
internal_weight=30.879 13.0177 17.8613 17.136 13.0625 8.7694
internal_count=260 63 197 191 146 98
is_linear=0
shrinkage=0.05


Tree=20
num_leaves=7
num_cat=0
split_feature=96 95 7 76 29 18
split_gain=37.1217 1.95357 0.239975 0.00633664 1.09859e-06 3.78364e-09
threshold=54.583611595183122 0.18801181540559331 13.500000000000002 6.6823267974073746 56.503550186632872 1.0000000180025095e-35
decision_type=2 2 2 2 2 2
left_child=3 -2 -3 4 -1 -6
right_child=1 2 -4 -5 5 -7
leaf_value=0.055248794240787505 -0.018901053831304693 -0.07719431896681668 -0.061740692032026527 0.057619874575713541 0.055217958183158958 0.055215800442713382
leaf_weight=4.0394675508141544 2.5224803984165183 4.1849198564887029 6.2848785221576691 3.5828286111354819 4.1072498559951764 4.0203341916203499
leaf_count=47 16 22 31 40 48 47
internal_value=0.00416237 -0.058401 -0.0679177 0.0557717 0.0552275 0.0552169
internal_weight=28.7422 12.9923 10.4698 15.7499 12.1671 8.12758
internal_count=251 69 53 182 142 95
is_linear=0
shrinkage=0.05


Tree=21
num_leaves=7
num_cat=0
split_feature=143 97 1 20 34 1
split_gain=34.2251 0.851645 0.264339 2.31829e-05 1.57531e-07 2.99126e-09
threshold=0.10110462463121685 -1.0000000180025095e-35 18.202134255739754 31.040140102536792 -8.0479671668590456 17.30858602405112
decision_type=2 2 2 2 2 2
left_child=2 -2 -1 4 5 -3
right_child=1 3 -4 -5 -6 -7
leaf_value=-0.052873504261665066 0.0012461326951135636 0.054937645039338151 -0.067795392813898112 0.05507151526852852 0.054923452134097162 0.054935672058519625
leaf_weight=6.3297254145145434 0.77568936347961503 3.9263670444488499 5.5881237238645554 4.1670628786087045 3.1826468110084507 3.7615366578102112
leaf_count=32 7 48 29 50 39 46
internal_value=0.00411375 0.0523359 -0.0598702 0.0549712 0.0549328 0.0549367
internal_weight=27.7312 15.8133 11.9178 15.0376 10.8706 7.6879
internal_count=251 190 61 183 133 94
is_linear=0
shrinkage=0.05


Tree=22
num_leaves=7
num_cat=0
split_feature=143 2 1 76 99 1
split_gain=32.0784 1.02386 0.263423 0.00608677 3.87756e-07 7.10015e-10
threshold=0.10110462463121685 1.5000000000000002 18.202134255739754 6.6823267974073746 52.485416573994151 17.30858602405112
decision_type=2 2 2 2 2 2
left_child=2 3 -1 4 5 -2
right_child=1 -3 -4 -5 -6 -7
leaf_value=-0.051517819750094423 0.054672842708664432 0.00042846820956010114 -0.066632796605190378 0.057132581336976677 0.054692050959777132 0.0546718435046782
leaf_weight=6.1754225641489047 3.5173876211047119 0.9060213044285782 5.4059616476297379 3.2868078500032434 3.8419595658779144 3.5949142426252365
leaf_count=32 45 10 29 40 49 46
internal_value=0.00406997 0.0519666 -0.0585732 0.0552455 0.0546793 0.0546723
internal_weight=26.7285 15.1471 11.5814 14.2411 10.9543 7.1123
internal_count=251 190 61 180 140 91
is_linear=0
shrinkage=0.05


Tree=23
num_leaves=7
num_cat=0
split_feature=96 95 7 132 32 1
split_gain=30.8276 1.89703 0.251122 0.00546617 5.08083e-06 1.95227e-09
threshold=54.583611595183122 0.18801181540559331 13.500000000000002 -0.08853899143376652 64.523865653726247 17.30858602405112
decision_type=2 2 2 2 2 2
left_child=3 -2 -3 4 -1 -6
right_child=1 2 -4 -5 5 -7
leaf_value=0.054497019552952303 -0.014766792192706425 -0.074647708180879263 -0.058083140401197469 0.056821980436415898 0.054424951919288568 0.054423283909786159
leaf_weight=3.6264098659157735 2.3846943005919448 3.7723405584692937 5.8150803744792938 3.1431668400764492 3.585283175110817 3.4348108321428299
leaf_count=48 16 22 31 40 48 46
internal_value=0.00402624 -0.0546745 -0.0646008 0.0549899 0.054449 0.0544241
internal_weight=25.7618 11.9721 9.58742 13.7897 10.6465 7.02009
internal_count=251 69 53 182 142 94
is_linear=0
shrinkage=0.05


Tree=24
num_leaves=7
num_cat=0
split_feature=96 96 7 101 111 6
split_gain=28.9304 1.85259 0.253385 0.00496211 4.32739e-06 1.65338e-09
threshold=54.583611595183122 56.92555777181277 13.500000000000002 16.354940675689928 0.27709819581063938 1.0000000180025095e-35
decision_type=2 2 2 2 2 2
left_child=3 2 -2 -1 5 -5
right_child=1 -3 -4 4 -6 -7
leaf_value=0.056525755803278989 -0.073819298233971917 -0.014056944882703799 -0.056883084944447861 0.054188983693163412 0.05425860519596213 0.054190554269959335
leaf_weight=3.0051453262567547 3.6275983080267888 2.3799839839339247 5.645200178027153 3.2810626029968244 3.4643218144774437 3.4248051270842552
leaf_count=40 22 16 31 46 48 48
internal_value=0.00398212 -0.0534086 -0.0635087 0.0547407 0.0542132 0.0541898
internal_weight=24.8281 11.6528 9.2728 13.1753 10.1702 6.70587
internal_count=251 69 53 182 142 94
is_linear=0
shrinkage=0.05


Tree=25
num_leaves=8
num_cat=0
split_feature=143 1 37 1 64 10 1
split_gain=30.6993 0.0866262 0.0274522 0.011596 1.57041e-05 1.18475e-06 9.08353e-10
threshold=0.10110462463121685 18.202134255739754 21.288576705587719 19.07205117876433 3659619.9554168149 0.75909090909090915 16.982844985758291
decision_type=2 2 2 2 2 2 2
left_child=1 -1 4 -3 -2 -6 -7
right_child=2 3 -4 -5 5 6 -8
leaf_value=-0.055436608450894577 0.054084598497503217 -0.067354960452665757 0.063585037988558288 -0.062579673531038105 0.053929866088999717 0.053968290424590164 0.053969510252999113
leaf_weight=5.3004325926303881 3.2684886083006832 2.1040068119764328 0.7939474433660515 3.2122015953063965 2.8375166505575162 2.8611796796321869 3.2707797288894653
leaf_count=30 47 11 7 20 42 42 48
internal_value=0.00315658 -0.0599598 0.0545753 -0.0644696 0.0539908 0.0539566 0.0539689
internal_weight=23.6486 10.6166 13.0319 5.31621 12.238 8.96948 6.13196
internal_count=247 61 186 31 179 132 90
is_linear=0
shrinkage=0.05


Tree=26
num_leaves=8
num_cat=0
split_feature=21 7 1 34 22 7 1
split_gain=27.1827 0.238494 0.00953782 0.000591986 1.19542e-06 2.69673e-08 2.61494e-10
threshold=39.507821842692785 12.500000000000002 19.07205117876433 -31.280171643125318 9.2821694913258366 12.500000000000002 17.30858602405112
decision_type=2 2 2 2 2 2 2
left_child=3 2 -2 -1 -5 6 -6
right_child=1 -3 -4 4 5 -7 -8
leaf_value=0.055074601657553401 -0.066224516659996388 -0.0484921341292463 -0.06181656944906512 0.053723543043148705 0.053759817101980301 0.053765279399877186 0.053759120663292206
leaf_weight=0.9152740016579618 2.0346833467483503 5.3751120120286942 3.0922996997833252 2.7092332988977459 2.7969839423894864 3.1910802721977234 2.6014277338981628
leaf_count=11 11 31 20 42 43 49 40
internal_value=0.00313395 -0.0558509 -0.0635659 0.0538516 0.0537525 0.0537616 0.0537595
internal_weight=22.7161 10.5021 5.12698 12.214 11.2987 8.58949 5.39841
internal_count=247 62 31 185 174 132 83
is_linear=0
shrinkage=0.05


Tree=27
num_leaves=8
num_cat=0
split_feature=143 1 37 1 19 14 1
split_gain=27.2921 0.0864637 0.0274232 0.00786755 1.16002e-05 8.59998e-07 6.40943e-10
threshold=0.10110462463121685 18.202134255739754 21.288576705587719 19.07205117876433 0.30584008498159859 28.129990368653331 14.733404700299497
decision_type=2 2 2 2 2 2 2
left_child=1 -1 4 -3 -2 -6 -7
right_child=2 3 -4 -5 5 6 -8
leaf_value=-0.053403955800947568 0.05366867807043342 -0.065184859455910016 0.063506454673897761 -0.061108228552696736 0.053528778636451294 0.053563013655073349 0.053564081783570042
leaf_weight=5.0009773671627062 2.9176558256149265 1.9655314981937406 0.74253894388675767 2.9747152328491211 2.5862419679760915 2.6079947501420975 3.0434513613581657
leaf_count=30 46 11 7 20 42 42 49
internal_value=0.00310994 -0.0580386 0.0542023 -0.0627302 0.053583 0.0535527 0.0535636
internal_weight=21.8391 9.94122 11.8979 4.94025 11.1553 8.23769 5.65145
internal_count=247 61 186 31 179 133 91
is_linear=0
shrinkage=0.05


Tree=28
num_leaves=8
num_cat=0
split_feature=143 1 65 1 19 18 20
split_gain=25.7033 0.0878857 0.0240134 0.00650701 9.8981e-06 7.32223e-07 5.45128e-10
threshold=0.10110462463121685 18.202134255739754 1.0000000180025095e-35 19.07205117876433 0.30584008498159859 -1.0000000180025095e-35 31.040140102536792
decision_type=2 2 2 2 2 2 2
left_child=1 -1 4 -3 -2 6 -6
right_child=2 3 -4 -5 5 -7 -8
leaf_value=-0.052389147182864762 0.053477102086274868 -0.064226604759295466 0.062872677560854781 -0.060449748214784438 0.053378197456513149 0.053344854070903905 0.053377189169748013
leaf_weight=4.8468844592571276 2.7850512191653216 1.89685483276844 0.71326461434364397 2.8596758842468262 2.9048471413552752 2.4683771207928666 2.4892194494605064
leaf_count=30 46 11 7 20 49 42 42
internal_value=0.00308909 -0.0571275 0.0539911 -0.0619559 0.0533961 0.0533674 0.0533777
internal_weight=20.9642 9.60342 11.3608 4.75653 10.6475 7.86244 5.39407
internal_count=247 61 186 31 179 133 91
is_linear=0
shrinkage=0.05


Tree=29
num_leaves=8
num_cat=0
split_feature=21 1 1 31 92 7 1
split_gain=22.6642 0.238033 0.005395 0.00033409 7.28919e-07 1.89806e-08 7.35427e-10
threshold=39.507821842692785 18.202134255739754 19.07205117876433 68.719828356874686 -0.24027955161436598 12.500000000000002 17.30858602405112
decision_type=2 2 2 2 2 2 2
left_child=3 -2 -3 -1 -5 6 -6
right_child=1 2 -4 4 5 -7 -8
leaf_value=0.054262386027681346 -0.045399119050859471 -0.063341604951427363 -0.059836771823662697 0.053171098940282352 0.053201665019416915 0.053206277921245264 0.053200412439957635
leaf_weight=0.79277660697698848 4.9254682362079603 1.8289113491773603 2.7473655343055725 2.355471968650817 2.4320022389292708 2.7747221663594246 2.261548787355423
leaf_count=11 31 11 20 42 43 49 40
internal_value=0.00306905 -0.0530273 -0.0612375 0.053275 0.0531954 0.053203 0.0532011
internal_weight=20.1183 9.50175 4.57628 10.6165 9.82375 7.46827 4.69355
internal_count=247 62 31 185 174 132 83
is_linear=0
shrinkage=0.05


Tree=30
num_leaves=7
num_cat=0
split_feature=17 45 100 17 17 6
split_gain=19.7043 1.0786 0.409243 4.17308e-06 4.82259e-07 2.07082e-09
threshold=0.74095969381691351 1.1753664240481194 -0.20675403538666046 -0.19760104653737895 0.51962862582584901 1.0000000180025095e-35
decision_type=2 2 2 2 2 2
left_child=3 -2 -3 -1 5 -5
right_child=1 2 -4 4 -6 -7
leaf_value=0.053103966735218035 -0.091138257422538699 -0.051566677545168665 -0.02761456233441404 0.05303460056977502 0.053006893259877244 0.05303666551457023
leaf_weight=2.3592538498342037 1.372239738702772 5.0227115750312796 2.7650985866785058 2.4275336042046565 2.0868340283632278 2.4289964139461517
leaf_count=43 9 33 23 45 39 45
internal_value=0.0017899 -0.0502645 -0.0430624 0.0530465 0.053027 0.0530356
internal_weight=18.4627 9.16005 7.78781 9.30262 6.94336 4.85653
internal_count=237 65 56 172 129 90
is_linear=0
shrinkage=0.05


Tree=31
num_leaves=7
num_cat=0
split_feature=96 96 19 22 1 1
split_gain=18.767 1.18843 0.397097 4.54928e-06 4.1119e-07 1.763e-09
threshold=54.583611595183122 56.92555777181277 0.65467765491785501 14.911472354657947 16.982844985758291 17.30858602405112
decision_type=2 2 2 2 2 2
left_child=3 2 -2 4 -1 -6
right_child=1 -3 -4 -5 5 -7
leaf_value=0.052851660522637484 -0.075882408608955565 -0.012048252759057276 -0.050657198202110169 0.05295217112416082 0.052879806480882141 0.052877855768252817
leaf_weight=1.9907410740852372 2.2974832504987699 1.6821037754416464 4.8613550215959549 2.3087352812290192 2.3172135092318058 2.3158133961260319
leaf_count=39 18 13 33 44 45 45
internal_value=0.00177726 -0.0498666 -0.0587527 0.0528917 0.0528707 0.0528788
internal_weight=17.7734 8.84094 7.15884 8.9325 6.62377 4.63303
internal_count=237 64 51 173 129 90
is_linear=0
shrinkage=0.05


Tree=32
num_leaves=7
num_cat=0
split_feature=96 96 7 32 1 1
split_gain=17.6646 1.16674 0.403466 3.8877e-06 3.50814e-07 1.49958e-09
threshold=54.583611595183122 56.92555777181277 13.500000000000002 64.523865653726247 16.982844985758291 17.30858602405112
decision_type=2 2 2 2 2 2
left_child=3 2 -2 -1 -5 -6
right_child=1 -3 -4 4 5 -7
leaf_value=0.052799979322617069 -0.07575830027691792 -0.011497322464606229 -0.049773322861250878 0.052704858670863754 0.052731476797294043 0.0527296346904957
leaf_weight=2.2023071721196192 2.1889167502522451 1.6747640296816824 4.7043016701936722 1.8987927027046678 2.210245169699192 2.2089055739343166
leaf_count=44 18 13 33 39 45 45
internal_value=0.00176431 -0.0489301 -0.0580248 0.0527428 0.0527228 0.0527306
internal_weight=17.0882 8.56798 6.89322 8.52025 6.31794 4.41915
internal_count=237 64 51 173 129 90
is_linear=0
shrinkage=0.05


Tree=33
num_leaves=7
num_cat=0
split_feature=96 96 7 32 1 1
split_gain=16.6297 1.14548 0.410096 3.32351e-06 2.99511e-07 1.28563e-09
threshold=54.583611595183122 56.92555777181277 13.500000000000002 64.523865653726247 16.982844985758291 17.30858602405112
decision_type=2 2 2 2 2 2
left_child=3 2 -2 -1 -5 -6
right_child=1 -3 -4 4 5 -7
leaf_value=0.052656033571740993 -0.075692895534773319 -0.010969290236473771 -0.048911889155061436 0.052565988416173687 0.052591175259660283 0.05258942870272925
leaf_weight=2.1004816107451934 2.0839098542928678 1.6677965596318243 4.5516862571239471 1.8108385428786276 2.1079173870384693 2.1066362969577312
leaf_count=44 18 13 33 39 45 45
internal_value=0.00175132 -0.0480121 -0.0573225 0.0526019 0.052583 0.0525903
internal_weight=16.4293 8.30339 6.6356 8.12587 6.02539 4.21455
internal_count=237 64 51 173 129 90
is_linear=0
shrinkage=0.05


Tree=34
num_leaves=7
num_cat=0
split_feature=96 96 7 22 7 6
split_gain=15.6574 1.12443 0.416826 2.84208e-06 2.55691e-07 1.10125e-09
threshold=54.583611595183122 56.92555777181277 13.500000000000002 14.911472354657947 11.500000000000002 1.0000000180025095e-35
decision_type=2 2 2 2 2 2
left_child=3 2 -2 4 -1 -6
right_child=1 -3 -4 -5 5 -7
leaf_value=0.052434590543707207 -0.075678667040233932 -0.010463403647282168 -0.048070066140020101 0.05251984686646291 0.052456768088422714 0.052458423436147476
leaf_weight=1.7267304025590426 1.9826346337795238 1.6611834242939947 4.4036027044057846 2.0030899830162525 2.008834071457386 2.0100590027868748
leaf_count=39 18 13 33 44 45 45
internal_value=0.00173825 -0.047109 -0.0566413 0.0524686 0.0524507 0.0524576
internal_weight=15.7961 8.04742 6.38624 7.74871 5.74562 4.01889
internal_count=237 64 51 173 129 90
is_linear=0
shrinkage=0.05


Tree=35
num_leaves=8
num_cat=0
split_feature=96 35 2 40 14 6 8
split_gain=15.5104 1.32593 0.246964 0.0253669 2.30816e-07 1.27498e-09 3.21787e-12
threshold=54.583611595183122 237.82647427777823 15.500000000000002 2.280731373001585 28.129990368653331 1.0000000180025095e-35 6.5000000000000009
decision_type=2 2 2 2 2 2 2
left_child=3 2 -2 4 -1 6 -6
right_child=1 -3 -4 -5 5 -7 -8
leaf_value=0.052310221047765754 -0.083125925790242916 -0.027784893893740215 -0.056656970465327097 0.064907165297580213 0.052331219591308556 0.052332779427908607 0.052331315040155493
leaf_weight=1.5618964508175857 1.5944716334342939 4.5563331767916679 1.9701238423585892 0.4236948937177657 1.7876420393586159 2.2997955419123173 1.7451452687382698
leaf_count=37 11 37 19 5 42 54 41
internal_value=0.00274002 -0.0456549 -0.0684967 0.053009 0.0523273 0.0523319 0.0523313
internal_weight=15.9391 8.12093 3.5646 7.81817 7.39448 5.83258 3.53279
internal_count=246 67 30 179 174 137 83
is_linear=0
shrinkage=0.05


Tree=36
num_leaves=8
num_cat=0
split_feature=96 35 1 40 14 8 1
split_gain=14.5863 1.32031 0.235427 0.0220333 1.97103e-07 1.08407e-09 2.74847e-12
threshold=54.583611595183122 237.82647427777823 19.07205117876433 2.280731373001585 28.129990368653331 8.5000000000000018 17.30858602405112
decision_type=2 2 2 2 2 2 2
left_child=3 2 -2 4 -1 6 -6
right_child=1 -3 -4 -5 5 -7 -8
leaf_value=0.052192484201998152 -0.082715063378629189 -0.026823002146315285 -0.056290290110563815 0.064165377990429789 0.052212449622224023 0.052213832476543542 0.052212359278851074
leaf_weight=1.4889887869358061 1.5240481644868851 4.4855765104293823 1.8859380632638931 0.40757225453853596 1.6637172549962997 2.1924908235669136 1.7042309492826462
leaf_count=37 11 37 19 5 41 54 42
internal_value=0.00271321 -0.0446502 -0.0681005 0.0528622 0.0522086 0.052213 0.0522124
internal_weight=15.3526 7.89556 3.40999 7.457 7.04943 5.56044 3.36795
internal_count=246 67 30 179 174 137 83
is_linear=0
shrinkage=0.05


Tree=37
num_leaves=7
num_cat=0
split_feature=17 113 7 17 14 1
split_gain=12.4795 1.56539 0.573582 6.01178e-07 1.58072e-07 7.15947e-10
threshold=0.74095969381691351 0.16338852941102175 13.500000000000002 -0.19760104653737895 28.129990368653331 17.30858602405112
decision_type=2 2 2 2 2 2
left_child=3 2 -2 -1 -5 -6
right_child=1 -3 -4 4 5 -7
leaf_value=0.052129325683605315 -0.082364746503579139 -0.0084450194198436544 -0.045522221036130094 0.052080982983279449 0.052101211737591517 0.052099812383461966
leaf_weight=1.7207537814974783 1.4557270407676695 2.6285577975213528 3.8513313233852386 1.4193256385624407 2.0899561420083046 1.6245281696319582
leaf_count=44 11 27 31 37 54 42
internal_value=0.00268614 -0.0399994 -0.0556281 0.0521037 0.0520952 0.0521006
internal_weight=14.7902 7.93562 5.30706 6.85456 5.13381 3.71448
internal_count=246 69 42 177 133 96
is_linear=0
shrinkage=0.05


Tree=38
num_leaves=7
num_cat=0
split_feature=17 37 35 17 14 10
split_gain=11.735 1.5865 0.504542 5.14793e-07 1.35117e-07 6.09278e-10
threshold=0.74095969381691351 21.288576705587719 219.55017901475756 -0.19760104653737895 28.129990368653331 0.75909090909090915
decision_type=2 2 2 2 2 2
left_child=3 2 -2 -1 -5 -6
right_child=1 -3 -4 4 5 -7
leaf_value=0.052021187885983811 -0.072970586242767463 -4.5486807338078414e-05 -0.041684117432688898 0.051975378481241299 0.05199321176459052 0.051994534029057196
leaf_weight=1.640148229897022 1.9378179311752317 1.953044146299362 3.8464460037648678 1.3527782671153543 1.5483872517943384 1.9920035973191259
leaf_count=44 20 16 33 37 42 54
internal_value=0.0026547 -0.0390095 -0.0521656 0.0519969 0.0519888 0.051994
internal_weight=14.2706 7.73731 5.78426 6.53332 4.89317 3.54039
internal_count=246 69 53 177 133 96
is_linear=0
shrinkage=0.05


Tree=39
num_leaves=8
num_cat=0
split_feature=96 35 1 18 100 6 1
split_gain=12.2524 1.36558 0.203473 0.0204575 1.22924e-07 7.40464e-10 2.65565e-13
threshold=54.583611595183122 237.82647427777823 19.07205117876433 0.23252979912532393 -0.26953080786904271 1.0000000180025095e-35 17.30858602405112
decision_type=2 2 2 2 2 2 2
left_child=3 2 -2 4 -1 6 -6
right_child=1 -3 -4 -5 5 -7 -8
leaf_value=0.05187532916126663 -0.081267549404647893 -0.023318260293139853 -0.055481078854626366 0.063810801438257209 0.051892197372369199 0.051893481479359876 0.051892227600209895
leaf_weight=1.289221517741679 1.3965907841920853 4.1883984804153442 1.6916080340743065 0.3823857232928275 1.4405090734362611 1.8984491303563116 1.475665345788002
leaf_count=37 11 37 19 5 41 54 42
internal_value=0.00262352 -0.0419174 -0.0671426 0.0525919 0.051889 0.0518927 0.0518922
internal_weight=13.7628 7.2766 3.0882 6.48623 6.10385 4.81462 2.91617
internal_count=246 67 30 179 174 137 83
is_linear=0
shrinkage=0.05


Tree=40
num_leaves=9
num_cat=0
split_feature=143 2 55 52 18 8 14 6
split_gain=12.7027 0.381338 0.0409718 0.0189151 0.00188818 5.18978e-07 1.0049e-07 4.57041e-10
threshold=0.10110462463121685 1.5000000000000002 -1.0000000180025095e-35 93.046743889617986 0.58660910186375237 6.5000000000000009 28.129990368653331 1.0000000180025095e-35
decision_type=2 2 2 2 2 2 2 2
left_child=1 -1 -3 4 5 -2 -7 -8
right_child=3 2 -4 -5 -6 6 7 -9
leaf_value=-0.017717918844268089 0.05182581526276301 -0.045833198386071007 -0.055185262135872992 0.063752339700527363 0.055010818487441895 0.051780528058359469 0.051796507258140306 0.051797733705882115
leaf_weight=1.2228604629635809 1.5604598075151441 4.2438896894454947 1.6175144240260131 0.36501173302531231 0.49674497544765461 1.2949413433670995 1.4396842010319233 1.6081066131591797
leaf_count=10 46 37 19 4 6 39 43 48
internal_value=0.00367876 -0.0431153 -0.048414 0.0526816 0.0520502 0.0518011 0.0517922 0.0517972
internal_weight=13.8492 7.08426 5.8614 6.76495 6.39994 5.90319 4.34273 3.04779
internal_count=252 66 56 186 182 176 130 91
is_linear=0
shrinkage=0.05


Tree=41
num_leaves=9
num_cat=0
split_feature=143 2 1 52 17 1 10 1
split_gain=11.976 0.375628 0.043331 0.0162999 0.00161043 4.4461e-07 8.60277e-08 3.89222e-10
threshold=0.10110462463121685 1.5000000000000002 19.07205117876433 93.046743889617986 1.3223908338551189 17.30858602405112 0.75909090909090915 16.982844985758291
decision_type=2 2 2 2 2 2 2 2
left_child=1 -1 -3 4 5 6 -2 -8
right_child=3 2 -4 -5 -6 -7 7 -9
leaf_value=-0.017050753381012303 0.051690675123182199 -0.045085138399098168 -0.054906864756555984 0.06302493218569187 0.054742609482478888 0.051733612413982277 0.051705822834179009 0.051706982295696563
leaf_weight=1.2075708732008932 1.2338734343647955 4.1022028177976608 1.546231225132942 0.35111555829644192 0.47477491199970234 1.4869339466094968 1.3718111626803875 1.5322952270507812
leaf_count=10 39 37 19 4 6 46 43 48
internal_value=0.00364833 -0.0423624 -0.0477738 0.0525492 0.0519462 0.0517102 0.0517017 0.0517064
internal_weight=13.3068 6.856 5.64843 6.4508 6.09969 5.62491 4.13798 2.90411
internal_count=252 66 56 186 182 176 130 91
is_linear=0
shrinkage=0.05


Tree=42
num_leaves=9
num_cat=0
split_feature=143 8 1 52 18 1 14 1
split_gain=11.2914 0.369828 0.045684 0.0140427 0.0013742 3.80997e-07 7.36754e-08 3.3359e-10
threshold=0.10110462463121685 7.5000000000000009 19.07205117876433 93.046743889617986 0.58660910186375237 17.30858602405112 28.129990368653331 16.982844985758291
decision_type=2 2 2 2 2 2 2 2
left_child=1 -1 -3 4 5 6 -2 -8
right_child=3 2 -4 -5 -6 -7 7 -9
leaf_value=-0.016401950519650581 0.051605504983993036 -0.044344758344629039 -0.05464470553747891 0.062337382383338025 0.054489964300146687 0.051646221983887478 0.051619866148602291 0.051620965835083799
leaf_weight=1.1929517984390257 1.1755848526954653 3.9656417816877365 1.4776982739567754 0.33758174814283837 0.45366083085536946 1.4167483337223528 1.3070252574980259 1.4599318206310272
leaf_count=10 39 37 19 4 6 46 43 48
internal_value=0.00361789 -0.0416152 -0.0471409 0.0524234 0.0518477 0.051624 0.051616 0.0516204
internal_weight=12.7868 6.63629 5.44334 6.15053 5.81295 5.35929 3.94254 2.76696
internal_count=252 66 56 186 182 176 130 91
is_linear=0
shrinkage=0.05


Tree=43
num_leaves=9
num_cat=0
split_feature=143 2 1 130 17 1 17 1
split_gain=10.6465 0.363913 0.0480277 0.0120955 0.00117315 3.26555e-07 6.3079e-08 2.84317e-10
threshold=0.10110462463121685 1.5000000000000002 19.07205117876433 1.0000000180025095e-35 1.3223908338551189 17.30858602405112 0.51962862582584901 16.982844985758291
decision_type=2 2 2 2 2 2 2 2
left_child=1 -1 -3 -2 5 6 7 -5
right_child=3 2 -4 4 -6 -7 -8 -9
leaf_value=-0.015771396058750286 0.061687489561500143 -0.043610688763735236 -0.054397708554838199 0.051538369953639133 0.054251859440664789 0.051563369171110374 0.051524754382585185 0.051539410082163589
leaf_weight=1.1789784505963323 0.32441494427621353 3.8341282904148102 1.4118510186672208 1.2451972141861916 0.43338158726692189 1.3497634604573248 1.1199592240154745 1.3908720910549164
leaf_count=10 4 37 19 43 6 46 39 48
internal_value=0.00358738 -0.0408726 -0.0465138 0.0523038 0.0517543 0.0515423 0.0515347 0.0515389
internal_weight=12.2885 6.42496 5.24598 5.86359 5.53917 5.10579 3.75603 2.63607
internal_count=252 66 56 186 182 176 130 91
is_linear=0
shrinkage=0.05


Tree=44
num_leaves=9
num_cat=0
split_feature=143 7 52 2 17 8 17 6
split_gain=10.0387 0.358987 0.0104162 0.00234085 0.00100194 2.79983e-07 5.40493e-08 2.43277e-10
threshold=0.10110462463121685 13.500000000000002 93.046743889617986 15.500000000000002 1.3223908338551189 6.5000000000000009 0.51962862582584901 1.0000000180025095e-35
decision_type=2 2 2 2 2 2 2 2
left_child=1 3 4 -1 5 -2 7 -7
right_child=2 -3 -4 -5 -6 6 -8 -9
leaf_value=-0.05735197253946233 0.051484811020684598 -0.030762693853741443 0.061073158840909685 -0.054164873913890937 0.054027329361324053 0.0514610938658304 0.05144818041053232 0.051462079636373663
leaf_weight=1.0058184564113617 1.285844352096319 3.8673801124095917 0.31161844357848156 1.3486212268471718 0.41391518712043751 1.1862020064145327 1.0668837334960701 1.32497638463974
leaf_count=9 46 38 4 19 6 43 39 48
internal_value=0.00355674 -0.0401337 0.0521902 -0.0555264 0.0516658 0.0514648 0.0514576 0.0514616
internal_weight=11.8113 6.22182 5.58944 2.35444 5.27782 4.86391 3.57806 2.51118
internal_count=252 66 186 28 182 176 130 91
is_linear=0
shrinkage=0.05


Tree=45
num_leaves=8
num_cat=0
split_feature=96 35 1 130 20 19 1
split_gain=9.01384 1.44488 0.305231 0.0107195 2.96982e-07 4.57922e-08 2.75825e-10
threshold=54.583611595183122 237.82647427777823 19.07205117876433 1.0000000180025095e-35 30.005870325537987 0.42345099731505254 17.30858602405112
decision_type=2 2 2 2 2 2 2
left_child=3 2 -2 -1 5 6 -5
right_child=1 -3 -4 4 -6 -7 -8
leaf_value=0.062286600890690116 -0.088370670143321173 -0.019854801637443617 -0.053945286004973961 0.051388744160274141 0.051415140223029059 0.051375556475444464 0.051387645812161598
leaf_weight=0.23813884519040573 1.0969007164239883 3.7100445926189423 1.5590828135609627 1.1569339707493782 1.0147646106779573 1.0423072427511217 1.1297947075217962
leaf_count=3 10 39 23 44 38 40 43
internal_value=-0.00151938 -0.0400094 -0.0681627 0.0519577 0.0513915 0.0513842 0.0513882
internal_weight=10.948 6.36603 2.65598 4.58194 4.3438 3.32904 2.28673
internal_count=240 72 33 168 165 127 87
is_linear=0
shrinkage=0.05


Tree=46
num_leaves=8
num_cat=0
split_feature=96 35 26 130 17 34 1
split_gain=8.47613 1.43416 0.296105 0.0091776 2.54721e-07 3.92324e-08 2.35438e-10
threshold=54.583611595183122 237.82647427777823 0.25146616541353345 1.0000000180025095e-35 -0.19760104653737895 -8.0479671668590456 17.30858602405112
decision_type=2 2 2 2 2 2 2
left_child=3 2 -2 -1 -5 6 -6
right_child=1 -3 -4 4 5 -7 -8
leaf_value=0.061605361612518166 -0.053738093442838988 -0.019105454823921116 -0.088489809958401264 0.051344228109035411 0.051319176773837662 0.051306670311013741 0.05131813701545293
leaf_weight=0.22896599583327759 1.488618887960911 3.6639803387224674 1.04203475266695 0.96657345071434964 1.1019637733697891 0.99277094006538424 1.0761128384619951
leaf_count=3 23 39 10 38 44 40 43
internal_value=-0.00149245 -0.0390995 -0.0680476 0.051861 0.0513218 0.0513149 0.0513187
internal_weight=10.561 6.19463 2.53065 4.36639 4.13742 3.17085 2.17808
internal_count=240 72 33 168 165 127 87
is_linear=0
shrinkage=0.05


Tree=47
num_leaves=8
num_cat=0
split_feature=96 96 7 130 17 1 1
split_gain=7.96974 1.50817 0.496486 0.00785851 2.18497e-07 3.36221e-08 2.01677e-10
threshold=54.583611595183122 56.92555777181277 13.500000000000002 1.0000000180025095e-35 -0.19760104653737895 16.982844985758291 17.30858602405112
decision_type=2 2 2 2 2 2 2
left_child=3 2 -2 -1 -5 -6 -7
right_child=1 -3 -4 4 5 6 -8
leaf_value=0.060965192336043299 -0.074417129387206668 0.0088455055553281082 -0.039972080772471767 0.051276962920942006 0.051241323629914154 0.051253186975198352 0.051252200906987358
leaf_weight=0.22002815268933762 1.5709602721035478 1.3288864642381666 3.1315186992287636 0.92060882970690761 0.94552688300609622 1.049535945057869 1.0249138753861189
leaf_count=3 24 15 33 38 40 44 43
internal_value=-0.00146524 -0.0381879 -0.0514792 0.0517691 0.0512556 0.0512491 0.0512527
internal_weight=10.192 6.03137 4.70248 4.16061 3.94059 3.01998 2.07445
internal_count=240 72 57 168 165 127 87
is_linear=0
shrinkage=0.05


Tree=48
num_leaves=9
num_cat=0
split_feature=120 63 1 8 7 31 26 1
split_gain=7.4422 4.54761 0.906412 0.624024 0.0732068 0.00450244 8.11699e-06 2.85308e-08
threshold=45.651796701505695 -5.4218042212464601 17.55853788746489 7.5000000000000009 13.500000000000002 84.026675134963526 0.12176691729323233 17.30858602405112
decision_type=2 2 2 2 2 2 2 2
left_child=2 5 6 -3 -5 -2 -1 -8
right_child=1 3 -4 4 -6 -7 7 -9
leaf_value=0.051370796200640112 0.058466151595182939 -0.087249489499817867 0.12978622116601421 -0.053288464010501892 -0.039226201375078582 0.051196138391577176 0.05117737252634294 0.051189639710569737
leaf_weight=0.83449111878871995 0.26874685287475575 1.0030659809708593 0.42435501515865315 1.3317556157708166 3.0340042859315872 1.0261294376105068 0.92142391577362992 0.97608969174325466
leaf_count=35 5 10 5 23 33 45 41 43
internal_value=-0.00144445 -0.0314015 0.0618008 -0.0516867 -0.0435158 0.052705 0.0512408 0.0511837
internal_weight=9.82006 6.6637 3.15636 5.36883 4.36576 1.29488 2.732 1.89751
internal_count=240 116 124 66 56 50 119 84
is_linear=0
shrinkage=0.05


Tree=49
num_leaves=8
num_cat=0
split_feature=96 95 7 130 17 34 1
split_gain=7.09578 1.39512 0.501713 0.00578828 1.43038e-07 2.47315e-08 1.46627e-10
threshold=54.583611595183122 0.18801181540559331 13.500000000000002 1.0000000180025095e-35 -0.19760104653737895 -8.0479671668590456 17.30858602405112
decision_type=2 2 2 2 2 2 2
left_child=3 -2 -3 -1 -5 6 -6
right_child=1 2 -4 4 5 -7 -8
leaf_value=0.05980337344894579 0.0094447138190175209 -0.074536761239244048 -0.038482215513405305 0.051151164766301854 0.051131160396849722 0.051120478966289712 0.051130277527204275
leaf_weight=0.20345494709908996 1.2572773844003675 1.4361475221812723 2.9404220581054688 0.83417909219861108 0.95186343789100714 0.85752107203006644 0.9295360054820776
leaf_count=3 15 24 33 38 44 40 43
internal_value=-0.00142974 -0.0369774 -0.0503133 0.0516001 0.051133 0.0511275 0.0511307
internal_weight=9.4104 5.63385 4.37657 3.77655 3.5731 2.73892 1.8814
internal_count=240 72 57 168 165 127 87
is_linear=0
shrinkage=0.05


Tree=50
num_leaves=10
num_cat=0
split_feature=120 63 18 8 34 7 1 91 17
split_gain=7.19251 3.95775 1.56197 0.58469 0.0662266 0.00329217 0.000485275 2.79289e-08 5.52869e-12
threshold=45.651796701505695 -5.4218042212464601 0.85936438568074514 7.5000000000000009 -14.895118999596615 13.500000000000002 17.55853788746489 39.770284422981547 -1.0000000180025095e-35
decision_type=2 2 2 2 2 2 2 2 2
left_child=2 5 6 -3 -5 -2 7 -1 -9
right_child=1 3 -4 4 -6 -7 -8 8 -10
leaf_value=0.051062607853522603 0.05759917400264554 -0.085759234766274492 0.18761641652383385 -0.052893870096511177 -0.038741933046615641 0.051074773850554235 0.053421092343047649 0.051073760142903046 0.051073935027589112
leaf_weight=0.79457311332225922 0.24733481183648087 0.96773752570152272 0.22678605839610089 1.1377878114581101 3.0234274268150334 0.88581451401114464 0.23975586891174305 0.86443178728222925 0.94690762460231681
leaf_count=39 5 10 2 22 35 43 4 42 46
internal_value=-0.00132593 -0.0320689 0.0613327 -0.0507526 -0.0426115 0.0524989 0.0512685 0.0510704 0.0510739
internal_weight=9.33456 6.2621 3.07245 5.12895 4.16122 1.13315 2.84567 2.60591 1.81134
internal_count=248 115 133 67 57 48 131 127 88
is_linear=0
shrinkage=0.05


Tree=51
num_leaves=10
num_cat=0
split_feature=120 63 18 8 10 31 8 34 8
split_gain=6.77606 3.72607 1.25212 0.569857 0.0687509 0.00320221 0.000415213 2.3964e-08 4.80527e-12
threshold=45.651796701505695 -5.4218042212464601 0.85936438568074514 7.5000000000000009 0.96410256410256423 84.026675134963526 5.5000000000000009 -14.895118999596615 6.5000000000000009
decision_type=2 2 2 2 2 2 2 2 2
left_child=2 5 6 -3 -5 -2 -1 8 -8
right_child=1 3 -4 4 -6 -7 7 -9 -10
leaf_value=0.053243127178538401 0.057853884914531417 -0.085574400856256463 0.17137014736034584 -0.052744783609616368 -0.038012590014732235 0.051025603476165485 0.051020462949817325 0.051009709882198162 0.051020295857380729
leaf_weight=0.22880586981773454 0.21415160968899705 0.92248141765594471 0.23563366383314122 1.0852791741490362 2.9297613352537155 0.86613032780587673 0.90164662152528829 0.75658532977104132 0.8231128603219986
leaf_count=4 4 10 2 22 35 44 46 39 42
internal_value=-0.0013179 -0.0317337 0.0608171 -0.0501368 -0.0419948 0.0523792 0.0512051 0.0510171 0.0510204
internal_weight=8.96359 6.0178 2.94578 4.93752 4.01504 1.08028 2.71015 2.48134 1.72476
internal_count=248 115 133 67 57 48 131 127 88
is_linear=0
shrinkage=0.05


Tree=52
num_leaves=10
num_cat=0
split_feature=120 63 84 8 1 31 17 6 1
split_gain=6.38199 3.50708 1.22835 0.554146 0.071217 0.00275265 0.000373484 2.05616e-08 4.01901e-12
threshold=45.651796701505695 -5.4218042212464601 1.0000000180025095e-35 7.5000000000000009 19.07205117876433 84.026675134963526 0.74095969381691351 1.0000000180025095e-35 17.30858602405112
decision_type=2 2 2 2 2 2 2 2 2
left_child=2 5 -1 -3 -5 -2 7 8 -4
right_child=1 3 6 4 -6 -7 -8 -9 -10
leaf_value=0.17940867646436262 0.057447201624458315 -0.085328758832141041 0.050969547404465076 -0.037283670691146416 -0.052603762553305781 0.050974579996047535 0.052958073017048135 0.050959497228978017 0.050969704004318633
leaf_weight=0.20102335512638125 0.20511290989816167 0.87995712459087361 0.78372913599014349 2.8399854153394699 1.0350471213459971 0.82469245977699757 0.26147013530135144 0.72037751972675312 0.85850529745221138
leaf_count=1 4 10 42 35 22 44 5 39 46
internal_value=-0.00130897 -0.0313921 0.0602903 -0.0495097 -0.0413758 0.0522638 0.051165 0.0509665 0.0509696
internal_weight=8.6099 5.7848 2.82511 4.75499 3.87503 1.02981 2.62408 2.36261 1.64223
internal_count=248 115 133 67 57 48 132 127 88
is_linear=0
shrinkage=0.05


Tree=53
num_leaves=10
num_cat=0
split_feature=120 96 7 8 1 31 17 6 8
split_gain=6.00041 3.30007 0.91208 0.537506 0.0736194 0.00236611 0.000319825 1.76325e-08 3.67151e-12
threshold=45.651796701505695 54.583611595183122 15.000000000000002 7.5000000000000009 19.07205117876433 84.026675134963526 0.74095969381691351 1.0000000180025095e-35 6.5000000000000009
decision_type=2 2 2 2 2 2 2 2 2
left_child=2 5 6 -3 -5 -2 7 8 -1
right_child=1 3 -4 4 -6 -7 -8 -9 -10
leaf_value=0.050921520420904559 0.057062372748208606 -0.085011769808060966 0.15815515367125627 -0.036554887979541172 -0.052470330484257102 0.050926148266502692 0.052805618269869382 0.050911831450835179 0.05092136702799132
leaf_weight=0.81738880276680104 0.19639194197952736 0.84008723497390736 0.21619743108749379 2.7539765834808354 0.9870077297091483 0.78519896417856216 0.24941802024841297 0.68586967885494221 0.746193777769804
leaf_count=46 4 10 1 35 22 44 5 39 42
internal_value=-0.00130245 -0.0310433 0.059631 -0.0488701 -0.040754 0.0521539 0.0511069 0.0509185 0.0509214
internal_weight=8.27773 5.56266 2.71507 4.58107 3.74098 0.981591 2.49887 2.24945 1.56358
internal_count=248 115 133 67 57 48 132 127 88
is_linear=0
shrinkage=0.05


Tree=54
num_leaves=10
num_cat=0
split_feature=120 96 7 8 1 31 17 34 1
split_gain=5.64444 3.10437 0.69315 0.519952 0.0759526 0.00203382 0.000273947 1.51357e-08 3.01292e-12
threshold=45.651796701505695 54.583611595183122 15.000000000000002 7.5000000000000009 19.07205117876433 84.026675134963526 0.74095969381691351 -14.895118999596615 17.30858602405112
decision_type=2 2 2 2 2 2 2 2 2
left_child=2 5 6 -3 -5 -2 7 8 -1
right_child=1 3 -4 4 -6 -7 -8 -9 -10
leaf_value=0.050875621855484401 0.05669818659821646 -0.08461547178647634 0.14233392693599878 -0.035826071176777857 -0.052344053106092393 0.050880167445181104 0.05266141903950642 0.050866565760568527 0.050875764269931949
leaf_weight=0.71042354777455397 0.18798337876796711 0.80276779830455769 0.22788432240486134 2.6716104522347455 0.94107855111360539 0.7475623581558466 0.23788700252771366 0.65298534184694323 0.77820588648319244
leaf_count=42 4 10 1 35 22 44 5 39 46
internal_value=-0.00129323 -0.0306868 0.0590297 -0.0482169 -0.0401289 0.0520492 0.0510517 0.0508729 0.0508757
internal_weight=7.95839 5.351 2.60739 4.41546 3.61269 0.935546 2.3795 2.14161 1.48863
internal_count=248 115 133 67 57 48 132 127 88
is_linear=0
shrinkage=0.05


Tree=55
num_leaves=7
num_cat=0
split_feature=18 35 1 19 6 1
split_gain=5.30009 0.867141 0.185199 2.13754e-08 5.65382e-09 2.42251e-12
threshold=0.30776804700813831 237.82647427777823 19.07205117876433 0.42345099731505254 1.0000000180025095e-35 17.30858602405112
decision_type=2 2 2 2 2 2
left_child=3 2 -2 4 5 -1
right_child=1 -3 -4 -5 -6 -7
leaf_value=0.050832188793246302 -0.086813344891525368 -0.02149201568154889 -0.052224512239804913 0.050823548125330589 0.050837649097130948 0.050832323224846793
leaf_weight=0.61192544549703665 0.70605078339576699 2.8448210693895817 0.8563980795443058 0.60567905101925124 0.76123530790209759 0.74086898192763329
leaf_count=38 9 40 21 38 47 46
internal_value=-0.00405681 -0.0379284 -0.0678548 0.0508318 0.0508342 0.0508323
internal_weight=7.12698 4.40727 1.56245 2.71971 2.11403 1.35279
internal_count=239 70 30 169 131 84
is_linear=0
shrinkage=0.05


Tree=56
num_leaves=8
num_cat=0
split_feature=96 35 1 34 34 6 1
split_gain=5.45775 0.710618 0.171145 0.00248882 1.29224e-08 7.78284e-11 2.15716e-12
threshold=54.583611595183122 237.82647427777823 19.07205117876433 -31.280171643125318 -14.895118999596615 1.0000000180025095e-35 17.30858602405112
decision_type=2 2 2 2 2 2 2
left_child=3 2 -2 -1 5 6 -5
right_child=1 -3 -4 4 -6 -7 -8
leaf_value=0.05717820541572604 -0.086113772675479053 -0.024485072530503499 -0.052111323778413793 0.050790943740193863 0.050782738122970822 0.050791672878031692 0.050791073750860186
leaf_weight=0.16210659965872798 0.67693871259689309 2.6804582215845585 0.81635580584406853 0.58254225924611114 0.57659106049686637 0.69046664983034145 0.70529429242014885
leaf_count=3 9 39 21 38 38 45 46
internal_value=-0.00398157 -0.0398841 -0.0675253 0.0511705 0.0507893 0.0507912 0.050791
internal_weight=6.89075 4.17375 1.49329 2.717 2.55489 1.9783 1.28784
internal_count=239 69 30 170 167 129 84
is_linear=0
shrinkage=0.05


Tree=57
num_leaves=8
num_cat=0
split_feature=96 35 1 18 19 7 1
split_gain=5.1279 0.701655 0.157174 0.00213439 1.10925e-08 6.67866e-11 1.85185e-12
threshold=54.583611595183122 237.82647427777823 19.07205117876433 0.23252979912532393 0.42345099731505254 13.500000000000002 17.30858602405112
decision_type=2 2 2 2 2 2 2
left_child=3 2 -2 4 5 6 -1
right_child=1 -3 -4 -5 -6 -7 -8
leaf_value=0.050751774975053322 -0.085316188488176001 -0.023648800056830808 -0.052004112123222868 0.056797852227455495 0.050743982927559286 0.050752467262831329 0.050751898433875335
leaf_weight=0.55454821139574118 0.64979557693004586 2.6375961415469646 0.77810212969779968 0.15520703420042981 0.5488787293434142 0.65728676039725531 0.67140149138867855
leaf_count=38 9 39 21 3 38 45 46
internal_value=-0.00391304 -0.0389322 -0.0671635 0.051113 0.0507502 0.0507521 0.0507518
internal_weight=6.65282 4.06549 1.4279 2.58732 2.43212 1.88324 1.22595
internal_count=239 69 30 170 167 129 84
is_linear=0
shrinkage=0.05


Tree=58
num_leaves=8
num_cat=0
split_feature=96 120 1 18 19 34 1
split_gain=4.81699 0.691482 0.143448 0.00183069 9.52881e-09 5.70499e-11 1.61227e-12
threshold=54.583611595183122 47.323758798822801 19.07205117876433 0.23252979912532393 0.42345099731505254 -15.973324865036487 17.30858602405112
decision_type=2 2 2 2 2 2 2
left_child=3 -2 -3 4 5 6 -1
right_child=1 2 -4 -5 -6 -7 -8
leaf_value=0.050714573373505836 -0.022826108809520695 -0.084427942028905176 -0.05190255721945064 0.056438982676962068 0.050707171057893054 0.050715229785699895 0.050714691447284292
leaf_weight=0.52787977643311046 2.5970800593495373 0.62444685399532296 0.74156531319022179 0.14855248294770707 0.52247905824333418 0.62567797489464316 0.63911359384655952
leaf_count=38 39 9 21 3 38 45 46
internal_value=-0.00384305 -0.0379732 -0.0667709 0.0510584 0.0507131 0.0507148 0.0507146
internal_weight=6.4268 3.96309 1.36601 2.4637 2.31515 1.79267 1.16699
internal_count=239 69 30 170 167 129 84
is_linear=0
shrinkage=0.05


Tree=59
num_leaves=8
num_cat=0
split_feature=96 120 1 130 92 116 1
split_gain=4.52409 0.680232 0.130127 0.0017831 7.65435e-09 2.17815e-09 1.43419e-12
threshold=54.583611595183122 47.323758798822801 19.07205117876433 1.0000000180025095e-35 -0.24027955161436598 -1.0000000180025095e-35 17.30858602405112
decision_type=2 2 2 2 2 2 2
left_child=3 -2 -3 -1 -5 6 -6
right_child=1 2 -4 4 5 -7 -8
leaf_value=0.056811814552090306 -0.022017836177566565 -0.08345910333886232 -0.051806323018957247 0.050673523691033208 0.050679236570746515 0.050682989681940252 0.05067935072519443
leaf_weight=0.12520710285753045 2.5587932206690316 0.60071648657321908 0.70667596533894539 0.48524762503802854 0.50247604772448562 0.62458428461104532 0.60835691355168819
leaf_count=2 39 9 21 37 38 47 46
internal_value=-0.00377172 -0.0370093 -0.06635 0.0510064 0.0506791 0.0506806 0.0506793
internal_weight=6.21206 3.86619 1.30739 2.34587 2.22066 1.73542 1.11083
internal_count=239 69 30 170 168 131 84
is_linear=0
shrinkage=0.05


Tree=60
num_leaves=9
num_cat=0
split_feature=143 52 7 17 1 73 85 6
split_gain=5.92221 0.966298 0.661084 0.00155539 0.000919786 2.7729e-06 1.37278e-08 4.58917e-09
threshold=0.087144980398068159 40.382364835634881 15.000000000000002 1.3223908338551189 19.07205117876433 2473870.0000000005 -1.0000000180025095e-35 1.0000000180025095e-35
decision_type=2 2 2 2 2 2 2 2
left_child=4 -2 3 5 -1 -3 -7 -8
right_child=1 2 -4 -5 -6 6 7 -9
leaf_value=-0.053907644042646766 -0.052314923249746584 0.050781400955885306 0.13979663878747281 0.053997287463240423 -0.051715134452316028 0.050638875606482392 0.05064577802465188 0.050652065790332379
leaf_weight=1.8825301527976992 0.21145867183804545 0.49456267058849457 0.22974000871181477 0.42339050024747837 0.64130134880542744 0.46082650031894568 0.55388437211513364 0.60953368619084358
leaf_count=28 5 37 1 7 20 37 44 48
internal_value=0.00302239 0.0507116 0.058571 0.0512306 -0.0533505 0.0506777 0.0506462 0.0506491
internal_weight=5.50723 2.9834 2.77194 2.5422 2.52383 2.11881 1.62424 1.16342
internal_count=227 179 174 173 48 166 129 92
is_linear=0
shrinkage=0.05


Tree=61
num_leaves=9
num_cat=0
split_feature=143 52 7 17 7 73 1 6
split_gain=5.59842 0.911069 0.512703 0.00133499 0.000784504 2.3948e-06 1.18033e-08 3.9494e-09
threshold=0.087144980398068159 40.382364835634881 15.000000000000002 1.3223908338551189 13.500000000000002 2473870.0000000005 16.982844985758291 1.0000000180025095e-35
decision_type=2 2 2 2 2 2 2 2
left_child=4 -2 3 5 -1 -3 -7 -8
right_child=1 2 -4 -5 -6 6 7 -9
leaf_value=-0.051628684195637112 -0.052196933248683935 0.050743069602871664 0.12808132113979537 0.053792525996437447 -0.053702566465561832 0.05060732731090032 0.050613886243951661 0.050619865108706918
leaf_weight=0.61102032661437999 0.20158892497420344 0.47078897058963898 0.23798279464244831 0.40423577278852452 1.7973834276199341 0.43861810211092223 0.52719470113515832 0.58016594126820564
leaf_count=20 5 37 1 7 28 37 44 48
internal_value=0.00299323 0.0502841 0.0580537 0.05117 -0.0531764 0.0506443 0.0506143 0.050617
internal_weight=5.26898 2.86058 2.65899 2.421 2.4084 2.01677 1.54598 1.10736
internal_count=227 179 174 173 48 166 129 92
is_linear=0
shrinkage=0.05


Tree=62
num_leaves=9
num_cat=0
split_feature=120 22 84 7 7 31 6 7
split_gain=3.91381 2.25328 0.389789 0.000713585 0.000685457 0.000412859 4.28386e-09 5.47895e-12
threshold=45.651796701505695 12.524810087953076 1.0000000180025095e-35 13.500000000000002 13.500000000000002 68.719828356874686 1.0000000180025095e-35 11.500000000000002
decision_type=2 2 2 2 2 2 2 2
left_child=2 3 -1 -2 -3 -4 7 -7
right_child=1 4 5 -5 -6 6 -8 -9
leaf_value=0.11869453206796839 -0.051680370248706767 0.054436734719537874 0.052572535902283273 -0.053508971484648116 0.050584020121802388 0.050583341197001336 0.050577361552588629 0.050583587519752941
leaf_weight=0.24379834532737721 0.77427951619029101 0.14991566911339749 0.32378859072923649 1.7157533466815948 0.50213747844099998 0.41037244722247102 0.41746741533279419 0.50177592784166336
leaf_count=1 25 5 7 28 44 36 37 44
internal_value=0.00296704 -0.0312729 0.0596741 -0.0529404 0.0514698 0.0509715 0.0505816 0.0505835
internal_weight=5.03929 3.14209 1.8972 2.49003 0.652053 1.6534 1.32962 0.912148
internal_count=227 102 125 53 49 124 117 80
is_linear=0
shrinkage=0.05


Tree=63
num_leaves=9
num_cat=0
split_feature=143 52 7 17 1 73 1 12
split_gain=5.00878 0.81165 0.31979 0.000984119 0.000571561 1.77444e-06 8.46514e-09 2.67125e-09
threshold=0.087144980398068159 40.382364835634881 15.000000000000002 1.3223908338551189 19.07205117876433 2473870.0000000005 16.982844985758291 38.837494780881549
decision_type=2 2 2 2 2 2 2 2
left_child=4 -2 3 5 -1 -3 -7 -8
right_child=1 2 -4 -5 -6 6 7 -9
leaf_value=-0.053326147294225003 -0.051980168628166235 0.050671544087349529 0.11100617940240094 0.05341487933156424 -0.051468829153257428 0.050548886326491849 0.050554803276855576 0.050559969952829978
leaf_weight=1.6375290304422381 0.18321787938475642 0.42655490338802415 0.2475423514842986 0.36847510188817967 0.55447593331336964 0.39732535928487767 0.47756892070174195 0.5253835953772068
leaf_count=28 5 37 1 7 20 37 44 48
internal_value=0.00294331 0.0495198 0.0571325 0.0510577 -0.0528563 0.0505823 0.0505551 0.0505575
internal_weight=4.81807 2.62607 2.44285 2.19531 2.192 1.82683 1.40028 1.00295
internal_count=227 179 174 173 48 166 129 92
is_linear=0
shrinkage=0.05


Tree=64
num_leaves=10
num_cat=0
split_feature=2 1 7 2 1 124 19 6 1
split_gain=3.57154 0.768333 0.341795 0.828656 0.253267 0.000794679 3.76206e-09 3.11491e-11 6.53599e-12
threshold=1.5000000000000002 18.202134255739754 13.500000000000002 15.500000000000002 17.55853788746489 -0.024728753526551132 0.42345099731505254 1.0000000180025095e-35 17.30858602405112
decision_type=2 2 2 2 2 2 2 2 2
left_child=1 4 3 -2 5 6 7 8 -1
right_child=2 -3 -4 -5 -6 -7 -8 -9 -10
leaf_value=0.050527166333807653 0.052109970671209829 -0.051879871210119194 -0.053153422570453024 -0.051395142326339766 0.10459644915796894 0.054643907273967889 0.050521829079029537 0.05052783708151886 0.050527449023088172
leaf_weight=0.37167973816394828 0.30505581572651874 0.17461067065596569 1.5625995993614197 0.52817091345787048 0.24951721727848042 0.12607519701123271 0.37814488541334856 0.45484307035803795 0.45451733469963074
leaf_count=36 10 5 28 20 1 2 37 44 44
internal_value=0.00292167 0.0487743 -0.0393628 -0.0135005 0.0574118 0.050817 0.0505262 0.0505275 0.0505273
internal_weight=4.60521 2.20939 2.39583 0.833227 2.03478 1.78526 1.65919 1.28104 0.826197
internal_count=227 169 58 30 164 163 161 124 80
is_linear=0
shrinkage=0.05


Tree=65
num_leaves=9
num_cat=0
split_feature=2 8 10 1 124 32 19 1
split_gain=4.9683 1.22968 0.253864 0.20622 0.000692062 1.20224e-06 3.29649e-09 1.17749e-11
threshold=1.5000000000000002 5.5000000000000009 0.96410256410256423 17.55853788746489 -1.0000000180025095e-35 64.523865653726247 0.42345099731505254 17.30858602405112
decision_type=2 2 2 2 2 2 2 2
left_child=1 -1 -2 4 5 -3 7 -7
right_child=2 3 -4 -5 -6 6 -8 -9
leaf_value=-0.051784834132029424 -0.029697699264699385 0.050596707110322492 -0.062665874941788727 0.099174364792480929 0.054793430585019245 0.050501831666887778 0.050496267367565774 0.050501466839054557
leaf_weight=0.29950548335909877 0.79569616541266475 0.42566007003188167 2.1938887946307659 0.24998266994953144 0.10041759256273497 0.45255356654524781 0.41837393119931221 0.43256711959838867
leaf_count=9 32 41 38 1 2 46 43 44
internal_value=-0.0109832 0.0429361 -0.0538912 0.0565782 0.0507581 0.0505237 0.0504999 0.0505017
internal_weight=5.36865 2.37906 2.98958 2.07955 1.82957 1.72915 1.30349 0.885121
internal_count=256 186 70 177 176 174 133 90
is_linear=0
shrinkage=0.05


Tree=66
num_leaves=10
num_cat=0
split_feature=120 63 32 84 1 31 31 6 1
split_gain=4.31438 2.33497 0.263263 0.161662 0.000426576 0.000371476 0.00016507 2.42615e-09 7.224e-12
threshold=45.651796701505695 -5.4218042212464601 75.940511795199882 1.0000000180025095e-35 19.07205117876433 84.026675134963526 68.719828356874686 1.0000000180025095e-35 17.30858602405112
decision_type=2 2 2 2 2 2 2 2 2
left_child=3 5 4 -1 -3 -2 -5 8 -8
right_child=1 2 -4 6 -6 -7 7 -9 -10
leaf_value=0.094531559069205337 0.053537155495366341 -0.052808551739872735 -0.091770019926447066 0.052193535648929229 -0.051286471295958549 0.050480751669935764 0.050476463440142533 0.050471831515865519 0.050476767014762086
leaf_weight=0.2491634041070937 0.12821044027805362 1.863140735775233 0.51359656080603588 0.15843299403786648 0.61137098819017399 0.44263055920600891 0.37400797009468056 0.39815742895007133 0.41166680678725243
leaf_count=1 5 37 10 4 25 47 40 43 44
internal_value=-0.0108909 -0.0414924 -0.0591938 0.0575438 -0.0524325 0.0511672 0.0506779 0.050475 0.0504766
internal_weight=5.15038 3.55895 2.98811 1.59143 2.47451 0.570841 1.34227 1.18383 0.785675
internal_count=256 124 72 132 62 52 131 127 84
is_linear=0
shrinkage=0.05


Tree=67
num_leaves=9
num_cat=0
split_feature=2 1 10 1 124 31 1 1
split_gain=4.46677 1.06222 0.243449 0.136531 0.000509931 8.894e-07 2.43292e-09 8.71259e-12
threshold=1.5000000000000002 18.202134255739754 0.96410256410256423 17.55853788746489 -1.0000000180025095e-35 81.494981646430688 16.982844985758291 17.30858602405112
decision_type=2 2 2 2 2 2 2 2
left_child=1 3 -2 4 5 -1 -7 -8
right_child=2 -3 -4 -5 -6 6 7 -9
leaf_value=0.050539372131521466 -0.028658790327517725 -0.051546153072031559 -0.062109144541625319 0.090514765311279832 0.054308232320462224 0.050448604388438879 0.050453627594003528 0.050453297834050628
leaf_weight=0.38556346669793118 0.74560032412409816 0.26186192035675038 2.0110401213169098 0.24725465476512898 0.09176945406943593 0.37890901416540124 0.40986725501716137 0.39176714047789574
leaf_count=41 32 9 38 1 2 43 46 44
internal_value=-0.0108373 0.0428764 -0.0530617 0.0558549 0.0506857 0.0504734 0.0504519 0.0504535
internal_weight=4.92363 2.16699 2.75664 1.90513 1.65788 1.56611 1.18054 0.801634
internal_count=256 186 70 177 176 174 133 90
is_linear=0
shrinkage=0.05


Tree=68
num_leaves=10
num_cat=0
split_feature=120 96 108 135 1 31 31 19 1
split_gain=3.87947 2.11048 0.219212 0.1078 0.00029353 0.000268689 0.000154255 1.7767e-09 7.2603e-12
threshold=45.651796701505695 54.583611595183122 -0.13917572461425706 0.1511785162213187 19.07205117876433 84.026675134963526 68.719828356874686 0.42345099731505254 17.30858602405112
decision_type=2 2 2 2 2 2 2 2 2
left_child=3 5 4 -1 -3 -2 -5 8 -8
right_child=1 2 -4 6 -6 -7 7 -9 -10
leaf_value=0.087008648135432382 0.053131405335645754 -0.052503654417569157 -0.089175868971731354 0.052127159393354695 -0.051187627684502773 0.050434525503787492 0.050430679805450157 0.05042653913163743 0.050430999613542832
leaf_weight=0.24442656338214863 0.12000782042741809 1.680223334580661 0.48697167448699419 0.15286779403686512 0.56657926179468621 0.40082660410553217 0.33868689090013482 0.36058315122500062 0.37282107770442963
leaf_count=1 5 37 10 4 25 47 40 43 44
internal_value=-0.0107438 -0.041189 -0.0587634 0.0566908 -0.0521718 0.0510559 0.0506413 0.0504294 0.0504308
internal_weight=4.72399 3.25461 2.73377 1.46939 2.2468 0.520834 1.22496 1.07209 0.711508
internal_count=256 124 72 132 62 52 131 127 84
is_linear=0
shrinkage=0.05


Tree=69
num_leaves=9
num_cat=0
split_feature=2 8 10 84 10 32 1 1
split_gain=4.01253 0.92045 0.232874 0.092085 0.000375985 6.57589e-07 1.79608e-09 6.41021e-12
threshold=1.5000000000000002 5.5000000000000009 0.96410256410256423 1.0000000180025095e-35 0.97312925170068032 64.523865653726247 16.982844985758291 17.30858602405112
decision_type=2 2 2 2 2 2 2 2
left_child=1 -1 -2 -3 5 -5 -7 -8
right_child=2 3 -4 4 -6 6 7 -9
leaf_value=-0.051343190478954609 -0.027628968007168811 0.083924689227698412 -0.061514647199810917 0.050487572114108828 0.053874915669103643 0.050405562807920301 0.050410097935971447 0.050409800704954093
leaf_weight=0.22928960993885983 0.6993142589926723 0.24082767963409413 1.8439222015440462 0.34920443408191193 0.083786942996084579 0.34313646424561717 0.37117422372102737 0.35478374734520912
leaf_count=9 32 1 38 41 2 43 46 44
internal_value=-0.010691 0.0428328 -0.0521971 0.0552221 0.0506203 0.050428 0.0504085 0.05041
internal_weight=4.51544 1.9722 2.54324 1.74291 1.50209 1.4183 1.06909 0.725958
internal_count=256 186 70 177 176 174 133 90
is_linear=0
shrinkage=0.05


end of trees

feature_importances:
avg_daily_turnover_log=112
n_signals_fired_in_last_30d=31
t3_rsi=27
n_signals_fired_in_last_7d=22
t0_macd_line=22
t90_bb_bandwidth=20
days_in_current_stage=17
is_earnings_window=16
t0_plus_di=15
signal_acceleration=14
t0_stoch_k=13
t0_ema_100=11
t0_macd_histogram=11
t0_williams_r=11
t30_rsi=11
t0_macd_signal=10
t0_cci=9
t0_minus_di=8
t0_obv_slope_60=8
t0_stoch_d=7
t0_hist_vol_30d=7
t60_obv=6
t0_atr=5
t0_obv_slope_20=5
t0_eom=5
t0_mfi=4
accumulation_trajectory_slope=4
t7_cmf=4
t0_adx=3
t0_tsi=3
t0_volume=3
t1_bb_bandwidth=3
t3_cmf=3
t30_cmf=3
t60_rel_volume=3
t0_linreg_slope=2
rsi_velocity=2
t1_cmf=2
t3_macd_histogram=2
t60_cmf=2
earliest_signal_lead_days=1
t0_ema_21=1
t0_rsi=1
t0_bb_pct_b=1
t0_klinger=1
t0_swing_high=1
accumulation_score_velocity=1
bb_bandwidth_trajectory=1
t1_accumulation_score=1
t1_rel_volume=1
t3_accumulation_score=1
t3_adx=1
t7_bb_bandwidth=1
t14_macd_histogram=1
t14_cmf=1
t60_bb_bandwidth=1
current_stage_early_breakout=1

parameters:
[boosting: gbdt]
[objective: binary]
[metric: binary_logloss]
[tree_learner: serial]
[device_type: cpu]
[data_sample_strategy: bagging]
[data: ]
[valid: ]
[num_iterations: 70]
[learning_rate: 0.05]
[num_leaves: 31]
[num_threads: 0]
[seed: 42]
[deterministic: 1]
[force_col_wise: 0]
[force_row_wise: 0]
[histogram_pool_size: -1]
[max_depth: -1]
[min_data_in_leaf: 10]
[min_sum_hessian_in_leaf: 0.001]
[bagging_fraction: 0.8]
[pos_bagging_fraction: 1]
[neg_bagging_fraction: 1]
[bagging_freq: 5]
[bagging_seed: 42]
[bagging_by_query: 0]
[feature_fraction: 0.8]
[feature_fraction_bynode: 1]
[feature_fraction_seed: 42]
[extra_trees: 0]
[extra_seed: 12879]
[early_stopping_round: 0]
[early_stopping_min_delta: 0]
[first_metric_only: 0]
[max_delta_step: 0]
[lambda_l1: 0]
[lambda_l2: 0]
[linear_lambda: 0]
[min_gain_to_split: 0]
[drop_rate: 0.1]
[max_drop: 50]
[skip_drop: 0.5]
[xgboost_dart_mode: 0]
[uniform_drop: 0]
[drop_seed: 17869]
[top_rate: 0.2]
[other_rate: 0.1]
[min_data_per_group: 100]
[max_cat_threshold: 32]
[cat_l2: 10]
[cat_smooth: 10]
[max_cat_to_onehot: 4]
[top_k: 20]
[monotone_constraints: ]
[monotone_constraints_method: basic]
[monotone_penalty: 0]
[feature_contri: ]
[forcedsplits_filename: ]
[refit_decay_rate: 0.9]
[cegb_tradeoff: 1]
[cegb_penalty_split: 0]
[cegb_penalty_feature_lazy: ]
[cegb_penalty_feature_coupled: ]
[path_smooth: 0]
[interaction_constraints: ]
[verbosity: -1]
[saved_feature_importance_type: 0]
[use_quantized_grad: 0]
[num_grad_quant_bins: 4]
[quant_train_renew_leaf: 0]
[stochastic_rounding: 1]
[linear_tree: 0]
[max_bin: 255]
[max_bin_by_feature: ]
[min_data_in_bin: 3]
[bin_construct_sample_cnt: 200000]
[data_random_seed: 42]
[is_enable_sparse: 1]
[enable_bundle: 1]
[use_missing: 1]
[zero_as_missing: 0]
[feature_pre_filter: 1]
[pre_partition: 0]
[two_round: 0]
[header: 0]
[label_column: ]
[weight_column: ]
[group_column: ]
[ignore_column: ]
[categorical_feature: ]
[forcedbins_filename: ]
[precise_float_parser: 0]
[parser_config_file: ]
[objective_seed: 16083]
[num_class: 1]
[is_unbalance: 0]
[scale_pos_weight: 1]
[sigmoid: 1]
[boost_from_average: 1]
[reg_sqrt: 0]
[alpha: 0.9]
[fair_c: 1]
[poisson_max_delta_step: 0.7]
[tweedie_variance_power: 1.5]
[lambdarank_truncation_level: 30]
[lambdarank_norm: 1]
[label_gain: ]
[lambdarank_position_bias_regularization: 0]
[eval_at: ]
[multi_error_top_k: 1]
[auc_mu_weights: ]
[num_machines: 1]
[local_listen_port: 12400]
[time_out: 120]
[machine_list_filename: ]
[machines: ]
[gpu_platform_id: -1]
[gpu_device_id: -1]
[gpu_use_dp: 0]
[num_gpu: 1]

end of parameters

pandas_categorical:[]
