tree
version=v4
num_class=1
num_tree_per_iteration=1
label_index=0
max_feature_idx=191
objective=binary sigmoid:1
feature_names=log_market_cap avg_daily_turnover_log days_in_current_stage pmi_50w_trend brent_30d_trend is_ramadan_period is_earnings_window n_signals_fired_in_last_30d n_signals_fired_in_last_7d earliest_signal_lead_days signal_acceleration t0_ema_8 t0_ema_21 t0_ema_50 t0_ema_100 t0_ema_200 t0_ema_ribbon_aligned t0_macd_line t0_macd_signal t0_macd_histogram t0_adx t0_plus_di t0_minus_di t0_supertrend t0_psar t0_hull_ma t0_linreg_slope t0_ichimoku_cloud_pos t0_ichimoku_tk_cross t0_rsi t0_rsi_divergence t0_stoch_k t0_stoch_d t0_stoch_rsi t0_williams_r t0_cci t0_roc t0_tsi t0_ao t0_connors_rsi t0_atr t0_atr_percentile_252 t0_bb_upper t0_bb_middle t0_bb_lower t0_bb_pct_b t0_bb_bandwidth t0_bb_squeeze t0_kc_upper t0_kc_lower t0_dc_upper t0_dc_lower t0_hist_vol_30d t0_obv t0_obv_slope_20 t0_obv_slope_60 t0_ad_line t0_cmf t0_mfi t0_vwap t0_vwap_distance_sigma t0_rel_volume t0_force_index t0_eom t0_klinger t0_swing_high t0_swing_low t0_zscore_20 t0_zscore_50 t0_zscore_200 t0_accumulation_score t0_wyckoff_phase_code t0_close t0_volume t0_high t0_low rsi_velocity macd_histogram_velocity obv_velocity accumulation_score_velocity cmf_velocity adx_velocity rel_volume_velocity obv_trajectory_slope accumulation_trajectory_slope bb_bandwidth_trajectory days_since_last_swing_high days_since_last_swing_low t1_rsi t1_macd_histogram t1_obv t1_accumulation_score t1_cmf t1_adx t1_rel_volume t1_bb_bandwidth t3_rsi t3_macd_histogram t3_obv t3_accumulation_score t3_cmf t3_adx t3_rel_volume t3_bb_bandwidth t7_rsi t7_macd_histogram t7_obv t7_accumulation_score t7_cmf t7_adx t7_rel_volume t7_bb_bandwidth t14_rsi t14_macd_histogram t14_obv t14_accumulation_score t14_cmf t14_adx t14_rel_volume t14_bb_bandwidth t30_rsi t30_macd_histogram t30_obv t30_accumulation_score t30_cmf t30_adx t30_rel_volume t30_bb_bandwidth t60_rsi t60_macd_histogram t60_obv t60_accumulation_score t60_cmf t60_adx t60_rel_volume t60_bb_bandwidth t90_rsi t90_macd_histogram t90_obv t90_accumulation_score t90_cmf t90_adx t90_rel_volume t90_bb_bandwidth current_stage_dormant stage_before_dormant current_stage_stealth_accumulation stage_before_stealth_accumulation current_stage_early_breakout stage_before_early_breakout current_stage_markup_trending stage_before_markup_trending current_stage_acceleration_climax stage_before_acceleration_climax current_stage_distribution_topping stage_before_distribution_topping current_stage_markdown_decline stage_before_markdown_decline current_stage_capitulation_exhaustion stage_before_capitulation_exhaustion regime_risk_on regime_neutral regime_risk_off sector_banking sector_consumer sector_energy sector_holding_misc sector_industrial sector_insurance sector_investment sector_real_estate sector_technology sector_telecom sector_transport tier_premier dow_0.0 dow_1.0 dow_2.0 dow_3.0 dow_6.0 month_1.0 month_2.0 month_3.0 month_4.0 month_5.0 month_6.0 month_7.0 month_8.0 month_9.0 month_10.0 month_11.0 month_12.0
feature_infos=none [17.276987975805543:19.68742317610241] [1:14] none none none [0:1] [6:17] [3:13] [53:90] [-0.20000000000000001:0.98550724637681164] [40.903733351796511:85.151411233308579] [40.268757521944785:79.762218113219177] [39.749759856724985:77.779722806174249] [46.071845529933277:75.964031269005133] [68.742287883484067:73.204257291482378] [-1:1] [-0.39210265832662827:4.70897728337453] [-0.63463762891150266:3.461453525913317] [-0.14427540951864848:1.5713129252671738] [14.816841534112173:59.855302558294113] [21.690161778505008:55.826118971711495] [5.741843466771444:17.273468422825086] none [39.288135905062397:81.5] [41.100816993464051:88.406903594771265] [-0.07751879699248479:1.2630075187969909] [-1:1] none [60.933040732286081:88.256709958125725] none [61.904761904761905:100] [42.750233070599172:94.922248803827713] none [-38.095238095238095:0] [100.91333751655849:355.4729834339692] [3.0219780219780334:43.050193050193045] [-10.250596870329973:52.368657198764083] [-1.1623529411764721:11.09205882352942] [76.686924495678184:97.657683606932167] [0.89174437944245954:3.3095605678043927] [14.682539682539682:100] [41.594838701284765:91.2672223702032] [40.045000000000002:77.820000000000007] [38.495161298715239:72.765849682722774] [0.88175642641292218:1.3537594039655954] [0.067242981594796497:0.54490469028026112] none [42.09446586734429:85.481895765499814] [38.495207962176615:74.558596221964251] [42.899999999999999:94.599999999999994] [38.899999999999999:73.599999999999994] [13.967992812223667:70.66236255637817] [35223719:430937252] [-328162.45112782059:7725201.8390977401] [-334139.8482634105:1825587.337954988] [-139798916.72032076:10262549.459588043] [-0.32597396463787032:0.40730551398607534] [58.027903738704929:95.361501763713605] [40.619384475091444:83.052768105107475] [1.4477616525624144:4.1493957309528433] [1.9800804652810076:8.3168722653192688] [1399156.4022929305:67079762.371609196] [-7.7769986524637549:139.46411329754508] [-52113174.830529854:63114681.390559971] [0:1] none [1.5270257056516889:3.4150376158623832] [0.48578771087622125:4.7459787532985427] [-0.84485035170843725:3.9404446733595355] [29.355066993345901:77.643854748603346] none [42.399999999999999:93.900000000000006] [3306414:48217211] [42.899999999999999:94.599999999999994] [41.700000000000003:86.5] [-0.24495921688279529:9.2325486252631972] [-0.065541133237629154:0.30241547208688185] [1515942.3333333333:21344675] [-0.53253134011650849:6.7295374407152933] [-0.021430257404762305:0.075020100798275216] [0.032721851824398129:3.103081355572749] [-0.20270379100383998:2.3343344836410194] [-100864.89090909455:4562537.1912932098] [-0.72704826482571183:1.5503083194629648] [-0.015544711941771249:0.012093247153881131] [0:25] [1:27] [40.244612478869939:84.777511269273262] [-0.27032151692129736:1.2234258961452062] [26799593:395893304] [28.670079739757497:74.711768407766812] [-0.41265859160883739:0.37364278375045745] [13.877884021992237:58.977123240265897] [0.27198894579146249:4.2568440724958734] [0.043463364573546201:0.52303327650091558] [37.239767370467007:76.684896497982706] [-0.36025214840166075:1.4441471571741005] [20530770:395527701] [28.265719181966304:69.745168303628773] [-0.44162284362892512:0.25548354072897494] [13.949823253350182:59.535803229571627] [0.15322350247032782:4.2810104999538492] [0.033684511636499832:0.49547313044368674] [38.391906371590061:80.18754581127024] [-0.39422800149517556:1.5606572499144702] [10837953:393360661] [26.114766072261357:62.874811523714399] [-0.44703155701420744:0.32925740220178279] [8.2853403389731852:60.58982296598785] [0.14168872014678785:4.8655778642882961] [0.026956415276973782:0.36984994155386169] [36.203388971038706:69.250392974391517] [-0.62229290199429332:0.30415677234030125] [8825383:391844782] [18.256804136212477:65.710110243520177] [-0.39424670036723053:0.31251335128016694] [9.7759993970223888:60.092736611199214] [0.17484892951717029:3.535766052910486] [0.031521603170225385:0.21453023357798642] [34.655704034059937:82.153681760337037] [-0.33943114502606436:1.247523757461213] [5249927:392846108] [20.534978505444634:62.736952430165253] [-0.2245615819635722:0.11216016473502126] [9.6142629716378405:46.366456531923525] [0.14849662325294979:3.3684938102383688] [0.027129371698152729:0.54490469028026112] [28.245042117079706:84.676763723142358] [-0.76950455215568203:0.82196301950462836] [4309289:394310799] [26.135455815328406:71.905630759852841] [-0.27136286464552167:0.23333916421945922] [14.780617468140488:51.816771843578948] [0.077574847235872393:4.8620292534187755] [0.072731011405089085:0.35506586220481606] [28.245042117079706:68.382346121927242] [-0.5544474859071169:0.4641595724901203] [5420807:395908512] [25.629110181984618:63.962752847055384] [-0.34692043013096641:0.23333916421945922] [7.921408303577496:60.614205303873703] [0.32551722874674532:2.4745066184005315] [0.044284848410031892:0.18135722599924858] [0:1] [0:1] none none [0:1] [0:1] none none none none none none none none none none none none none none none none none none none none none none none none none none [0:1] [0:1] [0:1] none none none none [0:1] none [0:1] none none [0:1] none [0:1] none
tree_sizes=452 571 667 672 671 883 780 785 782 888 778 876 881 879 886 985 881 875 983 991 877 883 887 791 883 975 873 982 883 985 988 1095 1096 1087 1097 990 983 988 988 985 989 987 990 986 993 887 1096 991 994 993 997 994 991 993 1001 1003 992 994 997 995 998

Tree=0
num_leaves=3
num_cat=0
split_feature=35 40
split_gain=146.457 12.9881
threshold=156.9952603895733 1.8864923838960548
decision_type=2 2
left_child=-1 -2
right_child=1 -3
leaf_value=-0.41450406599240047 -0.2090596255889523 -0.33232628983102119
leaf_weight=20.443482756614685 17.522985219955448 2.433747947216033
leaf_count=84 72 10
internal_value=-0.320445 -0.224092
internal_weight=40.4002 19.9567
internal_count=166 82
is_linear=0
shrinkage=1


Tree=1
num_leaves=4
num_cat=0
split_feature=110 116 22
split_gain=132.827 10.8089 0.000639944
threshold=1.2053983675336397 -0.17301446041449867 17.012298297718651
decision_type=2 2 2
left_child=1 -1 -2
right_child=2 -3 -4
leaf_value=-0.0011968552336802838 -0.083625832463935013 0.11162592714158114 -0.083033394494225865
leaf_weight=2.4102611541748074 6.9692572951316842 17.804746985435486 13.175900429487228
leaf_count=10 29 72 55
internal_value=0.00762477 0.0981739 -0.0832383
internal_weight=40.3602 20.215 20.1452
internal_count=166 82 84
is_linear=0
shrinkage=0.05


Tree=2
num_leaves=5
num_cat=0
split_feature=35 40 7 17
split_gain=120.305 9.59311 0.000503066 1.42109e-14
threshold=156.9952603895733 1.8864923838960548 11.500000000000002 0.47699624288272352
decision_type=2 2 2 2
left_child=2 3 -1 -2
right_child=1 -3 -4 -5
leaf_value=-0.08093139428328007 0.10511692305063465 -0.0011298150369613417 -0.080401308616984024 0.10511692305063475
leaf_weight=6.8445760309696206 7.981043338775641 2.4096431732177725 12.932983338832855 9.9763041734695417
leaf_count=29 32 10 55 40
internal_value=0.00725201 0.0925467 -0.0805848 0.105117
internal_weight=40.1446 20.367 19.7776 17.9573
internal_count=166 82 84 72
is_linear=0
shrinkage=0.05


Tree=3
num_leaves=5
num_cat=0
split_feature=110 116 1 1
split_gain=110.235 8.1402 0.00182973 1.42109e-14
threshold=1.2053983675336397 -0.17301446041449867 18.430748560665631 19.031408984057467
decision_type=2 2 2 2
left_child=1 -1 -2 -3
right_child=2 3 -4 -5
leaf_value=0.0012914803415863482 -0.078052680535969976 0.09961731464231198 -0.079072925884256767 0.099617314642312008
leaf_weight=2.3836982548236874 12.662848532199861 9.7498558759689349 6.7303122282028189 8.2498780488967878
leaf_count=10 55 39 29 33
internal_value=0.00692892 0.0881188 -0.0784068 0.0996173
internal_weight=39.7766 20.3834 19.3932 17.9997
internal_count=166 82 84 72
is_linear=0
shrinkage=0.05


Tree=4
num_leaves=5
num_cat=0
split_feature=35 40 1 113
split_gain=100.693 7.38484 0.00147425 1.42109e-14
threshold=156.9952603895733 1.8864923838960548 18.430748560665631 -0.22724908748173875
decision_type=2 2 2 2
left_child=2 3 -1 -2
right_child=1 -3 -4 -5
leaf_value=-0.075946366706701685 0.094912779698126726 0.0012508020077075244 -0.076872620526117486 0.094912779698126934
leaf_weight=12.370727285742761 2.4928179383277937 2.3840699791908255 6.5813231915235511 15.455471217632294
leaf_count=55 10 10 29 62
internal_value=0.0066456 0.0839304 -0.076268 0.0949128
internal_weight=39.2844 20.3324 18.9521 17.9483
internal_count=166 82 84 72
is_linear=0
shrinkage=0.05


Tree=5
num_leaves=7
num_cat=0
split_feature=35 102 6 29 1 1
split_gain=89.9422 13.1444 0.0471866 0.0269684 8.77765e-06 7.10543e-15
threshold=218.13522174298296 0.8568599225196708 1.0000000180025095e-35 69.915270670770425 18.430748560665631 19.182667135330338
decision_type=2 2 2 2 2 2
left_child=1 2 4 -2 -1 -5
right_child=3 -3 -4 5 -6 -7
leaf_value=-0.074048803279400263 0.096536712740289993 0.053168657909862242 -0.080749410798790458 0.090846030486656362 -0.073975109555694543 0.090846030486656362
leaf_weight=11.841893523931512 2.4661557674407932 2.2107586711645117 3.0503502041101447 6.928926944732666 6.1336275339126578 6.4340035915374756
leaf_count=54 10 9 13 28 28 26
internal_value=-0.000187913 -0.0628054 -0.0749994 0.0917326 -0.0740237 0.090846
internal_weight=39.0657 23.2366 21.0259 15.8291 17.9755 13.3629
internal_count=168 104 95 64 82 54
is_linear=0
shrinkage=0.05


Tree=6
num_leaves=6
num_cat=0
split_feature=35 19 6 29 7
split_gain=82.5585 14.0518 0.0427881 0.0211817 7.01699e-06
threshold=218.13522174298296 0.16979322271917127 1.0000000180025095e-35 69.915270670770425 11.500000000000002
decision_type=2 2 2 2 2
left_child=1 -1 4 -2 -3
right_child=3 2 -4 -5 -6
leaf_value=0.066527069649070347 0.092361388846444903 -0.072265554990450162 -0.078577741500009554 0.087298898124215263 -0.072332346448723508
leaf_weight=1.9678314626216913 2.4491565525531742 5.9689633846283003 3.2243839353322974 13.214240938425064 11.524791240692139
leaf_count=8 10 28 14 54 54
internal_value=-0.000198705 -0.0611575 -0.0732851 0.0880905 -0.0723096
internal_weight=38.3494 22.686 20.7181 15.6634 17.4938
internal_count=168 104 96 64 82
is_linear=0
shrinkage=0.05


Tree=7
num_leaves=6
num_cat=0
split_feature=35 19 6 63 7
split_gain=76.0153 13.0435 0.0342702 0.0168275 5.63999e-06
threshold=218.13522174298296 0.16979322271917127 1.0000000180025095e-35 -1.0000000180025095e-35 11.500000000000002
decision_type=2 2 2 2 2
left_child=1 -1 4 -2 -3
right_child=3 2 -4 -5 -6
leaf_value=0.063683128298004557 0.088718819669987181 -0.070713289116162786 -0.076430441341196642 0.084180821295202976 -0.070774038533742256
leaf_weight=1.953286781907084 2.4228694736957559 5.7992928624153182 3.1510768830776206 13.023267120122906 11.197904258966446
leaf_count=8 10 28 14 54 54
internal_value=-0.000207505 -0.0596815 -0.0716412 0.0848926 -0.0707533
internal_weight=37.5477 22.1016 20.1483 15.4461 16.9972
internal_count=168 104 96 64 82
is_linear=0
shrinkage=0.05


Tree=8
num_leaves=6
num_cat=0
split_feature=45 19 6 63 7
split_gain=70.1709 12.1297 0.0275981 0.0134991 4.55429e-06
threshold=1.1663998783067082 0.16979322271917127 1.0000000180025095e-35 1.0000000180025095e-35 11.500000000000002
decision_type=2 2 2 2 2
left_child=1 -1 4 -2 -3
right_child=3 2 -4 -5 -6
leaf_value=0.061065889313415334 0.08551570759856883 -0.069299170072261815 -0.074496554889794842 0.081421236650499551 -0.069354593218095659
leaf_weight=1.9355984628200555 2.3887879550456992 5.6261413693428084 3.0732045471668235 12.79710218310356 10.864191323518753
leaf_count=8 10 28 14 54 54
internal_value=-0.000214742 -0.0583332 -0.0701464 0.0820653 -0.0693357
internal_weight=36.685 21.4991 19.5635 15.1859 16.4903
internal_count=168 104 96 64 82
is_linear=0
shrinkage=0.05


Tree=9
num_leaves=7
num_cat=0
split_feature=35 105 6 63 1 9
split_gain=64.9237 14.0045 0.0466467 0.0109201 3.69442e-06 3.55271e-15
threshold=218.13522174298296 -0.012967546190172706 1.0000000180025095e-35 1.0000000180025095e-35 18.430748560665631 84.500000000000014
decision_type=2 2 2 2 2 2
left_child=1 -1 4 -2 -3 -5
right_child=3 2 -4 5 -6 -7
leaf_value=0.081988132765972208 0.082679449561283383 -0.068057758088944806 -0.074618790572912111 0.078964261144176928 -0.068007044567652594 0.078964261144176928
leaf_weight=1.6655395179986978 2.3482145071029654 10.526216894388201 3.2415595650672904 7.6645250469446173 5.4508302807807913 4.8774250298738471
leaf_count=7 10 54 15 33 28 21
internal_value=-0.000220758 -0.0570965 -0.06915 0.0795502 -0.0680405 0.0789643
internal_weight=35.7743 20.8841 19.2186 14.8902 15.977 12.542
internal_count=168 104 97 64 82 54
is_linear=0
shrinkage=0.05


Tree=10
num_leaves=6
num_cat=0
split_feature=110 116 22 11 1
split_gain=61.4852 5.16592 0.0144885 0.00233107 1.84115e-05
threshold=1.2053983675336397 -0.10054073926059055 17.012298297718651 70.143228241391327 19.182667135330338
decision_type=2 2 2 2 2
left_child=1 -1 -2 -3 -5
right_child=2 3 -4 4 -6
leaf_value=0.0016683859503247363 -0.070002710328735659 0.078135870827971979 -0.066869676944363132 0.076639345527134958 0.076765090044011178
leaf_weight=2.6648223549127605 5.6711009144783029 3.6833015680313101 10.563463568687439 6.5761521160602552 5.2232283651828766
leaf_count=12 29 16 56 29 23
internal_value=0.00272903 0.0659704 -0.0679641 0.0770378 0.076695
internal_weight=34.3821 18.1475 16.2346 15.4827 11.7994
internal_count=165 80 85 68 52
is_linear=0
shrinkage=0.05


Tree=11
num_leaves=7
num_cat=0
split_feature=110 95 1 14 56 1
split_gain=57.083 6.25608 0.0123301 0.00688844 6.47691e-05 9.88464e-09
threshold=1.2053983675336397 0.077350824111298996 18.430748560665631 68.680612229684684 -89526864.83202447 19.182667135330338
decision_type=2 2 2 2 2 2
left_child=1 3 -2 -1 5 -5
right_child=2 -3 -4 4 -6 -7
leaf_value=0.077695668813050511 -0.065778496790146704 -0.014924609638444331 -0.068716303583549729 0.074790462230481677 0.074527618299551887 0.074787348184501654
leaf_weight=2.2930724024772671 10.210705161094664 2.1991015970706931 5.4929221868515006 5.0967114865779859 3.0909830033779135 5.0964952260255814
leaf_count=10 56 10 29 23 14 23
internal_value=0.00265667 0.06402 -0.0668061 0.075165 0.0747281 0.0747889
internal_weight=33.48 17.7764 15.7036 15.5773 13.2842 10.1932
internal_count=165 80 85 70 60 46
is_linear=0
shrinkage=0.05


Tree=12
num_leaves=7
num_cat=0
split_feature=110 95 22 14 56 2
split_gain=53.1021 5.87332 0.0105206 0.00547855 5.16345e-05 7.89299e-09
threshold=1.2053983675336397 0.077350824111298996 17.012298297718651 68.680612229684684 -89526864.83202447 2.5000000000000004
decision_type=2 2 2 2 2 2
left_child=1 3 -2 -1 5 -5
right_child=2 -3 -4 4 -6 -7
leaf_value=0.075626187461302841 -0.067533882883143811 -0.014232971405504422 -0.064774006328884123 0.073001188408573101 0.07276617691975365 0.073004008133645867
leaf_weight=2.2393881082534817 5.3141735792160008 2.1908814162015906 9.8594988584518433 4.9635028690099698 3.0095778703689566 4.9637280404567719
leaf_count=10 29 10 56 23 14 23
internal_value=0.00259234 0.062295 -0.0657406 0.0733428 0.0729476 0.0730026
internal_weight=32.5408 17.3671 15.1737 15.1762 12.9368 9.92723
internal_count=165 80 85 70 60 46
is_linear=0
shrinkage=0.05


Tree=13
num_leaves=7
num_cat=0
split_feature=110 95 10 14 56 2
split_gain=49.4642 5.53 0.00899684 0.00438281 4.13965e-05 6.32465e-09
threshold=1.2053983675336397 0.077350824111298996 0.92261904761904778 68.680612229684684 -89526864.83202447 2.5000000000000004
decision_type=2 2 2 2 2 2
left_child=1 3 -2 -1 5 -5
right_child=2 -3 -4 4 -6 -7
leaf_value=0.073760421426109266 -0.063847369909301288 -0.013572103583882906 -0.066444344057664723 0.071381902228050284 0.071168475243136728 0.071384462076416841
leaf_weight=2.1826677620410981 9.5112882852554304 2.1828931123018256 5.135772079229354 4.8257846534252149 2.9254173934459677 4.8260163366794586
leaf_count=10 56 10 29 23 14 23
internal_value=0.00253335 0.0607068 -0.064758 0.0716922 0.0713332 0.0713832
internal_weight=31.5898 16.9428 14.6471 14.7599 12.5772 9.6518
internal_count=165 80 85 70 60 46
is_linear=0
shrinkage=0.05


Tree=14
num_leaves=7
num_cat=0
split_feature=116 46 132 1 12 1
split_gain=45.6235 5.54274 0.00352484 0.00319699 3.33511e-05 5.09078e-09
threshold=-0.21190274816829771 0.10108368220294121 -1.0000000180025095e-35 18.430748560665631 70.745343712545449 19.182667135330338
decision_type=2 2 2 2 2 2
left_child=3 2 4 -1 -2 -6
right_child=1 -3 -4 -5 5 -7
leaf_value=-0.062990887632706036 0.069714375959099448 -0.015234003378418856 0.07207160864241785 -0.064568284478807497 0.069911154185032354 0.069908823239787671
leaf_weight=9.1672984361648577 2.8392972648143777 2.1888318061828604 2.1236186623573312 4.9448122531175605 4.6849109530448896 4.684674471616745
leaf_count=56 14 10 10 29 23 23
internal_value=0.00247903 0.0588739 0.0701915 -0.0635436 0.0698645 0.06991
internal_weight=30.6334 16.5213 14.3325 14.1121 12.2089 9.36959
internal_count=165 80 70 85 60 46
is_linear=0
shrinkage=0.05


Tree=15
num_leaves=8
num_cat=0
split_feature=110 45 102 22 7 1 1
split_gain=45.6963 4.32524 0.0761578 0.0485575 0.000300917 4.28976e-05 4.03401e-09
threshold=1.2053983675336397 1.0585541241170324 1.7219195126849467 15.128544651080837 12.500000000000002 18.430748560665631 19.182667135330338
decision_type=2 2 2 2 2 2 2
left_child=1 -1 4 -2 -3 -5 -6
right_child=3 2 -4 5 6 -7 -8
leaf_value=-0.005218295627137607 -0.071388566154722388 0.069244166587555334 0.079486066185256554 -0.062197822192165242 0.068566686174208788 -0.062007008190123142 0.068564554913680409
leaf_weight=2.2247189879417446 1.5795569717884035 2.0022316575050327 1.9220363348722465 9.7744779288768751 4.5415692776441556 4.2158681005239496 4.3438809216022491
leaf_count=11 8 10 9 62 23 27 22
internal_value=-0.00304145 0.0591339 0.0703103 -0.0630786 0.0686904 -0.0621403 0.0685656
internal_weight=30.6043 15.0344 12.8097 15.5699 10.8877 13.9903 8.88545
internal_count=172 75 64 97 55 89 45
is_linear=0
shrinkage=0.05


Tree=16
num_leaves=7
num_cat=0
split_feature=35 105 22 54 1 7
split_gain=39.6835 9.31544 0.190535 0.0492182 0.0145938 0.000218149
threshold=218.13522174298296 -0.012967546190172706 13.579863061056654 660439.99924811732 18.501653521687562 11.500000000000002
decision_type=2 2 2 2 2 2
left_child=1 -1 -2 5 -4 -3
right_child=2 3 4 -5 -6 -7
leaf_value=0.070325552567202965 0.054754577696056239 -0.061285101508891049 0.06733629568612573 -0.070792089991516663 0.071294212221697281 -0.061718135000759067
leaf_weight=1.4384141564369244 2.8956997692584983 4.0562942326068852 4.3969924151897413 1.6192108094692237 4.9520860016345978 10.276968002319336
leaf_count=7 15 27 23 8 25 67
internal_value=-0.00299135 -0.0515405 0.0659616 -0.0625291 0.0694328 -0.0615956
internal_weight=29.6357 17.3909 12.2448 15.9525 9.34908 14.3333
internal_count=172 109 63 102 48 94
is_linear=0
shrinkage=0.05


Tree=17
num_leaves=7
num_cat=0
split_feature=35 128 22 22 2 7
split_gain=37.1062 7.5888 0.190047 0.0353445 0.0124453 2.85893e-05
threshold=218.13522174298296 51.341144796973715 13.579863061056654 15.128544651080837 2.5000000000000004 11.500000000000002
decision_type=2 2 2 2 2 2
left_child=1 3 -2 -1 -4 -5
right_child=2 -3 4 5 -6 -7
leaf_value=-0.067541255041770762 0.053325211857537427 0.053573998473442401 0.069921973087247 -0.060614260238263808 0.066207364937483637 -0.060776213792373572
leaf_weight=2.2312303632497814 2.8264249861240378 1.575139299035073 4.8006497174501401 3.9000830501317969 4.2520436942577362 9.0440009832382202
leaf_count=12 15 8 25 27 23 62
internal_value=-0.00295035 -0.0508866 0.0646435 -0.0617293 0.0681772 -0.0607274
internal_weight=28.6296 16.7505 11.8791 15.1753 9.05269 12.9441
internal_count=172 109 63 101 48 89
is_linear=0
shrinkage=0.05


Tree=18
num_leaves=8
num_cat=0
split_feature=110 35 35 55 7 1 1
split_gain=37.8078 3.58782 0.0501789 0.0435731 0.000535383 2.38125e-05 1.10926e-05
threshold=1.2053983675336397 168.96011113763649 270.76648841354751 -1.0000000180025095e-35 12.500000000000002 18.430748560665631 19.182667135330338
decision_type=2 2 2 2 2 2 2
left_child=1 -1 4 5 -3 -2 -6
right_child=3 2 -4 -5 6 -7 -8
leaf_value=-0.0043937766870866595 -0.060140779451372466 0.066058154872205191 0.074360593759525723 -0.069214946760102938 0.065169074841737326 -0.0599899983423616 0.065051433751970075
leaf_weight=2.0938758999109295 8.691505014896391 1.8362298905849446 1.8028160780668248 1.4639593511819828 4.1074640899896604 3.7474976778030387 3.9125224947929382
leaf_count=11 62 10 9 8 23 27 22
internal_value=-0.00291088 0.0558683 0.0666909 -0.0610556 0.065288 -0.0600954 0.0651117
internal_weight=27.6559 13.7529 11.659 13.903 9.85622 12.439 8.01999
internal_count=172 75 64 97 55 89 45
is_linear=0
shrinkage=0.05


Tree=19
num_leaves=8
num_cat=0
split_feature=110 35 63 55 7 7 9
split_gain=35.4015 3.44133 0.042177 0.0367703 0.000440805 1.98741e-05 9.11532e-06
threshold=1.2053983675336397 168.96011113763649 1.0000000180025095e-35 -1.0000000180025095e-35 12.500000000000002 11.500000000000002 84.500000000000014
decision_type=2 2 2 2 2 2 2
left_child=1 -1 -3 5 -4 -2 -6
right_child=3 2 4 -5 6 -7 -8
leaf_value=-0.0041749552058004801 -0.059408319891529483 0.072765036540077696 0.065033026102442701 -0.068027250701578848 0.064103485650167921 -0.059548883722145063 0.064212044729696868
leaf_weight=2.0934517979621914 3.5987461209297154 1.7515311241149891 1.7735061049461345 1.4162530153989781 3.7753379940986616 8.3477045297622681 3.9638876467943209
leaf_count=11 27 9 10 8 22 62 23
internal_value=-0.0028685 0.0546941 0.0656349 -0.0604096 0.064322 -0.0595065 0.0641591
internal_weight=26.7204 13.3577 11.2643 13.3627 9.51273 11.9465 7.73923
internal_count=172 75 64 97 55 89 45
is_linear=0
shrinkage=0.05


Tree=20
num_leaves=7
num_cat=0
split_feature=35 110 12 17 17 1
split_gain=33.7577 3.24518 0.0547482 0.0196626 6.92913e-05 1.6105e-05
threshold=156.9952603895733 1.0578747810267677 69.913464253089259 1.2663145232389044 0.7117456521379425 18.430748560665631
decision_type=2 2 2 2 2 2
left_child=3 2 -2 5 -4 -1
right_child=1 -3 4 -5 -6 -7
leaf_value=-0.0589968583943868 0.07216453876394556 -0.0034185935684181603 0.063160408046076852 -0.065546357176024125 0.063435029482916808 -0.05886566306376656
leaf_weight=7.8837512731552124 2.1344449967145911 2.0472296923398963 5.1132088899612409 1.2597047388553626 4.1703228205442429 3.3260633945465088
leaf_count=61 11 11 31 7 25 26
internal_value=-0.000344983 0.0545502 0.0649439 -0.0596235 0.0632838 -0.0589579
internal_weight=25.9347 13.4652 11.418 12.4695 9.28353 11.2098
internal_count=172 78 67 94 56 87
is_linear=0
shrinkage=0.05


Tree=21
num_leaves=7
num_cat=0
split_feature=35 110 11 6 18 1
split_gain=31.6452 3.12468 0.0459368 0.0163598 5.74114e-05 1.34886e-05
threshold=156.9952603895733 1.0578747810267677 70.143228241391327 1.0000000180025095e-35 0.25272289907218337 18.430748560665631
decision_type=2 2 2 2 2 2
left_child=3 2 -2 5 -4 -1
right_child=1 -3 4 -5 -6 -7
leaf_value=-0.058481428025486885 0.070734421712309037 -0.0032479784898305345 0.06235491613428943 -0.064563594474292482 0.062609601731230147 -0.058358842227112497
leaf_weight=7.5636735558509827 2.070345774292945 2.0470362603664389 4.925064340233801 1.2160422801971442 4.0179000496864319 3.1906282603740692
leaf_count=61 11 11 31 7 25 26
internal_value=-0.00034321 0.0534792 0.0640231 -0.0590666 0.0624693 -0.0584451
internal_weight=25.0307 13.0603 11.0133 11.9703 8.94296 10.7543
internal_count=172 78 67 94 56 87
is_linear=0
shrinkage=0.05


Tree=22
num_leaves=7
num_cat=0
split_feature=35 110 12 29 17 113
split_gain=29.6826 3.01311 0.0386241 0.0136402 4.76818e-05 1.13134e-05
threshold=156.9952603895733 1.0578747810267677 69.913464253089259 74.56833393339879 0.7117456521379425 -1.0000000180025095e-35
decision_type=2 2 2 2 2 2
left_child=3 2 -2 5 -4 -1
right_child=1 -3 4 -5 -6 -7
leaf_value=-0.057884991672280645 0.069418859185201701 -0.0030858677187519841 0.06160806973691918 -0.063656228142801197 0.061844640156056313 -0.057999642579373817
leaf_weight=3.0592338293790808 2.0057410746812812 2.0468493849039069 4.7402127981185895 1.1728029996156699 3.8680148124694824 7.2530364096164712
leaf_count=26 11 11 31 7 25 61
internal_value=-0.000341349 0.0524588 0.0631703 -0.0585467 0.0617144 -0.0579656
internal_weight=24.1459 12.6608 10.614 11.4851 8.60823 10.3123
internal_count=172 78 67 94 56 87
is_linear=0
shrinkage=0.05


Tree=23
num_leaves=6
num_cat=0
split_feature=110 44 176 16 132
split_gain=28.046 3.17495 0.0767386 0.00802077 3.96881e-05
threshold=1.2053983675336397 45.895584003077666 1.0000000180025095e-35 -1.0000000180025095e-35 -0.076699121135682599
decision_type=2 2 2 2 2
left_child=1 -1 -3 -2 -4
right_child=3 2 4 -5 -6
leaf_value=-0.0035845131113895995 -0.05754886783522354 0.072191080868951416 0.060914516975044367 -0.060359443324371501 0.061134581014876746
leaf_weight=2.1662270277738598 6.9519725441932678 1.8850856423377962 4.5590617805719349 3.9984025806188566 3.7210164368152645
leaf_count=14 61 9 31 32 25
internal_value=-0.000339415 0.0513744 0.0630863 -0.0585751 0.0610134
internal_weight=23.2818 12.3314 10.1652 10.9504 8.28008
internal_count=172 79 65 93 56
is_linear=0
shrinkage=0.05


Tree=24
num_leaves=7
num_cat=0
split_feature=35 110 11 6 17 1
split_gain=26.3793 2.78072 0.0296646 0.0130051 3.31071e-05 1.15626e-05
threshold=156.9952603895733 1.0578747810267677 70.143228241391327 1.0000000180025095e-35 0.7117456521379425 18.430748560665631
decision_type=2 2 2 2 2 2
left_child=3 2 -2 5 -4 -1
right_child=1 -3 4 -5 -6 -7
leaf_value=-0.057126704358543792 0.0672823072581019 -0.0031819987634609994 0.060269521487859058 -0.062771175855286618 0.060474523918998858 -0.057005649779996004
leaf_weight=6.6605505868792534 1.9223997890949229 1.9821474254131306 4.3819444477558136 1.1277308017015464 3.5771905928850174 2.8025665581226349
leaf_count=61 11 11 31 7 25 26
internal_value=-0.000337728 0.0508664 0.061708 -0.0576957 0.0603617 -0.0570909
internal_weight=22.4545 11.8637 9.88153 10.5908 7.95914 9.46312
internal_count=172 78 67 94 56 87
is_linear=0
shrinkage=0.05


Tree=25
num_leaves=8
num_cat=0
split_feature=35 46 35 6 9 7 2
split_gain=28.4441 2.14098 0.0185696 0.0130154 0.000189647 1.00049e-05 8.38579e-06
threshold=156.9952603895733 0.10108368220294121 218.13522174298296 1.0000000180025095e-35 62.000000000000007 11.500000000000002 2.5000000000000004
decision_type=2 2 2 2 2 2 2
left_child=3 2 -2 5 -4 -1 -6
right_child=1 -3 4 -5 6 -7 -8
leaf_value=-0.056617455298510977 0.0658995527778653 0.0011107041568198617 0.060343471990502107 -0.061875113287353602 0.05967575918616766 -0.056730989556243665 0.059780391835726615
leaf_weight=2.683698907494545 1.4433552622795094 1.7548972964286793 1.420285403728484 1.388836711645127 4.8903908282518369 7.0062060654163361 3.1472878009080887
leaf_count=26 8 9 10 9 36 67 23
internal_value=0.0011547 0.0523659 0.060617 -0.0573484 0.0598108 -0.0566995 0.0597167
internal_weight=23.735 12.6562 10.9013 11.0787 9.45796 9.6899 8.03768
internal_count=188 86 77 102 69 93 59
is_linear=0
shrinkage=0.05


Tree=26
num_leaves=7
num_cat=0
split_feature=110 17 52 1 9 1
split_gain=25.1173 5.70283 0.0620482 0.00844816 0.000158327 7.00434e-06
threshold=1.2053983675336397 1.2663145232389044 30.580234646439568 18.430748560665631 62.000000000000007 19.031408984057467
decision_type=2 2 2 2 2 2
left_child=1 2 4 -2 -1 -6
right_child=3 -3 -4 -5 5 -7
leaf_value=0.059737764353356863 -0.056359761200650331 -0.039234294304019972 0.069043268943421957 -0.059401277221418081 0.059212842911449771 0.059115248295122172
leaf_weight=1.3643676042556743 6.707294248044489 1.6288541108369834 1.9636111855506904 3.4612534940242767 3.0217586606740952 4.694870799779892
leaf_count=10 67 11 10 31 23 36
internal_value=0.0011388 0.0481034 0.0609839 -0.0573951 0.0592413 0.0591535
internal_weight=22.842 12.6735 11.0446 10.1685 9.081 7.71663
internal_count=188 90 79 98 69 59
is_linear=0
shrinkage=0.05


Tree=27
num_leaves=8
num_cat=0
split_feature=35 46 14 34 9 16 1
split_gain=25.259 2.00112 0.0137102 0.0102855 0.000132416 9.99402e-06 5.86113e-06
threshold=156.9952603895733 0.10108368220294121 68.680612229684684 -4.6919014084507547 62.000000000000007 -1.0000000180025095e-35 19.031408984057467
decision_type=2 2 2 2 2 2 2
left_child=3 2 -2 5 -4 -1 -6
right_child=1 -3 4 -5 6 -7 -8
leaf_value=-0.056011238550268072 0.064104531407569429 0.00089333074088540913 0.059173086520337918 -0.060736039745251463 0.05868316101682694 -0.055892572434887572 0.058592023724696553
leaf_weight=6.4188693910837165 1.3617028892040242 1.7068231552839268 1.3098968565464 1.3028687536716486 2.8996715247631073 2.45211037993431 4.5047668889164925
leaf_count=67 8 9 10 9 23 26 36
internal_value=0.00112573 0.0509581 0.0594388 -0.0565877 0.0587097 -0.0559784 0.0586277
internal_weight=21.9567 11.7829 10.076 10.1738 8.71434 8.87098 7.40444
internal_count=188 86 77 102 69 93 59
is_linear=0
shrinkage=0.05


Tree=28
num_leaves=7
num_cat=0
split_feature=35 110 21 6 18 1
split_gain=23.7668 1.95974 0.0199612 0.00864991 6.84506e-05 8.44709e-06
threshold=156.9952603895733 1.0578747810267677 37.452119380176974 1.0000000180025095e-35 0.25272289907218337 18.430748560665631
decision_type=2 2 2 2 2 2
left_child=3 2 4 5 -2 -1
right_child=1 -3 -4 -5 -6 -7
leaf_value=-0.055683798341351266 0.058103071598393133 0.0037187442328963359 0.06375894686669141 -0.060104958421649583 0.058411885634501497 -0.055572254853688587
leaf_weight=6.1408121883869171 4.3202113285660726 1.8917603939771641 2.0966655910015106 1.2520088255405433 3.0692331194877625 2.345623642206192
leaf_count=67 36 11 14 9 25 26
internal_value=0.00111128 0.0501863 0.0594531 -0.0562253 0.0582313 -0.055653
internal_weight=21.1163 11.3779 9.48611 9.73844 7.38944 8.48644
internal_count=188 86 75 102 61 93
is_linear=0
shrinkage=0.05


Tree=29
num_leaves=8
num_cat=0
split_feature=35 46 14 6 11 1 1
split_gain=22.3599 2.00789 0.0127679 0.00728411 7.75411e-05 7.1464e-06 3.94653e-06
threshold=156.9952603895733 0.10108368220294121 68.680612229684684 1.0000000180025095e-35 70.143228241391327 18.430748560665631 19.031408984057467
decision_type=2 2 2 2 2 2 2
left_child=3 2 -2 5 -4 -1 -6
right_child=1 -3 4 -5 6 -7 -8
leaf_value=-0.055375953599434383 0.063084406389118886 -0.00080354048581481182 0.058111977977695864 -0.059516905911830981 0.057723679097399144 -0.055271039270806767 0.057645681543733424
leaf_weight=5.872971884906292 1.2996779978275288 1.6866624802350987 1.2010622024536113 1.2024156600236899 2.6657171919941902 2.2430780380964279 4.1412917599081993
leaf_count=67 8 9 10 9 23 26 36
internal_value=0.00109635 0.0493917 0.0584876 -0.055885 0.0577416 -0.055347 0.0576762
internal_weight=20.3129 10.9944 9.30775 9.31847 8.00807 8.11605 6.80701
internal_count=188 86 77 102 69 93 59
is_linear=0
shrinkage=0.05


Tree=30
num_leaves=8
num_cat=0
split_feature=45 105 121 29 1 7 1
split_gain=18.8565 5.75281 0.0541551 0.0255538 0.000999472 5.43064e-05 8.31962e-07
threshold=1.1663998783067082 -0.012967546190172706 0.24614120607552806 69.915270670770425 18.430748560665631 12.500000000000002 19.182667135330338
decision_type=2 2 2 2 2 2 2
left_child=1 -1 -3 -2 -4 -5 -7
right_child=3 2 4 5 -6 6 -8
leaf_value=0.062635989379927856 0.064910718917695884 -0.065443040959650617 -0.055086349504488909 0.057654014153202808 -0.056294238278578324 0.057290465693808482 0.057249111730759222
leaf_weight=1.1188591569662119 1.3637852072715748 1.6410636752843837 5.4475532472133636 1.1513306200504301 2.4978900253772736 2.8875788152217865 2.1012174263596535
leaf_count=7 9 11 65 10 27 26 19
internal_value=-0.00205342 -0.0446522 -0.057174 0.0587196 -0.0554661 0.0573445 0.057273
internal_weight=18.2093 10.7054 9.58651 7.50391 7.94544 6.14013 4.9888
internal_count=174 110 103 64 92 55 45
is_linear=0
shrinkage=0.05


Tree=31
num_leaves=9
num_cat=0
split_feature=35 105 35 29 13 7 1 64
split_gain=17.794 5.43005 0.0560805 0.0216565 0.00458788 4.56919e-05 5.11147e-06 7.00226e-07
threshold=218.13522174298296 -0.012967546190172706 156.9952603895733 69.915270670770425 61.732085270031568 12.500000000000002 18.430748560665631 -1.0000000180025095e-35
decision_type=2 2 2 2 2 2 2 2
left_child=1 -1 4 -2 -3 -5 -6 -7
right_child=3 2 -4 5 6 7 -8 -9
leaf_value=0.061871020358766071 0.064033768614889158 -0.058439888746869922 -0.066613341427012765 0.057225205538366852 -0.054813740995043082 0.056884529205457252 -0.054714590998528156 0.056845764023621674
leaf_weight=1.0771154910326028 1.3145865276455868 0.9823131635785084 1.2561117112636564 1.1031778901815412 5.2069920301437378 2.7658540606498714 1.7323293536901472 2.0125622823834424
leaf_count=7 9 8 8 10 65 26 22 19
internal_value=-0.00203935 -0.0443337 -0.0567981 0.0582319 -0.0552417 0.0569352 -0.054789 0.0568682
internal_weight=17.451 10.2549 9.17775 7.19618 7.92163 5.88159 6.93932 4.77842
internal_count=174 110 103 64 95 55 87 45
is_linear=0
shrinkage=0.05


Tree=32
num_leaves=9
num_cat=0
split_feature=45 105 10 29 10 129 1 1
split_gain=16.7981 5.12721 0.0477637 0.0183708 0.00274435 3.8494e-05 4.33487e-06 5.90287e-07
threshold=1.1663998783067082 -0.012967546190172706 0.9380952380952382 69.915270670770425 0.90833333333333344 -0.23223730950250299 18.430748560665631 19.182667135330338
decision_type=2 2 2 2 2 2 2 2
left_child=1 -1 4 -2 -3 -5 -6 -7
right_child=3 2 -4 5 6 7 -8 -9
leaf_value=0.061160779121610775 0.063216611396578457 -0.057627147785162862 -0.065093189163450291 0.056823351624930886 -0.054556977893690496 0.05650383774456337 -0.054463569276942861 0.056467463408194252
leaf_weight=1.0361793786287332 1.2662259712815274 0.80385210365056803 1.3493914902210233 1.0566083341836918 4.9757644906640053 2.6482383906841287 1.6552454382181165 1.9269087985157964
leaf_count=7 9 7 9 10 65 26 22 19
internal_value=-0.0020259 -0.0440306 -0.0564388 0.0577748 -0.0548681 0.0565513 -0.0545337 0.0564885
internal_weight=16.7184 9.82043 8.78425 6.89798 7.43486 5.63176 6.63101 4.57515
internal_count=174 110 103 64 94 55 87 45
is_linear=0
shrinkage=0.05


Tree=33
num_leaves=9
num_cat=0
split_feature=35 125 35 29 6 7 7 2
split_gain=15.8644 4.84327 0.0412649 0.0155972 0.00326035 3.24679e-05 3.68001e-06 4.98069e-07
threshold=218.13522174298296 38.992357028836842 156.9952603895733 69.915270670770425 1.0000000180025095e-35 12.500000000000002 11.500000000000002 2.5000000000000004
decision_type=2 2 2 2 2 2 2 2
left_child=1 2 4 -2 6 -5 -1 -7
right_child=3 -3 -4 5 -6 7 -8 -9
leaf_value=-0.054226966767119147 0.062454241796827292 0.060500380244335787 -0.06482280334249485 0.05644643363618998 -0.057505511589340863 0.056112381465566845 -0.054315021866910944 0.056146534334144821
leaf_weight=1.5812142342329023 1.2188002690672863 0.9961295425891884 1.1676955595612524 1.0116181522607801 0.90231469273567189 1.844237297773361 4.7536444664001465 2.5347068160772324
leaf_count=22 9 7 8 10 8 19 65 26
internal_value=-0.00201325 -0.0437458 -0.0561008 0.0573461 -0.0546936 0.0561911 -0.054293 0.0561322
internal_weight=16.0104 9.401 8.40487 6.60936 7.23717 5.39056 6.33486 4.37894
internal_count=174 110 103 64 95 55 87 45
is_linear=0
shrinkage=0.05


Tree=34
num_leaves=9
num_cat=0
split_feature=35 105 35 35 6 7 1 2
split_gain=14.9884 4.57678 0.0354003 0.013253 0.00276077 2.74161e-05 3.12689e-06 4.20588e-07
threshold=218.13522174298296 -0.012967546190172706 156.9952603895733 270.76648841354751 1.0000000180025095e-35 12.500000000000002 18.430748560665631 2.5000000000000004
decision_type=2 2 2 2 2 2 2 2
left_child=1 -1 4 5 6 -2 -3 -7
right_child=3 2 -4 -5 -6 7 -8 -9
leaf_value=0.059885497990421546 0.056092637004551298 -0.054086904368652093 -0.064009397106668406 0.061742171290233454 -0.057086932548324143 0.055778851778958617 -0.054003849276887519 0.055810936895069302
leaf_weight=0.95702947676181693 0.96819661557674486 4.5403956249356252 1.1245024055242536 1.1723895594477651 0.86444205045700062 1.7645169198513029 1.5101544409990308 2.4252186566591263
leaf_count=7 10 65 8 9 8 19 22 26
internal_value=-0.00200132 -0.0434773 -0.0557818 0.0569436 -0.0544438 0.0558528 -0.0540662 0.0557974
internal_weight=15.3268 8.99652 8.03949 6.33032 6.91499 5.15793 6.05055 4.18974
internal_count=174 110 103 64 95 55 87 45
is_linear=0
shrinkage=0.05


Tree=35
num_leaves=8
num_cat=0
split_feature=110 26 32 38 92 8 145
split_gain=13.5805 4.73806 0.0575202 0.015645 0.000106904 4.25126e-05 4.6947e-06
threshold=1.2053983675336397 0.23545112781954705 83.243030118030148 0.83352941176469753 -0.097405136791883798 9.5000000000000018 1.0000000180025095e-35
decision_type=2 2 2 2 2 2 2
left_child=1 3 5 -1 -5 -2 -6
right_child=2 -3 -4 4 6 -7 -8
leaf_value=0.061825335775862113 -0.054161703228491766 -0.062102186655460835 -0.068687492816369503 0.055990750276302848 0.055495505433696982 -0.053871729615649025 0.055390145362619263
leaf_weight=1.2028648853302 1.8335596621036527 0.95914064347743977 0.74707996100187291 1.0466501638293255 1.695179760456085 4.0689556673169136 2.8097485527396211
leaf_count=8 27 8 5 11 19 61 32
internal_value=-0.00325225 0.0418888 -0.0556162 0.0566557 0.0555356 -0.0539618 0.0554298
internal_weight=14.3632 7.71358 6.6496 6.75444 5.55158 5.90252 4.50493
internal_count=171 78 93 70 62 88 51
is_linear=0
shrinkage=0.05


Tree=36
num_leaves=8
num_cat=0
split_feature=110 26 32 38 19 1 34
split_gain=12.8415 4.47425 0.049477 0.0131776 9.0548e-05 3.68994e-05 3.9726e-06
threshold=1.2053983675336397 0.23545112781954705 83.243030118030148 0.83352941176469753 0.31766120301135087 18.430748560665631 -12.470862470862455
decision_type=2 2 2 2 2 2 2
left_child=1 3 5 -1 -5 -2 -6
right_child=2 -3 -4 4 6 -7 -8
leaf_value=0.061125560851267746 -0.05366867329912979 -0.061490880468631215 -0.067664142137901465 0.055664882171706821 0.055099726167858777 -0.053945134053636559 0.055198841522997394
leaf_weight=1.1569662094116209 3.8847840875387192 0.92120297253131855 0.72111865878105152 1.0012851506471632 2.6864461824297896 1.750960938632488 1.6209518089890487
leaf_count=8 61 8 5 11 32 27 19
internal_value=-0.00323295 0.041602 -0.0553325 0.0562904 0.0552366 -0.0537546 0.055137
internal_weight=13.7437 7.38685 6.35686 6.46565 5.30868 5.63575 4.3074
internal_count=171 78 93 70 62 88 51
is_linear=0
shrinkage=0.05


Tree=37
num_leaves=8
num_cat=0
split_feature=110 77 32 38 13 1 34
split_gain=12.1464 4.22676 0.0425711 0.0111134 7.6762e-05 3.20187e-05 3.36394e-06
threshold=1.2053983675336397 0.035225340697292856 83.243030118030148 0.83352941176469753 69.383077138497001 18.430748560665631 -12.470862470862455
decision_type=2 2 2 2 2 2 2
left_child=1 -1 5 -3 -5 -2 -6
right_child=2 3 -4 4 6 -7 -8
leaf_value=-0.060912901842778783 -0.053476965637706333 0.060474102630818441 -0.066703799400693986 0.055358470900033069 0.054826359935839224 -0.053740534276979002 0.054919646510606351
leaf_weight=0.8843792751431464 3.7082330919802189 1.112094424664974 0.69557375460863102 0.95759028941392887 2.5678456872701636 1.6717463731765745 1.5495370998978621
leaf_count=8 61 8 5 11 32 27 19
internal_value=-0.00321471 0.0413323 -0.0550638 0.0559472 0.0549552 -0.0535589 0.0548615
internal_weight=13.147 7.07145 6.07555 6.18707 5.07497 5.37998 4.11738
internal_count=171 78 93 70 62 88 51
is_linear=0
shrinkage=0.05


Tree=38
num_leaves=8
num_cat=0
split_feature=110 26 32 38 19 1 7
split_gain=11.4922 3.99441 0.0366378 0.00938383 6.51289e-05 2.77752e-05 2.85154e-06
threshold=1.2053983675336397 0.23545112781954705 83.243030118030148 0.83352941176469753 0.31766120301135087 18.430748560665631 13.500000000000002
decision_type=2 2 2 2 2 2 2
left_child=1 3 5 -1 -5 -2 -6
right_child=2 -3 -4 4 6 -7 -8
leaf_value=0.059866837926535903 -0.053295913303282663 -0.060366032821127583 -0.065801629793117711 0.055070167022106244 0.054568886436808108 -0.053547176488812603 0.054656744964482931
leaf_weight=1.0683147087693212 3.539060439914465 0.84867551177740086 0.67049108445644368 0.91553597897291172 2.4538435861468315 1.5958113297820089 1.4808757528662684
leaf_count=8 61 8 5 11 32 27 19
internal_value=-0.00319747 0.0410784 -0.0548093 0.0556247 0.0546903 -0.053374 0.054602
internal_weight=12.5726 6.76725 5.80536 5.91857 4.85026 5.13487 3.93472
internal_count=171 78 93 70 62 88 51
is_linear=0
shrinkage=0.05


Tree=39
num_leaves=8
num_cat=0
split_feature=110 26 32 38 13 8 2
split_gain=10.8761 3.77613 0.0315375 0.00793217 5.5302e-05 2.40872e-05 2.41885e-06
threshold=1.2053983675336397 0.23545112781954705 83.243030118030148 0.83352941176469753 69.383077138497001 9.5000000000000018 2.5000000000000004
decision_type=2 2 2 2 2 2 2
left_child=1 3 5 -1 -5 -2 -6
right_child=2 -3 -4 4 6 -7 -8
leaf_value=0.059300080633906641 -0.053364373391308978 -0.059848253933604115 -0.064953307751479658 0.054798750589046742 0.054326267743583845 -0.053124854063052819 0.054409052762760229
leaf_weight=1.0256780087947843 1.5230512097477911 0.81409240514039982 0.64590901881456364 0.87508907914161671 2.3443288952112198 3.377024345099926 1.4149030745029452
leaf_count=8 27 8 5 11 32 61 19
internal_value=-0.00318116 0.0408392 -0.0545682 0.0553213 0.0544408 -0.0531993 0.0543574
internal_weight=12.0201 6.47409 5.54598 5.66 4.63432 4.90008 3.75923
internal_count=171 78 93 70 62 88 51
is_linear=0
shrinkage=0.05


Tree=40
num_leaves=8
num_cat=0
split_feature=110 26 80 38 56 8 20
split_gain=10.5613 3.58414 0.0247009 0.00543574 4.53204e-05 2.07764e-05 1.67076e-06
threshold=1.2053983675336397 0.23545112781954705 0.049391255232663127 0.83352941176469753 -55326280.205541514 9.5000000000000018 18.375521228692431
decision_type=2 2 2 2 2 2 2
left_child=1 3 -2 -1 6 -4 -5
right_child=2 -3 5 4 -6 -7 -8
leaf_value=0.058047426204662717 -0.063077668722404792 -0.059357749209530533 -0.0531914941009409 0.054175573030789251 0.054560134682498609 -0.052963177586256252 0.054107348290721891
leaf_weight=1.1650768816471098 0.70576663315296162 0.7806258052587508 1.453360818326473 1.5649539232254026 0.7623393535614017 3.1690652668476105 2.1036173030734062
leaf_count=10 6 8 27 22 10 60 30
internal_value=-0.00240739 0.0410077 -0.0543652 0.0550084 0.0542093 -0.053035 0.0541365
internal_weight=11.7048 6.37661 5.32819 5.59599 4.43091 4.62243 3.66857
internal_count=173 80 93 72 62 87 52
is_linear=0
shrinkage=0.05


Tree=41
num_leaves=8
num_cat=0
split_feature=110 77 32 38 13 1 1
split_gain=10.0001 3.3905 0.0213276 0.00460657 3.85391e-05 1.80085e-05 1.4194e-06
threshold=1.2053983675336397 0.035225340697292856 83.243030118030148 0.83352941176469753 69.383077138497001 18.430748560665631 19.031408984057467
decision_type=2 2 2 2 2 2 2
left_child=1 -1 5 -3 -5 -2 -6
right_child=2 3 -4 4 6 -7 -8
leaf_value=-0.058892836228667179 -0.052810322068512855 0.057597601714611903 -0.062401484387625786 0.054318217599902713 0.053955376032165006 -0.053027947447946248 0.053891027644912028
leaf_weight=0.74826768040657032 3.0230129510164261 1.1166911125183103 0.67843613028526295 0.72830758988857258 1.4945517480373385 1.3866356760263441 2.008851632475853
leaf_count=8 60 10 6 10 22 27 30
internal_value=-0.00239634 0.0407943 -0.0541485 0.0547411 0.0539873 -0.0528788 0.0539185
internal_weight=11.1848 6.09667 5.08808 5.3484 4.23171 4.40965 3.5034
internal_count=173 80 93 72 62 87 52
is_linear=0
shrinkage=0.05


Tree=42
num_leaves=8
num_cat=0
split_feature=116 38 1 38 13 1 1
split_gain=8.88298 3.80496 0.00846203 0.00390731 3.27936e-05 1.20666e-06 1.17928e-06
threshold=-0.21190274816829771 2.3827941176470593 18.501653521687562 0.83352941176469753 69.383077138497001 19.031408984057467 18.430748560665631
decision_type=2 2 2 2 2 2 2
left_child=2 3 6 -2 -5 -6 -1
right_child=1 -3 -4 4 5 -7 -8
leaf_value=-0.052665761104870139 0.057175979935970844 -0.060443474933891121 -0.05887712589302644 0.054090113312705329 0.053747616575311588 0.053686897613483775 -0.052607196534836503
leaf_weight=2.8832725435495377 1.0698637962341306 0.83823349326848973 0.62870854139327992 0.69563524425029744 1.4270180463790894 1.9179606214165688 1.2246912419795988
leaf_count=60 10 8 7 10 22 30 26
internal_value=-0.00238587 0.038294 -0.0534751 0.0544892 0.0537778 0.0537128 -0.0526483
internal_weight=10.6854 5.94871 4.73667 5.11048 4.04061 3.34498 4.10796
internal_count=173 80 93 72 62 52 86
is_linear=0
shrinkage=0.05


Tree=43
num_leaves=8
num_cat=0
split_feature=116 38 1 38 13 20 1
split_gain=8.4161 3.59984 0.00733405 0.00331689 2.79214e-05 1.02669e-06 1.00682e-06
threshold=-0.21190274816829771 2.3827941176470593 18.501653521687562 0.83352941176469753 69.383077138497001 18.375521228692431 18.430748560665631
decision_type=2 2 2 2 2 2 2
left_child=2 3 6 -2 -5 -6 -1
right_child=1 -3 -4 4 5 -7 -8
leaf_value=-0.052528999359024636 0.05678045218120345 -0.059916089986579969 -0.05843835382705842 0.053874932143546023 0.053551512015810467 0.053494187489569425 -0.052473585594814624
leaf_weight=2.7496140450239182 1.0245952904224394 0.80419286340475071 0.60242269933223713 0.66428482532501254 1.3622667640447619 1.830826763063669 1.1678536832332613
leaf_count=60 10 8 7 10 22 30 26
internal_value=-0.00237597 0.038105 -0.0533023 0.0542517 0.05358 0.0535186 -0.0525125
internal_weight=10.2061 5.68617 4.51989 4.88197 3.85738 3.19309 3.91747
internal_count=173 80 93 72 62 52 86
is_linear=0
shrinkage=0.05


Tree=44
num_leaves=8
num_cat=0
split_feature=110 26 80 38 15 10 2
split_gain=8.50332 2.87221 0.0138346 0.00281788 2.37866e-05 1.07714e-05 8.73812e-07
threshold=1.2053983675336397 0.23545112781954705 0.049391255232663127 0.83352941176469753 69.372070678186745 0.92261904761904778 2.5000000000000004
decision_type=2 2 2 2 2 2 2
left_child=1 3 -2 -1 -5 -4 -6
right_child=2 -3 5 4 6 -7 -8
leaf_value=0.056409123424747326 -0.060610859671385922 -0.057630496144126277 -0.052399584442369362 0.053671850764922452 0.053312189685338844 -0.052580308270027534 0.053366322354474097
leaf_weight=0.98087835311889637 0.6020103096961974 0.65710438787937153 2.6218103617429738 0.63421769440174136 1.7473313063383102 1.202686548233032 1.3002111911773682
leaf_count=10 6 8 60 10 30 27 22
internal_value=-0.00236659 0.0402355 -0.0535654 0.0540277 0.0533933 -0.0524564 0.0533353
internal_weight=9.74625 5.31974 4.42651 4.66264 3.68176 3.8245 3.04754
internal_count=173 80 93 72 62 87 52
is_linear=0
shrinkage=0.05


Tree=45
num_leaves=7
num_cat=0
split_feature=110 26 80 38 37 1
split_gain=7.36464 3.12919 0.011106 0.00373654 4.36917e-06 7.02085e-07
threshold=1.2053983675336397 0.23545112781954705 0.065667866417561879 0.83352941176469753 12.379353629980626 18.430748560665631
decision_type=2 2 2 2 2 2
left_child=1 3 -2 -1 -5 -4
right_child=2 -3 5 4 -6 -7
leaf_value=0.056808079797659929 -0.059430950195583268 -0.056644337156563765 -0.052277085677996549 0.053141979845574172 0.053257004073434658 -0.052226906251189177
leaf_weight=0.91762099415063847 0.6425720453262328 0.75228268653154362 2.4163182228803639 1.5013722851872446 1.8341562226414678 0.97970393300056446
leaf_count=9 7 10 58 27 32 24
internal_value=-0.0031723 0.0373561 -0.0534031 0.0539825 0.0532052 -0.0522626
internal_weight=9.04403 5.00543 4.03859 4.25315 3.33553 3.39602
internal_count=167 78 89 68 59 82
is_linear=0
shrinkage=0.05


Tree=46
num_leaves=9
num_cat=0
split_feature=35 105 22 124 11 34 7 1
split_gain=6.8262 2.02329 0.302962 0.00583458 0.00174072 0.000322189 5.99975e-07 4.58044e-08
threshold=218.13522174298296 -0.012967546190172706 8.8561944020333598 -0.077585057977088451 71.866132225744877 -4.6919014084507547 11.500000000000002 19.182667135330338
decision_type=2 2 2 2 2 2 2 2
left_child=1 -1 -2 -3 -4 6 -5 -6
right_child=2 3 4 5 7 -7 -8 -9
leaf_value=0.054877916190791687 0.016031986270886887 -0.057655133852382023 0.055758030628881405 -0.052113589451204506 0.053025867685228795 -0.053464634662022371 -0.052161100205677907 0.05301192909211775
leaf_weight=0.48195568472146977 0.6438238471746448 0.59705599769949902 0.76895961910486255 0.93389841914176974 1.2375767156481743 0.54192485660314593 2.3034546300768852 1.1253478266298771
leaf_count=6 9 7 10 24 23 9 58 21
internal_value=-0.00316077 -0.042354 0.04727 -0.0530619 0.0536917 -0.0523363 -0.0521474 0.0530192
internal_weight=8.634 4.85829 3.77571 4.37633 3.13188 3.77928 3.23735 2.36292
internal_count=167 104 63 98 54 91 82 44
is_linear=0
shrinkage=0.05


Tree=47
num_leaves=8
num_cat=0
split_feature=110 26 1 38 88 1 1
split_gain=6.65478 2.81353 0.00987487 0.00268834 1.74282e-05 5.26015e-07 5.13173e-07
threshold=1.2053983675336397 0.23545112781954705 18.501653521687562 0.83352941176469753 61.560686581955444 19.031408984057467 18.430748560665631
decision_type=2 2 2 2 2 2 2
left_child=1 3 6 -1 5 -5 -2
right_child=2 -3 -4 4 -6 -7 -8
leaf_value=0.056090625802889871 -0.052051267466698171 -0.056006903295179891 -0.059060250202676072 0.052869594379520483 0.053167165051539025 0.052824022592946676 -0.052006260927419536
leaf_weight=0.84146609157323871 2.1956206411123285 0.68935699760913838 0.59764213860034932 1.1806110814213757 0.50323467329144467 1.3656666465103626 0.89013871550559986
leaf_count=9 58 10 7 23 9 27 24
internal_value=-0.00314276 0.0370941 -0.0531776 0.0535887 0.0528983 0.0528452 -0.0520383
internal_weight=8.26374 4.58034 3.6834 3.89098 3.04951 2.54628 3.08576
internal_count=167 78 89 68 59 50 82
is_linear=0
shrinkage=0.05


Tree=48
num_leaves=8
num_cat=0
split_feature=110 26 6 38 20 34 10
split_gain=6.30938 2.66584 0.00854769 0.00228809 1.48681e-05 4.4878e-07 4.39008e-07
threshold=1.2053983675336397 0.23545112781954705 1.0000000180025095e-35 0.83352941176469753 27.47909274065621 -12.470862470862455 0.92261904761904778
decision_type=2 2 2 2 2 2 2
left_child=1 3 6 -1 5 -5 -2
right_child=2 -3 -4 4 -6 -7 -8
leaf_value=0.055760954216573635 -0.051947229753596252 -0.05571379406293972 -0.058611512816984707 0.052678724665162838 0.053003210910804226 0.052721825237857706 -0.051904589466424449
leaf_weight=0.80503975600004229 2.0926161780953416 0.6590992584824561 0.57273710519075383 1.3025548048317439 0.48013492301106442 1.1261001415550707 0.84834283590316761
leaf_count=9 58 10 7 27 9 23 24
internal_value=-0.00313226 0.0369557 -0.0530232 0.0534019 0.052749 0.0526987 -0.0519349
internal_weight=7.88663 4.37293 3.5137 3.71383 2.90879 2.42865 2.94096
internal_count=167 78 89 68 59 50 82
is_linear=0
shrinkage=0.05


Tree=49
num_leaves=8
num_cat=0
split_feature=116 38 1 38 20 1 64
split_gain=5.9446 2.56896 0.00272135 0.0019486 1.26907e-05 3.82978e-07 3.75566e-07
threshold=-0.21190274816829771 2.3827941176470593 18.501653521687562 0.83352941176469753 27.47909274065621 19.031408984057467 -1.0000000180025095e-35
decision_type=2 2 2 2 2 2 2
left_child=2 3 6 -2 5 -5 -1
right_child=1 -3 -4 4 -6 -7 -8
leaf_value=-0.051808253368031479 0.055450802981446556 -0.057715560109781988 -0.055635717417143196 0.052582041825089215 0.052848215563165296 0.052541270689551202 -0.051848654067073591
leaf_weight=0.80843129754066501 0.76995225250721011 0.61190389469265927 0.56681507825851429 1.0739553011953837 0.45802411064505566 1.2421879917383192 1.9942469969391825
leaf_count=24 9 8 9 23 9 27 58
internal_value=-0.00312229 0.0368912 -0.052476 0.0532254 0.0526077 0.0525602 -0.051837
internal_weight=7.52552 4.15602 3.36949 3.54412 2.77417 2.31614 2.80268
internal_count=167 76 91 68 59 50 82
is_linear=0
shrinkage=0.05


Tree=50
num_leaves=8
num_cat=0
split_feature=116 38 6 38 13 2 10
split_gain=5.85625 2.34953 0.00250211 0.00169053 1.70663e-05 3.72782e-07 2.94372e-07
threshold=-0.21190274816829771 2.3827941176470593 1.0000000180025095e-35 0.83352941176469753 69.383077138497001 2.5000000000000004 0.92261904761904778
decision_type=2 2 2 2 2 2 2
left_child=2 3 6 -2 -5 -6 -1
right_child=1 -3 -4 4 5 -7 -8
leaf_value=-0.051755249785874397 0.055274563816817723 -0.057744602951389438 -0.055624039498993971 0.052725948756123256 0.05240866046873241 0.052449781421907961 -0.051716958992381518
leaf_weight=1.96585200726986 0.66695174574852023 0.55261874943971623 0.49356166273355473 0.58675368130207095 1.446249417960644 0.89051201939582814 0.67403599619865406
leaf_count=60 8 7 8 12 33 20 21
internal_value=-0.000777998 0.0382312 -0.0523564 0.0530031 0.0524849 0.0524243 -0.0517455
internal_weight=7.27654 4.14309 3.13345 3.59047 2.92352 2.33676 2.63989
internal_count=169 80 89 73 65 53 81
is_linear=0
shrinkage=0.05


Tree=51
num_leaves=8
num_cat=0
split_feature=110 26 17 38 13 1 20
split_gain=5.64184 2.13644 0.00829046 0.00144105 1.45795e-05 4.83525e-06 3.18374e-07
threshold=1.2053983675336397 0.23545112781954705 1.6968883132285664 0.83352941176469753 69.383077138497001 18.430748560665631 18.375521228692431
decision_type=2 2 2 2 2 2 2
left_child=1 3 5 -1 -5 -2 -6
right_child=2 -3 -4 4 6 -7 -8
leaf_value=0.054992734904746376 -0.051666715194294638 -0.055121565391614114 -0.060124630728255649 0.052585988286784326 0.052324601642089644 -0.051814528010669672 0.052285682826348739
leaf_weight=0.63759315013885576 1.8730996549129493 0.52892056852579106 0.32897143065929402 0.55958536267280612 0.84905661642551455 0.78519258834421624 1.3788690231740472
leaf_count=8 60 9 3 12 20 24 33
internal_value=-0.000775722 0.0384054 -0.052637 0.0528483 0.0523578 -0.0517104 0.0523005
internal_weight=6.94129 3.95402 2.98726 3.4251 2.78751 2.65829 2.22793
internal_count=169 82 87 73 65 84 53
is_linear=0
shrinkage=0.05


Tree=52
num_leaves=8
num_cat=0
split_feature=116 38 1 38 56 1 1
split_gain=5.27038 2.11036 0.0018761 0.00122902 1.24602e-05 2.72087e-07 2.19398e-07
threshold=-0.21190274816829771 2.3827941176470593 18.501653521687562 0.83352941176469753 -55326280.205541514 19.031408984057467 18.430748560665631
decision_type=2 2 2 2 2 2 2
left_child=2 3 6 -2 5 -5 -1
right_child=1 -3 -4 4 -6 -7 -8
leaf_value=-0.051582787823541289 0.054727215274717869 -0.056971721724076878 -0.05508946886032428 0.052206092977497766 0.052453554199483804 0.05216924404511443 -0.051548089389378486
leaf_weight=1.7845732346177108 0.60936543345451433 0.50664797425270069 0.45090993493795384 0.80943465232849221 0.53360404819250051 1.314474243670702 0.61173134297132481
leaf_count=60 8 7 8 20 12 33 21
internal_value=-0.000773477 0.0379767 -0.0521307 0.0527019 0.0522376 0.0521833 -0.0515739
internal_weight=6.62074 3.77353 2.84721 3.26688 2.65751 2.12391 2.3963
internal_count=169 80 89 73 65 53 81
is_linear=0
shrinkage=0.05


Tree=53
num_leaves=8
num_cat=0
split_feature=110 26 121 38 56 1 1
split_gain=5.07825 1.92062 0.0061246 0.00104869 1.06521e-05 3.42556e-06 2.32543e-07
threshold=1.2053983675336397 0.23545112781954705 0.24614120607552806 0.83352941176469753 -55326280.205541514 18.430748560665631 19.031408984057467
decision_type=2 2 2 2 2 2 2
left_child=1 3 -2 -1 6 -4 -5
right_child=2 -3 5 4 -6 -7 -8
leaf_value=0.05447692351514908 -0.059078498132212477 -0.054632596142558401 -0.051503215118082202 0.052093878649477093 0.052328208114770458 -0.051633827560995042 0.052058986543208063
leaf_weight=0.58224211633205492 0.30346723273396525 0.48257683590054501 1.7000951617956164 0.77157475054264191 0.50876500457525198 0.71233483403921116 1.2529479749500749
leaf_count=8 3 9 60 20 12 24 33
internal_value=-0.000771414 0.0381864 -0.0523839 0.0525635 0.0521237 -0.0515418 0.0520723
internal_weight=6.314 3.59811 2.7159 3.11553 2.53329 2.41243 2.02452
internal_count=169 82 87 73 65 84 53
is_linear=0
shrinkage=0.05


Tree=54
num_leaves=8
num_cat=0
split_feature=116 38 1 38 19 145 1
split_gain=4.74559 1.89692 0.00140535 0.000895238 9.11003e-06 1.98811e-07 1.63375e-07
threshold=-0.21190274816829771 2.3827941176470593 18.501653521687562 0.83352941176469753 0.31766120301135087 1.0000000180025095e-35 18.430748560665631
decision_type=2 2 2 2 2 2 2
left_child=2 3 6 -2 -5 -6 -1
right_child=1 -3 -4 4 5 -7 -8
leaf_value=-0.051427753382913999 0.054240877981397054 -0.056279287275567781 -0.054605888933685946 0.052209542723755289 0.051987590457960878 0.051954544107893387 -0.051396319368448157
leaf_weight=1.6194935515522964 0.55619508028030473 0.46393416449427594 0.41160031408071507 0.4850244298577312 0.73540724813938241 1.1941763721406446 0.55502240359783162
leaf_count=60 8 7 8 12 20 33 21
internal_value=-0.000769385 0.0377486 -0.0519268 0.0524324 0.0520158 0.0519671 -0.0514197
internal_weight=6.02085 3.43474 2.58612 2.9708 2.41461 1.92958 2.17452
internal_count=169 80 89 73 65 53 81
is_linear=0
shrinkage=0.05


Tree=55
num_leaves=8
num_cat=0
split_feature=110 77 17 38 56 17 1
split_gain=4.8359 1.85432 0.00457907 0.000754968 4.95472e-06 3.00866e-06 1.41981e-07
threshold=1.2053983675336397 0.035225340697292856 1.6968883132285664 0.83352941176469753 -55326280.205541514 -1.0000000180025095e-35 19.031408984057467
decision_type=2 2 2 2 2 2 2
left_child=1 -1 5 -3 6 -2 -5
right_child=2 3 -4 4 -6 -7 -8
leaf_value=-0.054021074025398734 -0.051356185992960601 0.053796053162681129 -0.058147833808520011 0.051886898056425004 0.052078420250413676 -0.051471838195806689 0.051859035367766274
leaf_weight=0.47749912366271052 1.6197326816618447 0.69496564567089114 0.27942409738898266 0.84103712439537126 0.34416460990905706 0.86141951382160198 1.0018788278102873
leaf_count=10 63 11 3 24 9 32 29
internal_value=-0.00304893 0.0372402 -0.0520797 0.0523604 0.0519043 -0.0513963 0.0518718
internal_weight=6.12012 3.35955 2.76058 2.88205 2.18708 2.48115 1.84292
internal_count=181 83 98 73 62 95 53
is_linear=0
shrinkage=0.05


Tree=56
num_leaves=8
num_cat=0
split_feature=110 26 17 38 20 1 1
split_gain=4.58983 1.75932 0.00392449 0.000645251 4.24e-06 2.58665e-06 1.21603e-07
threshold=1.2053983675336397 0.23545112781954705 1.6968883132285664 0.83352941176469753 27.47909274065621 18.430748560665631 19.031408984057467
decision_type=2 2 2 2 2 2 2
left_child=1 3 5 -1 6 -2 -5
right_child=2 -3 -4 4 -6 -7 -8
leaf_value=0.053598323417224009 -0.051288293057052806 -0.053825548001854163 -0.057713565704621418 0.051791495461188525 0.051972967769781865 -0.051398168049731664 0.051765080515153689
leaf_weight=0.66344888880848962 1.5427254717797048 0.45581950619816769 0.26774573326110829 0.80145576596260093 0.32802698761224736 0.82055243849754322 0.95470265671610832
leaf_count=11 63 10 3 24 9 32 29
internal_value=-0.00304206 0.0371482 -0.0519764 0.0522403 0.051808 -0.0513264 0.0517771
internal_weight=5.83448 3.20345 2.63102 2.74763 2.08419 2.36328 1.75616
internal_count=181 83 98 73 62 95 53
is_linear=0
shrinkage=0.05


Tree=57
num_leaves=8
num_cat=0
split_feature=110 26 17 38 20 1 1
split_gain=4.35675 1.66939 0.00336424 0.000551682 3.62937e-06 2.22368e-06 1.04009e-07
threshold=1.2053983675336397 0.23545112781954705 1.6968883132285664 0.83352941176469753 27.47909274065621 18.430748560665631 19.031408984057467
decision_type=2 2 2 2 2 2 2
left_child=1 3 5 -1 6 -2 -5
right_child=2 -3 -4 4 -6 -7 -8
leaf_value=0.05341152014729942 -0.051223886640646088 -0.053639556188301768 -0.057304264978635659 0.05170106897140328 0.051873061995758279 -0.051328272855870709 0.051676042278135118
leaf_weight=0.63324352353811342 1.4692844264209277 0.43505442515015591 0.25646066293120373 0.76366800069808938 0.31261470168828953 0.78156970441341389 0.90966649353504181
leaf_count=11 63 10 3 24 9 32 29
internal_value=-0.00303553 0.0370609 -0.0518784 0.0521264 0.0517167 -0.0512601 0.0516875
internal_weight=5.56156 3.05425 2.50731 2.61919 1.98595 2.25085 1.67333
internal_count=181 83 98 73 62 95 53
is_linear=0
shrinkage=0.05


Tree=58
num_leaves=8
num_cat=0
split_feature=110 26 17 38 56 1 1
split_gain=4.13595 1.58426 0.00288459 0.000471844 3.10755e-06 1.91206e-06 8.90795e-08
threshold=1.2053983675336397 0.23545112781954705 1.6968883132285664 0.83352941176469753 -55326280.205541514 18.430748560665631 19.031408984057467
decision_type=2 2 2 2 2 2 2
left_child=1 3 5 -1 6 -2 -5
right_child=2 -3 -4 4 -6 -7 -8
leaf_value=0.053234969491626739 -0.051162770511871396 -0.053462617731417361 -0.056918311510448974 0.051615360219098787 0.051778392599476697 -0.051261956214496023 0.051591631981962982
leaf_weight=0.60430703312158662 1.3992539439350373 0.41517161205410946 0.2455652430653571 0.72759935259819053 0.29789825528860037 0.74438960105180729 0.86668157763779163
leaf_count=11 63 10 3 24 9 32 29
internal_value=-0.00302934 0.0369781 -0.0517852 0.0520186 0.0516302 -0.0511972 0.0516025
internal_weight=5.30087 2.91166 2.38921 2.49649 1.89218 2.14364 1.59428
internal_count=181 83 98 73 62 95 53
is_linear=0
shrinkage=0.05


Tree=59
num_leaves=8
num_cat=0
split_feature=110 26 17 38 56 1 1
split_gain=3.92672 1.50365 0.00247382 0.000403692 2.66141e-06 1.64398e-06 7.62718e-08
threshold=1.2053983675336397 0.23545112781954705 1.6968883132285664 0.83352941176469753 -55326280.205541514 18.430748560665631 19.031408984057467
decision_type=2 2 2 2 2 2 2
left_child=1 3 5 -1 6 -2 -5
right_child=2 -3 -4 4 -6 -7 -8
leaf_value=0.053068056314513529 -0.051104775929916239 -0.053294293668745232 -0.056554205560345322 0.051534097207922229 0.051688665090468405 -0.051199019247993728 0.05151160228812246
leaf_weight=0.57659696415066797 1.3324838206171996 0.39613929763436306 0.23505469411611546 0.69317771494388603 0.28384907543659155 0.7089337334036826 0.82566149719059467
leaf_count=11 63 10 3 24 9 32 29
internal_value=-0.00302346 0.0368996 -0.0516968 0.0519165 0.0515481 -0.0511375 0.0515219
internal_weight=5.0519 2.77542 2.27647 2.37929 1.80269 2.04142 1.51884
internal_count=181 83 98 73 62 95 53
is_linear=0
shrinkage=0.05


Tree=60
num_leaves=8
num_cat=0
split_feature=116 17 1 14 9 1 7
split_gain=3.59304 0.863583 0.000693137 0.000344154 1.59079e-06 1.17253e-07 7.76869e-08
threshold=-0.21190274816829771 0.97255238166612668 18.501653521687562 68.680612229684684 62.000000000000007 19.031408984057467 11.500000000000002
decision_type=2 2 2 2 2 2 2
left_child=2 3 6 -2 -5 -6 -1
right_child=1 -3 -4 4 5 -7 -8
leaf_value=-0.051026121140058701 0.052957261527123205 -0.032383754170550193 -0.053847371063583262 0.051573950728892773 0.051457040901508988 0.051427114498748275 -0.051049736582054431
leaf_weight=0.49263280816376176 0.50711833685636598 0.35593433491885651 0.25353863462805737 0.26628233492374476 0.57779183797538192 0.75499115325510502 1.1882693227380514
leaf_count=25 10 10 6 9 21 28 59
internal_value=-0.000416133 0.0396491 -0.0514104 0.0518223 0.0514624 0.0514401 -0.0510428
internal_weight=4.39656 2.46212 1.93444 2.10618 1.59907 1.33278 1.6809
internal_count=168 78 90 68 58 49 84
is_linear=0
shrinkage=0.05


end of trees

feature_importances:
avg_daily_turnover_log=67
t7_rel_volume=34
t0_ao=30
t0_cci=29
n_signals_fired_in_last_30d=19
t0_linreg_slope=15
is_earnings_window=14
t0_macd_line=14
t14_cmf=11
days_in_current_stage=9
t0_ad_line=9
t0_ema_50=8
t0_minus_di=8
t0_adx=7
t0_rsi=7
t7_macd_histogram=7
earliest_signal_lead_days=6
signal_acceleration=6
t0_ema_100=6
t0_macd_histogram=6
t0_stoch_d=6
t0_ema_8=5
t0_williams_r=5
t0_bb_pct_b=4
t0_bb_bandwidth=4
t0_eom=4
n_signals_fired_in_last_7d=3
t0_ema_21=3
t0_atr=3
macd_histogram_velocity=3
cmf_velocity=3
t1_bb_bandwidth=3
t0_ema_ribbon_aligned=2
t0_macd_signal=2
t0_obv_slope_60=2
t0_klinger=2
t3_rel_volume=2
t14_macd_histogram=2
t30_macd_histogram=2
t60_cmf=2
stage_before_dormant=2
t0_ema_200=1
t0_plus_di=1
t0_tsi=1
t0_bb_lower=1
t0_hist_vol_30d=1
t0_obv_slope_20=1
t1_rsi=1
t1_cmf=1
t30_cmf=1
t30_adx=1
t60_rsi=1
t60_macd_histogram=1
dow_1.0=1

parameters:
[boosting: gbdt]
[objective: binary]
[metric: binary_logloss]
[tree_learner: serial]
[device_type: cpu]
[data_sample_strategy: bagging]
[data: ]
[valid: ]
[num_iterations: 61]
[learning_rate: 0.05]
[num_leaves: 31]
[num_threads: 0]
[seed: 42]
[deterministic: 1]
[force_col_wise: 0]
[force_row_wise: 0]
[histogram_pool_size: -1]
[max_depth: -1]
[min_data_in_leaf: 10]
[min_sum_hessian_in_leaf: 0.001]
[bagging_fraction: 0.8]
[pos_bagging_fraction: 1]
[neg_bagging_fraction: 1]
[bagging_freq: 5]
[bagging_seed: 42]
[bagging_by_query: 0]
[feature_fraction: 0.8]
[feature_fraction_bynode: 1]
[feature_fraction_seed: 42]
[extra_trees: 0]
[extra_seed: 12879]
[early_stopping_round: 0]
[early_stopping_min_delta: 0]
[first_metric_only: 0]
[max_delta_step: 0]
[lambda_l1: 0]
[lambda_l2: 0]
[linear_lambda: 0]
[min_gain_to_split: 0]
[drop_rate: 0.1]
[max_drop: 50]
[skip_drop: 0.5]
[xgboost_dart_mode: 0]
[uniform_drop: 0]
[drop_seed: 17869]
[top_rate: 0.2]
[other_rate: 0.1]
[min_data_per_group: 100]
[max_cat_threshold: 32]
[cat_l2: 10]
[cat_smooth: 10]
[max_cat_to_onehot: 4]
[top_k: 20]
[monotone_constraints: ]
[monotone_constraints_method: basic]
[monotone_penalty: 0]
[feature_contri: ]
[forcedsplits_filename: ]
[refit_decay_rate: 0.9]
[cegb_tradeoff: 1]
[cegb_penalty_split: 0]
[cegb_penalty_feature_lazy: ]
[cegb_penalty_feature_coupled: ]
[path_smooth: 0]
[interaction_constraints: ]
[verbosity: -1]
[saved_feature_importance_type: 0]
[use_quantized_grad: 0]
[num_grad_quant_bins: 4]
[quant_train_renew_leaf: 0]
[stochastic_rounding: 1]
[linear_tree: 0]
[max_bin: 255]
[max_bin_by_feature: ]
[min_data_in_bin: 3]
[bin_construct_sample_cnt: 200000]
[data_random_seed: 42]
[is_enable_sparse: 1]
[enable_bundle: 1]
[use_missing: 1]
[zero_as_missing: 0]
[feature_pre_filter: 1]
[pre_partition: 0]
[two_round: 0]
[header: 0]
[label_column: ]
[weight_column: ]
[group_column: ]
[ignore_column: ]
[categorical_feature: ]
[forcedbins_filename: ]
[precise_float_parser: 0]
[parser_config_file: ]
[objective_seed: 16083]
[num_class: 1]
[is_unbalance: 0]
[scale_pos_weight: 1]
[sigmoid: 1]
[boost_from_average: 1]
[reg_sqrt: 0]
[alpha: 0.9]
[fair_c: 1]
[poisson_max_delta_step: 0.7]
[tweedie_variance_power: 1.5]
[lambdarank_truncation_level: 30]
[lambdarank_norm: 1]
[label_gain: ]
[lambdarank_position_bias_regularization: 0]
[eval_at: ]
[multi_error_top_k: 1]
[auc_mu_weights: ]
[num_machines: 1]
[local_listen_port: 12400]
[time_out: 120]
[machine_list_filename: ]
[machines: ]
[gpu_platform_id: -1]
[gpu_device_id: -1]
[gpu_use_dp: 0]
[num_gpu: 1]

end of parameters

pandas_categorical:[]
